{"learner":{"attributes":{"scikit_learn":"{\"_estimator_type\": \"regressor\"}"},"feature_names":["pm25_lag_1","pm25_lag_2","pm25_lag_3","temperature_2m_mean","precipitation_sum","wind_speed_10m_max","wind_direction_10m_dominant"],"feature_types":["float","float","float","float","float","float","float"],"gradient_booster":{"model":{"gbtree_model_param":{"num_parallel_tree":"1","num_trees":"100"},"iteration_indptr":[0,1,2,3,4,5,6,7,8,9,10,11,12,13,14,15,16,17,18,19,20,21,22,23,24,25,26,27,28,29,30,31,32,33,34,35,36,37,38,39,40,41,42,43,44,45,46,47,48,49,50,51,52,53,54,55,56,57,58,59,60,61,62,63,64,65,66,67,68,69,70,71,72,73,74,75,76,77,78,79,80,81,82,83,84,85,86,87,88,89,90,91,92,93,94,95,96,97,98,99,100],"tree_info":[0,0,0,0,0,0,0,0,0,0,0,0,0,0,0,0,0,0,0,0,0,0,0,0,0,0,0,0,0,0,0,0,0,0,0,0,0,0,0,0,0,0,0,0,0,0,0,0,0,0,0,0,0,0,0,0,0,0,0,0,0,0,0,0,0,0,0,0,0,0,0,0,0,0,0,0,0,0,0,0,0,0,0,0,0,0,0,0,0,0,0,0,0,0,0,0,0,0,0,0],"trees":[{"base_weights":[1.7047293E-8,-2.0229223E0,2.4573755E1,-3.1226466E0,3.3924625E0,1.7962759E1,4.4099937E1,-3.6125455E0,-1.237832E0,1.6422898E0,7.3221893E0,1.2686816E1,2.1803923E1,4.9320587E1,1.9010014E1,-1.0862936E0,-1.6652923E0,-7.29993E-1,-1.7541213E0,2.8950553E0,-2.0533712E-1,5.378011E0,1.0753003E1,4.7626324E0,1.3461445E1,4.0738466E-3,2.2149586E1,5.716203E1,3.6275932E1,2.111185E1,6.445739E-1,-6.210818E-1,-1.3056822E-1,-1.633127E0,-1.808126E-1,-1.1994445E0,-1.9650879E0,4.5172014E0,1.0658941E0,-3.2745916E-1,1.5445739E0,8.207273E0,3.3751285E0,1.1805194E1,7.1524434E0,2.1557271E0,2.669574E0,1.3841179E1,1.0594319E0,1.4594319E0,2.2636549E1,3.344574E0,1.7802326E1,3.773584E1,2.594574E0,3.4418612E0,7.6418614E0,-6.14662E-1,-2.9073822E-1,-1.6600502E-1,2.3907098E-1,-4.0436813E-1,7.731815E-2,-5.550223E-1,-7.5754905E-1,1.5810524E0,3.8706574E-1,9.632801E-1,1.2541544E-1,1.1455169E-3,-4.4875482E-1,1.7035285E0,3.8613794E0,2.4746983E0,6.6104937E-1,3.8204405E0,1.7177182E0,4.5943177E-1,2.5098794E0,7.007386E-2,7.733608E-1,4.212025E0,8.2307386E-1,7.0475273E0,3.8049839E0,7.404984E0,1.3619269E1],"categories":[],"categories_nodes":[],"categories_segments":[],"categories_sizes":[],"default_left":[0,0,0,0,0,0,0,0,0,0,0,0,0,0,0,0,0,0,0,0,0,0,0,0,0,0,0,0,0,0,0,0,0,0,0,0,0,0,0,0,0,0,0,0,0,0,0,0,0,0,0,0,0,0,0,0,0,0,0,0,0,0,0,0,0,0,0,0,0,0,0,0,0,0,0,0,0,0,0,0,0,0,0,0,0,0,0],"id":0,"left_children":[1,3,5,7,9,11,13,15,17,19,21,23,25,27,29,-1,31,33,35,37,39,41,43,45,47,-1,49,51,53,55,-1,-1,-1,57,59,61,63,65,67,69,-1,71,73,75,77,79,-1,81,-1,-1,83,-1,-1,85,-1,-1,-1,-1,-1,-1,-1,-1,-1,-1,-1,-1,-1,-1,-1,-1,-1,-1,-1,-1,-1,-1,-1,-1,-1,-1,-1,-1,-1,-1,-1,-1,-1],"loss_changes":[9.738345E4,1.078992E4,1.8441875E4,1.3851982E3,2.092551E3,2.0134102E3,3.9088906E3,1.3577148E1,8.0523346E1,4.9361365E2,5.6916113E2,2.4280322E2,4.817539E2,9.950625E2,2.3815918E2,0E0,2.5860271E0,7.856608E1,1.5663818E1,3.7201514E2,5.856927E1,3.2363354E2,4.0583984E1,4.5509216E1,1.208042E2,0E0,4.2015625E2,1.0429453E3,2.3830469E2,2.003662E0,0E0,0E0,0E0,1.4577698E1,3.6864544E1,1.0081604E1,2.4140625E0,1.5599902E2,8.342619E1,3.3293E1,0E0,2.2177417E2,1.9881744E2,6.2720215E1,5.5416443E1,3.4549599E0,0E0,5.639746E1,0E0,0E0,2.2128516E2,0E0,0E0,1.7950781E2,0E0,0E0,0E0,0E0,0E0,0E0,0E0,0E0,0E0,0E0,0E0,0E0,0E0,0E0,0E0,0E0,0E0,0E0,0E0,0E0,0E0,0E0,0E0,0E0,0E0,0E0,0E0,0E0,0E0,0E0,0E0,0E0,0E0],"parents":[2147483647,0,0,1,1,2,2,3,3,4,4,5,5,6,6,7,7,8,8,9,9,10,10,11,11,12,12,13,13,14,14,16,16,17,17,18,18,19,19,20,20,21,21,22,22,23,23,24,24,26,26,27,27,28,28,29,29,33,33,34,34,35,35,36,36,37,37,38,38,39,39,41,41,42,42,43,43,44,44,45,45,47,47,50,50,53,53],"right_children":[2,4,6,8,10,12,14,16,18,20,22,24,26,28,30,-1,32,34,36,38,40,42,44,46,48,-1,50,52,54,56,-1,-1,-1,58,60,62,64,66,68,70,-1,72,74,76,78,80,-1,82,-1,-1,84,-1,-1,86,-1,-1,-1,-1,-1,-1,-1,-1,-1,-1,-1,-1,-1,-1,-1,-1,-1,-1,-1,-1,-1,-1,-1,-1,-1,-1,-1,-1,-1,-1,-1,-1,-1],"split_conditions":[1.58E1,2.78E0,3.9E1,7E-1,8.77E0,1.8E1,2.9239218E2,1.63E0,2.4313919E2,2.4416086E2,1.217E1,2.5E0,7.73E0,1E0,5E1,-1.0862936E0,6E-1,2E-1,2.0991426E1,9.768084E0,1.8E1,1.9471759E2,1.6E0,2.4555606E2,3.2E1,4.0738466E-3,2.757721E0,-3.9735835E0,5.9E1,2.6E1,6.445739E-1,-6.210818E-1,-1.3056822E-1,1.84E0,4.37E0,2.0364674E1,3.215543E2,3.2385994E1,1.7114204E1,3.4776817E1,1.5445739E0,1.213E1,1.7654688E1,2.11E1,8.97E0,1.627E1,2.669574E0,3.5623727E2,1.0594319E0,1.4594319E0,2.9781305E2,3.344574E0,1.7802326E1,3.6000001E0,2.594574E0,3.4418612E0,7.6418614E0,-6.14662E-1,-2.9073822E-1,-1.6600502E-1,2.3907098E-1,-4.0436813E-1,7.731815E-2,-5.550223E-1,-7.5754905E-1,1.5810524E0,3.8706574E-1,9.632801E-1,1.2541544E-1,1.1455169E-3,-4.4875482E-1,1.7035285E0,3.8613794E0,2.4746983E0,6.6104937E-1,3.8204405E0,1.7177182E0,4.5943177E-1,2.5098794E0,7.007386E-2,7.733608E-1,4.212025E0,8.2307386E-1,7.0475273E0,3.8049839E0,7.404984E0,1.3619269E1],"split_indices":[0,0,0,0,0,2,6,1,6,6,2,2,1,4,1,0,0,4,5,3,1,6,4,6,1,0,6,3,2,1,0,0,0,0,2,5,6,5,5,5,0,0,5,1,1,0,0,6,0,0,6,0,0,4,0,0,0,0,0,0,0,0,0,0,0,0,0,0,0,0,0,0,0,0,0,0,0,0,0,0,0,0,0,0,0,0,0],"split_type":[0,0,0,0,0,0,0,0,0,0,0,0,0,0,0,0,0,0,0,0,0,0,0,0,0,0,0,0,0,0,0,0,0,0,0,0,0,0,0,0,0,0,0,0,0,0,0,0,0,0,0,0,0,0,0,0,0,0,0,0,0,0,0,0,0,0,0,0,0,0,0,0,0,0,0,0,0,0,0,0,0,0,0,0,0,0,0],"sum_hessian":[1.957E3,1.809E3,1.48E2,1.504E3,3.05E2,1.12E2,3.6E1,1.193E3,3.11E2,2.12E2,9.3E1,4.9E1,6.3E1,2.9E1,7E0,1.187E3,6E0,1.58E2,1.53E2,1.26E2,8.6E1,6.1E1,3.2E1,5E0,4.4E1,1E0,6.2E1,1.6E1,1.3E1,6E0,1E0,4E0,2E0,5.9E1,9.9E1,4.4E1,1.09E2,6.6E1,6E1,8.5E1,1E0,2.4E1,3.7E1,2.3E1,9E0,4E0,1E0,4.2E1,2E0,2E0,6E1,1E0,1.5E1,1.2E1,1E0,3E0,3E0,3.5E1,2.4E1,7.2E1,2.7E1,4E1,4E0,9.4E1,1.5E1,5.3E1,1.3E1,1.3E1,4.7E1,6.7E1,1.8E1,1.7E1,7E0,6E0,3.1E1,1.9E1,4E0,2E0,7E0,1E0,3E0,4.1E1,1E0,5.4E1,6E0,6E0,6E0],"tree_param":{"num_deleted":"0","num_feature":"7","num_nodes":"87","size_leaf_vector":"1"}},{"base_weights":[4.8758667E-2,-1.3208115E0,1.8851664E1,-1.970341E0,4.416816E0,1.3490606E1,3.2396824E1,-2.498925E0,-3.720175E-1,2.73304E0,6.2608733E0,1.0067493E1,1.6775295E1,3.7467266E1,1.700602E1,-2.5357716E0,-1.4929931E0,-7.427331E-1,5.8218354E-1,2.3576784E0,2.795491E0,6.7498846E0,-3.6195332E-1,8.241671E0,1.4630092E1,6.5248547E0,1.808429E1,4.5030445E1,2.8414696E1,1.8639814E1,6.435961E0,-7.6125914E-1,-2.9856375E-1,5.539746E-1,-1.608241E0,-3.6318025E-1,-1.1328692E0,1.5574098E0,-6.7216724E-1,3.1719534E0,4.8768413E-1,8.171182E0,4.3918624E0,2.2020822E0,-8.506502E-1,1.5958397E0,8.976596E0,6.71883E0,1.00606785E1,7.7373915E0,-1.1255522E-1,1.926631E1,9.4218645E0,2.8428879E0,1.416108E1,2.2114153E1,1.2063796E1,2.6674423E0,6.609622E0,2.3482947E0,5.478878E-1,-5.424514E-1,-1.8228368E-1,-4.5101053E-1,2.04629E-3,-2.388418E-1,-4.063873E-1,8.2881093E-1,-1.0224549E-2,9.665368E-2,-2.8610006E-1,1.2980158E0,4.648303E-1,7.848239E-1,-8.214929E-2,1.677134E0,3.2873032E0,8.3966866E-2,1.6464503E0,-3.485836E-1,1.113222E0,9.2205495E-1,-6.4723E-1,4.2465124E-1,2.898796E0,4.6727002E-1,3.249722E0,2.7565908E-1,2.6751974E0,6.0530753E0,2.0811672E0,3.0230439E0,8.238263E-1,7.313994E0,2.1570065E0],"categories":[],"categories_nodes":[],"categories_segments":[],"categories_sizes":[],"default_left":[0,0,0,0,0,0,0,0,0,0,0,0,0,0,0,0,0,0,0,0,0,0,0,0,0,0,0,0,0,0,0,0,0,0,0,0,0,0,0,0,0,0,0,0,0,0,0,0,0,0,0,0,0,0,0,0,0,0,0,0,0,0,0,0,0,0,0,0,0,0,0,0,0,0,0,0,0,0,0,0,0,0,0,0,0,0,0,0,0,0,0,0,0,0,0],"id":1,"left_children":[1,3,5,7,9,11,13,15,17,19,21,23,25,27,29,31,33,35,37,39,-1,41,43,45,47,49,51,53,55,57,59,-1,-1,-1,61,63,65,67,69,71,73,75,77,79,-1,81,83,-1,85,87,-1,89,91,-1,-1,93,-1,-1,-1,-1,-1,-1,-1,-1,-1,-1,-1,-1,-1,-1,-1,-1,-1,-1,-1,-1,-1,-1,-1,-1,-1,-1,-1,-1,-1,-1,-1,-1,-1,-1,-1,-1,-1,-1,-1],"loss_changes":[5.0447113E4,6.813763E3,9.220922E3,1.3854663E3,5.6041504E2,9.2176953E2,2.250246E3,4.1916016E1,1.4511092E2,2.2274414E2,2.874431E2,2.9594824E2,5.2605664E2,5.690586E2,6.999707E1,6.928711E-1,2.0674187E1,4.3271378E1,1.4172356E2,1.4310864E2,0E0,2.3893213E2,5.0639843E1,1.7127441E2,2.3599927E2,6.146881E1,2.4851855E2,5.5712695E2,2.2573438E2,1.0172266E2,4.9500885E0,0E0,0E0,0E0,7.9038467E0,6.371276E1,9.748901E0,1.2477806E2,1.45825615E1,1.1695557E2,4.934052E1,2.98302E2,1.4722711E2,2.4612339E1,0E0,3.4361523E1,1.6269214E2,0E0,4.874872E1,4.0078644E1,0E0,2.6419922E2,2.934204E0,0E0,0E0,2.3049268E2,0E0,0E0,0E0,0E0,0E0,0E0,0E0,0E0,0E0,0E0,0E0,0E0,0E0,0E0,0E0,0E0,0E0,0E0,0E0,0E0,0E0,0E0,0E0,0E0,0E0,0E0,0E0,0E0,0E0,0E0,0E0,0E0,0E0,0E0,0E0,0E0,0E0,0E0,0E0],"parents":[2147483647,0,0,1,1,2,2,3,3,4,4,5,5,6,6,7,7,8,8,9,9,10,10,11,11,12,12,13,13,14,14,15,15,16,16,17,17,18,18,19,19,21,21,22,22,23,23,24,24,25,25,26,26,27,27,28,28,29,29,30,30,34,34,35,35,36,36,37,37,38,38,39,39,40,40,41,41,42,42,43,43,45,45,46,46,48,48,49,49,51,51,52,52,55,55],"right_children":[2,4,6,8,10,12,14,16,18,20,22,24,26,28,30,32,34,36,38,40,-1,42,44,46,48,50,52,54,56,58,60,-1,-1,-1,62,64,66,68,70,72,74,76,78,80,-1,82,84,-1,86,88,-1,90,92,-1,-1,94,-1,-1,-1,-1,-1,-1,-1,-1,-1,-1,-1,-1,-1,-1,-1,-1,-1,-1,-1,-1,-1,-1,-1,-1,-1,-1,-1,-1,-1,-1,-1,-1,-1,-1,-1,-1,-1,-1,-1],"split_conditions":[1.673E1,5.37E0,3.9E1,1.07E0,9.8E0,2.1E1,2.4555606E2,7E-1,3.03E0,1.8E1,3.462369E1,2.6E1,6.3702484E1,9E-1,3.4581955E2,9E-1,4E-1,2.3799464E2,2.4892793E2,2.4416086E2,2.795491E0,2.1138863E2,6.18E0,1.5683776E1,2E-1,6.202939E1,2.9781305E2,-3.9735835E0,6.9E1,2.6E1,4.7E1,-7.6125914E-1,-2.9856375E-1,5.539746E-1,3.407091E1,8.098077E1,2.3441502E1,1.174725E1,1.8391735E1,8.786834E0,2.008916E1,2.3006226E1,5.8E0,1.1E1,-8.506502E-1,2E1,9.8E0,6.71883E0,2.9E0,1.7015474E1,-1.1255522E-1,3.6E1,1.1000001E0,2.8428879E0,1.416108E1,1.8743661E2,1.2063796E1,2.6674423E0,6.609622E0,2.3482947E0,5.478878E-1,-5.424514E-1,-1.8228368E-1,-4.5101053E-1,2.04629E-3,-2.388418E-1,-4.063873E-1,8.2881093E-1,-1.0224549E-2,9.665368E-2,-2.8610006E-1,1.2980158E0,4.648303E-1,7.848239E-1,-8.214929E-2,1.677134E0,3.2873032E0,8.3966866E-2,1.6464503E0,-3.485836E-1,1.113222E0,9.2205495E-1,-6.4723E-1,4.2465124E-1,2.898796E0,4.6727002E-1,3.249722E0,2.7565908E-1,2.6751974E0,6.0530753E0,2.0811672E0,3.0230439E0,8.238263E-1,7.313994E0,2.1570065E0],"split_indices":[0,0,0,0,0,2,6,1,0,1,5,0,6,4,6,0,2,6,6,6,0,6,1,5,4,6,6,3,0,1,0,0,0,0,5,6,5,3,5,3,5,5,1,0,0,0,1,0,2,5,0,0,4,0,0,6,0,0,0,0,0,0,0,0,0,0,0,0,0,0,0,0,0,0,0,0,0,0,0,0,0,0,0,0,0,0,0,0,0,0,0,0,0,0,0],"split_type":[0,0,0,0,0,0,0,0,0,0,0,0,0,0,0,0,0,0,0,0,0,0,0,0,0,0,0,0,0,0,0,0,0,0,0,0,0,0,0,0,0,0,0,0,0,0,0,0,0,0,0,0,0,0,0,0,0,0,0,0,0,0,0,0,0,0,0,0,0,0,0,0,0,0,0,0,0,0,0,0,0,0,0,0,0,0,0,0,0,0,0,0,0,0,0],"sum_hessian":[1.957E3,1.825E3,1.32E2,1.64E3,1.85E2,9.6E1,3.6E1,1.232E3,4.08E2,9.8E1,8.7E1,4.9E1,4.7E1,2.6E1,1E1,1.187E3,4.5E1,2.94E2,1.14E2,9.4E1,4E0,8.1E1,6E0,3.7E1,1.2E1,6E0,4.1E1,1.2E1,1.4E1,8E0,2E0,1.185E3,2E0,1E0,4.4E1,1.5E2,1.44E2,6.4E1,5E1,6.5E1,2.9E1,4.9E1,3.2E1,3E0,3E0,4E0,3.3E1,3E0,9E0,5E0,1E0,3.5E1,6E0,1E0,1.1E1,1.1E1,3E0,3E0,5E0,1E0,1E0,3.6E1,8E0,3.6E1,1.14E2,5.9E1,8.5E1,3.6E1,2.8E1,1.1E1,3.9E1,3.7E1,2.8E1,7E0,2.2E1,2.7E1,2.2E1,7E0,2.5E1,1E0,2E0,3E0,1E0,3E0,3E1,1E0,8E0,1E0,4E0,3.2E1,3E0,5E0,1E0,9E0,2E0],"tree_param":{"num_deleted":"0","num_feature":"7","num_nodes":"95","size_leaf_vector":"1"}},{"base_weights":[7.9963356E-2,-9.189962E-1,1.3794401E1,-1.380272E0,3.155588E0,9.740883E0,2.404837E1,-1.7751894E0,-3.2789618E-1,2.8432713E0,9.74922E0,8.3569E0,1.5350756E1,2.7654448E1,1.3010873E1,-4.9319348E-1,-1.812338E0,-7.749163E-1,1.3678937E-1,2.0842445E0,4.6569667E0,1.1023356E1,1.2454019E-1,6.703695E0,1.1532646E1,1.772697E1,5.627202E0,3.011703E1,1.4015909E1,9.162937E0,5.236208E0,-5.439466E-1,-1.5916385E-1,-9.1834867E-1,1.0481387E-1,7.057007E-1,-4.5425436E-1,2.3911223E0,-1.3971949E0,6.3372273E0,1.6516889E0,4.2233315E0,1.5639311E0,9.003434E0,5.239848E0,1.646991E1,8.846817E0,1.869085E1,7.7948344E-1,2.9483415E-2,6.9848638E0,1.8429445E1,3.547926E1,1.1082888E0,4.602412E0,3.00852E0,4.657046E-1,1.7336333E-1,-2.9051283E-1,1.0809063E0,-3.512985E-2,-1.7738554E-1,4.1917127E-1,-3.668039E-2,-2.4882305E-1,8.79272E-1,2.7358624E-1,-2.2426489E-1,-4.984884E-1,6.9967085E-1,2.7496572E0,-8.363723E-1,8.807497E-1,2.8850188E0,-3.9737466E-1,-9.4812995E-1,1.748081E0,5.691051E0,1.7938265E0,2.9282305E0,2.1564695E-1,1.9770991E0,6.087547E0,2.4770992E0,4.752697E-1,5.967369E0,1.0102754E0,3.0443451E0,1.1656654E1],"categories":[],"categories_nodes":[],"categories_segments":[],"categories_sizes":[],"default_left":[0,0,0,0,0,0,0,0,0,0,0,0,0,0,0,0,0,0,0,0,0,0,0,0,0,0,0,0,0,0,0,0,0,0,0,0,0,0,0,0,0,0,0,0,0,0,0,0,0,0,0,0,0,0,0,0,0,0,0,0,0,0,0,0,0,0,0,0,0,0,0,0,0,0,0,0,0,0,0,0,0,0,0,0,0,0,0,0,0],"id":2,"left_children":[1,3,5,7,9,11,13,15,17,19,21,23,25,27,29,-1,31,33,35,37,39,41,-1,43,45,47,49,51,53,55,-1,-1,-1,57,59,61,63,65,67,69,71,-1,-1,73,75,77,79,81,-1,-1,83,85,87,-1,-1,-1,-1,-1,-1,-1,-1,-1,-1,-1,-1,-1,-1,-1,-1,-1,-1,-1,-1,-1,-1,-1,-1,-1,-1,-1,-1,-1,-1,-1,-1,-1,-1,-1,-1],"loss_changes":[2.6837607E4,3.4363354E3,5.2938457E3,6.814199E2,3.5531018E2,6.2481934E2,1.1128672E3,2.8356934E0,9.337398E1,2.3671301E2,9.0566956E1,3.4270166E2,3.161416E2,4.8470508E2,2.8136475E1,0E0,2.1972656E-3,2.8991882E1,7.463214E1,1.4009308E2,2.5211462E2,5.083954E1,0E0,1.37979E2,1.9907031E2,1.5558691E2,3.684558E1,7.249082E2,2.5410034E1,3.7125854E1,0E0,0E0,0E0,1.5305496E1,2.6039774E1,1.021774E2,1.3474173E1,9.154205E1,6.4751625E-1,3.524248E2,1.2220639E2,0E0,0E0,1.3942053E2,1.9595697E2,9.640088E1,1.3412683E2,1.1811377E2,0E0,0E0,1.4400284E1,1.3116943E2,8.0305664E2,0E0,0E0,0E0,0E0,0E0,0E0,0E0,0E0,0E0,0E0,0E0,0E0,0E0,0E0,0E0,0E0,0E0,0E0,0E0,0E0,0E0,0E0,0E0,0E0,0E0,0E0,0E0,0E0,0E0,0E0,0E0,0E0,0E0,0E0,0E0,0E0],"parents":[2147483647,0,0,1,1,2,2,3,3,4,4,5,5,6,6,7,7,8,8,9,9,10,10,11,11,12,12,13,13,14,14,16,16,17,17,18,18,19,19,20,20,21,21,23,23,24,24,25,25,26,26,27,27,28,28,29,29,33,33,34,34,35,35,36,36,37,37,38,38,39,39,40,40,43,43,44,44,45,45,46,46,47,47,50,50,51,51,52,52],"right_children":[2,4,6,8,10,12,14,16,18,20,22,24,26,28,30,-1,32,34,36,38,40,42,-1,44,46,48,50,52,54,56,-1,-1,-1,58,60,62,64,66,68,70,72,-1,-1,74,76,78,80,82,-1,-1,84,86,88,-1,-1,-1,-1,-1,-1,-1,-1,-1,-1,-1,-1,-1,-1,-1,-1,-1,-1,-1,-1,-1,-1,-1,-1,-1,-1,-1,-1,-1,-1,-1,-1,-1,-1,-1,-1],"split_conditions":[1.673E1,5.37E0,3.9E1,7E-1,3.2E1,4.1E1,2.4555606E2,3.7576668E0,2.15E0,1.2E1,1.3320167E1,2.405E1,4.7E1,5E1,2.682906E1,-4.9319348E-1,1.2E0,5.2999997E0,2.3799464E2,3.6939926E1,1.6E0,2E1,1.2454019E-1,9.1808337E-1,1.5978484E1,3.0563978E1,2.1E1,2.2E1,1.3843085E1,5.9E1,5.236208E0,-5.439466E-1,-1.5916385E-1,7.7E-1,5.5E0,1E-1,2.7811018E1,2.4270154E2,4.2999997E0,2.281957E1,2.0000002E0,4.2233315E0,1.5639311E0,4E1,2.875167E1,2.6109778E2,3.6E1,-6.929833E0,7.7948344E-1,2.9483415E-2,3.2E1,6.3E1,9.278941E1,1.1082888E0,4.602412E0,3.00852E0,4.657046E-1,1.7336333E-1,-2.9051283E-1,1.0809063E0,-3.512985E-2,-1.7738554E-1,4.1917127E-1,-3.668039E-2,-2.4882305E-1,8.79272E-1,2.7358624E-1,-2.2426489E-1,-4.984884E-1,6.9967085E-1,2.7496572E0,-8.363723E-1,8.807497E-1,2.8850188E0,-3.9737466E-1,-9.4812995E-1,1.748081E0,5.691051E0,1.7938265E0,2.9282305E0,2.1564695E-1,1.9770991E0,6.087547E0,2.4770992E0,4.752697E-1,5.967369E0,1.0102754E0,3.0443451E0,1.1656654E1],"split_indices":[0,0,0,1,2,2,6,3,0,0,3,0,1,2,5,0,0,4,6,5,4,1,0,3,5,5,0,2,3,1,0,0,0,1,4,4,5,6,4,5,4,0,0,1,6,6,0,3,0,0,0,0,6,0,0,0,0,0,0,0,0,0,0,0,0,0,0,0,0,0,0,0,0,0,0,0,0,0,0,0,0,0,0,0,0,0,0,0,0],"split_type":[0,0,0,0,0,0,0,0,0,0,0,0,0,0,0,0,0,0,0,0,0,0,0,0,0,0,0,0,0,0,0,0,0,0,0,0,0,0,0,0,0,0,0,0,0,0,0,0,0,0,0,0,0,0,0,0,0,0,0,0,0,0,0,0,0,0,0,0,0,0,0,0,0,0,0,0,0,0,0,0,0,0,0,0,0,0,0,0,0],"sum_hessian":[1.957E3,1.825E3,1.32E2,1.64E3,1.85E2,9.6E1,3.6E1,1.192E3,4.48E2,1.78E2,7E0,7.9E1,1.7E1,2.6E1,1E1,2.73E2,9.19E2,2.28E2,2.2E2,1.27E2,5.1E1,6E0,1E0,5.4E1,2.5E1,1.3E1,4E0,2.1E1,5E0,7E0,3E0,9.18E2,1E0,1.96E2,3.2E1,1.12E2,1.08E2,1.17E2,1E1,3.2E1,1.9E1,3E0,3E0,1.9E1,3.5E1,7E0,1.8E1,1.2E1,1E0,1E0,3E0,8E0,1.3E1,1E0,4E0,6E0,1E0,6E0,1.9E2,1E0,3.1E1,3.9E1,7.3E1,5.8E1,5E1,8.5E1,3.2E1,4E0,6E0,1.4E1,1.8E1,4E0,1.5E1,1.8E1,1E0,2E0,3.3E1,5E0,2E0,1.6E1,2E0,2E0,1E1,2E0,1E0,7E0,1E0,2E0,1.1E1],"tree_param":{"num_deleted":"0","num_feature":"7","num_nodes":"89","size_leaf_vector":"1"}},{"base_weights":[9.242291E-2,-4.4262135E-1,1.3914355E1,-9.5711255E-1,3.1760259E0,1.1988937E1,2.8059753E1,-1.1870079E0,-3.8583635E-3,2.813274E0,1.1056618E1,1.4463798E1,8.53698E0,3.4653812E1,3.8406725E0,-1.2452703E0,-6.743105E-1,2.4914046E-1,-5.2909535E-1,1.8415952E0,4.6696186E0,1.5585035E1,3.4111934E0,5.83565E0,1.6642746E1,4.2647204E0,9.65181E0,1.3063455E1,4.263454E0,-3.9126804E-1,-1.1891413E0,-7.441946E-1,7.398342E-1,7.944041E-1,-3.1357625E-1,6.283748E-1,-7.442403E-1,2.6678555E0,8.0598915E-1,5.5522475E0,2.4891353E0,5.0640726E0,1.3663514E0,1.2666671E0,2.5060846E-2,-2.0492436E-1,6.7358766E0,1.7984913E1,6.603367E0,1.4178317E0,1.7067863E0,1.0477066E1,6.5774536E-1,-2.3942633E-1,-3.586546E-1,5.144553E-1,-2.3281693E-1,1.3539371E0,-1.923704E-1,-8.365626E-2,4.5101777E-1,-2.5092772E-1,2.0147365E-1,-1.0009488E-1,9.01189E-1,2.8500175E-1,-2.3823243E-1,-1.2654252E0,8.669862E-1,9.243194E-1,7.90362E-2,1.8771535E0,6.683326E-1,-9.283262E-2,1.5940499E0,2.4330091E0,1.0002645E0,5.629199E0,1.8050889E0,3.1075203E-1,2.3208869E0,4.9199104E-2,7.7690035E-1,9.8546416E-1,3.318375E0,4.6635133E-1,-1.7036591E-1],"categories":[],"categories_nodes":[],"categories_segments":[],"categories_sizes":[],"default_left":[0,0,0,0,0,0,0,0,0,0,0,0,0,0,0,0,0,0,0,0,0,0,0,0,0,0,0,0,0,0,0,0,0,0,0,0,0,0,0,0,0,0,0,0,0,0,0,0,0,0,0,0,0,0,0,0,0,0,0,0,0,0,0,0,0,0,0,0,0,0,0,0,0,0,0,0,0,0,0,0,0,0,0,0,0,0,0],"id":3,"left_children":[1,3,5,7,9,11,13,15,17,19,21,23,25,27,-1,29,31,33,35,37,39,41,43,45,47,49,51,-1,-1,-1,53,55,57,59,61,63,65,67,69,71,73,-1,-1,-1,-1,-1,75,77,79,81,-1,83,85,-1,-1,-1,-1,-1,-1,-1,-1,-1,-1,-1,-1,-1,-1,-1,-1,-1,-1,-1,-1,-1,-1,-1,-1,-1,-1,-1,-1,-1,-1,-1,-1,-1,-1],"loss_changes":[1.4486245E4,3.5143232E3,1.6518057E3,3.6202917E2,6.406892E2,4.4036914E2,3.612251E2,3.8918335E1,4.2920578E1,3.9905273E2,2.930531E2,5.984888E2,1.017229E2,2.8992773E2,0E0,2.4003906E0,1.4188599E1,6.713782E1,2.6615158E1,1.2620178E2,1.3437073E2,8.839722E0,1.3141441E1,5.741617E1,2.7200098E2,2.4378204E1,1.6382422E2,0E0,0E0,0E0,5.9869385E-1,1.1672974E1,3.9372177E1,8.4882195E1,5.6191216E1,3.9853626E1,8.273872E0,1.3912665E2,8.3121254E1,1.12610596E2,1.9134505E2,0E0,0E0,0E0,0E0,0E0,1.0354675E1,1.2019824E2,2.3524292E1,5.4524574E0,0E0,5.189795E1,4.180071E0,0E0,0E0,0E0,0E0,0E0,0E0,0E0,0E0,0E0,0E0,0E0,0E0,0E0,0E0,0E0,0E0,0E0,0E0,0E0,0E0,0E0,0E0,0E0,0E0,0E0,0E0,0E0,0E0,0E0,0E0,0E0,0E0,0E0,0E0],"parents":[2147483647,0,0,1,1,2,2,3,3,4,4,5,5,6,6,7,7,8,8,9,9,10,10,11,11,12,12,13,13,15,15,16,16,17,17,18,18,19,19,20,20,21,21,22,22,23,23,24,24,25,25,26,26,30,30,31,31,32,32,33,33,34,34,35,35,36,36,37,37,38,38,39,39,40,40,46,46,47,47,48,48,49,49,51,51,52,52],"right_children":[2,4,6,8,10,12,14,16,18,20,22,24,26,28,-1,30,32,34,36,38,40,42,44,46,48,50,52,-1,-1,-1,54,56,58,60,62,64,66,68,70,72,74,-1,-1,-1,-1,-1,76,78,80,82,-1,84,86,-1,-1,-1,-1,-1,-1,-1,-1,-1,-1,-1,-1,-1,-1,-1,-1,-1,-1,-1,-1,-1,-1,-1,-1,-1,-1,-1,-1,-1,-1,-1,-1,-1,-1],"split_conditions":[2.405E1,5.67E0,6.9E1,1.66E0,4.5E1,2.0808347E2,4.5E1,7.7E-1,2.8521906E1,1.403E1,3.6E1,2.9E1,1.705E1,6.2139173E0,3.8406725E0,7E-2,1.0000001E1,1.2549331E1,1.6384042E2,2.0486368E2,7.37225E0,5.9E1,5.9E1,2.757721E0,1.03E1,3.2809414E1,6.2E0,1.3063455E1,4.263454E0,-3.9126804E-1,-3.9735835E0,4E-1,1.06E1,1E-1,1.8201416E1,3.03E0,7.9E-1,1.3873088E1,1.8514643E1,2.11E1,2.1737767E2,5.0640726E0,1.3663514E0,1.2666671E0,2.5060846E-2,-2.0492436E-1,2.4809328E1,6.3E1,1.2600001E1,3.9E1,1.7067863E0,-1.7089998E0,3.6E1,-2.3942633E-1,-3.586546E-1,5.144553E-1,-2.3281693E-1,1.3539371E0,-1.923704E-1,-8.365626E-2,4.5101777E-1,-2.5092772E-1,2.0147365E-1,-1.0009488E-1,9.01189E-1,2.8500175E-1,-2.3823243E-1,-1.2654252E0,8.669862E-1,9.243194E-1,7.90362E-2,1.8771535E0,6.683326E-1,-9.283262E-2,1.5940499E0,2.4330091E0,1.0002645E0,5.629199E0,1.8050889E0,3.1075203E-1,2.3208869E0,4.9199104E-2,7.7690035E-1,9.8546416E-1,3.318375E0,4.6635133E-1,-1.7036591E-1],"split_indices":[0,0,0,0,2,6,2,1,5,0,1,0,2,3,0,0,4,3,6,6,3,2,1,6,4,5,4,0,0,0,3,2,4,4,3,0,2,6,5,0,6,0,0,0,0,0,5,0,4,0,0,3,0,0,0,0,0,0,0,0,0,0,0,0,0,0,0,0,0,0,0,0,0,0,0,0,0,0,0,0,0,0,0,0,0,0,0],"split_type":[0,0,0,0,0,0,0,0,0,0,0,0,0,0,0,0,0,0,0,0,0,0,0,0,0,0,0,0,0,0,0,0,0,0,0,0,0,0,0,0,0,0,0,0,0,0,0,0,0,0,0,0,0,0,0,0,0,0,0,0,0,0,0,0,0,0,0,0,0,0,0,0,0,0,0,0,0,0,0,0,0,0,0,0,0,0,0],"sum_hessian":[1.957E3,1.885E3,7.2E1,1.651E3,2.34E2,6.5E1,7E0,1.33E3,3.21E2,2.25E2,9E0,3.6E1,2.9E1,4E0,3E0,1.193E3,1.37E2,2.17E2,1.04E2,1.49E2,7.6E1,5E0,4E0,8E0,2.8E1,7E0,2.2E1,2E0,2E0,5.71E2,6.22E2,1.31E2,6E0,1.1E2,1.07E2,1.6E1,8.8E1,8.2E1,6.7E1,5.3E1,2.3E1,4E0,1E0,3E0,1E0,1E0,7E0,2.4E1,4E0,3E0,4E0,2E1,2E0,1.2E1,6.1E2,1E0,1.3E2,1E0,5E0,4.4E1,6.6E1,7E1,3.7E1,1.2E1,4E0,2E0,8.6E1,2E0,8E1,1.2E1,5.5E1,4.3E1,1E1,1.2E1,1.1E1,4E0,3E0,2.2E1,2E0,1E0,3E0,2E0,1E0,2E0,1.8E1,1E0,1E0],"tree_param":{"num_deleted":"0","num_feature":"7","num_nodes":"87","size_leaf_vector":"1"}},{"base_weights":[9.308621E-2,-3.942009E-1,8.443784E0,-6.689984E-1,1.8775975E0,5.8270593E0,1.4476409E1,-8.2343173E-1,4.1255057E-2,1.3843135E0,6.5039167E0,5.2129664E0,1.0471991E1,1.1397716E1,2.2287777E1,-8.7796074E-1,-4.8595113E-1,2.5840545E-1,-4.1383335E-1,1.8156396E0,-5.2197423E-2,4.359445E0,1.1636549E1,7.271168E0,3.5798197E0,5.100342E0,3.1542745E0,1.5053113E1,6.86557E0,2.7723051E1,2.9765215E0,-2.51585E-1,-2.756469E-1,-5.849019E-1,3.007574E-1,6.7387015E-1,-1.9398835E-1,4.7468567E-1,-4.7313678E-1,1.1126759E0,3.274948E0,-9.9481636E-1,2.465803E0,2.427008E0,5.7469516E0,1.017704E0,4.8005705E0,4.02596E0,8.938081E0,1.7723678E0,4.786249E0,4.676844E0,-4.4040072E-1,9.910358E0,7.2440166E0,3.8868434E0,3.7427835E0,1.0450764E1,3.410763E0,-1.9187726E-1,-4.282664E-2,-3.5364547E-1,1.789253E-1,3.8158646E-1,-9.894484E-2,-1.8470375E-1,1.711793E-1,5.536923E-2,-1.8312481E-1,4.8575202E-1,-2.6789185E-1,2.567077E0,5.7048935E-1,6.9128454E-1,-4.6452358E-1,-7.69531E-1,1.1185484E0,1.05905205E-1,1.0802397E0,2.4176116E0,8.2444745E-1,-1.5668914E-1,1.4963524E0,4.15748E0,2.010644E0,7.869421E-1,-5.5833626E-1,2.2399704E0,9.7301364E-1,4.2460015E-1,1.5876709E0,3.4801073E0,6.300726E-1,1.474791E0,4.75921E-1],"categories":[],"categories_nodes":[],"categories_segments":[],"categories_sizes":[],"default_left":[0,0,0,0,0,0,0,0,0,0,0,0,0,0,0,0,0,0,0,0,0,0,0,0,0,0,0,0,0,0,0,0,0,0,0,0,0,0,0,0,0,0,0,0,0,0,0,0,0,0,0,0,0,0,0,0,0,0,0,0,0,0,0,0,0,0,0,0,0,0,0,0,0,0,0,0,0,0,0,0,0,0,0,0,0,0,0,0,0,0,0,0,0,0,0],"id":4,"left_children":[1,3,5,7,9,11,13,15,17,19,21,23,25,27,29,31,33,35,37,39,41,43,45,47,49,-1,51,53,55,57,-1,-1,-1,59,61,63,65,-1,67,69,71,73,75,77,79,-1,-1,81,83,85,87,89,-1,91,-1,-1,93,-1,-1,-1,-1,-1,-1,-1,-1,-1,-1,-1,-1,-1,-1,-1,-1,-1,-1,-1,-1,-1,-1,-1,-1,-1,-1,-1,-1,-1,-1,-1,-1,-1,-1,-1,-1,-1,-1],"loss_changes":[7.970797E3,1.1568066E3,1.6205024E3,1.8123663E2,4.4741437E2,1.6504614E2,5.1553174E2,2.4545471E1,2.9358435E1,1.12862854E2,1.5840002E2,2.0926477E2,3.2860138E2,3.1082178E2,2.6264185E2,1.1056519E0,1.5044395E1,3.790941E1,1.21128025E1,1.3997379E2,1.0451415E2,2.6271118E1,1.2566022E2,1.2629993E2,8.0920044E1,0E0,4.205431E1,3.686577E2,1.9876233E2,1.8555396E2,0E0,0E0,0E0,4.019375E0,1.0327006E1,6.3449898E1,3.1625938E1,0E0,8.599794E0,9.8968056E1,3.1015002E2,6.2011696E1,8.579378E1,1.82043E1,3.33132E1,0E0,0E0,5.5103745E1,1.1614282E2,6.0524876E1,7.503235E1,5.38147E-1,0E0,1.0762726E2,0E0,0E0,1.749965E1,0E0,0E0,0E0,0E0,0E0,0E0,0E0,0E0,0E0,0E0,0E0,0E0,0E0,0E0,0E0,0E0,0E0,0E0,0E0,0E0,0E0,0E0,0E0,0E0,0E0,0E0,0E0,0E0,0E0,0E0,0E0,0E0,0E0,0E0,0E0,0E0,0E0,0E0],"parents":[2147483647,0,0,1,1,2,2,3,3,4,4,5,5,6,6,7,7,8,8,9,9,10,10,11,11,12,12,13,13,14,14,15,15,16,16,17,17,18,18,19,19,20,20,21,21,22,22,23,23,24,24,26,26,27,27,28,28,29,29,33,33,34,34,35,35,36,36,38,38,39,39,40,40,41,41,42,42,43,43,44,44,47,47,48,48,49,49,50,50,51,51,53,53,56,56],"right_children":[2,4,6,8,10,12,14,16,18,20,22,24,26,28,30,32,34,36,38,40,42,44,46,48,50,-1,52,54,56,58,-1,-1,-1,60,62,64,66,-1,68,70,72,74,76,78,80,-1,-1,82,84,86,88,90,-1,92,-1,-1,94,-1,-1,-1,-1,-1,-1,-1,-1,-1,-1,-1,-1,-1,-1,-1,-1,-1,-1,-1,-1,-1,-1,-1,-1,-1,-1,-1,-1,-1,-1,-1,-1,-1,-1,-1,-1,-1,-1],"split_conditions":[1.9E1,5.67E0,4.1E1,1.82E0,2.5E1,5E1,6.9E1,3.3E-1,2.8521906E1,3.2999997E0,1.627E1,2.2218153E1,4E1,9E-1,4.5E1,9.626417E0,4.999999E0,1.2549331E1,7.9E-1,8.000001E-1,1.099E1,3.2E1,2.11E1,2.3E1,2.1220766E2,5.100342E0,3.2E1,1.4561833E1,1.205E1,6.2139173E0,2.9765215E0,-2.51585E-1,-2.756469E-1,1.6293085E1,4.4389167E0,2.4892793E2,1.8201416E1,4.7468567E-1,1.8370322E2,1.617E1,1.1E0,2.4E0,6.0909996E0,1.019E1,2.0220349E2,1.017704E0,4.8005705E0,1.5077082E1,1.3246826E1,2.008339E2,2.3559207E2,2.11E1,-4.4040072E-1,3.4581955E2,7.2440166E0,3.8868434E0,3.1E0,1.0450764E1,3.410763E0,-1.9187726E-1,-4.282664E-2,-3.5364547E-1,1.789253E-1,3.8158646E-1,-9.894484E-2,-1.8470375E-1,1.711793E-1,5.536923E-2,-1.8312481E-1,4.8575202E-1,-2.6789185E-1,2.567077E0,5.7048935E-1,6.9128454E-1,-4.6452358E-1,-7.69531E-1,1.1185484E0,1.05905205E-1,1.0802397E0,2.4176116E0,8.2444745E-1,-1.5668914E-1,1.4963524E0,4.15748E0,2.010644E0,7.869421E-1,-5.5833626E-1,2.2399704E0,9.7301364E-1,4.2460015E-1,1.5876709E0,3.4801073E0,6.300726E-1,1.474791E0,4.75921E-1],"split_indices":[0,0,0,0,2,2,0,0,5,4,0,5,1,4,2,3,4,3,2,4,2,2,1,0,6,0,0,3,2,3,0,0,0,3,3,6,3,0,6,2,4,1,3,0,6,0,0,5,5,6,6,0,0,6,0,0,4,0,0,0,0,0,0,0,0,0,0,0,0,0,0,0,0,0,0,0,0,0,0,0,0,0,0,0,0,0,0,0,0,0,0,0,0,0,0],"split_type":[0,0,0,0,0,0,0,0,0,0,0,0,0,0,0,0,0,0,0,0,0,0,0,0,0,0,0,0,0,0,0,0,0,0,0,0,0,0,0,0,0,0,0,0,0,0,0,0,0,0,0,0,0,0,0,0,0,0,0,0,0,0,0,0,0,0,0,0,0,0,0,0,0,0,0,0,0,0,0,0,0,0,0,0,0,0,0,0,0,0,0,0,0,0,0],"sum_hessian":[1.957E3,1.85E3,1.07E2,1.651E3,1.99E2,7.6E1,3.1E1,1.356E3,2.95E2,1.81E2,1.8E1,6.9E1,7E0,2.4E1,7E0,1.166E3,1.9E2,2E2,9.5E1,1.39E2,4.2E1,1.4E1,4E0,2.9E1,4E1,3E0,4E0,1.2E1,1.2E1,4E0,3E0,6.05E2,5.61E2,1.69E2,2.1E1,1.04E2,9.6E1,2E0,9.3E1,9.5E1,4.4E1,3.1E1,1.1E1,7E0,7E0,2E0,2E0,1.1E1,1.8E1,1.7E1,2.3E1,3E0,1E0,9E0,3E0,3E0,9E0,2E0,2E0,1.5E2,1.9E1,3E0,1.8E1,6.5E1,3.9E1,6.2E1,3.4E1,1.6E1,7.7E1,7.6E1,1.9E1,8E0,3.6E1,4E0,2.7E1,2E0,9E0,3E0,4E0,3E0,4E0,2E0,9E0,4E0,1.4E1,1.4E1,3E0,7E0,1.6E1,1E0,2E0,7E0,2E0,5E0,4E0],"tree_param":{"num_deleted":"0","num_feature":"7","num_nodes":"95","size_leaf_vector":"1"}},{"base_weights":[9.861719E-2,-1.6932671E-1,8.725648E0,-4.2391065E-1,2.564567E0,7.1762233E0,1.77062E1,-5.313947E-1,3.6978894E-1,2.1599631E0,7.44212E0,9.298253E0,3.6009288E0,2.217844E1,2.3068042E0,-6.04915E-1,-1.7105308E-1,2.0429954E-1,1.4716142E0,2.3852617E-1,2.503358E0,1.0048299E1,1.78381E0,1.1295594E1,6.8714476E0,4.5526276E0,-3.5503197E-1,8.36061E0,2.7286103E0,-6.0639507E-1,1.9143549E-1,-9.547866E-1,-8.398476E-2,4.776326E-1,-4.524461E-1,-9.248044E-1,2.2003436E0,2.463377E0,-8.224934E-1,4.982338E0,1.8226146E0,6.298168E-1,3.2651834E0,7.3125386E-1,-1.24650195E-1,1.4504762E1,6.273331E0,2.6346617E0,1.1308498E1,3.2731414E0,7.8926716E0,1.18297964E-1,-2.9581395E-1,-1.7985663E-1,-3.324082E-1,1.6185425E-2,-3.2661206E-1,1.7293954E-2,-1.9197248E-1,-5.581745E-1,1.7607605E-1,-2.8896285E-2,-5.072572E-1,-5.1380736E-1,5.703774E-1,1.0225575E0,-5.6704868E-2,1.2453444E0,-5.1998734E-1,4.373041E-1,-4.9086437E-1,5.323804E-1,2.350258E0,-6.403328E-1,6.1457735E-1,1.1940637E0,4.5968413E0,7.917381E-1,2.3778086E0,1.1639494E0,-6.091504E-2,4.54048E0,1.1094995E0,6.2502253E-1,1.4993938E0,2.9027371E0,3.814974E-1],"categories":[],"categories_nodes":[],"categories_segments":[],"categories_sizes":[],"default_left":[0,0,0,0,0,0,0,0,0,0,0,0,0,0,0,0,0,0,0,0,0,0,0,0,0,0,0,0,0,0,0,0,0,0,0,0,0,0,0,0,0,0,0,0,0,0,0,0,0,0,0,0,0,0,0,0,0,0,0,0,0,0,0,0,0,0,0,0,0,0,0,0,0,0,0,0,0,0,0,0,0,0,0,0,0,0,0],"id":5,"left_children":[1,3,5,7,9,11,13,15,17,19,21,23,25,27,-1,29,31,33,35,37,39,41,43,45,47,49,51,-1,-1,53,-1,55,57,59,61,63,65,67,69,71,73,-1,-1,-1,-1,75,77,79,81,83,85,-1,-1,-1,-1,-1,-1,-1,-1,-1,-1,-1,-1,-1,-1,-1,-1,-1,-1,-1,-1,-1,-1,-1,-1,-1,-1,-1,-1,-1,-1,-1,-1,-1,-1,-1,-1],"loss_changes":[4.5275127E3,1.3234977E3,6.9390234E2,1.4855069E2,3.0362842E2,3.610359E2,1.8784448E2,4.048288E1,3.7626156E1,9.9034424E1,1.590346E2,7.749194E1,8.067886E1,1.1875415E2,0E0,2.7271118E0,1.7730026E1,3.288698E1,4.9186077E1,5.868075E1,2.0692548E2,3.0290161E1,8.201267E0,1.6688342E2,2.8978613E2,4.6816345E1,2.7531044E0,0E0,0E0,3.7177734E0,0E0,3.571087E0,1.861862E1,3.4056366E1,2.3652721E1,1.8842587E1,6.126664E1,6.385927E1,3.3927315E1,2.3309344E2,9.558124E1,0E0,0E0,0E0,0E0,1.649768E1,2.7132141E1,3.6122124E1,1.7698438E2,1.8316513E1,3.491992E1,0E0,0E0,0E0,0E0,0E0,0E0,0E0,0E0,0E0,0E0,0E0,0E0,0E0,0E0,0E0,0E0,0E0,0E0,0E0,0E0,0E0,0E0,0E0,0E0,0E0,0E0,0E0,0E0,0E0,0E0,0E0,0E0,0E0,0E0,0E0,0E0],"parents":[2147483647,0,0,1,1,2,2,3,3,4,4,5,5,6,6,7,7,8,8,9,9,10,10,11,11,12,12,13,13,15,15,16,16,17,17,18,18,19,19,20,20,21,21,22,22,23,23,24,24,25,25,26,26,29,29,31,31,32,32,33,33,34,34,35,35,36,36,37,37,38,38,39,39,40,40,45,45,46,46,47,47,48,48,49,49,50,50],"right_children":[2,4,6,8,10,12,14,16,18,20,22,24,26,28,-1,30,32,34,36,38,40,42,44,46,48,50,52,-1,-1,54,-1,56,58,60,62,64,66,68,70,72,74,-1,-1,-1,-1,76,78,80,82,84,86,-1,-1,-1,-1,-1,-1,-1,-1,-1,-1,-1,-1,-1,-1,-1,-1,-1,-1,-1,-1,-1,-1,-1,-1,-1,-1,-1,-1,-1,-1,-1,-1,-1,-1,-1,-1],"split_conditions":[2.9E1,9.8E0,6.9E1,3.1E0,4.5E1,2.1897778E2,4.5E1,1.47E0,1.127E1,3.12E0,2.744513E1,1.225975E1,3.1E0,6.2139173E0,2.3068042E0,3.03E0,7.20884E1,6.3E0,5.113917E0,3.19E0,8.1E0,-6.929833E0,5.9E1,3.2E1,1.4561833E1,3.0421598E1,3.6E1,8.36061E0,2.7286103E0,2.22E0,1.9143549E-1,1.67E0,4.53E0,1.1E0,2.9E0,8.96E0,9.000001E-1,2.2948468E2,1.95E0,1.3E1,9.19E0,6.298168E-1,3.2651834E0,7.3125386E-1,-1.24650195E-1,3.2E1,2.1493335E0,5E1,9E-1,4.1E1,4E1,1.18297964E-1,-2.9581395E-1,-1.7985663E-1,-3.324082E-1,1.6185425E-2,-3.2661206E-1,1.7293954E-2,-1.9197248E-1,-5.581745E-1,1.7607605E-1,-2.8896285E-2,-5.072572E-1,-5.1380736E-1,5.703774E-1,1.0225575E0,-5.6704868E-2,1.2453444E0,-5.1998734E-1,4.373041E-1,-4.9086437E-1,5.323804E-1,2.350258E0,-6.403328E-1,6.1457735E-1,1.1940637E0,4.5968413E0,7.917381E-1,2.3778086E0,1.1639494E0,-6.091504E-2,4.54048E0,1.1094995E0,6.2502253E-1,1.4993938E0,2.9027371E0,3.814974E-1],"split_indices":[0,0,0,0,2,6,2,2,1,2,5,3,4,3,0,0,6,0,3,1,2,3,1,1,3,5,0,0,0,1,0,2,1,1,4,0,4,6,2,0,2,0,0,0,0,0,3,1,4,2,1,0,0,0,0,0,0,0,0,0,0,0,0,0,0,0,0,0,0,0,0,0,0,0,0,0,0,0,0,0,0,0,0,0,0,0,0],"split_type":[0,0,0,0,0,0,0,0,0,0,0,0,0,0,0,0,0,0,0,0,0,0,0,0,0,0,0,0,0,0,0,0,0,0,0,0,0,0,0,0,0,0,0,0,0,0,0,0,0,0,0,0,0,0,0,0,0,0,0,0,0,0,0,0,0,0,0,0,0,0,0,0,0,0,0,0,0,0,0,0,0,0,0,0,0,0,0],"sum_hessian":[1.957E3,1.899E3,5.8E1,1.738E3,1.61E2,5.1E1,7E0,1.531E3,2.07E2,1.5E2,1.1E1,3.1E1,2E1,4E0,3E0,1.271E3,2.6E2,1.81E2,2.6E1,2.3E1,1.27E2,7E0,4E0,1.5E1,1.6E1,1.6E1,4E0,2E0,2E0,1.27E3,1E0,2.5E1,2.35E2,1.28E2,5.3E1,6E0,2E1,7E0,1.6E1,2.6E1,1.01E2,1E0,6E0,3E0,1E0,8E0,7E0,9E0,7E0,1.3E1,3E0,2E0,2E0,1.255E3,1.5E1,3E0,2.2E1,1.88E2,4.7E1,5E0,1.23E2,4.2E1,1.1E1,5E0,1E0,1.3E1,7E0,5E0,2E0,4E0,1.2E1,1.3E1,1.3E1,5E0,9.6E1,1E0,7E0,3E0,4E0,6E0,3E0,4E0,3E0,9E0,4E0,2E0,1E0],"tree_param":{"num_deleted":"0","num_feature":"7","num_nodes":"87","size_leaf_vector":"1"}},{"base_weights":[9.0313524E-2,-1.9204926E-1,4.9288616E0,-2.3596312E-1,4.0545897E0,3.191567E0,8.9552E0,-3.7089017E-1,4.659078E-1,2.3733287E0,8.287456E0,4.4788938E0,1.9519901E0,6.9606266E0,1.4068842E1,-4.252109E-1,-1.2424151E-1,7.166693E-1,-4.5430058E-1,-1.7619067E-1,2.6267524E0,1.4206238E0,3.717541E0,1.5365082E0,5.6646523E0,6.606506E-1,3.9284177E0,5.100564E0,1.2000731E1,1.7742752E1,1.7877733E0,-4.4607806E-1,-3.5092252E-1,-4.5367226E-2,-1.0435743E0,9.681886E-1,-8.934423E-1,-2.5237125E-1,-1.0260444E0,3.641524E0,1.0917631E0,5.1896554E-1,1.2031517E-1,3.2884004E0,-7.634506E-1,3.0506847E0,4.383465E0,-1.788183E0,1.4847097E0,4.8496776E0,9.317104E-1,8.880579E0,3.24852E0,4.7153354E0,9.133252E-1,6.6884885E0,2.182888E0,-1.2647882E-1,-1.391286E-1,-9.645839E-2,-1.7328107E-1,-7.765817E-2,5.5158164E-2,-5.4010266E-1,-1.7111796E-1,6.594478E-2,6.4652735E-1,-6.90837E-1,1.9794892E-1,9.08025E-2,-2.0200177E-1,6.60719E-2,1.4235737E0,-1.2184997E-1,4.2273375E-1,1.4814193E0,-1.6715184E-1,-1.0019947E0,4.0794328E-1,1.4421594E0,-6.772402E-1,2.2224161E-1,-8.8438183E-1,1.0134611E0,1.2957367E-1,1.5794111E0,4.2658426E-2,-1.09967E-1,9.1871685E-1,3.071365E0,3.1410858E-1,1.5865642E0,5.0989556E-1],"categories":[],"categories_nodes":[],"categories_segments":[],"categories_sizes":[],"default_left":[0,0,0,0,0,0,0,0,0,0,0,0,0,0,0,0,0,0,0,0,0,0,0,0,0,0,0,0,0,0,0,0,0,0,0,0,0,0,0,0,0,0,0,0,0,0,0,0,0,0,0,0,0,0,0,0,0,0,0,0,0,0,0,0,0,0,0,0,0,0,0,0,0,0,0,0,0,0,0,0,0,0,0,0,0,0,0,0,0,0,0,0,0],"id":6,"left_children":[1,3,5,7,9,11,13,15,17,19,21,23,25,27,29,31,33,35,37,-1,39,41,-1,43,45,47,49,51,53,55,-1,57,59,61,63,65,67,69,-1,71,73,-1,-1,75,77,-1,79,81,83,85,87,89,91,-1,-1,-1,-1,-1,-1,-1,-1,-1,-1,-1,-1,-1,-1,-1,-1,-1,-1,-1,-1,-1,-1,-1,-1,-1,-1,-1,-1,-1,-1,-1,-1,-1,-1,-1,-1,-1,-1,-1,-1],"loss_changes":[2.6760168E3,3.4614285E2,7.268718E2,1.7376044E2,1.15545654E2,1.1412927E2,2.2845728E2,2.0553482E1,6.862842E1,1.27971115E1,1.23315186E2,1.2038776E2,1.0204648E2,1.7316223E2,1.3261804E2,1.7967072E0,2.0183426E1,9.522398E1,3.7465916E1,0E0,1.7831612E1,2.52172E-1,0E0,5.0861893E1,1.05466736E2,5.5122513E1,3.9653442E1,1.1116638E2,1.5189508E2,7.600293E1,0E0,2.2875977E-1,1.6866417E0,1.2673752E1,6.851038E0,1.7895187E2,7.157065E1,1.445686E1,0E0,2.9164085E1,3.8999033E0,0E0,0E0,4.715867E1,3.7365646E1,0E0,7.2759766E1,2.2714918E1,3.841022E1,2.2696136E1,1.4953491E1,5.3075775E1,3.8407303E1,0E0,0E0,0E0,0E0,0E0,0E0,0E0,0E0,0E0,0E0,0E0,0E0,0E0,0E0,0E0,0E0,0E0,0E0,0E0,0E0,0E0,0E0,0E0,0E0,0E0,0E0,0E0,0E0,0E0,0E0,0E0,0E0,0E0,0E0,0E0,0E0,0E0,0E0,0E0,0E0],"parents":[2147483647,0,0,1,1,2,2,3,3,4,4,5,5,6,6,7,7,8,8,9,9,10,10,11,11,12,12,13,13,14,14,15,15,16,16,17,17,18,18,20,20,21,21,23,23,24,24,25,25,26,26,27,27,28,28,29,29,31,31,32,32,33,33,34,34,35,35,36,36,37,37,39,39,40,40,43,43,44,44,46,46,47,47,48,48,49,49,50,50,51,51,52,52],"right_children":[2,4,6,8,10,12,14,16,18,20,22,24,26,28,30,32,34,36,38,-1,40,42,-1,44,46,48,50,52,54,56,-1,58,60,62,64,66,68,70,-1,72,74,-1,-1,76,78,-1,80,82,84,86,88,90,92,-1,-1,-1,-1,-1,-1,-1,-1,-1,-1,-1,-1,-1,-1,-1,-1,-1,-1,-1,-1,-1,-1,-1,-1,-1,-1,-1,-1,-1,-1,-1,-1,-1,-1,-1,-1,-1,-1,-1,-1],"split_conditions":[1.9E1,2.5E1,4.1E1,3.13E0,1.627E1,2.4E1,6.9E1,1.33E0,2.765004E2,-3.9735835E0,2.11E1,1.3E1,3.9E1,1.4561833E1,4.5E1,2E-1,9.73E0,1.617E1,1.3E1,-1.7619067E-1,2.0220349E2,2.1E1,3.717541E0,1.009E1,6.626187E1,1.4451645E2,4.7E1,2.453E1,5E1,6.2139173E0,1.7877733E0,9.768084E0,2E0,1.89E0,2.329801E2,6.18E0,5E-1,2.0750027E1,-1.0260444E0,8.77E0,2.617193E2,5.1896554E-1,1.2031517E-1,1.5359549E2,7.7951655E0,3.0506847E0,3.5E1,2.7E1,1.5978484E1,7.4999995E0,6.7E1,3E1,1.305884E2,4.7153354E0,9.133252E-1,6.6884885E0,2.182888E0,-1.2647882E-1,-1.391286E-1,-9.645839E-2,-1.7328107E-1,-7.765817E-2,5.5158164E-2,-5.4010266E-1,-1.7111796E-1,6.594478E-2,6.4652735E-1,-6.90837E-1,1.9794892E-1,9.08025E-2,-2.0200177E-1,6.60719E-2,1.4235737E0,-1.2184997E-1,4.2273375E-1,1.4814193E0,-1.6715184E-1,-1.0019947E0,4.0794328E-1,1.4421594E0,-6.772402E-1,2.2224161E-1,-8.8438183E-1,1.0134611E0,1.2957367E-1,1.5794111E0,4.2658426E-2,-1.09967E-1,9.1871685E-1,3.071365E0,3.1410858E-1,1.5865642E0,5.0989556E-1],"split_indices":[0,2,0,0,0,1,0,2,6,3,1,2,2,3,2,0,2,1,0,0,6,1,0,2,6,6,1,1,2,3,0,3,0,0,6,2,4,5,0,0,6,0,0,6,3,0,2,1,5,4,1,2,6,0,0,0,0,0,0,0,0,0,0,0,0,0,0,0,0,0,0,0,0,0,0,0,0,0,0,0,0,0,0,0,0,0,0,0,0,0,0,0,0],"split_type":[0,0,0,0,0,0,0,0,0,0,0,0,0,0,0,0,0,0,0,0,0,0,0,0,0,0,0,0,0,0,0,0,0,0,0,0,0,0,0,0,0,0,0,0,0,0,0,0,0,0,0,0,0,0,0,0,0,0,0,0,0,0,0,0,0,0,0,0,0,0,0,0,0,0,0,0,0,0,0,0,0,0,0,0,0,0,0,0,0,0,0,0,0],"sum_hessian":[1.957E3,1.85E3,1.07E2,1.832E3,1.8E1,7.6E1,3.1E1,1.537E3,2.95E2,1.4E1,4E0,3.6E1,4E1,2.4E1,7E0,1.259E3,2.78E2,2.32E2,6.3E1,1E0,1.3E1,2E0,2E0,1.1E1,2.5E1,2.5E1,1.5E1,1.9E1,5E0,4E0,3E0,9.79E2,2.8E2,2.57E2,2.1E1,2.01E2,3.1E1,6E1,3E0,7E0,6E0,1E0,1E0,6E0,5E0,4E0,2.1E1,6E0,1.9E1,1.1E1,4E0,5E0,1.4E1,3E0,2E0,2E0,2E0,4.21E2,5.58E2,2.5E2,3E1,1.33E2,1.24E2,7E0,1.4E1,1.24E2,7.7E1,1.6E1,1.5E1,2.6E1,3.4E1,2E0,5E0,1E0,5E0,4E0,2E0,2E0,3E0,2E1,1E0,2E0,4E0,6E0,1.3E1,1E1,1E0,3E0,1E0,4E0,1E0,5E0,9E0],"tree_param":{"num_deleted":"0","num_feature":"7","num_nodes":"93","size_leaf_vector":"1"}},{"base_weights":[8.007428E-2,-7.813107E-2,5.1734657E0,-2.1079214E-1,1.459849E0,4.149804E0,1.1180582E1,-2.7496275E-1,1.9803527E-1,1.1882788E0,4.5065136E0,5.459922E0,1.9558244E0,1.41942005E1,4.618414E0,-2.6962933E-1,-8.6086977E-1,7.302135E-1,-3.718791E-2,1.4750935E0,-5.072467E-1,6.7243533E0,1.1679484E0,6.043503E0,1.0998844E0,2.5473022E0,-4.4636554E-1,5.35079E0,1.7463106E0,1.5736424E0,4.1058484E-1,-3.026262E-1,-1.2154009E-1,-7.3634577E-1,1.3772851E0,2.222825E-1,-7.616805E-1,-1.3087E-1,1.899093E0,1.0272286E0,-1.3478578E0,2.9843274E-1,7.5134873E0,-9.239451E-2,5.4636556E-1,7.548521E0,4.2359195E0,-2.448186E-1,5.34866E-1,1.7562726E0,4.679081E0,7.741528E-2,-3.0059808E-1,-8.986546E-2,-1.7730719E-1,5.335381E-1,-4.6768032E-2,-4.811948E-1,1.6335132E-2,9.176622E-1,-1.1644216E-3,1.0352807E-2,7.022005E-1,-2.864133E-1,6.583923E-1,1.1979218E0,-2.527162E-1,5.141877E-1,2.8952541E0,-7.5999165E-1,5.6933314E-1,-5.202968E-1,1.9418623E-1,4.545748E-1,2.5230255E0,-8.945761E-2,4.788008E-2,2.8679874E0,1.2514131E0,3.534329E-1,2.0292718E0,2.6113772E-1,9.5299345E-1,1.7064402E0,2.4778834E-1],"categories":[],"categories_nodes":[],"categories_segments":[],"categories_sizes":[],"default_left":[0,0,0,0,0,0,0,0,0,0,0,0,0,0,0,0,0,0,0,0,0,0,0,0,0,0,0,0,0,0,0,0,0,0,0,0,0,0,0,0,0,0,0,0,0,0,0,0,0,0,0,0,0,0,0,0,0,0,0,0,0,0,0,0,0,0,0,0,0,0,0,0,0,0,0,0,0,0,0,0,0,0,0,0,0],"id":7,"left_children":[1,3,5,7,9,11,13,15,17,19,21,23,25,27,29,31,-1,33,35,37,39,41,43,45,47,49,51,-1,-1,-1,-1,53,55,57,59,61,63,65,67,69,71,-1,73,75,-1,77,79,-1,-1,81,83,-1,-1,-1,-1,-1,-1,-1,-1,-1,-1,-1,-1,-1,-1,-1,-1,-1,-1,-1,-1,-1,-1,-1,-1,-1,-1,-1,-1,-1,-1,-1,-1,-1,-1],"loss_changes":[1.5781642E3,3.879649E2,3.164087E2,4.596518E1,1.19579865E2,1.387887E2,9.265222E1,2.0163277E1,2.9820152E1,6.883046E1,8.099916E1,7.477478E1,3.0974709E1,4.8641724E1,9.7224426E-1,7.3466797E0,0E0,7.028889E1,3.1374716E1,8.19599E1,2.8472391E1,2.4175568E1,5.1083364E0,4.419757E1,7.9979224E0,2.0449371E1,2.215533E0,0E0,0E0,0E0,0E0,9.1806793E-1,1.8357418E1,1.5868187E1,1.1846213E2,4.884566E1,2.7204302E1,7.9654396E1,1.1979462E2,2.960459E1,1.1917353E1,0E0,1.9524658E1,2.0317122E-1,0E0,5.5222595E1,1.079978E2,0E0,0E0,1.4849449E1,1.0853836E1,0E0,0E0,0E0,0E0,0E0,0E0,0E0,0E0,0E0,0E0,0E0,0E0,0E0,0E0,0E0,0E0,0E0,0E0,0E0,0E0,0E0,0E0,0E0,0E0,0E0,0E0,0E0,0E0,0E0,0E0,0E0,0E0,0E0,0E0],"parents":[2147483647,0,0,1,1,2,2,3,3,4,4,5,5,6,6,7,7,8,8,9,9,10,10,11,11,12,12,13,13,14,14,15,15,17,17,18,18,19,19,20,20,21,21,22,22,23,23,24,24,25,25,26,26,31,31,32,32,33,33,34,34,35,35,36,36,37,37,38,38,39,39,40,40,42,42,43,43,45,45,46,46,49,49,50,50],"right_children":[2,4,6,8,10,12,14,16,18,20,22,24,26,28,30,32,-1,34,36,38,40,42,44,46,48,50,52,-1,-1,-1,-1,54,56,58,60,62,64,66,68,70,72,-1,74,76,-1,78,80,-1,-1,82,84,-1,-1,-1,-1,-1,-1,-1,-1,-1,-1,-1,-1,-1,-1,-1,-1,-1,-1,-1,-1,-1,-1,-1,-1,-1,-1,-1,-1,-1,-1,-1,-1,-1,-1],"split_conditions":[2.9E1,1.019E1,6.9E1,3.1E0,4.5E1,2.1897778E2,4.5E1,1E1,1.8099785E2,2.6576535E2,2E-1,1.03E1,3.1E0,6.2139173E0,6.7E1,1.14E0,-8.6086977E-1,5.9246277E1,8.23E0,1.1162166E2,2E-1,-6.929833E0,5E1,1.225975E1,1.2600001E1,3.0421598E1,3.6E1,5.35079E0,1.7463106E0,1.5736424E0,4.1058484E-1,1.1E0,1.0739833E1,7E0,8.213917E0,7E0,1.9E1,-6.929833E0,3.4E1,4.01E0,1.4113917E1,2.9843274E-1,8.23E0,2.1E1,5.4636556E-1,3.2E1,1.4561833E1,-2.448186E-1,5.34866E-1,4.1E1,4E1,7.741528E-2,-3.0059808E-1,-8.986546E-2,-1.7730719E-1,5.335381E-1,-4.6768032E-2,-4.811948E-1,1.6335132E-2,9.176622E-1,-1.1644216E-3,1.0352807E-2,7.022005E-1,-2.864133E-1,6.583923E-1,1.1979218E0,-2.527162E-1,5.141877E-1,2.8952541E0,-7.5999165E-1,5.6933314E-1,-5.202968E-1,1.9418623E-1,4.545748E-1,2.5230255E0,-8.945761E-2,4.788008E-2,2.8679874E0,1.2514131E0,3.534329E-1,2.0292718E0,2.6113772E-1,9.5299345E-1,1.7064402E0,2.4778834E-1],"split_indices":[0,0,0,2,2,6,2,0,6,6,4,4,4,3,1,0,0,6,1,6,4,3,2,3,4,5,0,0,0,0,0,0,5,1,3,0,1,3,1,1,3,0,1,0,0,1,3,0,0,2,1,0,0,0,0,0,0,0,0,0,0,0,0,0,0,0,0,0,0,0,0,0,0,0,0,0,0,0,0,0,0,0,0,0,0],"split_type":[0,0,0,0,0,0,0,0,0,0,0,0,0,0,0,0,0,0,0,0,0,0,0,0,0,0,0,0,0,0,0,0,0,0,0,0,0,0,0,0,0,0,0,0,0,0,0,0,0,0,0,0,0,0,0,0,0,0,0,0,0,0,0,0,0,0,0,0,0,0,0,0,0,0,0,0,0,0,0,0,0,0,0,0,0],"sum_hessian":[1.957E3,1.899E3,5.8E1,1.749E3,1.5E2,5.1E1,7E0,1.512E3,2.37E2,1.39E2,1.1E1,3.1E1,2E1,4E0,3E0,1.51E3,2E0,7.2E1,1.65E2,1.19E2,2E1,6E0,5E0,2.7E1,4E0,1.6E1,4E0,2E0,2E0,2E0,1E0,1.234E3,2.76E2,2.2E1,5E1,1.22E2,4.3E1,2.5E1,9.4E1,7E0,1.3E1,1E0,5E0,2E0,3E0,1.3E1,1.4E1,1E0,3E0,1.3E1,3E0,2E0,2E0,1.223E3,1.1E1,4E0,2.72E2,1E1,1.2E1,2.2E1,2.8E1,1.13E2,9E0,4.1E1,2E0,3E0,2.2E1,9.3E1,1E0,1E0,6E0,1.1E1,2E0,1E0,4E0,1E0,1E0,7E0,6E0,7E0,7E0,9E0,4E0,2E0,1E0],"tree_param":{"num_deleted":"0","num_feature":"7","num_nodes":"85","size_leaf_vector":"1"}},{"base_weights":[7.001127E-2,-2.1404931E-2,5.572793E0,-1.549478E-1,1.207444E0,9.819917E0,3.9908018E0,-1.8919213E-1,8.866873E-2,1.0269032E0,3.7848454E0,3.6491914E0,4.5235033E0,1.5587829E0,8.141193E0,-1.7054036E-1,-6.340386E-1,2.4989073E-1,-1.0929024E0,2.313256E0,6.844951E-1,5.8591075E0,7.340649E-1,1.327908E0,8.107739E-2,2.5201452E-1,3.389593E0,5.7917064E-1,2.8919587E0,-1.84274E-1,7.825859E-1,-9.192665E-1,6.0724753E-1,-2.2374086E-1,6.9680756E-1,-5.949614E-1,-3.0652626E0,5.5109406E-1,5.524086E0,-9.438233E-1,1.1290787E0,6.9676113E-1,2.3792706E0,-8.265969E-1,5.1631355E-1,-4.1984224E-1,4.5981732E-1,3.8831291E0,6.425629E-2,-5.6495998E-2,3.0558887E-1,6.255597E-1,-2.5764245E-1,-3.8353446E-1,-4.4048622E-2,-4.862876E-2,3.0365437E-1,-1.14742205E-1,7.939372E-1,6.691612E-1,1.1110248E-1,-3.077594E-1,1.4248644E-1,-5.3210057E-2,-1.1228684E0,5.004111E-1,-3.0663282E-1,2.2075703E0,-1.3294141E-1,-1.0590307E-1,-1.0040128E0,1.3988389E0,2.5472704E-1,2.9754782E-2,-4.017234E-1,2.5669572E-1,-4.0688086E-1,1.3541471E0,5.243481E-1],"categories":[],"categories_nodes":[],"categories_segments":[],"categories_sizes":[],"default_left":[0,0,0,0,0,0,0,0,0,0,0,0,0,0,0,0,0,0,0,0,0,0,0,0,0,0,0,0,0,0,0,0,0,0,0,0,0,0,0,0,0,0,0,0,0,0,0,0,0,0,0,0,0,0,0,0,0,0,0,0,0,0,0,0,0,0,0,0,0,0,0,0,0,0,0,0,0,0,0],"id":8,"left_children":[1,3,5,7,9,11,13,15,17,19,21,23,-1,25,27,29,31,33,35,37,39,41,43,-1,-1,45,47,-1,-1,49,51,53,55,57,59,61,63,65,67,69,71,-1,-1,73,-1,75,-1,77,-1,-1,-1,-1,-1,-1,-1,-1,-1,-1,-1,-1,-1,-1,-1,-1,-1,-1,-1,-1,-1,-1,-1,-1,-1,-1,-1,-1,-1,-1,-1],"loss_changes":[9.8507837E2,3.164155E2,1.7581586E2,1.4524357E1,8.405994E1,2.0456274E2,2.3965536E2,1.2545052E1,4.1229588E1,7.681804E1,7.1636475E1,1.1933754E1,0E0,3.981733E1,6.515863E1,1.93209E1,2.2155241E1,4.037395E1,2.371138E1,2.063018E2,1.03862816E2,3.2869522E1,1.0664663E1,0E0,0E0,1.0108492E1,1.0138519E1,0E0,0E0,7.224514E0,4.669091E1,1.3684559E1,3.9024663E0,4.3382587E1,4.824357E1,1.0629908E1,9.120792E0,4.5634377E1,1.4556873E2,4.2827923E1,1.06853775E2,0E0,0E0,1.5561466E0,0E0,1.0715758E1,0E0,1.9096375E-1,0E0,0E0,0E0,0E0,0E0,0E0,0E0,0E0,0E0,0E0,0E0,0E0,0E0,0E0,0E0,0E0,0E0,0E0,0E0,0E0,0E0,0E0,0E0,0E0,0E0,0E0,0E0,0E0,0E0,0E0,0E0],"parents":[2147483647,0,0,1,1,2,2,3,3,4,4,5,5,6,6,7,7,8,8,9,9,10,10,11,11,13,13,14,14,15,15,16,16,17,17,18,18,19,19,20,20,21,21,22,22,25,25,26,26,29,29,30,30,31,31,32,32,33,33,34,34,35,35,36,36,37,37,38,38,39,39,40,40,43,43,45,45,47,47],"right_children":[2,4,6,8,10,12,14,16,18,20,22,24,-1,26,28,30,32,34,36,38,40,42,44,-1,-1,46,48,-1,-1,50,52,54,56,58,60,62,64,66,68,70,72,-1,-1,74,-1,76,-1,78,-1,-1,-1,-1,-1,-1,-1,-1,-1,-1,-1,-1,-1,-1,-1,-1,-1,-1,-1,-1,-1,-1,-1,-1,-1,-1,-1,-1,-1,-1,-1],"split_conditions":[4.1E1,9.8E0,1.7713316E1,3.1E0,5E1,1.484318E1,3.1526215E1,3.38E0,5.5E0,8.77E0,4E1,6.718085E0,4.5235033E0,6.3E1,4.3680835E0,5.67E0,2.9290106E2,2E-1,1.3E1,6.18E0,1.217E1,1.727E1,1.9602652E1,1.327908E0,8.107739E-2,4.1E1,4.1E0,5.7917064E-1,2.8919587E0,3.22E0,2.2948468E2,3.1E0,1.3801417E1,1.335E1,1.4369655E2,7E0,2E0,1.4000002E0,2.1E0,3.1526215E1,1.328E1,6.9676113E-1,2.3792706E0,8.23E0,5.1631355E-1,2.1E1,4.5981732E-1,4.5E1,6.425629E-2,-5.6495998E-2,3.0558887E-1,6.255597E-1,-2.5764245E-1,-3.8353446E-1,-4.4048622E-2,-4.862876E-2,3.0365437E-1,-1.14742205E-1,7.939372E-1,6.691612E-1,1.1110248E-1,-3.077594E-1,1.4248644E-1,-5.3210057E-2,-1.1228684E0,5.004111E-1,-3.0663282E-1,2.2075703E0,-1.3294141E-1,-1.0590307E-1,-1.0040128E0,1.3988389E0,2.5472704E-1,2.9754782E-2,-4.017234E-1,2.5669572E-1,-4.0688086E-1,1.3541471E0,5.243481E-1],"split_indices":[0,1,5,2,2,5,5,1,4,2,1,3,0,0,3,0,6,4,2,2,2,0,5,0,0,2,4,0,0,1,6,4,3,0,6,1,0,4,4,5,2,0,0,0,0,1,0,2,0,0,0,0,0,0,0,0,0,0,0,0,0,0,0,0,0,0,0,0,0,0,0,0,0,0,0,0,0,0,0],"split_type":[0,0,0,0,0,0,0,0,0,0,0,0,0,0,0,0,0,0,0,0,0,0,0,0,0,0,0,0,0,0,0,0,0,0,0,0,0,0,0,0,0,0,0,0,0,0,0,0,0,0,0,0,0,0,0,0,0,0,0,0,0,0,0,0,0,0,0,0,0,0,0,0,0,0,0,0,0,0,0],"sum_hessian":[1.957E3,1.926E3,3.1E1,1.738E3,1.88E2,7E0,2.4E1,1.524E3,2.14E2,1.77E2,1.1E1,4E0,3E0,1.6E1,8E0,1.464E3,6E1,1.89E2,2.5E1,3.6E1,1.41E2,6E0,5E0,3E0,1E0,1E1,6E0,2E0,6E0,1.444E3,2E1,4.9E1,1.1E1,9.2E1,9.7E1,2.1E1,4E0,2.4E1,1.2E1,3E1,1.11E2,3E0,3E0,2E0,3E0,7E0,3E0,5E0,1E0,1.44E3,4E0,1.1E1,9E0,3.3E1,1.6E1,4E0,7E0,8.8E1,4E0,1.6E1,8.1E1,1.5E1,6E0,1E0,3E0,1.4E1,1E1,9E0,3E0,2.5E1,5E0,7E0,1.04E2,1E0,1E0,3E0,4E0,3E0,2E0],"tree_param":{"num_deleted":"0","num_feature":"7","num_nodes":"79","size_leaf_vector":"1"}},{"base_weights":[5.8329135E-2,-1.1561032E-2,4.265205E0,-1.1149393E-1,9.300314E-1,7.6155014E0,3.0225017E0,-1.16662405E-1,1.0240014E0,1.9840463E0,6.161518E-1,2.8362308E0,3.5057147E0,1.2236413E0,6.0845156E0,-1.0539186E-1,-7.331426E-1,2.8129163E0,-6.11931E-1,2.617466E0,-6.2932163E-1,-8.8734096E-1,7.9297453E-1,1.457008E0,1.1169419E0,2.0455898E-1,2.6502502E0,4.6333656E-1,7.161039E0,-1.5721758E-1,3.0038033E-2,1.9890566E-1,-1.8791231E0,6.8638876E-2,1.0794073E0,-3.3922338E-1,3.325787E-2,1.7701136E0,5.6329517E0,-1.6210779E0,1.0156431E0,4.686451E0,6.417778E-1,4.0083295E-1,6.8915755E-2,9.0777427E-1,-5.327495E-1,3.031272E0,5.4618075E-2,2.6548347E0,2.5297663E0,-4.508943E-2,-8.839229E-1,5.89205E-2,-6.563697E-2,6.326109E-1,-2.093519E-1,-8.487986E-1,1.1913369E-1,7.798554E-1,1.3428444E-1,-4.6737874E-1,2.646267E0,-5.9121706E-2,-6.8514377E-1,1.348257E-1,4.0714732E-1,1.9820131E0,3.6121246E-1,7.1008906E-2,6.114512E-1,-5.0792888E-2,3.471159E-1,-4.939106E-1,1.3069569E-1,9.821261E-1,2.7282944E-1,1.4178492E0,-2.2317353E-1],"categories":[],"categories_nodes":[],"categories_segments":[],"categories_sizes":[],"default_left":[0,0,0,0,0,0,0,0,0,0,0,0,0,0,0,0,0,0,0,0,0,0,0,0,0,0,0,0,0,0,0,0,0,0,0,0,0,0,0,0,0,0,0,0,0,0,0,0,0,0,0,0,0,0,0,0,0,0,0,0,0,0,0,0,0,0,0,0,0,0,0,0,0,0,0,0,0,0,0],"id":9,"left_children":[1,3,5,7,9,11,13,15,17,19,21,23,-1,25,27,29,31,33,35,37,39,-1,41,-1,43,45,47,-1,49,51,53,55,57,-1,-1,-1,-1,59,61,63,65,67,69,-1,-1,71,73,75,-1,77,-1,-1,-1,-1,-1,-1,-1,-1,-1,-1,-1,-1,-1,-1,-1,-1,-1,-1,-1,-1,-1,-1,-1,-1,-1,-1,-1,-1,-1],"loss_changes":[5.75739E2,1.814268E2,1.1021167E2,1.0348742E1,5.998178E1,1.2247778E2,1.3025813E2,1.1984577E1,2.5133663E1,7.117227E1,9.3347176E1,1.1944149E1,0E0,2.4173012E1,3.292746E1,1.1978714E1,3.3485153E1,7.292038E0,2.0003219E0,7.690512E1,1.6329073E1,0E0,7.823027E1,0E0,4.708724E-1,6.1869693E0,6.0311623E0,0E0,1.7720886E1,2.3373043E1,1.9623238E1,3.2298363E1,3.1404034E1,0E0,0E0,0E0,0E0,2.9549225E1,1.7421089E2,5.212351E0,1.635623E-1,2.5480896E1,7.531505E1,0E0,0E0,1.8068647E0,7.187828E0,1.0979462E-1,0E0,2.4635614E1,0E0,0E0,0E0,0E0,0E0,0E0,0E0,0E0,0E0,0E0,0E0,0E0,0E0,0E0,0E0,0E0,0E0,0E0,0E0,0E0,0E0,0E0,0E0,0E0,0E0,0E0,0E0,0E0,0E0],"parents":[2147483647,0,0,1,1,2,2,3,3,4,4,5,5,6,6,7,7,8,8,9,9,10,10,11,11,13,13,14,14,15,15,16,16,17,17,18,18,19,19,20,20,22,22,24,24,25,25,26,26,28,28,29,29,30,30,31,31,32,32,37,37,38,38,39,39,40,40,41,41,42,42,45,45,46,46,47,47,49,49],"right_children":[2,4,6,8,10,12,14,16,18,20,22,24,-1,26,28,30,32,34,36,38,40,-1,42,-1,44,46,48,-1,50,52,54,56,58,-1,-1,-1,-1,60,62,64,66,68,70,-1,-1,72,74,76,-1,78,-1,-1,-1,-1,-1,-1,-1,-1,-1,-1,-1,-1,-1,-1,-1,-1,-1,-1,-1,-1,-1,-1,-1,-1,-1,-1,-1,-1,-1],"split_conditions":[4.1E1,1E1,1.7713316E1,1.8E1,1.65975E0,1.484318E1,3.1526215E1,8.23E0,2E1,2.9275326E1,2.875167E1,1.705E1,3.5057147E0,6.3E1,4.3680835E0,1.1E0,7E0,3.74E0,6.718085E0,1.3E0,8.2224995E-1,-8.8734096E-1,6.626187E1,1.457008E0,4.7E1,1.4451645E2,4.1E0,4.6333656E-1,1.328E1,4.26E0,1.2549331E1,4.882667E0,1.617E1,6.8638876E-2,1.0794073E0,-3.3922338E-1,3.325787E-2,2.0447239E1,1.848557E2,1.705E1,2.11E1,2E-1,3.0903435E1,4.0083295E-1,6.8915755E-2,2.0892412E1,2.4490587E1,4.7E1,5.4618075E-2,5.1E1,2.5297663E0,-4.508943E-2,-8.839229E-1,5.89205E-2,-6.563697E-2,6.326109E-1,-2.093519E-1,-8.487986E-1,1.1913369E-1,7.798554E-1,1.3428444E-1,-4.6737874E-1,2.646267E0,-5.9121706E-2,-6.8514377E-1,1.348257E-1,4.0714732E-1,1.9820131E0,3.6121246E-1,7.1008906E-2,6.114512E-1,-5.0792888E-2,3.471159E-1,-4.939106E-1,1.3069569E-1,9.821261E-1,2.7282944E-1,1.4178492E0,-2.2317353E-1],"split_indices":[0,0,5,1,3,5,5,0,1,5,6,2,0,0,3,1,2,0,3,4,3,0,6,0,0,6,4,0,2,0,3,3,2,0,0,0,0,5,6,2,0,4,5,0,0,5,5,2,0,0,0,0,0,0,0,0,0,0,0,0,0,0,0,0,0,0,0,0,0,0,0,0,0,0,0,0,0,0,0],"split_type":[0,0,0,0,0,0,0,0,0,0,0,0,0,0,0,0,0,0,0,0,0,0,0,0,0,0,0,0,0,0,0,0,0,0,0,0,0,0,0,0,0,0,0,0,0,0,0,0,0,0,0,0,0,0,0,0,0,0,0,0,0,0,0,0,0,0,0,0,0,0,0,0,0,0,0,0,0,0,0],"sum_hessian":[1.957E3,1.926E3,3.1E1,1.742E3,1.84E2,7E0,2.4E1,1.735E3,7E0,4.1E1,1.43E2,4E0,3E0,1.6E1,8E0,1.705E3,3E1,3E0,4E0,3.3E1,8E0,6E0,1.37E2,1E0,3E0,1E1,6E0,2E0,6E0,1.233E3,4.72E2,1.7E1,1.3E1,1E0,2E0,2E0,2E0,2.7E1,6E0,5E0,3E0,4E0,1.33E2,2E0,1E0,5E0,5E0,5E0,1E0,2E0,4E0,1.231E3,2E0,2.83E2,1.89E2,5E0,1.2E1,9E0,4E0,1.6E1,1.1E1,2E0,4E0,2E0,3E0,2E0,1E0,2E0,2E0,1.04E2,2.9E1,1E0,4E0,2E0,3E0,4E0,1E0,1E0,1E0],"tree_param":{"num_deleted":"0","num_feature":"7","num_nodes":"79","size_leaf_vector":"1"}},{"base_weights":[4.874252E-2,-5.6905337E-3,3.3251097E0,-8.08703E-2,6.86073E-1,6.0099096E0,2.3329694E0,-7.575231E-2,-1.5464907E0,2.697213E0,5.4663616E-1,2.3707128E0,2.7169287E0,1.1435478E0,5.228118E0,-6.651964E-2,-6.569988E-1,-6.688963E-1,-1.20108925E-1,3.0249912E-1,9.780521E0,3.952386E-1,2.608033E0,1.2384567E0,8.992963E-1,3.2756385E-1,2.2245803E0,5.8854475E0,1.9262125E-1,-9.415922E-2,1.8573764E-1,4.057844E-1,-1.210934E0,-5.2698042E-2,-1.3509751E-3,1.2689971E0,-9.177982E-1,8.560208E-1,3.5452142E0,-1.9404578E-1,7.919996E-1,4.105678E0,4.2610773E-1,3.206663E-1,5.85783E-2,9.3307525E-1,-4.334601E-1,2.9094627E0,8.1233215E-1,2.8985066E0,2.371866E0,-2.3106156E-2,-2.2048055E-1,9.127933E-2,-3.4447697E-1,-3.7088278E-1,3.8584062E-1,-6.1391823E-2,-5.091084E-1,-6.848488E-2,6.224123E-1,-9.913898E-2,-3.5976017E-1,-2.7286646E-1,1.6446444E-1,1.0560747E0,1.2457407E-1,4.708493E-1,1.684632E0,2.9424524E-1,-3.521161E-1,-4.3173984E-2,3.4096768E-1,-3.9512834E-1,1.0128923E-1,2.6228085E-1,9.599081E-1,2.939827E-1,4.642525E-2,1.2858678E0,-1.8969756E-1],"categories":[],"categories_nodes":[],"categories_segments":[],"categories_sizes":[],"default_left":[0,0,0,0,0,0,0,0,0,0,0,0,0,0,0,0,0,0,0,0,0,0,0,0,0,0,0,0,0,0,0,0,0,0,0,0,0,0,0,0,0,0,0,0,0,0,0,0,0,0,0,0,0,0,0,0,0,0,0,0,0,0,0,0,0,0,0,0,0,0,0,0,0,0,0,0,0,0,0,0,0],"id":10,"left_children":[1,3,5,7,9,11,13,15,17,19,21,23,-1,25,27,29,31,-1,33,35,37,39,41,-1,43,45,47,49,-1,51,53,55,57,-1,-1,59,61,-1,-1,63,65,67,69,-1,-1,71,73,75,77,79,-1,-1,-1,-1,-1,-1,-1,-1,-1,-1,-1,-1,-1,-1,-1,-1,-1,-1,-1,-1,-1,-1,-1,-1,-1,-1,-1,-1,-1,-1,-1],"loss_changes":[3.492139E2,1.0027225E2,7.121738E1,1.2927138E1,5.1526306E1,6.7224884E1,8.0110214E1,9.261739E0,5.578911E0,2.0059137E2,5.452131E1,9.217434E0,0E0,1.6031311E1,1.7322922E1,1.1926153E1,1.6386631E1,0E0,1.8475063E-2,1.2958832E1,8.608948E0,3.9199135E1,3.7463547E1,0E0,2.6888108E-1,5.934155E0,5.37434E0,1.3299332E1,0E0,1.6855778E1,2.7070652E1,1.604591E1,8.457489E0,0E0,0E0,7.7118683E0,4.3009472E-1,0E0,0E0,3.6613033E1,1.0132576E2,1.7989769E1,6.4758463E0,0E0,0E0,1.6976128E0,4.5328655E0,1.5598679E-1,2.8922272E-1,2.2309498E1,0E0,0E0,0E0,0E0,0E0,0E0,0E0,0E0,0E0,0E0,0E0,0E0,0E0,0E0,0E0,0E0,0E0,0E0,0E0,0E0,0E0,0E0,0E0,0E0,0E0,0E0,0E0,0E0,0E0,0E0,0E0],"parents":[2147483647,0,0,1,1,2,2,3,3,4,4,5,5,6,6,7,7,8,8,9,9,10,10,11,11,13,13,14,14,15,15,16,16,18,18,19,19,20,20,21,21,22,22,24,24,25,25,26,26,27,27,29,29,30,30,31,31,32,32,35,35,36,36,39,39,40,40,41,41,42,42,45,45,46,46,47,47,48,48,49,49],"right_children":[2,4,6,8,10,12,14,16,18,20,22,24,-1,26,28,30,32,-1,34,36,38,40,42,-1,44,46,48,50,-1,52,54,56,58,-1,-1,60,62,-1,-1,64,66,68,70,-1,-1,72,74,76,78,80,-1,-1,-1,-1,-1,-1,-1,-1,-1,-1,-1,-1,-1,-1,-1,-1,-1,-1,-1,-1,-1,-1,-1,-1,-1,-1,-1,-1,-1,-1,-1],"split_conditions":[4.1E1,9.8E0,1.7713316E1,1.673E1,1.019E1,1.484318E1,3.210112E1,8.23E0,1.9E1,2.8673721E1,5E1,1.705E1,2.7169287E0,6.3E1,1.17E2,3.3E0,4.7326674E0,-6.688963E-1,2.2E1,1.1E0,9.8E0,1.403E1,4E1,1.2384567E0,4.7E1,1.4451645E2,4.5E1,5.9E1,1.9262125E-1,4.53E0,3.2044034E2,6.743333E-1,5.2E0,-5.2698042E-2,-1.3509751E-3,1.071E1,2.97E0,8.560208E-1,3.5452142E0,6.336834E0,1.335E1,1.727E1,3.2E1,3.206663E-1,5.85783E-2,2.0892412E1,2.4490587E1,5.699333E0,6.7E1,4.148912E1,2.371866E0,-2.3106156E-2,-2.2048055E-1,9.127933E-2,-3.4447697E-1,-3.7088278E-1,3.8584062E-1,-6.1391823E-2,-5.091084E-1,-6.848488E-2,6.224123E-1,-9.913898E-2,-3.5976017E-1,-2.7286646E-1,1.6446444E-1,1.0560747E0,1.2457407E-1,4.708493E-1,1.684632E0,2.9424524E-1,-3.521161E-1,-4.3173984E-2,3.4096768E-1,-3.9512834E-1,1.0128923E-1,2.6228085E-1,9.599081E-1,2.939827E-1,4.642525E-2,1.2858678E0,-1.8969756E-1],"split_indices":[0,1,5,0,1,5,5,1,0,5,2,2,0,0,1,2,3,0,0,4,0,0,1,0,0,6,2,1,0,1,6,3,0,0,0,0,0,0,0,3,1,0,0,0,0,5,5,3,1,5,0,0,0,0,0,0,0,0,0,0,0,0,0,0,0,0,0,0,0,0,0,0,0,0,0,0,0,0,0,0,0],"split_type":[0,0,0,0,0,0,0,0,0,0,0,0,0,0,0,0,0,0,0,0,0,0,0,0,0,0,0,0,0,0,0,0,0,0,0,0,0,0,0,0,0,0,0,0,0,0,0,0,0,0,0,0,0,0,0,0,0,0,0,0,0,0,0,0,0,0,0,0,0,0,0,0,0,0,0,0,0,0,0,0,0],"sum_hessian":[1.957E3,1.926E3,3.1E1,1.738E3,1.88E2,7E0,2.4E1,1.733E3,5E0,1.1E1,1.77E2,4E0,3E0,1.8E1,6E0,1.707E3,2.6E1,3E0,2E0,9E0,2E0,1.66E2,1.1E1,1E0,3E0,1.1E1,7E0,5E0,1E0,1.539E3,1.68E2,9E0,1.7E1,1E0,1E0,5E0,4E0,1E0,1E0,6.7E1,9.9E1,6E0,5E0,2E0,1E0,6E0,5E0,4E0,3E0,3E0,2E0,1.5E3,3.9E1,1.55E2,1.3E1,3E0,6E0,6E0,1.1E1,2E0,3E0,2E0,2E0,3.4E1,3.3E1,1.1E1,8.8E1,3E0,3E0,4E0,1E0,1E0,5E0,2E0,3E0,1E0,3E0,2E0,1E0,2E0,1E0],"tree_param":{"num_deleted":"0","num_feature":"7","num_nodes":"81","size_leaf_vector":"1"}},{"base_weights":[4.2011835E-2,-9.2637754E-4,2.6263843E0,-5.7630073E-2,5.208125E-1,4.7487664E0,1.8421667E0,-4.273656E-2,-4.4675356E-1,2.2627378E0,4.0045345E-1,5.5676395E-1,6.0533066E0,8.8293344E-1,4.1826334E0,-4.967112E-2,8.604986E-1,-9.2958146E-1,6.619469E-1,2.2125232E-1,8.313443E0,-7.5642186E-1,5.600127E-1,2.0075227E-1,4.979153E-2,2.1055715E0,1.8404733E-1,2.2962403E-1,1.7525308E0,4.697819E0,1.6372776E-1,-6.1900847E-2,4.781579E-1,-1.2414472E0,-6.6415876E-2,8.6434263E-1,2.553062E-1,-7.799035E-1,1.0186734E0,7.276177E-1,3.013432E0,-1.4077415E0,2.5264518E0,5.295288E0,3.3678794E-1,-2.298187E-1,9.188076E-1,6.843186E-1,6.537342E-1,2.3029962E0,1.897493E0,-1.62296E-2,-2.2806758E-1,5.33591E-1,-8.0770925E-2,-1.5223E-1,-4.7561672E-1,6.8875754E-1,-1.3637808E-1,-5.09935E-2,4.1851252E-1,-7.931116E-2,-3.1064057E-1,6.258184E-1,-1.0960722E-2,-5.4701548E-2,-1.4407207E0,1.0139205E0,-5.009651E-3,3.5536354E0,6.6880584E-1,-2.8319867E-2,2.6806065E-1,-1.5044285E-1,2.5076753E-1,3.2392216E-1,4.126139E-2,2.3518603E-1,3.946152E-2,1.0286938E0,-1.6124296E-1],"categories":[],"categories_nodes":[],"categories_segments":[],"categories_sizes":[],"default_left":[0,0,0,0,0,0,0,0,0,0,0,0,0,0,0,0,0,0,0,0,0,0,0,0,0,0,0,0,0,0,0,0,0,0,0,0,0,0,0,0,0,0,0,0,0,0,0,0,0,0,0,0,0,0,0,0,0,0,0,0,0,0,0,0,0,0,0,0,0,0,0,0,0,0,0,0,0,0,0,0,0],"id":11,"left_children":[1,3,5,7,9,11,13,15,17,19,21,23,25,27,29,31,-1,33,35,37,39,41,43,-1,-1,-1,-1,45,47,49,-1,51,53,55,57,-1,59,61,63,-1,-1,65,67,69,71,73,75,-1,77,79,-1,-1,-1,-1,-1,-1,-1,-1,-1,-1,-1,-1,-1,-1,-1,-1,-1,-1,-1,-1,-1,-1,-1,-1,-1,-1,-1,-1,-1,-1,-1],"loss_changes":[2.1727843E2,5.7039394E1,4.4513092E1,1.0059135E1,3.871896E1,4.0378815E1,5.2433342E1,3.3975826E1,3.487527E1,1.4638977E2,3.328066E1,2.0723104E-2,2.7199356E1,1.0391783E1,1.0551781E1,1.0829155E1,0E0,1.2031181E1,1.7312727E1,8.777894E0,6.2199707E0,5.0596992E1,1.6417044E2,0E0,0E0,0E0,0E0,4.0108438E0,3.1547756E0,8.814133E0,0E0,8.87255E0,3.7413746E1,7.526634E0,1.2964452E1,0E0,8.961941E0,3.8501382E-1,6.83412E0,0E0,0E0,7.816106E1,8.736547E0,1.1416893E2,3.6333794E1,2.7352452E0,4.801545E-1,0E0,1.6887963E-1,1.4636293E1,0E0,0E0,0E0,0E0,0E0,0E0,0E0,0E0,0E0,0E0,0E0,0E0,0E0,0E0,0E0,0E0,0E0,0E0,0E0,0E0,0E0,0E0,0E0,0E0,0E0,0E0,0E0,0E0,0E0,0E0,0E0],"parents":[2147483647,0,0,1,1,2,2,3,3,4,4,5,5,6,6,7,7,8,8,9,9,10,10,11,11,12,12,13,13,14,14,15,15,17,17,18,18,19,19,20,20,21,21,22,22,27,27,28,28,29,29,31,31,32,32,33,33,34,34,36,36,37,37,38,38,41,41,42,42,43,43,44,44,45,45,46,46,48,48,49,49],"right_children":[2,4,6,8,10,12,14,16,18,20,22,24,26,28,30,32,-1,34,36,38,40,42,44,-1,-1,-1,-1,46,48,50,-1,52,54,56,58,-1,60,62,64,-1,-1,66,68,70,72,74,76,-1,78,80,-1,-1,-1,-1,-1,-1,-1,-1,-1,-1,-1,-1,-1,-1,-1,-1,-1,-1,-1,-1,-1,-1,-1,-1,-1,-1,-1,-1,-1,-1,-1],"split_conditions":[4.1E1,9.8E0,1.7713316E1,8.1E0,1.019E1,1.3246826E1,3.210112E1,7.93E0,7.5847497E0,2.8673721E1,1.2E1,4.7E1,4.1E1,6.3E1,1.17E2,5.8E0,8.604986E-1,3.0903435E1,1.21300125E2,1.019E1,9.8E0,1.58E1,1.213E1,2.0075227E-1,4.979153E-2,2.1055715E0,1.8404733E-1,2.8387545E1,4.5E1,5.9E1,1.6372776E-1,5.2E0,5.7951665E0,1.8391735E1,3.1869658E1,8.6434263E-1,1.5E1,2.97E0,4.3680835E0,7.276177E-1,3.013432E0,1.335E1,7.0847497E0,4.3680835E0,2.1E1,4.1E1,5.1E1,6.843186E-1,6.7E1,4.148912E1,1.897493E0,-1.62296E-2,-2.2806758E-1,5.33591E-1,-8.0770925E-2,-1.5223E-1,-4.7561672E-1,6.8875754E-1,-1.3637808E-1,-5.09935E-2,4.1851252E-1,-7.931116E-2,-3.1064057E-1,6.258184E-1,-1.0960722E-2,-5.4701548E-2,-1.4407207E0,1.0139205E0,-5.009651E-3,3.5536354E0,6.6880584E-1,-2.8319867E-2,2.6806065E-1,-1.5044285E-1,2.5076753E-1,3.2392216E-1,4.126139E-2,2.3518603E-1,3.946152E-2,1.0286938E0,-1.6124296E-1],"split_indices":[0,1,5,2,1,5,5,2,3,5,1,0,2,0,1,2,0,5,6,0,0,0,1,0,0,0,0,5,2,1,0,2,3,5,5,0,2,0,3,0,0,0,3,3,2,2,0,0,1,5,0,0,0,0,0,0,0,0,0,0,0,0,0,0,0,0,0,0,0,0,0,0,0,0,0,0,0,0,0,0,0],"split_type":[0,0,0,0,0,0,0,0,0,0,0,0,0,0,0,0,0,0,0,0,0,0,0,0,0,0,0,0,0,0,0,0,0,0,0,0,0,0,0,0,0,0,0,0,0,0,0,0,0,0,0,0,0,0,0,0,0,0,0,0,0,0,0,0,0,0,0,0,0,0,0,0,0,0,0,0,0,0,0,0,0],"sum_hessian":[1.957E3,1.926E3,3.1E1,1.738E3,1.88E2,7E0,2.4E1,1.675E3,6.3E1,1.1E1,1.77E2,2E0,5E0,1.8E1,6E0,1.672E3,3E0,4.4E1,1.9E1,9E0,2E0,2.1E1,1.56E2,1E0,1E0,4E0,1E0,1.1E1,7E0,5E0,1E0,1.635E3,3.7E1,3.2E1,1.2E1,2E0,1.7E1,4E0,5E0,1E0,1E0,1.8E1,3E0,6E0,1.5E2,7E0,4E0,4E0,3E0,3E0,2E0,1.618E3,1.7E1,1.3E1,2.4E1,1.1E1,2.1E1,1E0,1.1E1,1.3E1,4E0,2E0,2E0,2E0,3E0,1.4E1,4E0,2E0,1E0,1E0,5E0,8.5E1,6.5E1,6E0,1E0,3E0,1E0,2E0,1E0,2E0,1E0],"tree_param":{"num_deleted":"0","num_feature":"7","num_nodes":"81","size_leaf_vector":"1"}},{"base_weights":[3.8121473E-2,4.6276674E-3,2.0538852E0,-6.966108E-3,1.712124E0,1.3998817E0,3.8409104E0,-1.634355E-2,1.267524E0,9.554903E-1,1.6187594E0,1.0165061E0,3.1584773E0,5.254599E0,3.3407164E-1,-3.2761127E-3,-1.4650991E0,-1.5863037E0,2.5676856E0,1.3930687E0,-8.216012E-1,2.3174274E0,3.8382137E-1,1.354762E0,-1.3705646E-1,2.0263512E0,6.009484E-1,-2.9081147E-2,1.0295575E0,3.280716E-1,-2.2395928E0,-5.7449716E-1,-4.073353E-2,4.343806E0,-7.719574E-2,-6.404286E-2,1.5952933E0,-3.021269E-2,-3.3950788E-1,4.732488E-1,2.9604492E0,6.9065076E-1,-2.4266942E-1,-5.4885633E-3,-5.0145394E-1,3.6891556E-1,-4.1386873E-1,-5.2394974E-1,3.2768565E-1,-1.3372666E-1,-1.0371679E0,1.8951138E0,5.3337723E-1,-2.3898555E-1,4.2007428E-1,7.173214E-2,5.204785E-1,1.7063943E-1,4.2322543E-2,1.0319484E0,1.5644017E-1,-1.3533555E-1,2.9835048E-1,-2.6304665E-1,8.8083744E-2],"categories":[],"categories_nodes":[],"categories_segments":[],"categories_sizes":[],"default_left":[0,0,0,0,0,0,0,0,0,0,0,0,0,0,0,0,0,0,0,0,0,0,0,0,0,0,0,0,0,0,0,0,0,0,0,0,0,0,0,0,0,0,0,0,0,0,0,0,0,0,0,0,0,0,0,0,0,0,0,0,0,0,0,0,0],"id":12,"left_children":[1,3,5,7,9,11,13,15,17,19,-1,21,23,25,-1,27,29,31,33,35,37,39,41,-1,-1,-1,-1,43,45,47,49,-1,-1,51,53,-1,55,-1,-1,57,59,61,63,-1,-1,-1,-1,-1,-1,-1,-1,-1,-1,-1,-1,-1,-1,-1,-1,-1,-1,-1,-1,-1,-1],"loss_changes":[1.3218602E2,3.8159454E1,3.2022247E1,2.290776E1,3.1078457E1,1.3644455E1,2.4993477E1,3.6002956E1,5.6019245E1,1.047595E1,0E0,1.7218132E1,2.169284E1,1.0853882E1,0E0,5.029619E1,2.4344341E1,2.123829E0,4.7311584E1,3.589384E0,5.566566E-1,6.8998985E0,3.2432122E0,0E0,0E0,0E0,0E0,3.2583046E1,2.3878216E1,1.142017E1,2.4669746E1,0E0,0E0,1.914737E1,6.429994E0,0E0,1.289505E0,0E0,0E0,1.4973581E-2,4.052227E0,4.2648396E0,2.2979538E0,0E0,0E0,0E0,0E0,0E0,0E0,0E0,0E0,0E0,0E0,0E0,0E0,0E0,0E0,0E0,0E0,0E0,0E0,0E0,0E0,0E0,0E0],"parents":[2147483647,0,0,1,1,2,2,3,3,4,4,5,5,6,6,7,7,8,8,9,9,11,11,12,12,13,13,15,15,16,16,17,17,18,18,19,19,20,20,21,21,22,22,27,27,28,28,29,29,30,30,33,33,34,34,36,36,39,39,40,40,41,41,42,42],"right_children":[2,4,6,8,10,12,14,16,18,20,-1,22,24,26,-1,28,30,32,34,36,38,40,42,-1,-1,-1,-1,44,46,48,50,-1,-1,52,54,-1,56,-1,-1,58,60,62,64,-1,-1,-1,-1,-1,-1,-1,-1,-1,-1,-1,-1,-1,-1,-1,-1,-1,-1,-1,-1,-1,-1],"split_conditions":[4.1E1,5E1,6.9E1,3.6E1,1.4845164E1,3.210112E1,4.5E1,2.7E1,2.4E1,1.3655581E1,1.6187594E0,1.7713316E1,5.1E1,6.2139173E0,3.3407164E-1,1.9E1,2.2E1,2.1E1,7.882666E0,8.23E0,2.11E1,1.3246826E1,3.1E0,1.354762E0,-1.3705646E-1,2.0263512E0,6.009484E-1,1.727E1,3.5E1,1.848557E2,2.5264202E1,-5.7449716E-1,-4.073353E-2,2.9E1,2.0453499E1,-6.404286E-2,-6.929833E0,-3.021269E-2,-3.3950788E-1,4.7E1,4.1E1,2.1915691E1,6.7000003E0,-5.4885633E-3,-5.0145394E-1,3.6891556E-1,-4.1386873E-1,-5.2394974E-1,3.2768565E-1,-1.3372666E-1,-1.0371679E0,1.8951138E0,5.3337723E-1,-2.3898555E-1,4.2007428E-1,7.173214E-2,5.204785E-1,1.7063943E-1,4.2322543E-2,1.0319484E0,1.5644017E-1,-1.3533555E-1,2.9835048E-1,-2.6304665E-1,8.8083744E-2],"split_indices":[0,2,0,1,3,5,2,1,2,3,0,5,0,3,0,0,2,2,3,0,0,5,4,0,0,0,0,0,2,6,5,0,0,0,3,0,3,0,0,0,2,5,4,0,0,0,0,0,0,0,0,0,0,0,0,0,0,0,0,0,0,0,0,0,0],"split_type":[0,0,0,0,0,0,0,0,0,0,0,0,0,0,0,0,0,0,0,0,0,0,0,0,0,0,0,0,0,0,0,0,0,0,0,0,0,0,0,0,0,0,0,0,0,0,0,0,0,0,0,0,0,0,0,0,0,0,0,0,0,0,0,0,0],"sum_hessian":[1.957E3,1.926E3,3.1E1,1.914E3,1.2E1,2.4E1,7E0,1.901E3,1.3E1,1.1E1,1E0,2.1E1,3E0,4E0,3E0,1.885E3,1.6E1,4E0,9E0,9E0,2E0,6E0,1.5E1,2E0,1E0,2E0,2E0,1.84E3,4.5E1,5E0,1.1E1,3E0,1E0,5E0,4E0,1E0,8E0,1E0,1E0,2E0,4E0,1E1,5E0,1.829E3,1.1E1,4.2E1,3E0,1E0,4E0,5E0,6E0,2E0,3E0,3E0,1E0,1E0,7E0,1E0,1E0,3E0,1E0,2E0,8E0,2E0,3E0],"tree_param":{"num_deleted":"0","num_feature":"7","num_nodes":"65","size_leaf_vector":"1"}},{"base_weights":[3.0475097E-2,4.200703E-3,1.6117339E0,-3.4262396E-2,3.5807967E-1,1.0842009E0,3.0588078E0,-2.0097673E-2,-3.096548E-1,4.4983512E-1,-1.1675842E0,7.7470803E-1,2.5153608E0,4.203678E0,2.589054E-1,-3.666302E-2,6.0176283E-1,-1.350719E0,-1.9890904E-1,2.8244162E-1,1.6315777E0,1.16216026E-1,-1.465786E0,1.8223909E0,2.6792753E-1,1.0838097E0,-1.16498E-1,1.6210809E0,4.807583E-1,-3.9644796E-2,7.154945E-1,-1.1736386E0,9.795808E-1,-1.6628517E0,-8.2864195E-2,-2.7491141E-2,-1.0538839E0,5.232954E-1,-8.5449725E-1,2.5978646E0,-3.8415718E-1,7.085124E-2,-1.855402E-2,-4.1615296E-2,-4.8429897E-1,4.022611E-1,2.3099906E0,9.066214E-2,3.0175707E-1,-1.0869778E-2,-4.2068827E-1,-5.683163E-3,-5.588E-1,5.676387E-1,-4.5488287E-2,-6.1321855E-1,-1.800864E-1,-1.3897762E-1,1.5326156E-1,-5.6009746E-1,1.8614599E-1,1.1891245E-1,1.7419347E0,5.009674E-1,-5.843242E-1,5.2496946E-1,1.3476894E0,-2.8570718E-1,5.3898644E-1,1.4504357E-1,3.5973933E-2,7.997595E-1,1.3297406E-1,-7.685462E-2,9.354541E-2],"categories":[],"categories_nodes":[],"categories_segments":[],"categories_sizes":[],"default_left":[0,0,0,0,0,0,0,0,0,0,0,0,0,0,0,0,0,0,0,0,0,0,0,0,0,0,0,0,0,0,0,0,0,0,0,0,0,0,0,0,0,0,0,0,0,0,0,0,0,0,0,0,0,0,0,0,0,0,0,0,0,0,0,0,0,0,0,0,0,0,0,0,0,0,0],"id":13,"left_children":[1,3,5,7,9,11,13,15,17,19,21,23,25,27,-1,29,31,33,35,37,39,41,43,45,47,-1,-1,-1,-1,49,-1,51,53,55,-1,57,59,61,63,65,67,-1,-1,-1,-1,69,71,73,-1,-1,-1,-1,-1,-1,-1,-1,-1,-1,-1,-1,-1,-1,-1,-1,-1,-1,-1,-1,-1,-1,-1,-1,-1,-1,-1],"loss_changes":[8.13415E1,2.6241209E1,2.111177E1,6.7773676E0,2.6982944E1,9.12467E0,1.6483307E1,1.7070772E1,9.531271E0,3.4948246E1,4.3814936E0,1.1192528E1,1.4148214E1,6.9465027E0,0E0,1.17417145E1,2.999315E1,2.2238016E0,1.1402552E1,4.3713253E1,4.3849102E1,7.8684814E-2,1.5502148E0,3.9179668E0,2.0017562E0,0E0,0E0,0E0,0E0,7.4444146E0,0E0,6.329651E0,3.744906E1,1.2033329E0,0E0,1.572034E1,1.885721E1,8.553932E1,8.052657E1,1.6235168E1,1.1623972E1,0E0,0E0,0E0,0E0,1.08193755E-2,2.1399918E0,1.153775E0,0E0,0E0,0E0,0E0,0E0,0E0,0E0,0E0,0E0,0E0,0E0,0E0,0E0,0E0,0E0,0E0,0E0,0E0,0E0,0E0,0E0,0E0,0E0,0E0,0E0,0E0,0E0],"parents":[2147483647,0,0,1,1,2,2,3,3,4,4,5,5,6,6,7,7,8,8,9,9,10,10,11,11,12,12,13,13,15,15,16,16,17,17,18,18,19,19,20,20,21,21,22,22,23,23,24,24,29,29,31,31,32,32,33,33,35,35,36,36,37,37,38,38,39,39,40,40,45,45,46,46,47,47],"right_children":[2,4,6,8,10,12,14,16,18,20,22,24,26,28,-1,30,32,34,36,38,40,42,44,46,48,-1,-1,-1,-1,50,-1,52,54,56,-1,58,60,62,64,66,68,-1,-1,-1,-1,70,72,74,-1,-1,-1,-1,-1,-1,-1,-1,-1,-1,-1,-1,-1,-1,-1,-1,-1,-1,-1,-1,-1,-1,-1,-1,-1,-1,-1],"split_conditions":[4.1E1,9.8E0,6.9E1,7.65E0,3.6E1,3.210112E1,4.5E1,5.52E0,1.4759999E1,1.4845164E1,1.9285002E0,1.7713316E1,5.1E1,6.2139173E0,2.589054E-1,1.727E1,1.14166626E2,6.73E0,8.23E0,1.0538917E1,2.5197227E2,2.4E1,9.83268E0,1.3246826E1,3.1526215E1,1.0838097E0,-1.16498E-1,1.6210809E0,4.807583E-1,9.36E0,7.154945E-1,5.8E0,2.4270154E2,2.1493335E0,-8.2864195E-2,3.19E0,2.6552288E1,9.855583E0,2E-1,2.2E1,4E0,7.085124E-2,-1.855402E-2,-4.1615296E-2,-4.8429897E-1,4.7E1,4.1E1,3.5E1,3.0175707E-1,-1.0869778E-2,-4.2068827E-1,-5.683163E-3,-5.588E-1,5.676387E-1,-4.5488287E-2,-6.1321855E-1,-1.800864E-1,-1.3897762E-1,1.5326156E-1,-5.6009746E-1,1.8614599E-1,1.1891245E-1,1.7419347E0,5.009674E-1,-5.843242E-1,5.2496946E-1,1.3476894E0,-2.8570718E-1,5.3898644E-1,1.4504357E-1,3.5973933E-2,7.997595E-1,1.3297406E-1,-7.685462E-2,9.354541E-2],"split_indices":[0,0,0,2,0,5,2,2,5,3,3,5,0,3,0,1,6,0,0,3,6,1,5,5,5,0,0,0,0,0,0,2,6,3,0,0,5,3,4,2,4,0,0,0,0,0,2,2,0,0,0,0,0,0,0,0,0,0,0,0,0,0,0,0,0,0,0,0,0,0,0,0,0,0,0],"split_type":[0,0,0,0,0,0,0,0,0,0,0,0,0,0,0,0,0,0,0,0,0,0,0,0,0,0,0,0,0,0,0,0,0,0,0,0,0,0,0,0,0,0,0,0,0,0,0,0,0,0,0,0,0,0,0,0,0,0,0,0,0,0,0,0,0,0,0,0,0,0,0,0,0,0,0],"sum_hessian":[1.957E3,1.926E3,3.1E1,1.738E3,1.88E2,2.4E1,7E0,1.654E3,8.4E1,1.78E2,1E1,2.1E1,3E0,4E0,3E0,1.612E3,4.2E1,7E0,7.7E1,1.57E2,2.1E1,2E0,8E0,6E0,1.5E1,2E0,1E0,2E0,2E0,1.611E3,1E0,7E0,3.5E1,5E0,2E0,6.5E1,1.2E1,1.3E2,2.7E1,1.4E1,7E0,1E0,1E0,1E0,7E0,2E0,4E0,1.3E1,2E0,1.608E3,3E0,3E0,4E0,1.9E1,1.6E1,3E0,2E0,3.6E1,2.9E1,8E0,4E0,1.28E2,2E0,8E0,1.9E1,1.1E1,3E0,6E0,1E0,1E0,1E0,3E0,1E0,5E0,8E0],"tree_param":{"num_deleted":"0","num_feature":"7","num_nodes":"75","size_leaf_vector":"1"}},{"base_weights":[2.5007691E-2,-1.3536157E-3,1.199037E0,-7.7817272E-3,2.0462255E0,2.2224653E0,6.814691E-1,2.5629667E-3,-9.389262E-1,8.9041483E-1,1.1737919E0,4.5743704E0,8.2426643E-1,-4.5384794E-1,9.813103E-1,-1.8133778E-2,7.496246E-1,9.758866E-2,-1.4641544E0,2.6960852E-2,3.2042515E-1,8.3640736E-1,2.036263E0,1.4158347E0,-4.1704464E-1,5.6047755E-1,2.1036212E0,-9.581467E-3,-1.3208499E0,1.0465586E0,-3.0262432E-1,3.179798E-1,-3.9984813E-1,-2.2643957E0,4.2915916E-1,-8.57131E-2,4.6209642E-1,5.710125E-2,1.867966E0,4.3135643E-2,-1.9557495E-1,1.1442652E0,2.5067812E-1,-9.9023156E-2,2.5642507E0,-4.927756E-3,3.7132177E-1,-8.755752E-1,-1.3919546E-1,6.845685E-1,1.67615E-1,-3.7578622E-1,3.7911132E-3,1.6603109E-1,-3.0445498E-1,-8.144463E-1,-9.253883E-2,2.7542725E-1,-6.0847666E-2,6.3884383E-1,1.2328692E-1,9.6903525E-2,4.224493E-1,-1.3033448E-1,1.1685038E-1,9.030413E-1,5.02224E-2],"categories":[],"categories_nodes":[],"categories_segments":[],"categories_sizes":[],"default_left":[0,0,0,0,0,0,0,0,0,0,0,0,0,0,0,0,0,0,0,0,0,0,0,0,0,0,0,0,0,0,0,0,0,0,0,0,0,0,0,0,0,0,0,0,0,0,0,0,0,0,0,0,0,0,0,0,0,0,0,0,0,0,0,0,0,0,0],"id":14,"left_children":[1,3,5,7,9,11,13,15,17,19,-1,21,23,-1,25,27,29,31,33,-1,-1,35,-1,37,39,41,43,45,47,49,51,-1,53,55,57,-1,-1,-1,59,-1,-1,61,63,-1,65,-1,-1,-1,-1,-1,-1,-1,-1,-1,-1,-1,-1,-1,-1,-1,-1,-1,-1,-1,-1,-1,-1],"loss_changes":[6.0599655E1,2.5234442E1,2.1262283E1,1.8409931E1,9.459459E0,4.2267532E1,2.122276E1,2.9251749E1,1.1575428E1,6.1517215E-1,0E0,3.568663E1,7.933668E0,0E0,1.1573214E1,2.0498356E1,1.6251587E1,4.2534547E0,2.2183296E1,0E0,0E0,2.8097088E0,0E0,3.523055E0,6.206291E-1,3.5111556E0,8.693632E0,1.5643302E1,1.5074331E1,2.2831028E1,3.609795E0,0E0,4.0792875E0,7.9725914E0,1.7311988E0,0E0,0E0,0E0,1.030016E0,0E0,0E0,1.0622425E0,1.5958891E0,0E0,5.9084015E0,0E0,0E0,0E0,0E0,0E0,0E0,0E0,0E0,0E0,0E0,0E0,0E0,0E0,0E0,0E0,0E0,0E0,0E0,0E0,0E0,0E0,0E0],"parents":[2147483647,0,0,1,1,2,2,3,3,4,4,5,5,6,6,7,7,8,8,9,9,11,11,12,12,14,14,15,15,16,16,17,17,18,18,21,21,23,23,24,24,25,25,26,26,27,27,28,28,29,29,30,30,32,32,33,33,34,34,38,38,41,41,42,42,44,44],"right_children":[2,4,6,8,10,12,14,16,18,20,-1,22,24,-1,26,28,30,32,34,-1,-1,36,-1,38,40,42,44,46,48,50,52,-1,54,56,58,-1,-1,-1,60,-1,-1,62,64,-1,66,-1,-1,-1,-1,-1,-1,-1,-1,-1,-1,-1,-1,-1,-1,-1,-1,-1,-1,-1,-1,-1,-1],"split_conditions":[3.6E1,5E1,2.0665535E1,2.7E1,1.3320167E1,2.6E1,2.1915691E1,1.9E1,2.2E1,8.23E0,1.1737919E0,2.1E1,1.7713316E1,-4.5384794E-1,3.2809414E1,1.727E1,2.6109778E2,1.6000003E0,3.9E1,2.6960852E-2,3.2042515E-1,3.9E1,2.036263E0,2.9E1,4.7E1,2.3828083E1,1.328E1,1.7E1,4.4076667E0,6.743333E-1,-2.96525E0,3.179798E-1,3.2E1,3.9E1,4.7E1,-8.57131E-2,4.6209642E-1,5.710125E-2,6.6E1,4.3135643E-2,-1.9557495E-1,4.1E1,2.4E1,-9.9023156E-2,1.17E2,-4.927756E-3,3.7132177E-1,-8.755752E-1,-1.3919546E-1,6.845685E-1,1.67615E-1,-3.7578622E-1,3.7911132E-3,1.6603109E-1,-3.0445498E-1,-8.144463E-1,-9.253883E-2,2.7542725E-1,-6.0847666E-2,6.3884383E-1,1.2328692E-1,9.6903525E-2,4.224493E-1,-1.3033448E-1,1.1685038E-1,9.030413E-1,5.02224E-2],"split_indices":[1,2,5,1,3,2,5,0,2,1,0,2,5,0,5,0,6,4,2,0,0,0,0,2,1,5,2,0,3,3,3,0,1,0,2,0,0,0,2,0,0,2,2,0,1,0,0,0,0,0,0,0,0,0,0,0,0,0,0,0,0,0,0,0,0,0,0],"split_type":[0,0,0,0,0,0,0,0,0,0,0,0,0,0,0,0,0,0,0,0,0,0,0,0,0,0,0,0,0,0,0,0,0,0,0,0,0,0,0,0,0,0,0,0,0,0,0,0,0,0,0,0,0,0,0,0,0,0,0,0,0,0,0,0,0,0,0],"sum_hessian":[1.957E3,1.915E3,4.2E1,1.91E3,5E0,1.3E1,2.9E1,1.89E3,2E1,4E0,1E0,4E0,9E0,3E0,2.6E1,1.84E3,5E1,7E0,1.3E1,1E0,3E0,2E0,2E0,6E0,3E0,2E1,6E0,1.829E3,1.1E1,3.9E1,1.1E1,2E0,5E0,9E0,4E0,1E0,1E0,2E0,4E0,1E0,2E0,6E0,1.4E1,1E0,5E0,1.82E3,9E0,3E0,8E0,1E1,2.9E1,2E0,9E0,2E0,3E0,7E0,2E0,2E0,2E0,3E0,1E0,2E0,4E0,2E0,1.2E1,4E0,1E0],"tree_param":{"num_deleted":"0","num_feature":"7","num_nodes":"67","size_leaf_vector":"1"}},{"base_weights":[1.997005E-2,-5.0905213E-4,9.320164E-1,-5.803595E-3,1.6858877E0,1.7756854E0,5.072369E-1,1.7051302E-3,-6.8167007E-1,6.927673E-1,9.977234E-1,3.6845882E0,6.4366543E-1,-1.1724405E0,7.3729146E-1,-6.7950203E-3,1.0652436E0,-1.2116777E0,-8.9692466E-2,2.2916794E-2,2.4832936E-1,7.109458E-1,1.6290104E0,1.108117E0,-3.3004117E-1,-4.661861E-1,-1.5818548E-1,4.164229E-1,1.5945699E0,-2.4168703E-3,-1.1760414E0,1.7036372E0,-5.522709E-1,-1.9132658E0,-3.0814314E-1,9.769211E-1,-6.117877E-1,-7.285624E-2,3.9278185E-1,5.404866E-1,4.703907E-1,3.6665156E-2,-5.21533E-1,8.7517846E-1,1.7457542E-1,-8.416958E-2,1.9538532E0,-2.5408089E-3,1.1307274E0,-5.7381356E-1,-4.3608144E-2,8.7203526E-1,2.6673275E-1,-3.5804692E-1,8.1911474E-2,-7.3643446E-2,-6.593183E-1,-2.0100297E-1,8.311806E-2,3.4295923E-1,7.1713835E-2,9.143415E-2,-3.668054E-1,4.5681003E-2,1.8951437E-1,-4.8089363E-2,-1.866005E-1,7.752285E-2,3.2106125E-1,6.4017777E-3,1.7719203E-1,7.818685E-1,1.2982064E-1],"categories":[],"categories_nodes":[],"categories_segments":[],"categories_sizes":[],"default_left":[0,0,0,0,0,0,0,0,0,0,0,0,0,0,0,0,0,0,0,0,0,0,0,0,0,0,0,0,0,0,0,0,0,0,0,0,0,0,0,0,0,0,0,0,0,0,0,0,0,0,0,0,0,0,0,0,0,0,0,0,0,0,0,0,0,0,0,0,0,0,0,0,0],"id":15,"left_children":[1,3,5,7,9,11,13,15,17,19,-1,21,23,25,27,29,31,33,35,-1,-1,37,-1,39,41,-1,-1,43,45,47,49,51,53,55,57,59,61,-1,-1,-1,63,-1,65,67,69,-1,71,-1,-1,-1,-1,-1,-1,-1,-1,-1,-1,-1,-1,-1,-1,-1,-1,-1,-1,-1,-1,-1,-1,-1,-1,-1,-1],"loss_changes":[3.657178E1,1.7117172E1,1.4509354E1,9.699288E0,7.4674854E0,2.7881184E1,1.2456953E1,1.7102327E1,6.4801254E0,3.5281396E-1,0E0,2.2091217E1,4.888119E0,1.6516542E-1,6.7629757E0,9.605776E0,1.6430035E1,6.383442E0,6.7232804E0,0E0,0E0,2.0300148E0,0E0,2.2483988E0,4.1015542E-1,0E0,0E0,2.1771414E0,5.264118E0,4.274128E1,5.036873E0,8.195515E0,2.9718869E0,2.3070374E0,1.4562266E0,2.1748781E-1,4.85208E0,0E0,0E0,0E0,1.6041112E-1,0E0,9.172916E-3,5.654497E-1,9.4373846E-1,0E0,4.826227E0,0E0,0E0,0E0,0E0,0E0,0E0,0E0,0E0,0E0,0E0,0E0,0E0,0E0,0E0,0E0,0E0,0E0,0E0,0E0,0E0,0E0,0E0,0E0,0E0,0E0,0E0],"parents":[2147483647,0,0,1,1,2,2,3,3,4,4,5,5,6,6,7,7,8,8,9,9,11,11,12,12,13,13,14,14,15,15,16,16,17,17,18,18,21,21,23,23,24,24,27,27,28,28,29,29,30,30,31,31,32,32,33,33,34,34,35,35,36,36,40,40,42,42,43,43,44,44,46,46],"right_children":[2,4,6,8,10,12,14,16,18,20,-1,22,24,26,28,30,32,34,36,-1,-1,38,-1,40,42,-1,-1,44,46,48,50,52,54,56,58,60,62,-1,-1,-1,64,-1,66,68,70,-1,72,-1,-1,-1,-1,-1,-1,-1,-1,-1,-1,-1,-1,-1,-1,-1,-1,-1,-1,-1,-1,-1,-1,-1,-1,-1,-1],"split_conditions":[3.6E1,5E1,2.0665535E1,2.7E1,1.3320167E1,2.6E1,2.1915691E1,3.2E1,2.0656499E2,8.23E0,9.977234E-1,2.1E1,1.7713316E1,1.882E1,3.2809414E1,3.5E1,1.225975E1,2.405E1,1E-1,2.2916794E-2,2.4832936E-1,3.9E1,1.6290104E0,3.2E1,4.7E1,-4.661861E-1,-1.5818548E-1,2.3828083E1,1.328E1,3.2E1,2.11E1,3.6E1,2.1E1,7.1E0,2.4490587E1,3.2E1,2.1E1,-7.285624E-2,3.9278185E-1,5.404866E-1,4.7E1,3.6665156E-2,8.23E0,4.1E1,1.5038917E1,-8.416958E-2,5E1,-2.5408089E-3,1.1307274E0,-5.7381356E-1,-4.3608144E-2,8.7203526E-1,2.6673275E-1,-3.5804692E-1,8.1911474E-2,-7.3643446E-2,-6.593183E-1,-2.0100297E-1,8.311806E-2,3.4295923E-1,7.1713835E-2,9.143415E-2,-3.668054E-1,4.5681003E-2,1.8951437E-1,-4.8089363E-2,-1.866005E-1,7.752285E-2,3.2106125E-1,6.4017777E-3,1.7719203E-1,7.818685E-1,1.2982064E-1],"split_indices":[1,2,5,1,3,2,5,0,6,1,0,2,5,0,5,2,3,0,4,0,0,0,0,0,1,0,0,5,2,2,1,0,2,0,5,0,2,0,0,0,1,0,0,2,3,0,2,0,0,0,0,0,0,0,0,0,0,0,0,0,0,0,0,0,0,0,0,0,0,0,0,0,0],"split_type":[0,0,0,0,0,0,0,0,0,0,0,0,0,0,0,0,0,0,0,0,0,0,0,0,0,0,0,0,0,0,0,0,0,0,0,0,0,0,0,0,0,0,0,0,0,0,0,0,0,0,0,0,0,0,0,0,0,0,0,0,0,0,0,0,0,0,0,0,0,0,0,0,0],"sum_hessian":[1.957E3,1.915E3,4.2E1,1.91E3,5E0,1.3E1,2.9E1,1.89E3,2E1,4E0,1E0,4E0,9E0,3E0,2.6E1,1.876E3,1.4E1,1E1,1E1,1E0,3E0,2E0,2E0,6E0,3E0,1E0,2E0,2E1,6E0,1.87E3,6E0,1E1,4E0,5E0,5E0,3E0,7E0,1E0,1E0,2E0,4E0,1E0,2E0,6E0,1.4E1,1E0,5E0,1.868E3,2E0,3E0,3E0,3E0,7E0,2E0,2E0,1E0,4E0,3E0,2E0,2E0,1E0,3E0,4E0,2E0,2E0,1E0,1E0,2E0,4E0,1.1E1,3E0,3E0,2E0],"tree_param":{"num_deleted":"0","num_feature":"7","num_nodes":"73","size_leaf_vector":"1"}},{"base_weights":[1.6656613E-2,6.513732E-4,7.2943294E-1,-3.716205E-3,1.3916165E0,1.4234506E0,3.8124362E-1,1.3879356E-2,-2.489253E-1,5.391865E-1,8.48065E-1,2.9689984E0,5.0833166E-1,-8.34832E-1,6.004411E-1,-5.192599E-2,1.2337053E-1,-1.4090763E-1,-9.459285E-1,2.1832219E-1,5.127106E-2,3.8144608E0,-6.1927702E-2,8.86494E-1,-2.8053522E-1,-3.4713978E-1,-7.027626E-2,2.765569E-1,1.4400471E0,-5.02915E-2,-1.4799999E-1,-2.6282394E-1,2.08109E-1,-1.8300083E-1,6.797157E-1,-1.3188381E0,2.1282196E-1,3.338642E-1,1.3032081E0,4.3238947E-1,3.7631264E-1,3.116541E-2,-4.4330344E-1,-1.265484E-1,3.7759012E-1,5.002556E-1,6.059481E-1,1.5775396E-2,-1.6677592E-2,-1.8554106E-1,2.9139256E-2,1.18644804E-1,-3.3489022E-2,-1.3138958E-2,-1.5758786E-1,-5.0960344E-1,1.5405637E-1,1.3957787E-2,9.24532E-2,3.6544804E-2,1.5161154E-1,-4.087601E-2,-1.5861054E-1,1.9250415E-1,3.0644933E-2,1.8462525E-1,2.3215486E-2],"categories":[],"categories_nodes":[],"categories_segments":[],"categories_sizes":[],"default_left":[0,0,0,0,0,0,0,0,0,0,0,0,0,0,0,0,0,0,0,0,0,0,0,0,0,0,0,0,0,0,0,0,0,0,0,0,0,0,0,0,0,0,0,0,0,0,0,0,0,0,0,0,0,0,0,0,0,0,0,0,0,0,0,0,0,0,0],"id":16,"left_children":[1,3,5,7,9,11,13,15,17,19,-1,21,23,25,27,29,31,33,35,-1,-1,37,-1,39,41,-1,-1,43,45,47,-1,49,51,53,-1,55,57,-1,-1,-1,59,-1,61,-1,63,65,-1,-1,-1,-1,-1,-1,-1,-1,-1,-1,-1,-1,-1,-1,-1,-1,-1,-1,-1,-1,-1],"loss_changes":[2.2336693E1,1.1645158E1,9.848249E0,8.24864E0,5.8165684E0,1.8291805E1,8.498089E0,1.2860312E1,9.50366E0,2.2283292E-1,0E0,1.4210911E1,3.2318904E0,6.9676924E-1,6.672059E0,7.796364E-1,2.1980799E1,1.1760523E1,7.6265316E0,0E0,0E0,8.8827896E-1,0E0,1.4389763E0,2.9633775E-1,0E0,0E0,1.5704793E0,2.8036737E0,6.0928774E-1,0E0,1.5550077E1,3.2995026E1,5.265979E0,0E0,9.920349E0,6.4947814E-2,0E0,0E0,0E0,1.026631E-1,0E0,6.6273212E-3,0E0,1.2437932E0,1.471703E-1,0E0,0E0,0E0,0E0,0E0,0E0,0E0,0E0,0E0,0E0,0E0,0E0,0E0,0E0,0E0,0E0,0E0,0E0,0E0,0E0,0E0],"parents":[2147483647,0,0,1,1,2,2,3,3,4,4,5,5,6,6,7,7,8,8,9,9,11,11,12,12,13,13,14,14,15,15,16,16,17,17,18,18,21,21,23,23,24,24,27,27,28,28,29,29,31,31,32,32,33,33,35,35,36,36,40,40,42,42,44,44,45,45],"right_children":[2,4,6,8,10,12,14,16,18,20,-1,22,24,26,28,30,32,34,36,-1,-1,38,-1,40,42,-1,-1,44,46,48,-1,50,52,54,-1,56,58,-1,-1,-1,60,-1,62,-1,64,66,-1,-1,-1,-1,-1,-1,-1,-1,-1,-1,-1,-1,-1,-1,-1,-1,-1,-1,-1,-1,-1],"split_conditions":[3.6E1,5E1,2.0665535E1,3.215543E2,1.3320167E1,2.6E1,2.4E1,6E-1,5.53E0,7.5847497E0,8.48065E-1,4.7E1,1.7713316E1,2.2835751E2,3.1526215E1,1E0,1.14166626E2,5.2E0,2.2E1,2.1832219E-1,5.127106E-2,1.705E1,-6.1927702E-2,3.2E1,4.7E1,-3.4713978E-1,-7.027626E-2,2.1915691E1,2E-1,-6.9416665E-2,-1.4799999E-1,1E-1,1.6E0,1.33E0,6.797157E-1,8.441E0,4.1E1,3.338642E-1,1.3032081E0,4.3238947E-1,4.7E1,3.116541E-2,8.23E0,-1.265484E-1,2.7729347E1,5.9E1,6.059481E-1,1.5775396E-2,-1.6677592E-2,-1.8554106E-1,2.9139256E-2,1.18644804E-1,-3.3489022E-2,-1.3138958E-2,-1.5758786E-1,-5.0960344E-1,1.5405637E-1,1.3957787E-2,9.24532E-2,3.6544804E-2,1.5161154E-1,-4.087601E-2,-1.5861054E-1,1.9250415E-1,3.0644933E-2,1.8462525E-1,2.3215486E-2],"split_indices":[1,2,5,6,3,2,2,1,0,3,0,1,5,6,5,0,6,0,2,0,0,2,0,0,1,0,0,5,4,3,0,4,4,2,0,3,0,0,0,0,1,0,0,0,5,1,0,0,0,0,0,0,0,0,0,0,0,0,0,0,0,0,0,0,0,0,0],"split_type":[0,0,0,0,0,0,0,0,0,0,0,0,0,0,0,0,0,0,0,0,0,0,0,0,0,0,0,0,0,0,0,0,0,0,0,0,0,0,0,0,0,0,0,0,0,0,0,0,0,0,0,0,0,0,0,0,0,0,0,0,0,0,0,0,0,0,0],"sum_hessian":[1.957E3,1.915E3,4.2E1,1.91E3,5E0,1.3E1,2.9E1,1.783E3,1.27E2,4E0,1E0,4E0,9E0,4E0,2.5E1,1.114E3,6.69E2,1.11E2,1.6E1,2E0,2E0,3E0,1E0,6E0,3E0,2E0,2E0,1.9E1,6E0,1.111E3,3E0,1.2E2,5.49E2,1.1E2,1E0,1.2E1,4E0,1E0,2E0,2E0,4E0,1E0,2E0,2E0,1.7E1,3E0,3E0,5.4E1,1.057E3,6E1,6E1,3.46E2,2.03E2,7.9E1,3.1E1,1E1,2E0,2E0,2E0,2E0,2E0,1E0,1E0,8E0,9E0,2E0,1E0],"tree_param":{"num_deleted":"0","num_feature":"7","num_nodes":"67","size_leaf_vector":"1"}},{"base_weights":[1.3537948E-2,-7.3297094E-3,3.7106106E-1,-1.6717782E-2,8.987581E-1,1.1741645E0,1.7519474E-1,-8.550423E-3,-7.5067616E-1,6.6763796E-2,2.0344048E0,6.490883E-1,2.3786738E0,-9.6823096E-1,3.511157E-1,-1.5018844E-4,-1.1813408E0,-1.4020474E-1,5.157521E-1,3.3633327E0,-1.3535643E-1,6.7845535E-1,2.5720426E-1,-2.8098107E-3,8.5744655E-1,-4.9890915E-1,-4.1295242E-1,1.3190805E0,1.3388723E-1,-1.3643548E-2,4.5784846E-1,-5.7164204E-1,-3.0231228E0,4.3979326E-1,-3.6874607E-1,6.199805E-2,2.8155214E-1,3.7548393E-1,1.3061825E0,-1.9337912E-1,7.477684E-2,-4.079932E-1,9.806865E-1,-5.941445E-1,1.2830888E-1,2.2251682E0,-2.5989804E-1,1.2315046E0,-9.2180885E-2,-1.3336708E-3,-3.2593343E-1,1.2557921E0,-3.5828456E-2,-4.000173E-1,1.8274046E-1,-1.311208E0,-4.9197294E-2,1.8611842E-1,1.1788559E-2,-1.3866425E-1,2.8809357E-2,2.8701069E-2,-8.0194476E-4,-3.3360338E-1,7.104595E-2,2.9657938E-2,3.9409354E-1,-1.8487168E-2,-2.3844843E-1,1.5453541E-1,1.0470555E0,-1.09116614E-1,3.8883306E-2,6.993347E-1,-2.2007085E-2,-2.5847465E-1,1.15724616E-1],"categories":[],"categories_nodes":[],"categories_segments":[],"categories_sizes":[],"default_left":[0,0,0,0,0,0,0,0,0,0,0,0,0,0,0,0,0,0,0,0,0,0,0,0,0,0,0,0,0,0,0,0,0,0,0,0,0,0,0,0,0,0,0,0,0,0,0,0,0,0,0,0,0,0,0,0,0,0,0,0,0,0,0,0,0,0,0,0,0,0,0,0,0,0,0,0,0],"id":17,"left_children":[1,3,5,7,9,11,13,15,-1,17,19,21,23,25,27,29,31,33,35,37,39,-1,41,-1,-1,-1,43,45,47,49,51,53,55,57,59,61,-1,-1,-1,-1,-1,63,65,67,-1,69,71,73,75,-1,-1,-1,-1,-1,-1,-1,-1,-1,-1,-1,-1,-1,-1,-1,-1,-1,-1,-1,-1,-1,-1,-1,-1,-1,-1,-1,-1],"loss_changes":[1.4610711E1,1.5760406E1,1.6782795E1,3.718899E1,1.7816355E1,1.1737673E1,1.8041386E1,1.8008757E1,0E0,1.1874284E0,2.35229E1,9.528494E0,6.8968925E0,3.942935E0,1.6014141E1,1.1229019E1,1.2869974E1,1.3551537E0,7.0912147E-1,5.0099907E0,9.441111E-1,0E0,7.137732E0,0E0,0E0,0E0,1.4726645E0,2.060802E1,1.5994244E1,1.741149E1,1.12412224E2,1.0706226E1,1.084189E1,1.9261307E-1,3.484798E-1,6.7886002E-3,0E0,0E0,0E0,0E0,0E0,3.8950267E0,1.9254165E0,6.9909644E-1,0E0,1.7671322E1,2.8978473E-1,1.5954243E1,2.0189215E1,0E0,0E0,0E0,0E0,0E0,0E0,0E0,0E0,0E0,0E0,0E0,0E0,0E0,0E0,0E0,0E0,0E0,0E0,0E0,0E0,0E0,0E0,0E0,0E0,0E0,0E0,0E0,0E0],"parents":[2147483647,0,0,1,1,2,2,3,3,4,4,5,5,6,6,7,7,9,9,10,10,11,11,12,12,13,13,14,14,15,15,16,16,17,17,18,18,19,19,20,20,22,22,26,26,27,27,28,28,29,29,30,30,31,31,32,32,33,33,34,34,35,35,41,41,42,42,43,43,45,45,46,46,47,47,48,48],"right_children":[2,4,6,8,10,12,14,16,-1,18,20,22,24,26,28,30,32,34,36,38,40,-1,42,-1,-1,-1,44,46,48,50,52,54,56,58,60,62,-1,-1,-1,-1,-1,64,66,68,-1,70,72,74,76,-1,-1,-1,-1,-1,-1,-1,-1,-1,-1,-1,-1,-1,-1,-1,-1,-1,-1,-1,-1,-1,-1,-1,-1,-1,-1,-1,-1],"split_conditions":[1.9E1,2.5E1,1.6279802E1,2.4E1,1.403E1,2E-1,2.008916E1,1.9E1,-7.5067616E-1,6E-1,3.5E1,1.403E1,1.019E1,1.727E1,2.11E1,1.2E1,2.682906E1,1.6279802E1,5.624333E0,1.627E1,4.1E1,6.7845535E-1,2.9E1,-2.8098107E-3,8.5744655E-1,-4.9890915E-1,4.1E1,2.4E1,2.2691425E1,1.071E1,1.213E1,2.2450264E1,1.673E1,1.127E1,1.335E1,8.77E0,2.8155214E-1,3.7548393E-1,1.3061825E0,-1.9337912E-1,7.477684E-2,2.7E1,9.83268E0,2.4E1,1.2830888E-1,2.7333935E1,5E1,3.3E1,2.9E1,-1.3336708E-3,-3.2593343E-1,1.2557921E0,-3.5828456E-2,-4.000173E-1,1.8274046E-1,-1.311208E0,-4.9197294E-2,1.8611842E-1,1.1788559E-2,-1.3866425E-1,2.8809357E-2,2.8701069E-2,-8.0194476E-4,-3.3360338E-1,7.104595E-2,2.9657938E-2,3.9409354E-1,-1.8487168E-2,-2.3844843E-1,1.5453541E-1,1.0470555E0,-1.09116614E-1,3.8883306E-2,6.993347E-1,-2.2007085E-2,-2.5847465E-1,1.15724616E-1],"split_indices":[0,2,5,2,0,4,5,1,0,4,2,1,1,1,0,1,5,5,3,0,2,0,2,0,0,0,0,1,5,1,1,5,0,0,0,0,0,0,0,0,0,1,5,1,0,5,2,0,0,0,0,0,0,0,0,0,0,0,0,0,0,0,0,0,0,0,0,0,0,0,0,0,0,0,0,0,0],"split_type":[0,0,0,0,0,0,0,0,0,0,0,0,0,0,0,0,0,0,0,0,0,0,0,0,0,0,0,0,0,0,0,0,0,0,0,0,0,0,0,0,0,0,0,0,0,0,0,0,0,0,0,0,0,0,0,0,0,0,0,0,0,0,0,0,0,0,0,0,0,0,0,0,0,0,0,0,0],"sum_hessian":[1.957E3,1.85E3,1.07E2,1.832E3,1.8E1,2E1,8.7E1,1.827E3,5E0,1.1E1,7E0,1.5E1,5E0,1.1E1,7.6E1,1.815E3,1.2E1,8E0,3E0,4E0,3E0,2E0,1.3E1,1E0,4E0,4E0,7E0,1.3E1,6.3E1,1.764E3,5.1E1,1E1,2E0,2E0,6E0,2E0,1E0,2E0,2E0,1E0,2E0,7E0,6E0,6E0,1E0,8E0,5E0,1E1,5.3E1,1.75E3,1.4E1,6E0,4.5E1,6E0,4E0,1E0,1E0,1E0,1E0,5E0,1E0,1E0,1E0,3E0,4E0,2E0,4E0,2E0,4E0,4E0,4E0,4E0,1E0,5E0,5E0,2E1,3.3E1],"tree_param":{"num_deleted":"0","num_feature":"7","num_nodes":"77","size_leaf_vector":"1"}},{"base_weights":[1.1140282E-2,-1.4778653E-2,2.1596704E-1,4.00411E-3,-2.434749E-1,1.7052948E0,1.2942207E-1,-2.8867068E-2,1.7376022E-1,-5.8179253E-1,2.5598007E-1,4.7579184E-1,2.2844744E0,2.2212432E-1,-7.1106124E-1,-2.4629554E-2,-4.9859115E-1,-7.6072127E-1,2.5446707E-1,1.2515175E0,-6.4566445E-1,-1.5891373E-1,9.692452E-1,-3.0813518E-1,1.4781313E0,1.7284787E-1,2.0009284E0,-1.6703923E0,1.4763641E-1,-2.9852763E-2,6.0771835E-1,-5.9301597E-1,8.101234E-2,-1.9131272E-1,-1.4986757E0,5.969713E-1,-1.2598944E-1,1.7850585E-2,5.453323E-1,-2.4823771E-1,-9.70943E-1,-5.375163E-1,1.1860595E0,2.287036E0,2.4111806E-1,-1.6795035E-1,-9.548855E-2,6.075523E-1,-1.0650602E-1,-5.2045003E-2,4.2133257E-1,8.437998E-1,1.0948277E0,-3.6574116E-1,-2.4792027E0,5.7527137E-1,-1.8759137E-1,5.5302326E-2,-1.053554E-2,3.81554E-1,-1.3308145E-1,-8.925061E-2,-2.6643974E-1,5.799578E-2,-3.3151937E-1,-4.890793E-1,-6.689512E-2,4.3456927E-1,-4.8963964E-2,-8.8905037E-4,-5.313273E-1,-2.3011866E-1,1.1302387E-1,-5.677062E-1,-1.8715979E-1,6.5257214E-2,-2.2599716E-1,1.2652327E-1,6.958011E-1,1.3072242E-1,8.821216E-1,7.353503E-1,-3.5231136E-2,-3.4614015E-2,-2.388382E-3,-1.3751082E-1,1.2517284E-1,4.274956E-1,-1.3880278E-2,-2.841568E-3,4.3982548E-1,-2.3196222E-1,4.9091637E-2,-1.9279322E-1,-8.153957E-1,-4.5332852E-1,1.4928281E-1],"categories":[],"categories_nodes":[],"categories_segments":[],"categories_sizes":[],"default_left":[0,0,0,0,0,0,0,0,0,0,0,0,0,0,0,0,0,0,0,0,0,0,0,0,0,0,0,0,0,0,0,0,0,0,0,0,0,0,0,0,0,0,0,0,0,0,0,0,0,0,0,0,0,0,0,0,0,0,0,0,0,0,0,0,0,0,0,0,0,0,0,0,0,0,0,0,0,0,0,0,0,0,0,0,0,0,0,0,0,0,0,0,0,0,0,0,0],"id":18,"left_children":[1,3,5,7,9,11,13,15,17,19,21,23,-1,25,27,29,31,33,35,37,39,41,43,45,47,49,51,53,55,57,59,61,-1,63,65,67,69,-1,-1,71,73,75,77,79,81,-1,83,-1,-1,85,87,-1,89,91,93,-1,95,-1,-1,-1,-1,-1,-1,-1,-1,-1,-1,-1,-1,-1,-1,-1,-1,-1,-1,-1,-1,-1,-1,-1,-1,-1,-1,-1,-1,-1,-1,-1,-1,-1,-1,-1,-1,-1,-1,-1,-1],"loss_changes":[1.0398002E1,7.470931E0,2.8135944E1,8.97779E0,2.2453554E1,8.356763E1,1.6442118E1,2.6708627E0,1.9877953E1,1.005872E1,1.6134207E1,9.098835E0,0E0,1.6220592E1,1.7545893E1,4.434099E0,1.0310743E0,8.537434E0,3.1479431E1,1.9167995E0,9.713108E0,1.8459887E1,1.863894E1,3.2120335E-1,5.73304E0,1.0360179E1,5.98196E-1,9.645412E0,7.4796953E0,1.5031719E0,8.244545E0,6.9510055E-1,0E0,4.7825866E0,1.1472759E0,8.245212E1,2.3269619E1,0E0,0E0,1.1962238E1,1.2251045E1,4.726281E0,5.9512844E0,7.1857986E0,1.13818035E1,0E0,7.7866726E-3,0E0,0E0,1.8878193E1,4.1365047E1,0E0,1.6538029E0,1.205049E0,8.845329E-1,0E0,1.0727458E1,0E0,0E0,0E0,0E0,0E0,0E0,0E0,0E0,0E0,0E0,0E0,0E0,0E0,0E0,0E0,0E0,0E0,0E0,0E0,0E0,0E0,0E0,0E0,0E0,0E0,0E0,0E0,0E0,0E0,0E0,0E0,0E0,0E0,0E0,0E0,0E0,0E0,0E0,0E0,0E0],"parents":[2147483647,0,0,1,1,2,2,3,3,4,4,5,5,6,6,7,7,8,8,9,9,10,10,11,11,13,13,14,14,15,15,16,16,17,17,18,18,19,19,20,20,21,21,22,22,23,23,24,24,25,25,26,26,27,27,28,28,29,29,30,30,31,31,33,33,34,34,35,35,36,36,39,39,40,40,41,41,42,42,43,43,44,44,46,46,49,49,50,50,52,52,53,53,54,54,56,56],"right_children":[2,4,6,8,10,12,14,16,18,20,22,24,-1,26,28,30,32,34,36,38,40,42,44,46,48,50,52,54,56,58,60,62,-1,64,66,68,70,-1,-1,72,74,76,78,80,82,-1,84,-1,-1,86,88,-1,90,92,94,-1,96,-1,-1,-1,-1,-1,-1,-1,-1,-1,-1,-1,-1,-1,-1,-1,-1,-1,-1,-1,-1,-1,-1,-1,-1,-1,-1,-1,-1,-1,-1,-1,-1,-1,-1,-1,-1,-1,-1,-1,-1],"split_conditions":[9.8E0,4.53E0,1.019E1,1.89E0,2.4313919E2,2.9882166E1,3.5369884E1,3.19E0,7.618124E1,2.875167E1,5E-1,1.8391735E1,2.2844744E0,3.462369E1,1.3E1,2.63E0,4.37E0,2.22E0,2.4416086E2,1.84E0,6.18E0,8.23E0,1.0000001E0,5.6660004E0,1.12E1,7E-1,1.727E1,7.1E0,2.1E1,-2.0485835E0,1E-1,3.1E0,8.101234E-2,2.97E0,1.8328499E1,9.961833E0,7.1E0,1.7850585E-2,5.453323E-1,1.2E0,5.67E0,1.82E0,2.2086521E1,3.84E0,1.1159999E1,-1.6795035E-1,1.627E1,6.075523E-1,-1.0650602E-1,1.882E1,1.6E0,8.437998E-1,2.3E1,2.06E0,1.1E1,5.7527137E-1,2.405E1,5.5302326E-2,-1.053554E-2,3.81554E-1,-1.3308145E-1,-8.925061E-2,-2.6643974E-1,5.799578E-2,-3.3151937E-1,-4.890793E-1,-6.689512E-2,4.3456927E-1,-4.8963964E-2,-8.8905037E-4,-5.313273E-1,-2.3011866E-1,1.1302387E-1,-5.677062E-1,-1.8715979E-1,6.5257214E-2,-2.2599716E-1,1.2652327E-1,6.958011E-1,1.3072242E-1,8.821216E-1,7.353503E-1,-3.5231136E-2,-3.4614015E-2,-2.388382E-3,-1.3751082E-1,1.2517284E-1,4.274956E-1,-1.3880278E-2,-2.841568E-3,4.3982548E-1,-2.3196222E-1,4.9091637E-2,-1.9279322E-1,-8.153957E-1,-4.5332852E-1,1.4928281E-1],"split_indices":[1,1,1,0,6,5,5,1,6,6,4,5,0,5,2,1,1,1,6,0,0,0,4,3,2,4,0,0,0,3,4,2,0,0,3,3,0,0,0,4,1,0,5,0,5,0,0,0,0,0,4,0,0,0,1,0,0,0,0,0,0,0,0,0,0,0,0,0,0,0,0,0,0,0,0,0,0,0,0,0,0,0,0,0,0,0,0,0,0,0,0,0,0,0,0,0,0],"split_type":[0,0,0,0,0,0,0,0,0,0,0,0,0,0,0,0,0,0,0,0,0,0,0,0,0,0,0,0,0,0,0,0,0,0,0,0,0,0,0,0,0,0,0,0,0,0,0,0,0,0,0,0,0,0,0,0,0,0,0,0,0,0,0,0,0,0,0,0,0,0,0,0,0,0,0,0,0,0,0,0,0,0,0,0,0,0,0,0,0,0,0,0,0,0,0,0,0],"sum_hessian":[1.957E3,1.738E3,2.19E2,1.607E3,1.31E2,1.1E1,2.08E2,1.347E3,2.6E2,7.8E1,5.3E1,1E1,1E0,1.88E2,2E1,1.336E3,1.1E1,2E1,2.4E2,2E0,7.6E1,3.4E1,1.9E1,6E0,4E0,1.84E2,4E0,9E0,1.1E1,1.326E3,1E1,1E1,1E0,1.2E1,8E0,1.26E2,1.14E2,1E0,1E0,3.5E1,4.1E1,2.7E1,7E0,6E0,1.3E1,2E0,4E0,3E0,1E0,9.7E1,8.7E1,1E0,3E0,4E0,5E0,1E0,1E1,3.1E1,1.295E3,6E0,4E0,6E0,4E0,9E0,3E0,7E0,1E0,5.9E1,6.7E1,1.07E2,7E0,1.9E1,1.6E1,1E1,3.1E1,6E0,2.1E1,5E0,2E0,2E0,4E0,1E0,1.2E1,3E0,1E0,5.2E1,4.5E1,2.7E1,6E1,1E0,2E0,2E0,2E0,1E0,4E0,3E0,7E0],"tree_param":{"num_deleted":"0","num_feature":"7","num_nodes":"97","size_leaf_vector":"1"}},{"base_weights":[1.007144E-2,-2.0900631E-2,1.2117013E-1,-1.4746405E-2,-5.692357E-1,1.9441837E-1,-4.478554E-1,-2.1333061E-2,4.371099E-1,3.083222E-1,-2.4908637E-1,-7.5162303E-1,2.907928E-1,-2.3878144E-2,9.40951E-1,-1.1708684E-2,1.0123794E0,7.381107E-1,7.2119646E-2,-3.4133658E-1,6.5128446E-1,-1.9972405E0,-4.7744545E-1,-4.155842E-1,5.094609E-1,-2.0947544E-2,-6.642857E-1,-1.9613886E-1,6.528331E-1,1.4526278E0,-4.9907622E-1,1.3328484E-1,1.6010822E0,-7.61786E-2,1.0895268E0,-9.40141E-2,-6.283711E-1,8.280602E-2,-7.521291E-1,-5.6206024E-1,1.4143232E-1,-2.4622424E-1,9.566443E-1,-7.578703E-3,2.0943487E-1,2.770901E-2,-1.159715E-1,4.7816068E-1,6.9591135E-2,3.8757637E-2,-2.6334193E-1,-1.1539622E-1,5.1334274E-1,7.249123E-1,4.9220115E-2,3.3508364E-2,-3.5560215E-1,8.194689E-1,1.627319E-1,-1.03282064E-1,1.2932873E-1,-2.2381829E-1,1.4107208E-1,-6.035895E-2,-2.2540876E-1,3.3840925E-2,-3.0620414E-1,4.4644073E-2,4.0072724E-1],"categories":[],"categories_nodes":[],"categories_segments":[],"categories_sizes":[],"default_left":[0,0,0,0,0,0,0,0,0,0,0,0,0,0,0,0,0,0,0,0,0,0,0,0,0,0,0,0,0,0,0,0,0,0,0,0,0,0,0,0,0,0,0,0,0,0,0,0,0,0,0,0,0,0,0,0,0,0,0,0,0,0,0,0,0,0,0,0,0],"id":19,"left_children":[1,3,5,7,-1,9,11,13,15,17,19,21,23,25,27,-1,29,31,33,35,-1,37,39,-1,41,43,-1,45,-1,47,49,51,53,55,57,59,61,-1,-1,63,-1,65,67,-1,-1,-1,-1,-1,-1,-1,-1,-1,-1,-1,-1,-1,-1,-1,-1,-1,-1,-1,-1,-1,-1,-1,-1,-1,-1],"loss_changes":[6.7399263E0,1.7664663E1,1.7884481E1,4.5569925E0,0E0,1.9222696E1,1.1213059E1,3.7132497E0,6.0654917E0,3.0604944E1,1.815442E1,1.09996395E1,6.2033043E0,9.608108E0,6.0447683E0,0E0,7.3791294E0,5.5634987E1,2.9655418E1,5.336172E0,0E0,7.646225E0,2.6736736E0,0E0,4.966567E0,4.6808677E0,0E0,2.0052591E-1,0E0,1.0095253E0,8.2723826E-1,5.296116E1,5.115338E1,3.5974052E1,2.0976711E1,5.6677904E0,4.8761663E0,0E0,0E0,1.7615728E0,0E0,1.7834415E0,2.5575533E0,0E0,0E0,0E0,0E0,0E0,0E0,0E0,0E0,0E0,0E0,0E0,0E0,0E0,0E0,0E0,0E0,0E0,0E0,0E0,0E0,0E0,0E0,0E0,0E0,0E0,0E0],"parents":[2147483647,0,0,1,1,2,2,3,3,5,5,6,6,7,7,8,8,9,9,10,10,11,11,12,12,13,13,14,14,16,16,17,17,18,18,19,19,21,21,22,22,24,24,25,25,27,27,29,29,30,30,31,31,32,32,33,33,34,34,35,35,36,36,39,39,41,41,42,42],"right_children":[2,4,6,8,-1,10,12,14,16,18,20,22,24,26,28,-1,30,32,34,36,-1,38,40,-1,42,44,-1,46,-1,48,50,52,54,56,58,60,62,-1,-1,64,-1,66,68,-1,-1,-1,-1,-1,-1,-1,-1,-1,-1,-1,-1,-1,-1,-1,-1,-1,-1,-1,-1,-1,-1,-1,-1,-1,-1],"split_conditions":[3.1E0,1.627E1,3.5369884E1,2.1640999E1,-5.692357E-1,2.9097888E2,1.328E1,1.58E1,3E-2,5.445167E0,2.4E0,2.1897778E2,8.2224995E-1,1.3E1,3.54E0,-1.1708684E-2,3.6E0,3.1910002E0,3.1319998E1,1E-1,6.5128446E-1,1.7E0,4.426829E1,-4.155842E-1,2.0656499E2,1.1E1,-6.642857E-1,3.19E0,6.528331E-1,1.7393565E2,3.84E0,1.8878262E2,2.2155002E2,2.8162956E1,1.7817543E2,1.5232665E1,3.2682762E1,8.280602E-2,-7.521291E-1,2.27E0,1.4143232E-1,4.353619E1,1E-1,-7.578703E-3,2.0943487E-1,2.770901E-2,-1.159715E-1,4.7816068E-1,6.9591135E-2,3.8757637E-2,-2.6334193E-1,-1.1539622E-1,5.1334274E-1,7.249123E-1,4.9220115E-2,3.3508364E-2,-3.5560215E-1,8.194689E-1,1.627319E-1,-1.03282064E-1,1.2932873E-1,-2.2381829E-1,1.4107208E-1,-6.035895E-2,-2.2540876E-1,3.3840925E-2,-3.0620414E-1,4.4644073E-2,4.0072724E-1],"split_indices":[2,0,5,3,0,6,2,0,0,3,4,6,3,0,1,0,1,3,5,4,0,0,5,0,6,0,0,1,0,6,0,6,6,5,6,3,5,0,0,0,0,5,4,0,0,0,0,0,0,0,0,0,0,0,0,0,0,0,0,0,0,0,0,0,0,0,0,0,0],"split_type":[0,0,0,0,0,0,0,0,0,0,0,0,0,0,0,0,0,0,0,0,0,0,0,0,0,0,0,0,0,0,0,0,0,0,0,0,0,0,0,0,0,0,0,0,0,0,0,0,0,0,0,0,0,0,0,0,0,0,0,0,0,0,0,0,0,0,0,0,0],"sum_hessian":[1.957E3,1.531E3,4.26E2,1.527E3,4E0,3.78E2,4.8E1,1.506E3,2.1E1,3.01E2,7.7E1,3.4E1,1.4E1,1.503E3,3E0,1.2E1,9E0,1.06E2,1.95E2,7.5E1,2E0,5E0,2.9E1,1E0,1.3E1,1.502E3,1E0,2E0,1E0,7E0,2E0,6.3E1,4.3E1,1.71E2,2.4E1,4.1E1,3.4E1,1E0,4E0,2.7E1,2E0,5E0,8E0,1.494E3,8E0,1E0,1E0,6E0,1E0,1E0,1E0,4.8E1,1.5E1,2.7E1,1.6E1,1.47E2,2.4E1,5E0,1.9E1,2.8E1,1.3E1,3.1E1,3E0,1E1,1.7E1,4E0,1E0,3E0,5E0],"tree_param":{"num_deleted":"0","num_feature":"7","num_nodes":"69","size_leaf_vector":"1"}},{"base_weights":[7.670497E-3,3.7022078E-1,1.0943302E-4,7.06326E-2,1.2619221E0,-5.3453166E-3,4.1357505E-1,-2.9339053E-2,7.52776E-1,7.331469E-1,6.66844E-2,4.904447E-2,-4.9256474E-2,-8.46628E-3,8.235576E-1,9.648693E-2,-4.2060086E-1,-5.2053984E-3,3.045807E-1,-4.2561054E-1,7.0084953E-1,7.2089806E-2,-4.5740983E-1,-6.618685E-3,-1.75375E-1,4.389732E-1,4.737388E-1,-2.09468E-2,3.843893E-1,2.0675024E-2,-6.0124624E-1,-2.2451134E-1,-6.856664E-2,2.694895E-1,4.5892812E-2,-2.0303119E-2,2.5125834E-1,-2.1360835E-2,-8.693846E-1,-2.8821994E-2,3.2747227E-1,-2.5573868E-1,3.6003608E-1,4.9321198E-1,1.224058E-1,-1.138019E-2,3.419725E-3,-2.3141243E-2,3.2445002E-2,-3.261098E-2,-2.0916185E-1,6.5340046E-3,-3.7388995E-2,1.9104172E-4,-5.610308E-1,3.401924E-1,4.4107307E-2,-2.7403368E-3,-3.621535E-2,-3.635399E-1,-1.3200934E-1,-1.1716609E-2,4.9751353E-2,7.576467E-1,5.406175E-2,-1.2116245E-1,6.431964E-2,-2.9007572E-1,1.8402776E-1,-6.636159E-2,9.932367E-2],"categories":[],"categories_nodes":[],"categories_segments":[],"categories_sizes":[],"default_left":[0,0,0,0,0,0,0,0,0,0,0,0,0,0,0,0,0,0,0,0,0,0,0,0,0,0,0,0,0,0,0,0,0,0,0,0,0,0,0,0,0,0,0,0,0,0,0,0,0,0,0,0,0,0,0,0,0,0,0,0,0,0,0,0,0,0,0,0,0,0,0],"id":20,"left_children":[1,3,5,7,9,11,13,15,17,-1,19,21,23,-1,25,27,29,-1,-1,31,33,35,37,39,41,43,-1,45,-1,47,49,-1,51,-1,-1,53,55,57,59,61,63,65,67,-1,69,-1,-1,-1,-1,-1,-1,-1,-1,-1,-1,-1,-1,-1,-1,-1,-1,-1,-1,-1,-1,-1,-1,-1,-1,-1,-1],"loss_changes":[5.367358E0,1.0596595E1,4.33023E0,2.1361308E0,1.3963555E1,4.5282793E0,4.551458E0,1.4190477E0,8.2622814E-1,0E0,2.1714666E0,9.918657E0,5.6397476E0,0E0,3.0843573E0,3.0878477E0,5.704317E-1,0E0,0E0,4.0964556E-1,1.8711269E-1,1.3430317E1,6.628154E0,5.8325086E0,1.1494391E1,3.613608E0,0E0,1.1971173E-2,0E0,3.4010854E-2,1.6053343E-1,0E0,1.7909843E-2,0E0,0E0,2.076297E1,2.5227776E1,2.1978056E-2,2.2600946E0,1.4745998E0,1.5405903E1,1.6174435E1,1.23614235E1,0E0,7.185579E-1,0E0,0E0,0E0,0E0,0E0,0E0,0E0,0E0,0E0,0E0,0E0,0E0,0E0,0E0,0E0,0E0,0E0,0E0,0E0,0E0,0E0,0E0,0E0,0E0,0E0,0E0],"parents":[2147483647,0,0,1,1,2,2,3,3,4,4,5,5,6,6,7,7,8,8,10,10,11,11,12,12,14,14,15,15,16,16,19,19,20,20,21,21,22,22,23,23,24,24,25,25,27,27,29,29,30,30,32,32,35,35,36,36,37,37,38,38,39,39,40,40,41,41,42,42,44,44],"right_children":[2,4,6,8,10,12,14,16,18,-1,20,22,24,-1,26,28,30,-1,-1,32,34,36,38,40,42,44,-1,46,-1,48,50,-1,52,-1,-1,54,56,58,60,62,64,66,68,-1,70,-1,-1,-1,-1,-1,-1,-1,-1,-1,-1,-1,-1,-1,-1,-1,-1,-1,-1,-1,-1,-1,-1,-1,-1,-1,-1],"split_conditions":[1.1159999E1,7.43E0,2.1640999E1,1.8538914E1,8.1E0,7.0847497E0,3E-2,9E-1,3E-2,7.331469E-1,3E1,3.3642865E2,2.15E0,-8.46628E-3,2.1915691E1,3E-1,1.1162166E2,-5.2053984E-3,3.045807E-1,1.3E1,2.9E1,1.6E0,1E0,1.8E0,3.0477234E2,1.5683776E1,4.737388E-1,3E-2,3.843893E-1,5.53E0,1.07E0,-2.2451134E-1,1.403E1,2.694895E-1,4.5892812E-2,3.13E0,2.02E0,3.3E-1,2.1493335E0,1.05E1,7.7E-1,3.078368E1,8.876416E0,4.9321198E-1,1.6279802E1,-1.138019E-2,3.419725E-3,-2.3141243E-2,3.2445002E-2,-3.261098E-2,-2.0916185E-1,6.5340046E-3,-3.7388995E-2,1.9104172E-4,-5.610308E-1,3.401924E-1,4.4107307E-2,-2.7403368E-3,-3.621535E-2,-3.635399E-1,-1.3200934E-1,-1.1716609E-2,4.9751353E-2,7.576467E-1,5.406175E-2,-1.2116245E-1,6.431964E-2,-2.9007572E-1,1.8402776E-1,-6.636159E-2,9.932367E-2],"split_indices":[5,0,3,3,2,3,0,1,0,0,1,6,0,0,5,0,6,0,0,0,0,1,2,0,6,5,0,2,0,0,0,0,0,0,0,0,1,0,3,4,1,5,3,0,5,0,0,0,0,0,0,0,0,0,0,0,0,0,0,0,0,0,0,0,0,0,0,0,0,0,0],"split_type":[0,0,0,0,0,0,0,0,0,0,0,0,0,0,0,0,0,0,0,0,0,0,0,0,0,0,0,0,0,0,0,0,0,0,0,0,0,0,0,0,0,0,0,0,0,0,0,0,0,0,0,0,0,0,0,0,0,0,0,0,0,0,0,0,0,0,0,0,0,0,0],"sum_hessian":[1.957E3,3.9E1,1.918E3,3E1,9E0,1.894E3,2.4E1,2.7E1,3E0,4E0,5E0,8.46E2,1.048E3,1.2E1,1.2E1,2.1E1,6E0,1E0,2E0,3E0,2E0,8.1E2,3.6E1,7.84E2,2.64E2,9E0,3E0,2E1,1E0,2E0,4E0,1E0,2E0,1E0,1E0,5.35E2,2.75E2,1.8E1,1.8E1,7.36E2,4.8E1,2.3E2,3.4E1,1E0,8E0,1.3E1,7E0,1E0,1E0,1E0,3E0,1E0,1E0,5.3E2,5E0,2.8E1,2.47E2,1.7E1,1E0,9E0,9E0,7E2,3.6E1,2E0,4.6E1,1.75E2,5.5E1,5E0,2.9E1,3E0,5E0],"tree_param":{"num_deleted":"0","num_feature":"7","num_nodes":"71","size_leaf_vector":"1"}},{"base_weights":[6.4948658E-3,4.739166E-4,3.279335E-1,1.5755918E-2,-2.0869482E-1,1.0759919E0,2.0080146E-1,4.9217236E-3,2.7793202E0,3.0175477E-1,-4.28361E-1,4.9846002E-1,1.3178635E-1,2.9938877E-1,-1.9406591E-1,-5.0905067E-3,5.062508E-1,7.0690117E0,-3.5035858E-1,-4.5658612E-1,7.7502275E-1,-7.4144244E-1,1.2752625E-1,5.553818E-3,5.3750042E-2,2.4451344E-1,2.5069085E-1,2.9830933E-2,-1.507616E-1,6.7851422E-3,-2.0756946E0,1.385496E0,-1.4588864E-1,2.619054E0,5.6200135E-1,-1.8509503E-1,9.915734E-3,-8.1209224E-1,4.3153763E-4,-2.698241E-1,1.0442375E0,-8.891779E-1,1.0319364E0,-1.6623784E0,3.5436794E-1,-1.0235628E-1,3.3634868E-1,1.2638187E-1,-5.3455926E-2,-4.04557E-4,6.075867E-1,4.6197224E-2,-7.021643E-1,8.9875385E-2,6.2284493E-1,-2.3251253E-1,2.9200965E-1,-2.68879E-1,-2.0808578E-2,1.0964113E-1,-8.7505765E-2,5.334785E-1,8.5308656E-2,-3.511337E-1,6.487065E-2,8.6037435E-2,6.0187745E-1,-6.3520527E-1,-4.461923E-2,3.543866E-1,-1.1283817E-2,-1.13542564E-1,3.9096594E-2,1.4035988E-2,1.2892509E-1,1.6952896E-2,5.0399784E-2],"categories":[],"categories_nodes":[],"categories_segments":[],"categories_sizes":[],"default_left":[0,0,0,0,0,0,0,0,0,0,0,0,0,0,0,0,0,0,0,0,0,0,0,0,0,0,0,0,0,0,0,0,0,0,0,0,0,0,0,0,0,0,0,0,0,0,0,0,0,0,0,0,0,0,0,0,0,0,0,0,0,0,0,0,0,0,0,0,0,0,0,0,0,0,0,0,0],"id":21,"left_children":[1,3,5,7,9,11,13,15,17,19,21,-1,23,25,27,29,31,33,35,37,39,41,43,-1,-1,45,-1,47,-1,49,51,53,55,-1,-1,-1,-1,57,59,-1,61,63,65,67,69,71,73,75,-1,-1,-1,-1,-1,-1,-1,-1,-1,-1,-1,-1,-1,-1,-1,-1,-1,-1,-1,-1,-1,-1,-1,-1,-1,-1,-1,-1,-1],"loss_changes":[3.7892907E0,6.1501904E0,3.207618E0,5.3670525E1,1.4818097E1,2.5453897E0,1.3038265E0,8.972285E0,9.6454185E1,1.4709803E1,1.6106049E1,0E0,1.2783997E-2,5.6077147E-1,4.9845374E-1,4.311995E1,2.0270792E1,9.538086E0,5.3152734E-1,2.5999117E0,1.2208772E1,1.6375042E1,1.4393944E1,0E0,0E0,8.30799E-1,0E0,1.2294089E-1,0E0,2.8635435E1,6.265812E0,1.06278515E1,1.5542225E1,0E0,0E0,0E0,0E0,5.0048065E-1,9.596762E-1,0E0,1.17652E1,1.7353535E1,3.0546765E0,2.4397564E0,1.0092676E1,4.3480486E-1,5.208044E-1,2.1380186E-3,0E0,0E0,0E0,0E0,0E0,0E0,0E0,0E0,0E0,0E0,0E0,0E0,0E0,0E0,0E0,0E0,0E0,0E0,0E0,0E0,0E0,0E0,0E0,0E0,0E0,0E0,0E0,0E0,0E0],"parents":[2147483647,0,0,1,1,2,2,3,3,4,4,5,5,6,6,7,7,8,8,9,9,10,10,12,12,13,13,14,14,15,15,16,16,17,17,18,18,19,19,20,20,21,21,22,22,25,25,27,27,29,29,30,30,31,31,32,32,37,37,38,38,40,40,41,41,42,42,43,43,44,44,45,45,46,46,47,47],"right_children":[2,4,6,8,10,12,14,16,18,20,22,-1,24,26,28,30,32,34,36,38,40,42,44,-1,-1,46,-1,48,-1,50,52,54,56,-1,-1,-1,-1,58,60,-1,62,64,66,68,70,72,74,76,-1,-1,-1,-1,-1,-1,-1,-1,-1,-1,-1,-1,-1,-1,-1,-1,-1,-1,-1,-1,-1,-1,-1,-1,-1,-1,-1,-1,-1],"split_conditions":[4.1E1,1.328E1,2.11E1,1.3E1,1.9862083E1,1.4910774E2,1.491808E1,1.58E1,4.3680835E0,1.53771E1,2.4999998E0,4.9846002E-1,1.403E1,1.4845164E1,2.4E0,1.335E1,1.727E1,1.58E1,1.3801417E1,1.727E1,3.3007576E1,3.438895E1,1.39E1,5.553818E-3,5.3750042E-2,1.13295555E2,2.5069085E-1,5.9E1,-1.507616E-1,1.247E1,2.27E0,2.1602999E1,7.7951655E0,2.619054E0,5.6200135E-1,-1.8509503E-1,9.915734E-3,2.11E1,6.718085E0,-2.698241E-1,1.811841E1,1.4113917E1,8.23E0,8.97E0,1.882E1,2.0545246E1,3.2E1,4.7E1,-5.3455926E-2,-4.04557E-4,6.075867E-1,4.6197224E-2,-7.021643E-1,8.9875385E-2,6.2284493E-1,-2.3251253E-1,2.9200965E-1,-2.68879E-1,-2.0808578E-2,1.0964113E-1,-8.7505765E-2,5.334785E-1,8.5308656E-2,-3.511337E-1,6.487065E-2,8.6037435E-2,6.0187745E-1,-6.3520527E-1,-4.461923E-2,3.543866E-1,-1.1283817E-2,-1.13542564E-1,3.9096594E-2,1.4035988E-2,1.2892509E-1,1.6952896E-2,5.0399784E-2],"split_indices":[2,2,1,2,5,6,3,0,3,5,4,0,0,3,4,0,0,0,3,0,6,5,2,0,0,6,0,1,0,0,1,5,3,0,0,0,0,1,3,0,5,3,0,1,0,5,1,0,0,0,0,0,0,0,0,0,0,0,0,0,0,0,0,0,0,0,0,0,0,0,0,0,0,0,0,0,0],"split_type":[0,0,0,0,0,0,0,0,0,0,0,0,0,0,0,0,0,0,0,0,0,0,0,0,0,0,0,0,0,0,0,0,0,0,0,0,0,0,0,0,0,0,0,0,0,0,0,0,0,0,0,0,0,0,0,0,0,0,0,0,0,0,0,0,0,0,0,0,0,0,0,0,0,0,0,0,0],"sum_hessian":[1.957E3,1.922E3,3.5E1,1.792E3,1.3E2,4E0,3.1E1,1.786E3,6E0,3.9E1,9.1E1,2E0,2E0,2.5E1,6E0,1.752E3,3.4E1,2E0,4E0,1.5E1,2.4E1,5.8E1,3.3E1,1E0,1E0,2.4E1,1E0,4E0,2E0,1.743E3,9E0,1.4E1,2E1,1E0,1E0,2E0,2E0,8E0,7E0,3E0,2.1E1,5.4E1,4E0,3E0,3E1,5E0,1.9E1,3E0,1E0,1.737E3,6E0,1E0,8E0,6E0,8E0,1.3E1,7E0,7E0,1E0,3E0,4E0,1E1,1.1E1,4.3E1,1.1E1,3E0,1E0,2E0,1E0,9E0,2.1E1,2E0,3E0,5E0,1.4E1,2E0,1E0],"tree_param":{"num_deleted":"0","num_feature":"7","num_nodes":"77","size_leaf_vector":"1"}},{"base_weights":[6.903779E-3,-1.5868729E-2,8.8591315E-2,-1.0800455E-2,-4.684679E-1,1.503872E-1,-3.9118892E-1,-1.2793405E-2,4.548652E-1,2.9968894E-1,-7.4554786E-2,-4.5822036E-1,4.239481E-1,-8.174825E-3,-1.182241E0,2.3039922E-1,2.8250086E0,-5.9321266E-1,1.4224298E-1,-8.422068E-1,-1.2837143E-1,-2.5234278E-3,-4.5509732E-1,-1.13582E-1,-4.4682196E-1,-1.2437448E-1,4.2589572E-1,6.0086594E0,-2.689817E-1,-9.317445E-1,5.3786266E-1,-3.242451E-1,2.9410803E-1,2.8032696E-1,-1.034203E0,-2.4978234E-1,4.5579302E-1,-1.9343157E-3,2.512906E-1,2.5686368E-1,-1.9792034E-1,3.3447593E-1,-7.754514E-2,7.71159E-1,1.03877865E-1,2.2261958E0,4.77701E-1,-1.7328787E-1,7.932568E-3,-1.955676E-1,-8.812888E-1,-1.3106328E-1,2.4090408E-1,1.2635678E-1,-2.8460157E-1,2.954216E-1,1.2062018E-2,