{"learner":{"attributes":{"scikit_learn":"{\"_estimator_type\": \"regressor\"}"},"feature_names":["pm25_lag_1","pm25_lag_2","pm25_lag_3","temperature_2m_mean","precipitation_sum","wind_speed_10m_max","wind_direction_10m_dominant"],"feature_types":["float","float","float","float","float","float","float"],"gradient_booster":{"model":{"gbtree_model_param":{"num_parallel_tree":"1","num_trees":"100"},"iteration_indptr":[0,1,2,3,4,5,6,7,8,9,10,11,12,13,14,15,16,17,18,19,20,21,22,23,24,25,26,27,28,29,30,31,32,33,34,35,36,37,38,39,40,41,42,43,44,45,46,47,48,49,50,51,52,53,54,55,56,57,58,59,60,61,62,63,64,65,66,67,68,69,70,71,72,73,74,75,76,77,78,79,80,81,82,83,84,85,86,87,88,89,90,91,92,93,94,95,96,97,98,99,100],"tree_info":[0,0,0,0,0,0,0,0,0,0,0,0,0,0,0,0,0,0,0,0,0,0,0,0,0,0,0,0,0,0,0,0,0,0,0,0,0,0,0,0,0,0,0,0,0,0,0,0,0,0,0,0,0,0,0,0,0,0,0,0,0,0,0,0,0,0,0,0,0,0,0,0,0,0,0,0,0,0,0,0,0,0,0,0,0,0,0,0,0,0,0,0,0,0,0,0,0,0,0,0],"trees":[{"base_weights":[1.2650782E-8,-1.4584987E0,8.576996E0,-2.5348554E0,6.91053E-1,7.6316514E0,3.381081E1,-3.0918782E0,-1.7176228E0,2.4047294E0,-6.017191E-1,1.0577545E1,2.2579074E0,1.7765203E1,1.4462678E1,-3.4086542E0,-2.357269E0,-9.8814625E-1,-2.4923446E0,-8.625095E-2,3.8899908E0,3.2296705E0,-9.373611E-1,1.1186183E1,-7.661884E-1,9.874313E0,6.707169E-1,3.124305E0,1.8373167E1,-3.487675E0,-1.4918654E0,-1.5287831E0,-3.3016965E0,1.9640267E-1,-2.1544373E0,-1.6420579E0,-2.8156087E0,7.072565E-1,-2.209401E0,7.376713E0,1.984069E0,4.150648E-1,9.510651E0,8.821756E-2,-1.7025157E0,4.0007095E0,1.2178711E1,-1.3675934E0,6.969686E-1,1.6017813E1,9.606502E-1,3.2618804E0,-9.367438E-1,1.1874686E0,2.1846858E-1,6.1897035E0,1.4004688E0,-1.179355E0,-9.441057E-1,1.3722916E0,-7.2600377E-1,-1.0843506E0,-1.2663727E-1,-1.0064385E0,2.4546863E-1,-7.157274E-1,3.1937614E-1,-7.104601E-1,-3.3128724E-1,-3.5945785E-1,-1.0894208E0,-8.5691595E-1,5.379687E-1,-4.0915504E-1,4.8527896E-1,-8.608714E-1,-2.796565E-1,1.2441065E0,2.914373E0,3.7877703E-1,1.9979422E0,6.7472196E-1,-3.369662E-1,3.0968571E-2,3.2519464E0,1.3189799E0,-2.8750882E-1,-1.3406083E-1,-5.944029E-1,3.2961147E0,3.8988212E-1,4.036895E0,2.195606E0,2.542029E-1,-7.848857E-1,5.080722E0,1.1634687E0,5.871144E-1,-4.0570852E-1,2.566761E0,1.3998552E-1,-4.5338753E-1,8.9180344E-1],"categories":[],"categories_nodes":[],"categories_segments":[],"categories_sizes":[],"default_left":[0,0,0,0,0,0,0,0,0,0,0,0,0,0,0,0,0,0,0,0,0,0,0,0,0,0,0,0,0,0,0,0,0,0,0,0,0,0,0,0,0,0,0,0,0,0,0,0,0,0,0,0,0,0,0,0,0,0,0,0,0,0,0,0,0,0,0,0,0,0,0,0,0,0,0,0,0,0,0,0,0,0,0,0,0,0,0,0,0,0,0,0,0,0,0,0,0,0,0,0,0,0,0],"id":0,"left_children":[1,3,5,7,9,11,13,15,17,19,21,23,25,-1,27,29,31,33,35,37,39,41,43,45,47,49,51,53,55,57,59,61,63,65,67,69,71,73,75,77,79,81,83,85,87,89,91,93,-1,95,97,99,101,-1,-1,-1,-1,-1,-1,-1,-1,-1,-1,-1,-1,-1,-1,-1,-1,-1,-1,-1,-1,-1,-1,-1,-1,-1,-1,-1,-1,-1,-1,-1,-1,-1,-1,-1,-1,-1,-1,-1,-1,-1,-1,-1,-1,-1,-1,-1,-1,-1,-1],"loss_changes":[2.4531205E4,3.8794868E3,6.540545E3,5.0316748E2,1.2420669E3,4.345328E3,4.059248E3,1.4624902E2,2.5467651E2,8.9197705E2,4.1453955E2,1.2375254E3,1.190157E3,0E0,2.5296655E2,6.462256E1,1.5378882E2,3.2646396E2,5.5847412E1,1.5487354E2,9.8882275E2,4.55693E2,2.3164441E2,1.1565469E3,2.1757141E1,9.155508E2,3.4876663E2,3.1119423E0,5.849292E1,5.4407715E1,1.23675835E2,2.5237396E2,2.3308472E1,2.6707126E2,2.4098206E1,5.1277924E1,3.4816162E1,1.2852872E2,1.8404472E1,3.5989355E2,3.255626E2,5.612954E1,9.8913574E1,5.7686505E2,5.828293E1,4.008791E2,8.204785E2,2.7108852E1,0E0,4.5752197E1,2.1084072E1,4.6954648E2,1.2129239E2,0E0,0E0,0E0,0E0,0E0,0E0,0E0,0E0,0E0,0E0,0E0,0E0,0E0,0E0,0E0,0E0,0E0,0E0,0E0,0E0,0E0,0E0,0E0,0E0,0E0,0E0,0E0,0E0,0E0,0E0,0E0,0E0,0E0,0E0,0E0,0E0,0E0,0E0,0E0,0E0,0E0,0E0,0E0,0E0,0E0,0E0,0E0,0E0,0E0,0E0],"parents":[2147483647,0,0,1,1,2,2,3,3,4,4,5,5,6,6,7,7,8,8,9,9,10,10,11,11,12,12,14,14,15,15,16,16,17,17,18,18,19,19,20,20,21,21,22,22,23,23,24,24,25,25,26,26,27,27,28,28,29,29,30,30,31,31,32,32,33,33,34,34,35,35,36,36,37,37,38,38,39,39,40,40,41,41,42,42,43,43,44,44,45,45,46,46,47,47,49,49,50,50,51,51,52,52],"right_children":[2,4,6,8,10,12,14,16,18,20,22,24,26,-1,28,30,32,34,36,38,40,42,44,46,48,50,52,54,56,58,60,62,64,66,68,70,72,74,76,78,80,82,84,86,88,90,92,94,-1,96,98,100,102,-1,-1,-1,-1,-1,-1,-1,-1,-1,-1,-1,-1,-1,-1,-1,-1,-1,-1,-1,-1,-1,-1,-1,-1,-1,-1,-1,-1,-1,-1,-1,-1,-1,-1,-1,-1,-1,-1,-1,-1,-1,-1,-1,-1,-1,-1,-1,-1,-1,-1],"split_conditions":[9.5E0,3.2E0,4.022E1,1.95E0,1.9669933E2,2.1661682E2,1.8416384E1,1.6000001E0,2.2812714E2,1.18412575E2,1.4081477E1,3.2169178E1,1.424163E1,1.7765203E1,4.2751665E0,3.1154043E1,2.1826312E2,9.895999E0,1E-1,8.47E0,5.6605835E0,8.11E0,2.5928473E2,9.6894104E1,1.55E1,2.8270856E2,2.1817902E1,1.63E1,1.4094E2,1.05E0,6.3E-1,1.1045715E2,1.24E1,7.9239105E1,1.8252249E1,3.3300653E2,3.4786868E2,6.3398815E1,6.62E0,1.5929958E2,8.6E0,8.2751665E0,9.107359E0,4E-1,1.7015474E1,3.0621475E1,1.0356417E1,5.0439167E0,6.969686E-1,2.347E1,2E-1,2.4114577E2,7.799999E0,1.1874686E0,2.1846858E-1,6.1897035E0,1.4004688E0,-1.179355E0,-9.441057E-1,1.3722916E0,-7.2600377E-1,-1.0843506E0,-1.2663727E-1,-1.0064385E0,2.4546863E-1,-7.157274E-1,3.1937614E-1,-7.104601E-1,-3.3128724E-1,-3.5945785E-1,-1.0894208E0,-8.5691595E-1,5.379687E-1,-4.0915504E-1,4.8527896E-1,-8.608714E-1,-2.796565E-1,1.2441065E0,2.914373E0,3.7877703E-1,1.9979422E0,6.7472196E-1,-3.369662E-1,3.0968571E-2,3.2519464E0,1.3189799E0,-2.8750882E-1,-1.3406083E-1,-5.944029E-1,3.2961147E0,3.8988212E-1,4.036895E0,2.195606E0,2.542029E-1,-7.848857E-1,5.080722E0,1.1634687E0,5.871144E-1,-4.0570852E-1,2.566761E0,1.3998552E-1,-4.5338753E-1,8.9180344E-1],"split_indices":[0,0,0,0,6,6,5,4,6,6,5,5,5,0,3,5,6,3,4,1,3,0,6,6,4,6,5,1,0,0,1,6,2,6,3,6,6,6,0,6,2,3,5,4,5,6,3,3,0,0,4,6,4,0,0,0,0,0,0,0,0,0,0,0,0,0,0,0,0,0,0,0,0,0,0,0,0,0,0,0,0,0,0,0,0,0,0,0,0,0,0,0,0,0,0,0,0,0,0,0,0,0,0],"split_type":[0,0,0,0,0,0,0,0,0,0,0,0,0,0,0,0,0,0,0,0,0,0,0,0,0,0,0,0,0,0,0,0,0,0,0,0,0,0,0,0,0,0,0,0,0,0,0,0,0,0,0,0,0,0,0,0,0,0,0,0,0,0,0,0,0,0,0,0,0,0,0,0,0,0,0,0,0,0,0,0,0,0,0,0,0,0,0,0,0,0,0,0,0,0,0,0,0,0,0,0,0,0,0],"sum_hessian":[1.959E3,1.675E3,2.84E2,1.116E3,5.59E2,2.75E2,9E0,6.62E2,4.54E2,2.4E2,3.19E2,1.77E2,9.8E1,3E0,6E0,4.6E2,2.02E2,2.35E2,2.19E2,9E1,1.5E2,2.5E1,2.94E2,1.68E2,9E0,1.6E1,8.2E1,2E0,4E0,4.41E2,1.9E1,1.09E2,9.3E1,1.17E2,1.18E2,6.2E1,1.57E2,6.6E1,2.4E1,5.2E1,9.8E1,1.8E1,7E0,1.26E2,1.68E2,2.1E1,1.47E2,8E0,1E0,9E0,7E0,3.1E1,5.1E1,1E0,1E0,3E0,1E0,1.87E2,2.54E2,2E0,1.7E1,3.7E1,7.2E1,9.2E1,1E0,2.9E1,8.8E1,9.7E1,2.1E1,5.2E1,1E1,1.56E2,1E0,2E1,4.6E1,1.5E1,9E0,2.3E1,2.9E1,8.6E1,1.2E1,8E0,1E1,1E0,6E0,2.4E1,1.02E2,3.1E1,1.37E2,5E0,1.6E1,1.15E2,3.2E1,3E0,5E0,8E0,1E0,5E0,2E0,1E1,2.1E1,4.5E1,6E0],"tree_param":{"num_deleted":"0","num_feature":"7","num_nodes":"103","size_leaf_vector":"1"}},{"base_weights":[2.5079696E-2,-1.2851691E0,5.0123134E0,-1.9131857E0,-2.6247144E-1,4.4651303E0,2.6343699E1,-2.6101823E0,-1.6713805E0,5.109808E-1,-1.300856E0,6.4647427E0,1.6195012E0,1.3768033E1,1.1409033E1,-2.9147882E0,-2.2070801E0,-8.271951E-1,-2.116009E0,-2.1065035E0,8.2787526E-1,-8.634469E-1,-1.7212676E0,3.7514856E0,8.84141E0,6.1398E0,1.3575724E-1,2.6556592E0,1.437925E1,-1.874575E0,-9.053839E-1,-2.8014665E0,-1.82741E0,-4.92566E-1,-2.9287448E0,-2.4423227E0,-1.794475E0,-2.3715215E0,-3.4198976E-1,5.429805E0,3.2283616E-1,9.3194073E-1,-1.0432835E0,-1.5111971E0,-3.0973113E0,7.973589E-1,5.2783275E0,3.1140478E0,9.661075E0,8.668091E0,2.7560904E0,1.2333838E0,-1.3993394E0,1.0093484E0,1.8569827E-1,4.79702E0,1.1903983E0,-6.8066657E-1,5.468719E-1,3.5787186E-1,-8.793446E-1,4.422617E-1,-6.479913E-1,-6.5324515E-1,4.45498E-3,-9.422737E-1,9.318624E-2,-7.408098E-1,5.625844E-1,5.884E-1,-5.502832E-1,-8.6416674E-1,-4.8077372E-1,-1.7085305E-1,1.1934186E-1,9.169014E-1,4.324285E0,2.8363788E-1,-2.1299742E-1,-3.35985E-1,1.2085733E0,1.3584413E-1,-3.6176357E-1,-4.8095194E-1,1.18870355E-1,-2.3537101E-1,-9.5975685E-1,1.0236903E-1,1.4109535E0,2.5331924E0,9.3628424E-1,-4.2306864E-1,2.5140414E0,3.3260355E0,1.728647E0,2.7645872E0,-5.0554556E-1,2.8623196E-1,1.9504112E0,2.3065023E-1,3.5914352E0,6.1705923E-1,-5.170366E-1],"categories":[],"categories_nodes":[],"categories_segments":[],"categories_sizes":[],"default_left":[0,0,0,0,0,0,0,0,0,0,0,0,0,0,0,0,0,0,0,0,0,0,0,0,0,0,0,0,0,0,0,0,0,0,0,0,0,0,0,0,0,0,0,0,0,0,0,0,0,0,0,0,0,0,0,0,0,0,0,0,0,0,0,0,0,0,0,0,0,0,0,0,0,0,0,0,0,0,0,0,0,0,0,0,0,0,0,0,0,0,0,0,0,0,0,0,0,0,0,0,0,0,0],"id":1,"left_children":[1,3,5,7,9,11,13,15,17,19,21,23,25,-1,27,29,31,33,35,37,39,41,43,45,47,49,51,53,55,57,-1,59,61,63,65,67,69,71,73,75,77,79,81,83,85,87,89,91,93,95,97,99,101,-1,-1,-1,-1,-1,-1,-1,-1,-1,-1,-1,-1,-1,-1,-1,-1,-1,-1,-1,-1,-1,-1,-1,-1,-1,-1,-1,-1,-1,-1,-1,-1,-1,-1,-1,-1,-1,-1,-1,-1,-1,-1,-1,-1,-1,-1,-1,-1,-1,-1],"loss_changes":[1.2814096E4,9.9694507E2,4.644621E3,1.5777002E2,4.7612408E2,2.2599014E3,2.3960884E3,2.377246E1,2.6737463E2,2.8376248E2,4.503842E1,1.4757832E3,1.1125228E3,0E0,1.4380963E2,9.043701E0,1.9704346E1,1.7366405E2,4.482544E1,1.6491196E1,7.0479E2,4.1654686E1,3.2319855E1,4.9645508E2,5.520342E2,3.268651E2,2.1403123E2,2.2483768E0,2.0404541E1,2.6005466E1,0E0,2.4734497E1,8.004343E1,1.8470242E2,2.4343414E1,3.1485962E1,3.947516E1,7.9090576E0,1.2364668E0,5.9567596E2,1.7751349E2,8.075933E1,2.8520699E1,2.0459686E1,1.2598877E0,6.787584E1,4.7220056E2,4.1684708E2,5.36459E2,1.4583081E2,1.2202673E2,3.5993503E2,6.291606E1,0E0,0E0,0E0,0E0,0E0,0E0,0E0,0E0,0E0,0E0,0E0,0E0,0E0,0E0,0E0,0E0,0E0,0E0,0E0,0E0,0E0,0E0,0E0,0E0,0E0,0E0,0E0,0E0,0E0,0E0,0E0,0E0,0E0,0E0,0E0,0E0,0E0,0E0,0E0,0E0,0E0,0E0,0E0,0E0,0E0,0E0,0E0,0E0,0E0,0E0],"parents":[2147483647,0,0,1,1,2,2,3,3,4,4,5,5,6,6,7,7,8,8,9,9,10,10,11,11,12,12,14,14,15,15,16,16,17,17,18,18,19,19,20,20,21,21,22,22,23,23,24,24,25,25,26,26,27,27,28,28,29,29,31,31,32,32,33,33,34,34,35,35,36,36,37,37,38,38,39,39,40,40,41,41,42,42,43,43,44,44,45,45,46,46,47,47,48,48,49,49,50,50,51,51,52,52],"right_children":[2,4,6,8,10,12,14,16,18,20,22,24,26,-1,28,30,32,34,36,38,40,42,44,46,48,50,52,54,56,58,-1,60,62,64,66,68,70,72,74,76,78,80,82,84,86,88,90,92,94,96,98,100,102,-1,-1,-1,-1,-1,-1,-1,-1,-1,-1,-1,-1,-1,-1,-1,-1,-1,-1,-1,-1,-1,-1,-1,-1,-1,-1,-1,-1,-1,-1,-1,-1,-1,-1,-1,-1,-1,-1,-1,-1,-1,-1,-1,-1,-1,-1,-1,-1,-1,-1],"split_conditions":[6.88E0,2.7E0,4.022E1,1.05E0,2.447291E2,2.0833562E2,1.8416384E1,2.065848E1,7.704334E0,6.3398815E1,2.3277834E1,1.145E1,1.6746773E1,1.3768033E1,4.2751665E0,1.1246759E1,1.5104619E2,3.0984848E2,1.8E0,1.5023083E1,2.1105833E0,2.507154E2,3.1133432E2,1.1969115E2,9.6894104E1,2.871759E2,2.6465424E2,1.63E1,1.4094E2,5.5E0,-9.053839E-1,3.9E-1,1.719572E2,1.0916335E2,6.200168E0,2.207933E1,5E-1,5.0449898E1,2.42E0,1.8251668E0,1.2666832E1,2.4938673E2,3.3022497E0,1.927E1,1.55E0,1.107E1,5.410583E0,6.07E0,2.4993439E1,1.652E1,1.636475E1,2.755E1,1.7873556E1,1.0093484E0,1.8569827E-1,4.79702E0,1.1903983E0,-6.8066657E-1,5.468719E-1,3.5787186E-1,-8.793446E-1,4.422617E-1,-6.479913E-1,-6.5324515E-1,4.45498E-3,-9.422737E-1,9.318624E-2,-7.408098E-1,5.625844E-1,5.884E-1,-5.502832E-1,-8.6416674E-1,-4.8077372E-1,-1.7085305E-1,1.1934186E-1,9.169014E-1,4.324285E0,2.8363788E-1,-2.1299742E-1,-3.35985E-1,1.2085733E0,1.3584413E-1,-3.6176357E-1,-4.8095194E-1,1.18870355E-1,-2.3537101E-1,-9.5975685E-1,1.0236903E-1,1.4109535E0,2.5331924E0,9.3628424E-1,-4.2306864E-1,2.5140414E0,3.3260355E0,1.728647E0,2.7645872E0,-5.0554556E-1,2.8623196E-1,1.9504112E0,2.3065023E-1,3.5914352E0,6.1705923E-1,-5.170366E-1],"split_indices":[0,0,0,0,6,6,5,5,3,6,5,0,5,0,3,5,6,6,0,3,3,6,6,6,6,6,6,1,0,2,0,2,6,6,3,3,1,6,1,3,3,6,3,2,1,0,3,2,5,2,3,2,5,0,0,0,0,0,0,0,0,0,0,0,0,0,0,0,0,0,0,0,0,0,0,0,0,0,0,0,0,0,0,0,0,0,0,0,0,0,0,0,0,0,0,0,0,0,0,0,0,0,0],"split_type":[0,0,0,0,0,0,0,0,0,0,0,0,0,0,0,0,0,0,0,0,0,0,0,0,0,0,0,0,0,0,0,0,0,0,0,0,0,0,0,0,0,0,0,0,0,0,0,0,0,0,0,0,0,0,0,0,0,0,0,0,0,0,0,0,0,0,0,0,0,0,0,0,0,0,0,0,0,0,0,0,0,0,0,0,0,0,0,0,0,0,0,0,0,0,0,0,0,0,0,0,0,0,0],"sum_hessian":[1.959E3,1.552E3,4.07E2,9.61E2,5.91E2,3.98E2,9E0,2.45E2,7.16E2,3.39E2,2.52E2,2.33E2,1.65E2,3E0,6E0,1.36E2,1.09E2,2.48E2,4.68E2,3.6E1,3.03E2,1.25E2,1.27E2,1.1E2,1.23E2,4E1,1.25E2,2E0,4E0,1.4E1,1.22E2,4E1,6.9E1,2.15E2,3.3E1,2.29E2,2.39E2,3.1E1,5E0,2.9E1,2.74E2,1.1E1,1.14E2,1.12E2,1.5E1,3.8E1,7.2E1,1.6E1,1.07E2,2.2E1,1.8E1,7.3E1,5.2E1,1E0,1E0,3E0,1E0,1.3E1,1E0,1E0,3.9E1,6E0,6.3E1,4.9E1,1.66E2,3.1E1,2E0,2.28E2,1E0,2E0,2.37E2,1.7E1,1.4E1,4E0,1E0,2.4E1,5E0,1.71E2,1.03E2,7E0,4E0,1.1E1,1.03E2,1.07E2,5E0,1E0,1.4E1,3.5E1,3E0,2.8E1,4.4E1,9E0,7E0,7.7E1,3E1,2.1E1,1E0,1.3E1,5E0,7.1E1,2E0,4E0,4.8E1],"tree_param":{"num_deleted":"0","num_feature":"7","num_nodes":"103","size_leaf_vector":"1"}},{"base_weights":[3.852372E-2,-8.998757E-1,3.610327E0,-1.2642344E0,3.3507712E-2,3.1770854E0,2.0535639E1,-9.8155904E-1,-1.6400671E0,9.455171E-1,-5.7926774E-1,5.0876517E0,1.5835254E0,1.5621484E1,1.1245907E1,-1.7962035E0,-5.709841E-1,-1.2989771E0,-1.817381E0,-3.123658E-1,1.9046319E0,1.131894E0,-7.253633E-1,1.6384325E0,6.700793E0,3.74629E0,-2.3197441E-1,1.2520109E1,1.5784357E-1,-1.9383694E0,-2.3511319E-1,3.4766206E-1,-1.4450758E0,-7.0891666E-1,-1.9472861E0,-1.8978549E0,-6.1186737E-1,1.2444731E-1,-1.9854937E0,8.703745E0,1.299282E0,2.836639E0,-2.4192695E-1,6.278238E-1,-8.501001E-1,5.393705E-1,7.6844025E0,1.178412E0,7.698358E0,5.2875233E0,5.9896827E-1,-5.920726E-1,6.708571E0,4.3847823E0,1.2465231E0,6.285154E-2,-5.9870803E-1,-2.3233978E-1,8.6987704E-1,6.804836E-1,-2.3604454E-2,-4.4573238E-1,5.9414846E-1,1.025506E0,-2.6779187E-1,-6.326013E-1,4.8175386E-1,-5.7925355E-1,-1.4560434E-1,-2.8974825E-1,5.5015075E-1,-2.6563075E-1,7.926724E-1,-7.8031677E-1,-3.6531508E-1,-3.5693684E-1,3.6599662E0,6.499298E-1,-4.7931716E-1,-3.2633656E-1,9.606004E-1,-2.0428298E-1,4.9984333E-1,-2.8215572E-1,3.4824997E-1,6.884327E-1,-3.6465492E-2,3.949002E0,8.2531327E-1,1.6519712E0,-1.8942365E-1,2.551368E0,9.216709E-1,6.2093675E-1,2.3066087E0,6.1409444E-1,-3.473948E-1,3.1912538E-1,-3.7298366E-1,-6.662372E-2,3.068825E0],"categories":[],"categories_nodes":[],"categories_segments":[],"categories_sizes":[],"default_left":[0,0,0,0,0,0,0,0,0,0,0,0,0,0,0,0,0,0,0,0,0,0,0,0,0,0,0,0,0,0,0,0,0,0,0,0,0,0,0,0,0,0,0,0,0,0,0,0,0,0,0,0,0,0,0,0,0,0,0,0,0,0,0,0,0,0,0,0,0,0,0,0,0,0,0,0,0,0,0,0,0,0,0,0,0,0,0,0,0,0,0,0,0,0,0,0,0,0,0,0,0],"id":2,"left_children":[1,3,5,7,9,11,13,15,17,19,21,23,25,-1,27,29,31,33,35,37,39,41,43,45,47,49,51,53,-1,55,57,59,61,63,65,67,69,71,73,75,77,-1,79,81,83,85,87,89,91,93,95,97,99,-1,-1,-1,-1,-1,-1,-1,-1,-1,-1,-1,-1,-1,-1,-1,-1,-1,-1,-1,-1,-1,-1,-1,-1,-1,-1,-1,-1,-1,-1,-1,-1,-1,-1,-1,-1,-1,-1,-1,-1,-1,-1,-1,-1,-1,-1,-1,-1],"loss_changes":[6.572734E3,5.281963E2,2.926519E3,1.17058716E2,2.447682E2,1.2067395E3,2.3440151E3,2.1303687E2,2.6548828E1,2.1293083E2,6.631924E1,9.9611914E2,8.607722E2,0E0,1.1634485E2,4.7038086E1,3.4337524E2,6.2503937E1,2.910669E1,5.65221E1,4.002756E2,2.4242445E2,4.138144E1,3.8790417E2,6.6852734E2,4.819087E2,3.038853E2,7.952319E1,0E0,2.4550537E1,3.436914E1,1.7131656E2,3.3474792E1,7.053771E1,4.8686493E1,1.2669678E1,1.9950478E1,1.5998555E2,4.394478E0,2.9122894E2,2.3709042E2,0E0,5.8831738E1,2.9671865E1,4.145726E1,5.944842E1,2.070531E2,1.6014102E2,3.6174854E2,5.0175037E2,8.886935E1,1.2532506E2,1.4868219E2,0E0,0E0,0E0,0E0,0E0,0E0,0E0,0E0,0E0,0E0,0E0,0E0,0E0,0E0,0E0,0E0,0E0,0E0,0E0,0E0,0E0,0E0,0E0,0E0,0E0,0E0,0E0,0E0,0E0,0E0,0E0,0E0,0E0,0E0,0E0,0E0,0E0,0E0,0E0,0E0,0E0,0E0,0E0,0E0,0E0,0E0,0E0,0E0],"parents":[2147483647,0,0,1,1,2,2,3,3,4,4,5,5,6,6,7,7,8,8,9,9,10,10,11,11,12,12,14,14,15,15,16,16,17,17,18,18,19,19,20,20,21,21,22,22,23,23,24,24,25,25,26,26,27,27,29,29,30,30,31,31,32,32,33,33,34,34,35,35,36,36,37,37,38,38,39,39,40,40,42,42,43,43,44,44,45,45,46,46,47,47,48,48,49,49,50,50,51,51,52,52],"right_children":[2,4,6,8,10,12,14,16,18,20,22,24,26,-1,28,30,32,34,36,38,40,42,44,46,48,50,52,54,-1,56,58,60,62,64,66,68,70,72,74,76,78,-1,80,82,84,86,88,90,92,94,96,98,100,-1,-1,-1,-1,-1,-1,-1,-1,-1,-1,-1,-1,-1,-1,-1,-1,-1,-1,-1,-1,-1,-1,-1,-1,-1,-1,-1,-1,-1,-1,-1,-1,-1,-1,-1,-1,-1,-1,-1,-1,-1,-1,-1,-1,-1,-1,-1,-1],"split_conditions":[6.88E0,3.2E0,4.022E1,2.3891833E2,1.9626651E2,1.8402818E2,4.5E0,1.0916335E2,1E-1,1.3225272E2,3.33E0,1.1619878E2,2.1897945E1,1.5621484E1,2.26E1,1.761683E1,1.1093917E1,3.1133432E2,1.7218916E1,8.84E0,2.1105833E0,1.9689164E0,1.4277983E1,2.145E1,1.4477417E1,2.871759E2,2.755E1,1.9000001E0,1.5784357E-1,4.3E-1,2.95E0,1.2814167E0,3.12E0,-8.1025004E-1,3.05E0,4.315986E1,2.95E0,5.39E0,1.9493261E1,3.45E0,5.5E0,2.836639E0,6.53E0,2.25E0,4.315986E1,4.5093212E1,2.899E1,2.02E0,1.1825166E1,3.3E0,1.6746773E1,4E-1,1.6000003E0,4.3847823E0,1.2465231E0,6.285154E-2,-5.9870803E-1,-2.3233978E-1,8.6987704E-1,6.804836E-1,-2.3604454E-2,-4.4573238E-1,5.9414846E-1,1.025506E0,-2.6779187E-1,-6.326013E-1,4.8175386E-1,-5.7925355E-1,-1.4560434E-1,-2.8974825E-1,5.5015075E-1,-2.6563075E-1,7.926724E-1,-7.8031677E-1,-3.6531508E-1,-3.5693684E-1,3.6599662E0,6.499298E-1,-4.7931716E-1,-3.2633656E-1,9.606004E-1,-2.0428298E-1,4.9984333E-1,-2.8215572E-1,3.4824997E-1,6.884327E-1,-3.6465492E-2,3.949002E0,8.2531327E-1,1.6519712E0,-1.8942365E-1,2.551368E0,9.216709E-1,6.2093675E-1,2.3066087E0,6.1409444E-1,-3.473948E-1,3.1912538E-1,-3.7298366E-1,-6.662372E-2,3.068825E0],"split_indices":[0,0,0,6,6,6,1,6,4,6,0,6,5,0,2,3,3,6,3,1,3,3,5,0,5,6,2,4,0,2,1,3,0,3,0,5,0,2,5,0,1,0,1,2,5,6,0,2,3,2,5,4,4,0,0,0,0,0,0,0,0,0,0,0,0,0,0,0,0,0,0,0,0,0,0,0,0,0,0,0,0,0,0,0,0,0,0,0,0,0,0,0,0,0,0,0,0,0,0,0,0],"split_type":[0,0,0,0,0,0,0,0,0,0,0,0,0,0,0,0,0,0,0,0,0,0,0,0,0,0,0,0,0,0,0,0,0,0,0,0,0,0,0,0,0,0,0,0,0,0,0,0,0,0,0,0,0,0,0,0,0,0,0,0,0,0,0,0,0,0,0,0,0,0,0,0,0,0,0,0,0,0,0,0,0,0,0,0,0,0,0,0,0,0,0,0,0,0,0,0,0,0,0,0,0],"sum_hessian":[1.959E3,1.552E3,4.07E2,1.116E3,4.36E2,3.98E2,9E0,6.39E2,4.77E2,1.75E2,2.61E2,1.8E2,2.18E2,1E0,8E0,2.13E2,4.26E2,1.66E2,3.11E2,7.6E1,9.9E1,2E1,2.41E2,5.8E1,1.22E2,9.9E1,1.19E2,7E0,1E0,1.95E2,1.8E1,2.08E2,2.18E2,8.8E1,7.8E1,2.91E2,2E1,6.1E1,1.5E1,7E0,9.2E1,2E0,1.8E1,2E1,2.21E2,5E1,8E0,1.9E1,1.03E2,6.6E1,3.3E1,1.14E2,5E0,5E0,2E0,5E0,1.9E2,1.6E1,2E0,3.7E1,1.71E2,2.16E2,2E0,3E0,8.5E1,7.5E1,3E0,2.84E2,7E0,1.8E1,2E0,4.4E1,1.7E1,7E0,8E0,2E0,5E0,7.1E1,2.1E1,1.5E1,3E0,9E0,1.1E1,2.12E2,9E0,1.3E1,3.7E1,3E0,5E0,5E0,1.4E1,8.7E1,1.6E1,2.9E1,3.7E1,1.8E1,1.5E1,3.2E1,8.2E1,2E0,3E0],"tree_param":{"num_deleted":"0","num_feature":"7","num_nodes":"101","size_leaf_vector":"1"}},{"base_weights":[5.025846E-2,-4.7067338E-1,3.6649425E0,-8.001471E-1,6.498994E-1,3.1095827E0,1.651601E1,-1.1206015E0,-4.7848594E-1,1.5610671E0,9.256396E-3,4.4994483E0,6.893631E-1,1.3278262E1,8.515373E0,-1.3006396E0,-7.062262E-1,-7.037762E-1,2.582187E-1,5.666802E-1,8.163328E0,9.831979E-1,-5.90157E-1,3.486377E0,6.8838177E0,5.3946896E0,-1.2456597E-1,9.467989E0,1.3416703E-1,-1.3153578E0,8.204569E-1,-7.95421E-1,3.930069E0,-5.2189445E-1,-1.000405E0,1.1470546E0,-7.680885E-1,1.0440878E0,-1.0273837E0,1.6163399E1,5.3301706E0,7.559244E-1,3.1133993E0,-7.044085E-1,2.7040675E0,5.9357343E0,1.7096982E0,8.536344E0,3.1198456E0,9.406465E0,-8.5345846E-1,6.529091E0,-3.9262548E-1,3.8281376E0,1.4821253E0,-5.517107E-1,-3.570068E-1,-9.960935E-2,-3.974995E-1,2.2458367E0,7.4803166E-2,1.6252188E-1,-1.8926325E-1,-3.2404363E-1,-1.672544E-2,1.9799247E0,2.1552189E-1,2.4365199E-1,-3.57234E-1,1.3885005E-1,1.5902475E0,1.2636169E0,-3.968229E-1,5.8709607E0,3.8062865E-1,2.4892627E-1,3.4922402E0,1.4259747E-2,6.74073E-1,-2.6160413E-1,3.9755413E-1,1.1369754E0,-2.4590014E-1,-1.7936458E-1,2.1465087E0,2.1816635E0,2.0017403E-1,6.956565E-1,2.821108E0,-1.2893466E-2,1.5699512E0,3.087611E0,4.8111978E-1,-4.9575955E-1,1.4893761E-1,2.5773654E0,3.6072552E-1,-2.4972588E-1,1.0019186E0],"categories":[],"categories_nodes":[],"categories_segments":[],"categories_sizes":[],"default_left":[0,0,0,0,0,0,0,0,0,0,0,0,0,0,0,0,0,0,0,0,0,0,0,0,0,0,0,0,0,0,0,0,0,0,0,0,0,0,0,0,0,0,0,0,0,0,0,0,0,0,0,0,0,0,0,0,0,0,0,0,0,0,0,0,0,0,0,0,0,0,0,0,0,0,0,0,0,0,0,0,0,0,0,0,0,0,0,0,0,0,0,0,0,0,0,0,0,0,0],"id":3,"left_children":[1,3,5,7,9,11,13,15,17,19,21,23,25,-1,27,29,31,33,35,37,39,41,43,45,47,49,51,53,-1,55,-1,57,59,61,63,65,67,69,71,73,75,77,-1,79,81,83,85,87,89,91,93,95,97,-1,-1,-1,-1,-1,-1,-1,-1,-1,-1,-1,-1,-1,-1,-1,-1,-1,-1,-1,-1,-1,-1,-1,-1,-1,-1,-1,-1,-1,-1,-1,-1,-1,-1,-1,-1,-1,-1,-1,-1,-1,-1,-1,-1,-1,-1],"loss_changes":[3.6924128E3,6.3332764E2,1.7114727E3,1.3604181E2,2.2764153E2,7.974783E2,1.8428677E3,4.8543457E1,1.1022142E2,1.0523715E3,1.3485277E2,3.4074634E2,3.3769458E2,0E0,6.4938354E1,3.0978394E1,8.707332E1,2.6885162E1,1.4318715E2,1.0837625E2,3.8982104E2,1.8005167E2,5.572571E1,4.5983752E2,2.4705054E2,3.3388815E2,1.3811528E2,5.6213135E1,0E0,2.8003784E1,0E0,4.8640213E1,5.0488792E1,3.7087814E1,1.4402588E1,1.9159091E2,4.9728428E1,2.672395E2,5.663953E1,2.2886096E2,4.7314886E2,9.1782776E1,0E0,4.8439156E1,2.2237713E1,3.627661E2,3.662611E2,1.3997632E2,1.0048601E2,3.8773315E1,7.2925096E0,2.262259E1,1.2424863E2,0E0,0E0,0E0,0E0,0E0,0E0,0E0,0E0,0E0,0E0,0E0,0E0,0E0,0E0,0E0,0E0,0E0,0E0,0E0,0E0,0E0,0E0,0E0,0E0,0E0,0E0,0E0,0E0,0E0,0E0,0E0,0E0,0E0,0E0,0E0,0E0,0E0,0E0,0E0,0E0,0E0,0E0,0E0,0E0,0E0,0E0],"parents":[2147483647,0,0,1,1,2,2,3,3,4,4,5,5,6,6,7,7,8,8,9,9,10,10,11,11,12,12,14,14,15,15,16,16,17,17,18,18,19,19,20,20,21,21,22,22,23,23,24,24,25,25,26,26,27,27,29,29,31,31,32,32,33,33,34,34,35,35,36,36,37,37,38,38,39,39,40,40,41,41,43,43,44,44,45,45,46,46,47,47,48,48,49,49,50,50,51,51,52,52],"right_children":[2,4,6,8,10,12,14,16,18,20,22,24,26,-1,28,30,32,34,36,38,40,42,44,46,48,50,52,54,-1,56,-1,58,60,62,64,66,68,70,72,74,76,78,-1,80,82,84,86,88,90,92,94,96,98,-1,-1,-1,-1,-1,-1,-1,-1,-1,-1,-1,-1,-1,-1,-1,-1,-1,-1,-1,-1,-1,-1,-1,-1,-1,-1,-1,-1,-1,-1,-1,-1,-1,-1,-1,-1,-1,-1,-1,-1,-1,-1,-1,-1,-1,-1],"split_conditions":[1.063E1,4.36E0,4.022E1,1.95E0,1.7796411E2,2.1661682E2,4.5E0,1.6000001E0,5.63E0,1.6405453E2,2.0858265E1,2.145E1,1.4081477E1,1.3278262E1,2.26E1,3.115E1,1.418E1,2.5160559E2,2.3277834E1,1.9000001E0,2.15E0,2.065848E1,1.2700002E1,7.95E0,1.7000002E0,2.7736713E2,1.087E1,1.420851E2,1.3416703E-1,6.8E-1,8.204569E-1,2.1826312E2,1.21E0,1.2849528E1,1.7566833E1,2.09E0,7.17E0,1.5249069E2,4.43E0,7.35E0,8.11E0,8.11E0,3.1133993E0,4.147506E1,2.8400002E1,9.6894104E1,1.8793334E0,3.01E0,4E0,2.347E1,9.083499E0,7.17E0,7.799999E0,3.8281376E0,1.4821253E0,-5.517107E-1,-3.570068E-1,-9.960935E-2,-3.974995E-1,2.2458367E0,7.4803166E-2,1.6252188E-1,-1.8926325E-1,-3.2404363E-1,-1.672544E-2,1.9799247E0,2.1552189E-1,2.4365199E-1,-3.57234E-1,1.3885005E-1,1.5902475E0,1.2636169E0,-3.968229E-1,5.8709607E0,3.8062865E-1,2.4892627E-1,3.4922402E0,1.4259747E-2,6.74073E-1,-2.6160413E-1,3.9755413E-1,1.1369754E0,-2.4590014E-1,-1.7936458E-1,2.1465087E0,2.1816635E0,2.0017403E-1,6.956565E-1,2.821108E0,-1.2893466E-2,1.5699512E0,3.087611E0,4.8111978E-1,-4.9575955E-1,1.4893761E-1,2.5773654E0,3.6072552E-1,-2.4972588E-1,1.0019186E0],"split_indices":[0,0,0,0,6,6,1,4,2,6,5,0,5,0,2,2,2,6,5,4,2,5,4,1,4,6,0,6,0,0,0,6,0,5,3,0,2,6,0,0,2,0,0,5,4,6,3,2,4,0,3,1,4,0,0,0,0,0,0,0,0,0,0,0,0,0,0,0,0,0,0,0,0,0,0,0,0,0,0,0,0,0,0,0,0,0,0,0,0,0,0,0,0,0,0,0,0,0,0],"split_type":[0,0,0,0,0,0,0,0,0,0,0,0,0,0,0,0,0,0,0,0,0,0,0,0,0,0,0,0,0,0,0,0,0,0,0,0,0,0,0,0,0,0,0,0,0,0,0,0,0,0,0,0,0,0,0,0,0,0,0,0,0,0,0,0,0,0,0,0,0,0,0,0,0,0,0,0,0,0,0,0,0,0,0,0,0,0,0,0,0,0,0,0,0,0,0,0,0,0,0],"sum_hessian":[1.959E3,1.713E3,2.46E2,1.324E3,3.89E2,2.37E2,9E0,6.62E2,6.62E2,1.6E2,2.29E2,1.5E2,8.7E1,1E0,8E0,4.6E2,2.02E2,5.07E2,1.55E2,1.4E2,2E1,8.7E1,1.42E2,1.07E2,4.3E1,1.2E1,7.5E1,7E0,1E0,4.59E2,1E0,1.99E2,3E0,3.16E2,1.91E2,8.3E1,7.2E1,1.08E2,3.2E1,4E0,1.6E1,8.6E1,1E0,1.38E2,4E0,4.4E1,6.3E1,2.9E1,1.4E1,7E0,5E0,2E0,7.3E1,3E0,4E0,8.6E1,3.73E2,1.07E2,9.2E1,1E0,2E0,2.9E1,2.87E2,1.76E2,1.5E1,5E0,7.8E1,1.5E1,5.7E1,9.6E1,1.2E1,1E0,3.1E1,3E0,1E0,1E1,6E0,5.9E1,2.7E1,1.28E2,1E1,3E0,1E0,7E0,3.7E1,9E0,5.4E1,4E0,2.5E1,6E0,8E0,6E0,1E0,3E0,2E0,1E0,1E0,6.6E1,7E0],"tree_param":{"num_deleted":"0","num_feature":"7","num_nodes":"99","size_leaf_vector":"1"}},{"base_weights":[6.371395E-2,-3.3098716E-2,1.0510564E1,-4.355849E-1,1.5205808E0,1.1286522E1,6.7027454E0,-6.7744297E-1,-3.575126E-2,2.4626486E0,7.227871E-1,9.463771E0,1.4064565E0,-4.8283753E-1,-9.496565E-1,2.5624943E-1,-5.2582693E-1,1.1764815E0,4.1409388E0,1.8767694E0,-2.1781671E-1,1.033412E1,1.14041954E-1,-9.063908E-1,1.010307E0,-9.7154325E-1,-2.6174155E-1,-1.0118972E0,-4.721434E-1,-1.0289016E0,5.4766756E-1,-6.6911554E-1,2.6929706E-1,3.4789163E-1,4.4742746E0,1.3297881E1,3.6045084E0,1.4981203E0,8.620021E0,-4.714213E-1,4.721508E0,3.267946E0,7.954236E-1,3.9094377E-2,-3.8861924E-1,-3.1657395E-1,4.6859226E-1,5.5179935E-2,-2.1458907E-1,-3.0784622E-1,2.9803482E-1,1.661887E0,-2.1537532E-1,-3.3654892E-1,7.7959275E-1,1.4851048E0,6.4295985E-2,3.3553094E-2,-2.216045E-1,7.0423704E-1,-2.5811832E-2,-8.3800596E-1,2.7075773E-1,3.2183867E0,8.5079914E-1,1.0867242E0,4.59467E0,8.245427E-1,2.523907E0,6.624712E-1,-4.8684943E-1,2.9999658E-1,4.010014E0,1.9945828E-2,-5.005854E-1,-3.3538106E-3,2.127194E0],"categories":[],"categories_nodes":[],"categories_segments":[],"categories_sizes":[],"default_left":[0,0,0,0,0,0,0,0,0,0,0,0,0,0,0,0,0,0,0,0,0,0,0,0,0,0,0,0,0,0,0,0,0,0,0,0,0,0,0,0,0,0,0,0,0,0,0,0,0,0,0,0,0,0,0,0,0,0,0,0,0,0,0,0,0,0,0,0,0,0,0,0,0,0,0,0,0],"id":4,"left_children":[1,3,5,7,9,-1,11,13,15,17,19,21,23,25,27,29,31,33,35,37,39,41,-1,43,-1,45,47,49,51,53,55,57,59,61,63,65,67,69,71,73,75,-1,-1,-1,-1,-1,-1,-1,-1,-1,-1,-1,-1,-1,-1,-1,-1,-1,-1,-1,-1,-1,-1,-1,-1,-1,-1,-1,-1,-1,-1,-1,-1,-1,-1,-1,-1],"loss_changes":[1.9826674E3,1.2156873E3,1.6060509E3,1.4928519E2,2.9885034E2,0E0,2.3528387E2,5.0502686E1,8.356347E1,3.9014502E2,2.3703479E2,8.3036804E1,3.4804672E1,6.057834E1,1.1410553E1,1.3763646E2,2.5017414E1,2.8535785E2,3.4012073E2,2.3731216E2,1.537947E2,1.406665E1,0E0,1.7819502E0,0E0,3.875943E1,7.876328E1,1.1111664E1,7.489879E1,2.5838097E1,4.3775845E2,1.0133339E1,2.5309137E1,1.5061159E2,1.8472607E2,2.2608826E1,2.897116E2,2.1191025E2,1.6748322E2,7.481273E1,6.735362E1,0E0,0E0,0E0,0E0,0E0,0E0,0E0,0E0,0E0,0E0,0E0,0E0,0E0,0E0,0E0,0E0,0E0,0E0,0E0,0E0,0E0,0E0,0E0,0E0,0E0,0E0,0E0,0E0,0E0,0E0,0E0,0E0,0E0,0E0,0E0,0E0],"parents":[2147483647,0,0,1,1,2,2,3,3,4,4,6,6,7,7,8,8,9,9,10,10,11,11,12,12,13,13,14,14,15,15,16,16,17,17,18,18,19,19,20,20,21,21,23,23,25,25,26,26,27,27,28,28,29,29,30,30,31,31,32,32,33,33,34,34,35,35,36,36,37,37,38,38,39,39,40,40],"right_children":[2,4,6,8,10,-1,12,14,16,18,20,22,24,26,28,30,32,34,36,38,40,42,-1,44,-1,46,48,50,52,54,56,58,60,62,64,66,68,70,72,74,76,-1,-1,-1,-1,-1,-1,-1,-1,-1,-1,-1,-1,-1,-1,-1,-1,-1,-1,-1,-1,-1,-1,-1,-1,-1,-1,-1,-1,-1,-1,-1,-1,-1,-1,-1,-1],"split_conditions":[3.567E1,6.75E0,4.5E0,2.7E0,1.8402818E2,1.1286522E1,2.0540764E2,1.2525166E1,2.5632266E2,1.4750562E2,2.1897945E1,2.26E1,4.022E1,1.05E0,7.399999E0,9.835682E1,7.55E0,2.102E1,1.4911792E2,2.1734581E1,2.755E1,2.4195107E1,1.14041954E-1,1E1,1.010307E0,7.5999994E0,2.2022568E2,2.2521002E1,7.5E-1,1.9500166E1,2.1105833E0,1.52E0,8.11E0,1.4E0,1.5379206E1,1.107E1,2.8910038E1,1.107E1,1.475E1,7.704334E0,1.6000003E0,3.267946E0,7.954236E-1,3.9094377E-2,-3.8861924E-1,-3.1657395E-1,4.6859226E-1,5.5179935E-2,-2.1458907E-1,-3.0784622E-1,2.9803482E-1,1.661887E0,-2.1537532E-1,-3.3654892E-1,7.7959275E-1,1.4851048E0,6.4295985E-2,3.3553094E-2,-2.216045E-1,7.0423704E-1,-2.5811832E-2,-8.3800596E-1,2.7075773E-1,3.2183867E0,8.5079914E-1,1.0867242E0,4.59467E0,8.245427E-1,2.523907E0,6.624712E-1,-4.8684943E-1,2.9999658E-1,4.010014E0,1.9945828E-2,-5.005854E-1,-3.3538106E-3,2.127194E0],"split_indices":[0,0,1,0,6,0,6,3,6,6,5,2,0,0,4,6,2,0,6,5,2,5,0,1,0,4,6,3,1,3,3,1,2,2,5,0,5,2,0,3,4,0,0,0,0,0,0,0,0,0,0,0,0,0,0,0,0,0,0,0,0,0,0,0,0,0,0,0,0,0,0,0,0,0,0,0,0],"split_type":[0,0,0,0,0,0,0,0,0,0,0,0,0,0,0,0,0,0,0,0,0,0,0,0,0,0,0,0,0,0,0,0,0,0,0,0,0,0,0,0,0,0,0,0,0,0,0,0,0,0,0,0,0,0,0,0,0,0,0,0,0,0,0,0,0,0,0,0,0,0,0,0,0,0,0,0,0],"sum_hessian":[1.959E3,1.942E3,1.7E1,1.543E3,3.99E2,1E0,1.6E1,9.61E2,5.82E2,1.82E2,2.17E2,1E1,6E0,5.62E2,3.99E2,3.65E2,2.17E2,1.04E2,7.8E1,9.7E1,1.2E2,9E0,1E0,3E0,3E0,1.74E2,3.88E2,3.52E2,4.7E1,6.7E1,2.98E2,1.84E2,3.3E1,8.4E1,2E1,3E0,7.5E1,9.3E1,4E0,1.15E2,5E0,8E0,1E0,1E0,2E0,1.69E2,5E0,1.96E2,1.92E2,3.5E2,2E0,1E0,4.6E1,6.6E1,1E0,2E1,2.78E2,1.5E1,1.69E2,4E0,2.9E1,1.2E1,7.2E1,3E0,1.7E1,1E0,2E0,6.5E1,1E1,7.6E1,1.7E1,2E0,2E0,8E1,3.5E1,2E0,3E0],"tree_param":{"num_deleted":"0","num_feature":"7","num_nodes":"77","size_leaf_vector":"1"}},{"base_weights":[6.434341E-2,-1.1551589E-2,8.253212E0,-2.260698E-1,1.5871257E0,9.593544E0,4.9765215E0,-4.0580228E-1,3.851395E-1,1.9492301E0,-1.6021559E0,6.4985886E0,2.3843193E-2,-2.6003256E-1,-6.5610003E-1,2.7441895E0,2.2981976E-1,2.2510922E0,-1.1560934E0,-7.204172E-2,-2.3627102E0,3.5851614E0,2.790018E0,1.0760565E0,-3.1089535E-1,-9.537761E-1,-9.8930635E-2,-6.863485E-1,8.553861E-1,1.3136407E1,8.925712E-3,-1.2071975E0,4.4983238E-1,4.711859E0,1.7938664E0,-2.06037E0,-4.569011E-1,1.5238097E0,-1.6534848E0,-9.7413516E-1,-1.5073546E0,4.0050077E0,9.693568E-2,3.323021E-2,4.5099524E-1,-2.2113495E-1,-3.9742497E-1,1.227587E-1,-1.2865531E-1,-2.2650696E-1,-4.3335028E-2,7.5179917E-1,-1.9880626E-1,-1.3222311E-1,4.9922643E0,-1.542353E-1,6.6888857E-1,2.0881645E-2,-7.620303E-1,5.1489645E-1,3.3798028E-2,2.2563286E0,4.7654983E-1,7.4955887E-1,-9.885061E-2,-1.0095499E0,-1.8133777E-1,2.0368801E-1,-2.7328846E-1,7.527463E-1,9.15866E-3,-7.384187E-1,2.3672369E-1,-5.093695E-1,3.1130506E-2,1.3027185E0,2.971028E-1],"categories":[],"categories_nodes":[],"categories_segments":[],"categories_sizes":[],"default_left":[0,0,0,0,0,0,0,0,0,0,0,0,0,0,0,0,0,0,0,0,0,0,0,0,0,0,0,0,0,0,0,0,0,0,0,0,0,0,0,0,0,0,0,0,0,0,0,0,0,0,0,0,0,0,0,0,0,0,0,0,0,0,0,0,0,0,0,0,0,0,0,0,0,0,0,0,0],"id":5,"left_children":[1,3,5,7,9,-1,11,13,15,17,19,21,23,25,27,29,31,33,35,37,39,41,-1,43,-1,45,47,49,51,53,55,57,59,61,63,65,67,69,71,-1,73,75,-1,-1,-1,-1,-1,-1,-1,-1,-1,-1,-1,-1,-1,-1,-1,-1,-1,-1,-1,-1,-1,-1,-1,-1,-1,-1,-1,-1,-1,-1,-1,-1,-1,-1,-1],"loss_changes":[1.218224E3,6.667016E2,1.2401849E3,1.8844633E2,2.6873926E2,0E0,1.2799631E2,4.817314E1,1.4226807E2,1.9663995E2,2.775943E1,7.276227E1,6.692714E0,9.3675156E1,2.2852783E1,6.8209375E2,1.1657446E2,2.0419629E2,1.1071617E1,2.523333E1,7.209152E0,9.662361E0,0E0,1.0707724E0,0E0,1.1722763E1,1.145068E2,1.7679565E1,2.6718182E1,2.4523822E2,2.4376768E1,8.356769E1,1.3602762E2,2.425061E2,2.4172107E2,1.3163227E1,6.8075004E0,7.2803783E0,1.1809101E1,0E0,3.2460785E0,2.8192978E0,0E0,0E0,0E0,0E0,0E0,0E0,0E0,0E0,0E0,0E0,0E0,0E0,0E0,0E0,0E0,0E0,0E0,0E0,0E0,0E0,0E0,0E0,0E0,0E0,0E0,0E0,0E0,0E0,0E0,0E0,0E0,0E0,0E0,0E0,0E0],"parents":[2147483647,0,0,1,1,2,2,3,3,4,4,6,6,7,7,8,8,9,9,10,10,11,11,12,12,13,13,14,14,15,15,16,16,17,17,18,18,19,19,20,20,21,21,23,23,25,25,26,26,27,27,28,28,29,29,30,30,31,31,32,32,33,33,34,34,35,35,36,36,37,37,38,38,40,40,41,41],"right_children":[2,4,6,8,10,-1,12,14,16,18,20,22,24,26,28,30,32,34,36,38,40,42,-1,44,-1,46,48,50,52,54,56,58,60,62,64,66,68,70,72,-1,74,76,-1,-1,-1,-1,-1,-1,-1,-1,-1,-1,-1,-1,-1,-1,-1,-1,-1,-1,-1,-1,-1,-1,-1,-1,-1,-1,-1,-1,-1,-1,-1,-1,-1,-1,-1],"split_conditions":[3.567E1,1.063E1,4.5E0,4.36E0,3.0174622E2,9.593544E0,2.1235028E2,1.33335E1,4.59E0,3.2169178E1,3.08E0,5.812666E0,6.129333E0,1.0916335E2,2.207933E1,3.4189165E0,2.4918332E0,3.33E0,6.07E0,1E0,8.73E0,2.102E1,2.790018E0,4.022E1,-3.1089535E-1,2.42E0,2.2022568E2,7.399999E0,1.85E0,4.43E0,1.8000001E0,2.0291357E1,4.821E0,1.8402818E2,7.758501E0,2.062479E2,8.47E0,3.0460002E0,1.927E1,-9.7413516E-1,2.6596178E1,8.000001E-1,9.693568E-2,3.323021E-2,4.5099524E-1,-2.2113495E-1,-3.9742497E-1,1.227587E-1,-1.2865531E-1,-2.2650696E-1,-4.3335028E-2,7.5179917E-1,-1.9880626E-1,-1.3222311E-1,4.9922643E0,-1.542353E-1,6.6888857E-1,2.0881645E-2,-7.620303E-1,5.1489645E-1,3.3798028E-2,2.2563286E0,4.7654983E-1,7.4955887E-1,-9.885061E-2,-1.0095499E0,-1.8133777E-1,2.0368801E-1,-2.7328846E-1,7.527463E-1,9.15866E-3,-7.384187E-1,2.3672369E-1,-5.093695E-1,3.1130506E-2,1.3027185E0,2.971028E-1],"split_indices":[0,0,1,0,6,0,6,3,0,5,2,3,3,6,3,3,3,1,1,4,1,2,0,0,0,1,6,4,2,0,4,5,3,6,3,6,1,3,0,0,5,4,0,0,0,0,0,0,0,0,0,0,0,0,0,0,0,0,0,0,0,0,0,0,0,0,0,0,0,0,0,0,0,0,0,0,0],"split_type":[0,0,0,0,0,0,0,0,0,0,0,0,0,0,0,0,0,0,0,0,0,0,0,0,0,0,0,0,0,0,0,0,0,0,0,0,0,0,0,0,0,0,0,0,0,0,0,0,0,0,0,0,0,0,0,0,0,0,0,0,0,0,0,0,0,0,0,0,0,0,0,0,0,0,0,0,0],"sum_hessian":[1.959E3,1.942E3,1.7E1,1.713E3,2.29E2,1E0,1.6E1,1.324E3,3.89E2,2.06E2,2.3E1,1.2E1,4E0,8.38E2,4.86E2,2.3E1,3.66E2,1.88E2,1.8E1,8E0,1.5E1,7E0,5E0,2E0,2E0,1.57E2,6.81E2,4.77E2,9E0,4E0,1.9E1,4.8E1,3.18E2,2.8E1,1.6E2,7E0,1.1E1,4E0,4E0,6E0,9E0,6E0,1E0,1E0,1E0,1.01E2,5.6E1,2.68E2,4.13E2,4.23E2,5.4E1,4E0,5E0,1E0,3E0,1.6E1,3E0,2.5E1,2.3E1,6.6E1,2.52E2,1.4E1,1.4E1,1.2E2,4E1,3E0,4E0,3E0,8E0,2E0,2E0,3E0,1E0,8E0,1E0,5E0,1E0],"tree_param":{"num_deleted":"0","num_feature":"7","num_nodes":"77","size_leaf_vector":"1"}},{"base_weights":[5.5257455E-2,9.701367E-3,8.937724E0,-1.21195555E-1,1.6288118E0,8.154512E0,3.890426E0,-2.843192E-1,3.274767E-1,2.3596547E0,-3.6691278E-1,4.3080664E0,8.2395315E-2,-2.4497008E-1,-1.0312217E0,6.169136E-1,-4.778169E-1,3.3147037E0,-3.233981E-1,3.9100878E0,-9.507486E-1,1.5112655E0,4.2392218E-1,-3.231018E-1,9.541116E-2,-1.1387901E0,8.941088E-1,1.0076941E0,-3.896535E-1,3.1870607E-2,-2.4785862E0,1.9169264E0,6.4380713E0,3.3768318E0,-1.2349806E0,-8.443152E-1,2.799359E0,2.3263197E-3,-2.6371372E0,-1.0410512E-1,2.5104004E-1,1.2243002E-1,-1.8251249E-1,-3.7486106E-1,4.6994656E-1,1.1925966E0,2.4977183E-1,1.21835135E-1,-3.678578E-1,-1.6318797E-1,7.8188306E-1,-1.1033448E0,-2.3190011E-1,3.8078362E-1,1.8807404E0,2.7094731E0,7.6559E-1,1.3946021E0,1.6662961E-1,-1.128179E0,-1.1172564E-1,-1.4037582E-1,1.6226968E0,-3.7760624E-1,-1.6271931E0],"categories":[],"categories_nodes":[],"categories_segments":[],"categories_sizes":[],"default_left":[0,0,0,0,0,0,0,0,0,0,0,0,0,0,0,0,0,0,0,0,0,0,0,0,0,0,0,0,0,0,0,0,0,0,0,0,0,0,0,0,0,0,0,0,0,0,0,0,0,0,0,0,0,0,0,0,0,0,0,0,0,0,0,0,0],"id":6,"left_children":[1,3,5,7,9,-1,11,13,15,17,19,21,-1,23,25,27,29,31,33,35,37,-1,-1,39,41,43,-1,45,47,49,51,53,55,57,59,-1,-1,61,63,-1,-1,-1,-1,-1,-1,-1,-1,-1,-1,-1,-1,-1,-1,-1,-1,-1,-1,-1,-1,-1,-1,-1,-1,-1,-1],"loss_changes":[7.9302814E2,4.1368567E2,8.150798E2,1.3227255E2,2.1381567E2,0E0,1.2407623E1,3.868908E1,1.1264015E2,2.7525385E2,1.0360015E2,9.776398E0,0E0,3.3539978E1,3.1874306E1,1.4003076E2,1.3060918E2,3.3255475E2,1.019892E2,2.0853204E2,5.78673E1,0E0,0E0,2.8723228E1,5.2183876E1,2.1431442E1,0E0,1.2973212E2,6.7067314E1,1.5410713E2,5.0337143E1,1.4988976E2,2.1883893E2,1.8948227E1,5.088348E1,0E0,0E0,6.355001E1,4.3112648E1,0E0,0E0,0E0,0E0,0E0,0E0,0E0,0E0,0E0,0E0,0E0,0E0,0E0,0E0,0E0,0E0,0E0,0E0,0E0,0E0,0E0,0E0,0E0,0E0,0E0,0E0],"parents":[2147483647,0,0,1,1,2,2,3,3,4,4,6,6,7,7,8,8,9,9,10,10,11,11,13,13,14,14,15,15,16,16,17,17,18,18,19,19,20,20,23,23,24,24,25,25,27,27,28,28,29,29,30,30,31,31,32,32,33,33,34,34,37,37,38,38],"right_children":[2,4,6,8,10,-1,12,14,16,18,20,22,-1,24,26,28,30,32,34,36,38,-1,-1,40,42,44,-1,46,48,50,52,54,56,58,60,-1,-1,62,64,-1,-1,-1,-1,-1,-1,-1,-1,-1,-1,-1,-1,-1,-1,-1,-1,-1,-1,-1,-1,-1,-1,-1,-1,-1,-1],"split_conditions":[4.022E1,1.507E1,4.5E0,4.36E0,2.4993439E1,8.154512E0,2.26E1,1.01E1,8.73E0,2.3481572E2,1.8793334E0,1.9000001E0,8.2395315E-2,5.63E0,3.72E0,2.6027246E2,1.24E1,2.1602999E1,1.3104198E1,1.927E1,7.704334E0,1.5112655E0,4.2392218E-1,8.900001E0,9.735582E0,1.7831417E1,8.941088E-1,4.59E0,2E-1,2.214E1,2.0735149E2,3.115E1,2.4119999E1,1E-1,2.5559673E2,-8.443152E-1,2.799359E0,7.350166E0,1.197E1,-1.0410512E-1,2.5104004E-1,1.2243002E-1,-1.8251249E-1,-3.7486106E-1,4.6994656E-1,1.1925966E0,2.4977183E-1,1.21835135E-1,-3.678578E-1,-1.6318797E-1,7.8188306E-1,-1.1033448E0,-2.3190011E-1,3.8078362E-1,1.8807404E0,2.7094731E0,7.6559E-1,1.3946021E0,1.6662961E-1,-1.128179E0,-1.1172564E-1,-1.4037582E-1,1.6226968E0,-3.7760624E-1,-1.6271931E0],"split_indices":[0,0,1,0,5,0,2,4,1,6,3,4,0,2,0,6,0,5,5,0,3,0,0,4,3,3,0,0,4,1,6,0,5,4,6,0,0,3,2,0,0,0,0,0,0,0,0,0,0,0,0,0,0,0,0,0,0,0,0,0,0,0,0,0,0],"split_type":[0,0,0,0,0,0,0,0,0,0,0,0,0,0,0,0,0,0,0,0,0,0,0,0,0,0,0,0,0,0,0,0,0,0,0,0,0,0,0,0,0,0,0,0,0,0,0,0,0,0,0,0,0,0,0,0,0,0,0,0,0,0,0,0,0],"sum_hessian":[1.959E3,1.95E3,9E0,1.805E3,1.45E2,1E0,8E0,1.324E3,4.81E2,1.06E2,3.9E1,7E0,1E0,1.259E3,6.5E1,3.54E2,1.27E2,7.8E1,2.8E1,4E0,3.5E1,5E0,2E0,1.024E3,2.35E2,6.4E1,1E0,2.55E2,9.9E1,1.02E2,2.5E1,5.5E1,2.3E1,5E0,2.3E1,2E0,2E0,2.3E1,1.2E1,1.004E3,2E1,1.63E2,7.2E1,6.2E1,2E0,1.3E1,2.42E2,5.1E1,4.8E1,8.4E1,1.8E1,1.4E1,1.1E1,4.9E1,6E0,1.3E1,1E1,3E0,2E0,5E0,1.8E1,2.2E1,1E0,9E0,3E0],"tree_param":{"num_deleted":"0","num_feature":"7","num_nodes":"65","size_leaf_vector":"1"}},{"base_weights":[4.848556E-2,1.1427743E-2,7.273617E0,-1.2242704E-1,9.7535914E-1,6.9313354E0,2.9474742E0,-3.905874E-2,-5.623342E-1,-2.9577346E0,1.0898259E0,3.9193392E0,1.3861146E0,-5.7114474E-2,3.6705256E0,-7.295107E-1,6.994958E-2,-9.499824E-1,-2.5567412E-1,3.490103E0,8.716245E-1,1.3752778E0,1.8894897E-1,4.8477498E-1,7.003605E-2,-4.3631136E-1,8.568388E-2,3.4094822E-1,3.5471985E0,-1.284867E0,-3.5935688E-1,1.655158E0,-2.549899E-1,-5.2994E-1,5.87929E0,1.1835448E0,-9.394077E-1,-1.4775482E-1,4.680895E-1,2.9816854E-1,4.6119103E-3,-1.9689672E-1,7.990952E-1,5.604732E-1,-4.0318257E-1,-8.0120035E-2,-7.894961E-1,1.6769301E0,-8.164457E-3,-3.5536095E-1,8.2754545E-2,5.5994225E-1,-1.0178919E0,-2.8004557E-1,2.2005582E0,1.8215063E0,3.0363804E-1,-1.2468755E-1,-1.3505938E0],"categories":[],"categories_nodes":[],"categories_segments":[],"categories_sizes":[],"default_left":[0,0,0,0,0,0,0,0,0,0,0,0,0,0,0,0,0,0,0,0,0,0,0,0,0,0,0,0,0,0,0,0,0,0,0,0,0,0,0,0,0,0,0,0,0,0,0,0,0,0,0,0,0,0,0,0,0,0,0],"id":7,"left_children":[1,3,5,7,9,-1,11,13,15,17,19,21,23,25,27,29,31,-1,-1,33,35,-1,-1,-1,-1,37,39,41,-1,43,45,47,49,51,53,55,57,-1,-1,-1,-1,-1,-1,-1,-1,-1,-1,-1,-1,-1,-1,-1,-1,-1,-1,-1,-1,-1,-1],"loss_changes":[5.2470215E2,2.5185072E2,6.1676465E2,6.2837803E1,1.1037311E2,0E0,8.22422E0,9.679373E1,2.8907951E1,3.797264E-1,1.1846649E2,8.048996E0,9.4717693E-1,7.779491E1,1.8600189E2,4.394081E1,3.0297665E1,0E0,0E0,1.8560373E2,1.2199994E2,0E0,0E0,0E0,0E0,4.487047E1,6.665154E1,1.5646388E1,0E0,1.8529953E1,2.676924E1,6.634692E1,2.4505262E1,6.1220993E1,1.2587225E2,1.471932E2,5.7841278E1,0E0,0E0,0E0,0E0,0E0,0E0,0E0,0E0,0E0,0E0,0E0,0E0,0E0,0E0,0E0,0E0,0E0,0E0,0E0,0E0,0E0,0E0],"parents":[2147483647,0,0,1,1,2,2,3,3,4,4,6,6,7,7,8,8,9,9,10,10,11,11,12,12,13,13,14,14,15,15,16,16,19,19,20,20,25,25,26,26,27,27,29,29,30,30,31,31,32,32,33,33,34,34,35,35,36,36],"right_children":[2,4,6,8,10,-1,12,14,16,18,20,22,24,26,28,30,32,-1,-1,34,36,-1,-1,-1,-1,38,40,42,-1,44,46,48,50,52,54,56,58,-1,-1,-1,-1,-1,-1,-1,-1,-1,-1,-1,-1,-1,-1,-1,-1,-1,-1,-1,-1,-1,-1],"split_conditions":[4.022E1,1.063E1,4.5E0,3.0652895E1,-1.0269167E0,6.9313354E0,2.3469128E1,3.0551254E1,3.915321E1,2.42E0,2.27E0,1.9000001E0,4.95E0,1.43E0,5.39E0,5.3335E0,3.5501664E0,-9.499824E-1,-2.5567412E-1,4.2751665E0,1.1323083E1,1.3752778E0,1.8894897E-1,4.8477498E-1,7.003605E-2,1.507E1,6.293334E-1,3.92E0,3.5471985E0,5E-1,9.56E0,3.3999996E0,2.483381E2,2.1E0,8E-1,1.087E1,1.145E1,-1.4775482E-1,4.680895E-1,2.9816854E-1,4.6119103E-3,-1.9689672E-1,7.990952E-1,5.604732E-1,-4.0318257E-1,-8.0120035E-2,-7.894961E-1,1.6769301E0,-8.164457E-3,-3.5536095E-1,8.2754545E-2,5.5994225E-1,-1.0178919E0,-2.8004557E-1,2.2005582E0,1.8215063E0,3.0363804E-1,-1.2468755E-1,-1.3505938E0],"split_indices":[0,0,1,5,3,0,5,5,5,2,1,4,2,0,0,3,3,0,0,3,3,0,0,0,0,2,3,2,0,1,0,4,6,4,1,0,2,0,0,0,0,0,0,0,0,0,0,0,0,0,0,0,0,0,0,0,0,0,0],"split_type":[0,0,0,0,0,0,0,0,0,0,0,0,0,0,0,0,0,0,0,0,0,0,0,0,0,0,0,0,0,0,0,0,0,0,0,0,0,0,0,0,0,0,0,0,0,0,0,0,0,0,0,0,0,0,0,0,0,0,0],"sum_hessian":[1.959E3,1.95E3,9E0,1.713E3,2.37E2,1E0,8E0,1.441E3,2.72E2,6E0,2.31E2,4E0,4E0,1.435E3,6E0,2.15E2,5.7E1,5E0,1E0,1.8E1,2.13E2,3E0,1E0,3E0,1E0,3.92E2,1.043E3,5E0,1E0,8.5E1,1.3E2,9E0,4.8E1,7E0,1.1E1,1.82E2,3.1E1,3.82E2,1E1,7.4E1,9.69E2,4E0,1E0,1E0,8.4E1,1.26E2,4E0,2E0,7E0,1.7E1,3.1E1,4E0,3E0,2E0,9E0,5E0,1.77E2,2.8E1,3E0],"tree_param":{"num_deleted":"0","num_feature":"7","num_nodes":"59","size_leaf_vector":"1"}},{"base_weights":[4.1803863E-2,1.1260834E-2,5.9965687E0,-6.64301E-2,9.722099E-1,5.891635E0,2.2986803E0,-6.6863E-1,-9.489084E-3,-3.3847103E-1,1.5978713E0,1.6055122E-1,2.7260873E0,-4.7052884E-1,-1.5574307E0,1.3798523E-1,-2.7703705E-1,-2.1704607E0,7.361834E-1,7.6886024E0,1.1921026E0,5.0851536E-1,1.3368456E0,-5.69176E-1,4.5349044E-1,-8.8644093E-1,-3.1241002E0,4.0899166E-1,-2.56978E-1,-3.3580795E-1,6.318123E-1,1.5039179E0,-3.3277059E0,3.9649575E0,-5.592579E-1,2.7317684E0,9.032193E-2,1.5652955E0,-1.7661068E0,2.4248776E-1,-1.9925438E-1,-1.6314605E-1,3.4343612E-1,-1.7442137E-1,-6.1124843E-1,-1.0241811E0,-1.6428624E-1,1.763841E-1,-1.5474518E-1,-1.0035332E-1,2.772452E-1,-6.919732E-2,-2.375826E-1,2.5498752E-2,8.6551577E-1,-2.3693933E-1,9.8889834E-1,-1.1992034E0,-1.9628224E-1,1.7443966E0,5.97516E-2,-4.177179E-1,1.989171E-1,7.701228E-1,8.551771E-2,-1.1713758E-1,-5.5938774E-1],"categories":[],"categories_nodes":[],"categories_segments":[],"categories_sizes":[],"default_left":[0,0,0,0,0,0,0,0,0,0,0,0,0,0,0,0,0,0,0,0,0,0,0,0,0,0,0,0,0,0,0,0,0,0,0,0,0,0,0,0,0,0,0,0,0,0,0,0,0,0,0,0,0,0,0,0,0,0,0,0,0,0,0,0,0,0,0],"id":8,"left_children":[1,3,5,7,9,-1,11,13,15,17,19,-1,21,23,25,27,29,31,33,35,37,-1,-1,39,41,43,45,47,49,51,53,55,57,59,61,-1,-1,63,65,-1,-1,-1,-1,-1,-1,-1,-1,-1,-1,-1,-1,-1,-1,-1,-1,-1,-1,-1,-1,-1,-1,-1,-1,-1,-1,-1,-1],"loss_changes":[3.5641055E2,1.4572044E2,4.5933057E2,6.1921165E1,1.20267E2,0E0,5.324707E0,2.6734497E1,6.518083E1,9.609813E1,2.355058E2,0E0,4.932907E0,1.2016714E1,2.6664803E1,1.1410012E2,3.1566132E1,8.1543434E1,1.3188072E2,6.008017E1,1.0653885E2,0E0,0E0,1.5848251E1,9.585245E0,6.188772E0,4.1045303E0,1.0489895E2,4.0053352E1,2.6292686E1,4.4110703E1,2.315982E1,2.2447891E1,6.1531967E1,2.4345364E1,0E0,0E0,1.0699956E2,7.627449E-1,0E0,0E0,0E0,0E0,0E0,0E0,0E0,0E0,0E0,0E0,0E0,0E0,0E0,0E0,0E0,0E0,0E0,0E0,0E0,0E0,0E0,0E0,0E0,0E0,0E0,0E0,0E0,0E0],"parents":[2147483647,0,0,1,1,2,2,3,3,4,4,6,6,7,7,8,8,9,9,10,10,12,12,13,13,14,14,15,15,16,16,17,17,18,18,19,19,20,20,23,23,24,24,25,25,26,26,27,27,28,28,29,29,30,30,31,31,32,32,33,33,34,34,37,37,38,38],"right_children":[2,4,6,8,10,-1,12,14,16,18,20,-1,22,24,26,28,30,32,34,36,38,-1,-1,40,42,44,46,48,50,52,54,56,58,60,62,-1,-1,64,66,-1,-1,-1,-1,-1,-1,-1,-1,-1,-1,-1,-1,-1,-1,-1,-1,-1,-1,-1,-1,-1,-1,-1,-1,-1,-1,-1,-1],"split_conditions":[4.022E1,1.507E1,4.5E0,6.188777E1,3.3E0,5.891635E0,1E-1,8.11E0,2.6027246E2,5E-1,3.76E0,1.6055122E-1,1.839E1,1.6423082E1,5.39E0,1.1825166E1,1.761683E1,1.63E0,1.6000003E0,1E-1,2.9431927E2,5.0851536E-1,1.3368456E0,1.1246759E1,4E-1,7.468916E0,1.087E1,9.41E0,8.73E0,3.227349E2,6.53E0,8.5E-1,2.1602999E1,2.3481572E2,2.1E0,2.7317684E0,9.032193E-2,8E-1,1.3246826E1,2.4248776E-1,-1.9925438E-1,-1.6314605E-1,3.4343612E-1,-1.7442137E-1,-6.1124843E-1,-1.0241811E0,-1.6428624E-1,1.763841E-1,-1.5474518E-1,-1.0035332E-1,2.772452E-1,-6.919732E-2,-2.375826E-1,2.5498752E-2,8.6551577E-1,-2.3693933E-1,9.8889834E-1,-1.1992034E0,-1.9628224E-1,1.7443966E0,5.97516E-2,-4.177179E-1,1.989171E-1,7.701228E-1,8.551771E-2,-1.1713758E-1,-5.5938774E-1],"split_indices":[0,0,1,6,2,0,4,2,6,4,2,0,2,3,0,3,3,2,4,4,6,0,0,5,4,3,0,1,0,6,0,2,5,6,2,0,0,4,5,0,0,0,0,0,0,0,0,0,0,0,0,0,0,0,0,0,0,0,0,0,0,0,0,0,0,0,0],"split_type":[0,0,0,0,0,0,0,0,0,0,0,0,0,0,0,0,0,0,0,0,0,0,0,0,0,0,0,0,0,0,0,0,0,0,0,0,0,0,0,0,0,0,0,0,0,0,0,0,0,0,0,0,0,0,0,0,0,0,0,0,0,0,0,0,0,0,0],"sum_hessian":[1.959E3,1.95E3,9E0,1.805E3,1.45E2,1E0,8E0,1.55E2,1.65E3,4.7E1,9.8E1,2E0,6E0,1.28E2,2.7E1,1.064E3,5.86E2,1.7E1,3E1,5E0,9.3E1,5E0,1E0,1.16E2,1.2E1,2E1,7E0,6.31E2,4.33E2,5.51E2,3.5E1,4E0,1.3E1,8E0,2.2E1,4E0,1E0,8.3E1,1E1,7E0,1.09E2,5E0,7E0,1.7E1,3E0,6E0,1E0,5.29E2,1.02E2,4.07E2,2.6E1,4.49E2,1.02E2,2.9E1,6E0,2E0,2E0,1E1,3E0,5E0,3E0,1.3E1,9E0,4.6E1,3.7E1,1E0,9E0],"tree_param":{"num_deleted":"0","num_feature":"7","num_nodes":"67","size_leaf_vector":"1"}},{"base_weights":[3.481002E-2,9.407539E-3,4.9873533E0,-9.501755E-2,4.045618E-1,5.00789E0,1.8319558E0,-6.617628E-2,-1.2679261E0,-1.9583862E0,4.8728764E-1,2.4839044E0,8.136159E-1,-1.1059311E-1,5.106214E-1,-1.6993877E0,5.085455E-1,-3.010971E0,-5.3111136E-2,6.1186475E-1,-9.952267E-1,1.010004E0,2.319482E-1,2.8738198E-1,3.5448004E-2,-3.847796E-1,-5.0414335E-2,2.1492708E0,-3.385542E-1,-1.9106659E0,-5.358307E-1,1.194593E0,-3.0991942E-1,-3.7812274E0,-3.3085322E-1,3.1858385E-1,-4.8851183E-1,9.108399E-1,-1.4720596E-1,-1.757135E0,-2.6441184E-1,-1.5570089E-1,1.0187378E-1,2.1312901E-1,-3.07934E-2,-8.56109E-2,1.2053472E0,3.5443854E-1,-1.896071E-1,-7.2614586E-1,-2.7116603E-1,-2.9972446E-1,2.6706356E-1,5.2294755E-1,1.949246E-2,-1.2399405E0,-3.032537E-1,-4.8586368E-3,-2.3939729E-1,4.1260463E-1,-1.4683472E-1,-5.388921E-1,1.933733E-1,1.6251376E-1,-5.880097E-1,6.0662305E-1,-2.1122465E-1],"categories":[],"categories_nodes":[],"categories_segments":[],"categories_sizes":[],"default_left":[0,0,0,0,0,0,0,0,0,0,0,0,0,0,0,0,0,0,0,0,0,0,0,0,0,0,0,0,0,0,0,0,0,0,0,0,0,0,0,0,0,0,0,0,0,0,0,0,0,0,0,0,0,0,0,0,0,0,0,0,0,0,0,0,0,0,0],"id":9,"left_children":[1,3,5,7,9,-1,11,13,15,17,19,21,23,25,27,29,31,33,35,37,39,-1,-1,-1,-1,41,43,45,47,49,51,53,-1,55,-1,-1,57,59,61,63,65,-1,-1,-1,-1,-1,-1,-1,-1,-1,-1,-1,-1,-1,-1,-1,-1,-1,-1,-1,-1,-1,-1,-1,-1,-1,-1],"loss_changes":[2.465346E2,8.054454E1,3.3877783E2,5.214679E1,8.070887E1,0E0,3.9542046E0,3.8690716E1,2.922395E1,2.7916576E1,7.356045E1,4.9480286E0,3.8866472E-1,2.3097395E1,1.5100974E2,6.3512344E0,9.695034E0,9.05761E0,3.4317534E0,8.29684E1,1.6796625E1,0E0,0E0,0E0,0E0,2.4677162E1,4.577295E1,1.69469E2,3.286435E1,1.0644066E1,4.853087E0,3.6047544E0,0E0,1.6715469E0,0E0,0E0,7.179364E-1,1.7109015E2,1.369539E2,8.05822E0,1.8513826E1,0E0,0E0,0E0,0E0,0E0,0E0,0E0,0E0,0E0,0E0,0E0,0E0,0E0,0E0,0E0,0E0,0E0,0E0,0E0,0E0,0E0,0E0,0E0,0E0,0E0,0E0],"parents":[2147483647,0,0,1,1,2,2,3,3,4,4,6,6,7,7,8,8,9,9,10,10,11,11,12,12,13,13,14,14,15,15,16,16,17,17,18,18,19,19,20,20,25,25,26,26,27,27,28,28,29,29,30,30,31,31,33,33,36,36,37,37,38,38,39,39,40,40],"right_children":[2,4,6,8,10,-1,12,14,16,18,20,22,24,26,28,30,32,34,36,38,40,-1,-1,-1,-1,42,44,46,48,50,52,54,-1,56,-1,-1,58,60,62,64,66,-1,-1,-1,-1,-1,-1,-1,-1,-1,-1,-1,-1,-1,-1,-1,-1,-1,-1,-1,-1,-1,-1,-1,-1,-1,-1],"split_conditions":[4.022E1,6.75E0,4.5E0,6.22E0,-1.0269167E0,5.00789E0,2.3469128E1,5.07E0,1.032E1,2.85E0,3.047788E2,9.000001E-1,4.95E0,1.1045715E2,3.17E0,6.62E0,2.755E1,1.9350003E2,3E0,2.7E0,5E0,1.010004E0,2.319482E-1,2.8738198E-1,3.5448004E-2,1.598767E1,6.293334E-1,2.25E0,1.12644295E2,9.1814165E0,3.5309376E1,2.7267473E1,-3.0991942E-1,2.15E0,-3.3085322E-1,3.1858385E-1,8.23E0,1.24E1,4.2E0,6.8916686E-2,3.05E0,-1.5570089E-1,1.0187378E-1,2.1312901E-1,-3.07934E-2,-8.56109E-2,1.2053472E0,3.5443854E-1,-1.896071E-1,-7.2614586E-1,-2.7116603E-1,-2.9972446E-1,2.6706356E-1,5.2294755E-1,1.949246E-2,-1.2399405E0,-3.032537E-1,-4.8586368E-3,-2.3939729E-1,4.1260463E-1,-1.4683472E-1,-5.388921E-1,1.933733E-1,1.6251376E-1,-5.880097E-1,6.0662305E-1,-2.1122465E-1],"split_indices":[0,0,1,0,3,0,5,0,2,2,6,4,2,6,1,0,2,6,2,4,1,0,0,0,0,3,3,1,6,3,5,5,0,2,0,0,0,2,4,3,2,0,0,0,0,0,0,0,0,0,0,0,0,0,0,0,0,0,0,0,0,0,0,0,0,0,0],"split_type":[0,0,0,0,0,0,0,0,0,0,0,0,0,0,0,0,0,0,0,0,0,0,0,0,0,0,0,0,0,0,0,0,0,0,0,0,0,0,0,0,0,0,0,0,0,0,0,0,0,0,0,0,0,0,0,0,0,0,0,0,0,0,0,0,0,0,0],"sum_hessian":[1.959E3,1.95E3,9E0,1.543E3,4.07E2,1E0,8E0,1.507E3,3.6E1,1.3E1,3.94E2,4E0,4E0,1.4E3,1.07E2,2.9E1,7E0,8E0,5E0,3.64E2,3E1,2E0,2E0,3E0,1E0,2.51E2,1.149E3,3.6E1,7.1E1,2.4E1,5E0,5E0,2E0,5E0,3E0,1E0,4E0,2.61E2,1.03E2,1.4E1,1.6E1,2.12E2,3.9E1,7.3E1,1.076E3,1.6E1,2E1,1.1E1,6E1,1.5E1,9E0,4E0,1E0,3E0,2E0,4E0,1E0,2E0,2E0,1.96E2,6.5E1,3.3E1,7E1,1E0,1.3E1,2E0,1.4E1],"tree_param":{"num_deleted":"0","num_feature":"7","num_nodes":"67","size_leaf_vector":"1"}},{"base_weights":[2.7060216E-2,5.922028E-3,4.1484146E0,7.964687E-2,-3.9848208E-1,4.2567067E0,1.4562336E0,1.8171757E-2,8.04817E-1,1.3723967E0,-5.0931776E-1,6.9404465E-1,2.2354586E0,3.785609E-3,3.1332598E0,2.0176647E0,7.06018E-1,5.440667E-1,2.318101E0,-9.998362E-1,-1.4949033E-1,7.926792E-1,3.0130792E-2,2.376382E-1,9.848179E-1,3.3965725E-2,-1.3978218E0,3.669642E-1,2.959655E0,-2.379565E0,9.5937777E-1,-2.6624116E-1,1.7396839E0,2.2742505E0,-1.1032252E0,-1.5522855E-2,-9.759189E-1,2.7248612E-1,4.9537186E-2,-4.610513E-3,2.848336E-1,-9.1723084E-2,-8.9112526E-1,-1.4558467E-1,6.942295E-1,-1.029986E0,1.0655894E0,5.0216365E-1,-7.583301E-2,-1.9618219E-1,2.9568124E-1,1.3455473E0,-7.666114E-2,1.1267914E0,-3.256367E-1,-3.7783325E-1,1.1059318E-1,-1.486462E-1,5.2704502E-2,-4.354668E-2,-3.1443813E-1],"categories":[],"categories_nodes":[],"categories_segments":[],"categories_sizes":[],"default_left":[0,0,0,0,0,0,0,0,0,0,0,0,0,0,0,0,0,0,0,0,0,0,0,0,0,0,0,0,0,0,0,0,0,0,0,0,0,0,0,0,0,0,0,0,0,0,0,0,0,0,0,0,0,0,0,0,0,0,0,0,0],"id":10,"left_children":[1,3,5,7,9,-1,11,13,15,17,19,21,23,25,27,-1,29,31,-1,33,35,37,-1,-1,-1,39,41,43,-1,45,47,49,51,53,55,57,59,-1,-1,-1,-1,-1,-1,-1,-1,-1,-1,-1,-1,-1,-1,-1,-1,-1,-1,-1,-1,-1,-1,-1,-1],"loss_changes":[1.7072664E2,5.820008E1,2.496488E2,7.358682E1,5.9778236E1,0E0,3.7937412E0,6.8240036E1,7.0711845E1,9.0542786E1,4.9977104E1,2.7168846E-1,3.445879E0,6.4217606E1,1.26743614E2,0E0,1.02348526E2,1.6933083E1,0E0,4.3129547E1,1.825275E1,2.1277165E-1,0E0,0E0,0E0,6.712883E1,5.404853E1,1.1079618E1,0E0,7.4696724E1,1.03487274E2,5.983263E0,3.9490913E1,2.398952E1,2.7366547E1,1.3210355E1,1.2275791E0,0E0,0E0,0E0,0E0,0E0,0E0,0E0,0E0,0E0,0E0,0E0,0E0,0E0,0E0,0E0,0E0,0E0,0E0,0E0,0E0,0E0,0E0,0E0,0E0],"parents":[2147483647,0,0,1,1,2,2,3,3,4,4,6,6,7,7,8,8,9,9,10,10,11,11,12,12,13,13,14,14,16,16,17,17,19,19,20,20,21,21,25,25,26,26,27,27,29,29,30,30,31,31,32,32,33,33,34,34,35,35,36,36],"right_children":[2,4,6,8,10,-1,12,14,16,18,20,22,24,26,28,-1,30,32,-1,34,36,38,-1,-1,-1,40,42,44,-1,46,48,50,52,54,56,58,60,-1,-1,-1,-1,-1,-1,-1,-1,-1,-1,-1,-1,-1,-1,-1,-1,-1,-1,-1,-1,-1,-1,-1,-1],"split_conditions":[4.022E1,3.0652895E1,4.5E0,1.507E1,6.3E-1,4.2567067E0,5.3335E0,3.0551254E1,8.790563E0,4.68E0,2.3481572E2,7.95E0,1.839E1,1.273E1,5.39E0,2.0176647E0,1.1525623E1,5.3E-1,2.318101E0,5.3E-1,3.0174622E2,7.0000005E-1,3.0130792E-2,2.376382E-1,9.848179E-1,9.56E0,1.24E1,3.92E0,2.959655E0,2.6801828E2,2.1661682E2,3.33E0,6E-1,1.21E0,1.4591834E1,2.12E0,8.2E-1,2.7248612E-1,4.9537186E-2,-4.610513E-3,2.848336E-1,-9.1723084E-2,-8.9112526E-1,-1.4558467E-1,6.942295E-1,-1.029986E0,1.0655894E0,5.0216365E-1,-7.583301E-2,-1.9618219E-1,2.9568124E-1,1.3455473E0,-7.666114E-2,1.1267914E0,-3.256367E-1,-3.7783325E-1,1.1059318E-1,-1.486462E-1,5.2704502E-2,-4.354668E-2,-3.1443813E-1],"split_indices":[0,5,1,0,2,0,3,5,5,0,6,2,2,0,0,0,5,2,0,1,6,4,0,0,0,0,1,2,0,6,6,0,2,0,3,2,1,0,0,0,0,0,0,0,0,0,0,0,0,0,0,0,0,0,0,0,0,0,0,0,0],"split_type":[0,0,0,0,0,0,0,0,0,0,0,0,0,0,0,0,0,0,0,0,0,0,0,0,0,0,0,0,0,0,0,0,0,0,0,0,0,0,0,0,0,0,0,0,0,0,0,0,0,0,0,0,0,0,0,0,0,0,0,0,0],"sum_hessian":[1.959E3,1.95E3,9E0,1.65E3,3E2,1E0,8E0,1.522E3,1.28E2,1.7E1,2.83E2,5E0,3E0,1.516E3,6E0,1E0,1.27E2,1.6E1,1E0,1.19E2,1.64E2,4E0,1E0,2E0,1E0,1.485E3,3.1E1,5E0,1E0,9E0,1.18E2,1E1,6E0,3E0,1.16E2,1.42E2,2.2E1,3E0,1E0,1.41E3,7.5E1,1.9E1,1.2E1,4E0,1E0,8E0,1E0,7.4E1,4.4E1,8E0,2E0,2E0,4E0,2E0,1E0,1.05E2,1.1E1,4E1,1.02E2,2E0,2E1],"tree_param":{"num_deleted":"0","num_feature":"7","num_nodes":"61","size_leaf_vector":"1"}},{"base_weights":[2.6535556E-2,8.784967E-3,3.487022E0,-8.375336E-2,2.8188637E-1,3.6182008E0,1.1943202E0,-9.195979E-2,1.7809526E0,-8.6264277E-1,4.213936E-1,5.445234E-1,1.8704355E0,-7.781509E-1,-6.3466184E-2,-2.4584818E-1,-2.7890065E0,1.1254207E0,4.3471523E-2,6.1927986E-1,2.5611164E-2,1.901107E-1,8.370953E-1,-2.2991365E-1,-1.8913794E0,1.0042479E0,-1.2041674E-1,-5.023314E-1,3.2558773E0,-3.9975173E0,-1.1820663E0,2.3400217E-1,1.9687419E0,-1.2637283E-1,1.3597347E0,2.111767E-1,4.2106535E-2,4.540015E-2,-2.4337298E-1,-9.6440315E-2,-6.4969385E-1,-1.21453635E-1,6.512424E-1,-2.8320258E-2,-3.0810454E-1,6.212653E-1,-2.0767823E-1,9.049851E-2,1.3746463E0,-1.6034317E-1,-1.3456833E0,-7.753032E-1,1.5471835E-1,-4.6277198E-1,4.0890232E-1,8.9611775E-1,-2.416202E-1,-4.06537E-1,3.223418E-2,9.50108E-1,-4.1591927E-2],"categories":[],"categories_nodes":[],"categories_segments":[],"categories_sizes":[],"default_left":[0,0,0,0,0,0,0,0,0,0,0,0,0,0,0,0,0,0,0,0,0,0,0,0,0,0,0,0,0,0,0,0,0,0,0,0,0,0,0,0,0,0,0,0,0,0,0,0,0,0,0,0,0,0,0,0,0,0,0,0,0],"id":11,"left_children":[1,3,5,7,9,-1,11,13,-1,15,17,19,21,23,25,27,29,31,33,35,-1,-1,-1,37,39,41,43,45,47,49,51,53,55,57,59,-1,-1,-1,-1,-1,-1,-1,-1,-1,-1,-1,-1,-1,-1,-1,-1,-1,-1,-1,-1,-1,-1,-1,-1,-1,-1],"loss_changes":[1.20363686E2,4.932996E1,1.8216385E2,7.257821E1,7.9240524E1,0E0,2.935543E0,2.8437965E1,0E0,6.3475555E1,1.1728679E2,1.5307951E-1,2.782364E0,3.4963326E1,8.525061E1,3.9357147E1,2.0520721E1,1.1530914E2,6.455707E1,1.0388756E-1,0E0,0E0,0E0,8.987986E0,7.484726E0,1.1758806E2,3.127237E1,2.0982758E1,1.0372065E1,9.43457E0,1.7998268E1,1.5454056E2,2.255774E2,7.369608E1,8.980307E1,0E0,0E0,0E0,0E0,0E0,0E0,0E0,0E0,0E0,0E0,0E0,0E0,0E0,0E0,0E0,0E0,0E0,0E0,0E0,0E0,0E0,0E0,0E0,0E0,0E0,0E0],"parents":[2147483647,0,0,1,1,2,2,3,3,4,4,6,6,7,7,9,9,10,10,11,11,12,12,13,13,14,14,15,15,16,16,17,17,18,18,19,19,23,23,24,24,25,25,26,26,27,27,28,28,29,29,30,30,31,31,32,32,33,33,34,34],"right_children":[2,4,6,8,10,-1,12,14,-1,16,18,20,22,24,26,28,30,32,34,36,-1,-1,-1,38,40,42,44,46,48,50,52,54,56,58,60,-1,-1,-1,-1,-1,-1,-1,-1,-1,-1,-1,-1,-1,-1,-1,-1,-1,-1,-1,-1,-1,-1,-1,-1,-1,-1],"split_conditions":[4.022E1,5.63E0,4.5E0,2.657E1,9.0850013E-1,3.6182008E0,5.3335E0,-1.0269167E0,1.7809526E0,7.55E0,1.7987587E2,7.95E0,1.839E1,2.0163212E1,5.751666E-1,3.4E0,1.7137852E1,2.0366266E1,2.26E1,7.0000005E-1,2.5611164E-2,1.901107E-1,8.370953E-1,1.94E0,5.9396214E1,1.43E0,1.352E1,9.504273E0,1.21E0,8.297589E0,1.107E1,5.0439167E0,9.1814165E0,2.062479E2,1.63E1,2.111767E-1,4.2106535E-2,4.540015E-2,-2.4337298E-1,-9.6440315E-2,-6.4969385E-1,-1.21453635E-1,6.512424E-1,-2.8320258E-2,-3.0810454E-1,6.212653E-1,-2.0767823E-1,9.049851E-2,1.3746463E0,-1.6034317E-1,-1.3456833E0,-7.753032E-1,1.5471835E-1,-4.6277198E-1,4.0890232E-1,8.9611775E-1,-2.416202E-1,-4.06537E-1,3.223418E-2,9.50108E-1,-4.1591927E-2],"split_indices":[0,2,1,1,3,0,3,3,0,0,6,2,2,5,3,4,5,5,1,4,0,0,0,0,6,0,1,5,0,5,0,3,3,6,2,0,0,0,0,0,0,0,0,0,0,0,0,0,0,0,0,0,0,0,0,0,0,0,0,0,0],"split_type":[0,0,0,0,0,0,0,0,0,0,0,0,0,0,0,0,0,0,0,0,0,0,0,0,0,0,0,0,0,0,0,0,0,0,0,0,0,0,0,0,0,0,0,0,0,0,0,0,0,0,0,0,0,0,0,0,0,0,0,0,0],"sum_hessian":[1.959E3,1.95E3,9E0,1.457E3,4.93E2,1E0,8E0,1.456E3,1E0,5.3E1,4.4E2,5E0,3E0,5.7E1,1.399E3,4.1E1,1.2E1,1.53E2,2.87E2,4E0,1E0,2E0,1E0,3.9E1,1.8E1,7E1,1.329E3,3.9E1,2E0,6E0,6E0,7.5E1,7.8E1,2.55E2,3.2E1,3E0,1E0,2.4E1,1.5E1,3E0,1.5E1,3.2E1,3.8E1,1.293E3,3.6E1,2E0,3.7E1,1E0,1E0,1E0,5E0,3E0,3E0,2.9E1,4.6E1,5.7E1,2.1E1,4E1,2.15E2,1.4E1,1.8E1],"tree_param":{"num_deleted":"0","num_feature":"7","num_nodes":"61","size_leaf_vector":"1"}},{"base_weights":[2.2065464E-2,7.132167E-3,2.9333453E0,1.0022344E-1,-1.7934778E-1,3.0754704E0,9.8114634E-1,7.196839E-2,2.2317388E0,-8.311594E-1,-7.310812E-2,4.2764878E-1,1.5661061E0,-8.219933E-2,2.9703948E-1,1.5516855E-1,5.1761007E0,-3.5479712E-1,-2.224109E0,5.7852376E-1,-2.6362458E-1,4.221759E-2,5.359292E-1,1.5208864E-1,7.115307E-1,2.4095543E-2,-8.7849754E-1,2.106486E0,1.9429442E-1,-1.5295753E0,1.8140509E0,2.2602887E0,-1.4387706E-1,-1.4887551E0,-8.995063E-2,-1.4099485E0,-4.2959056E0,3.229372E-2,2.3435912E0,-2.8155532E-1,2.4062808E0,1.9051133E-1,3.579054E-2,1.3449468E-3,1.9864266E0,6.561962E-3,-5.5893975E-1,5.54113E-2,2.7366705E0,-3.9304253E-2,2.9251236E-1,-1.0527197E-1,-5.0853837E-1,1.6836154E-1,8.639486E-1,-5.856176E-1,6.1063313E-1,1.504755E-1,-1.8067724E-1,-4.9951538E-1,4.3901977E-1,-1.5284001E0,-4.53151E-2,-1.1076614E-1,8.057941E-1,2.5338843E0,4.058068E-1,-9.852683E-2,1.954039E-1,1.1091119E0,-2.6285507E-2],"categories":[],"categories_nodes":[],"categories_segments":[],"categories_sizes":[],"default_left":[0,0,0,0,0,0,0,0,0,0,0,0,0,0,0,0,0,0,0,0,0,0,0,0,0,0,0,0,0,0,0,0,0,0,0,0,0,0,0,0,0,0,0,0,0,0,0,0,0,0,0,0,0,0,0,0,0,0,0,0,0,0,0,0,0,0,0,0,0,0,0],"id":12,"left_children":[1,3,5,7,9,-1,11,13,15,17,19,21,23,25,27,29,31,33,35,37,39,-1,41,-1,-1,43,45,47,49,51,53,-1,-1,55,57,59,61,63,65,67,69,-1,-1,-1,-1,-1,-1,-1,-1,-1,-1,-1,-1,-1,-1,-1,-1,-1,-1,-1,-1,-1,-1,-1,-1,-1,-1,-1,-1,-1,-1],"loss_changes":[8.51901E1,3.388666E1,1.3280797E2,7.825372E1,4.49506E1,0E0,2.2442207E0,4.4646935E1,1.0313781E2,5.959382E1,6.967461E1,1.10990405E-1,2.2108555E0,6.468797E1,9.6822525E1,3.3517437E1,9.697394E1,2.0588497E1,3.273883E1,1.2236917E2,2.145458E1,0E0,8.9404106E-2,0E0,0E0,8.7308105E1,7.982902E1,3.7583173E2,1.26103615E2,5.7595825E-1,6.395355E0,0E0,0E0,2.5199366E1,1.7575804E1,1.5630611E1,1.9094948E1,1.0541002E2,1.6998979E2,1.9102123E1,9.980997E0,0E0,0E0,0E0,0E0,0E0,0E0,0E0,0E0,0E0,0E0,0E0,0E0,0E0,0E0,0E0,0E0,0E0,0E0,0E0,0E0,0E0,0E0,0E0,0E0,0E0,0E0,0E0,0E0,0E0,0E0],"parents":[2147483647,0,0,1,1,2,2,3,3,4,4,6,6,7,7,8,8,9,9,10,10,11,11,12,12,13,13,14,14,15,15,16,16,17,17,18,18,19,19,20,20,22,22,25,25,26,26,27,27,28,28,29,29,30,30,33,33,34,34,35,35,36,36,37,37,38,38,39,39,40,40],"right_children":[2,4,6,8,10,-1,12,14,16,18,20,22,24,26,28,30,32,34,36,38,40,-1,42,-1,-1,44,46,48,50,52,54,-1,-1,56,58,60,62,64,66,68,70,-1,-1,-1,-1,-1,-1,-1,-1,-1,-1,-1,-1,-1,-1,-1,-1,-1,-1,-1,-1,-1,-1,-1,-1,-1,-1,-1,-1,-1,-1],"split_conditions":[4.022E1,2.4993439E1,4.5E0,2.4863468E1,2.6309572E1,3.0754704E0,5.3335E0,3.24E0,3.66E0,7.17E0,1.7543202E2,1E-1,1.839E1,7.43E0,3.4E0,2E-1,2.0164796E2,2.7814167E0,2.6089443E1,7.17E0,2.899E1,4.221759E-2,7.0000005E-1,1.5208864E-1,7.115307E-1,7.35E0,1.7595861E1,7.55E0,2.0945072E1,1.33E0,1.63E0,2.2602887E0,-1.4387706E-1,2.3E0,2.5764534E1,1.2460582E1,1.24E1,1.6405453E2,1.76E0,2.145E1,3.115E1,1.9051133E-1,3.579054E-2,1.3449468E-3,1.9864266E0,6.561962E-3,-5.5893975E-1,5.54113E-2,2.7366705E0,-3.9304253E-2,2.9251236E-1,-1.0527197E-1,-5.0853837E-1,1.6836154E-1,8.639486E-1,-5.856176E-1,6.1063313E-1,1.504755E-1,-1.8067724E-1,-4.9951538E-1,4.3901977E-1,-1.5284001E0,-4.53151E-2,-1.1076614E-1,8.057941E-1,2.5338843E0,4.058068E-1,-9.852683E-2,1.954039E-1,1.1091119E0,-2.6285507E-2],"split_indices":[0,5,1,5,5,0,3,2,0,0,6,4,2,0,2,4,6,3,5,1,0,0,4,0,0,0,5,0,5,1,1,0,0,4,5,3,1,6,2,2,0,0,0,0,0,0,0,0,0,0,0,0,0,0,0,0,0,0,0,0,0,0,0,0,0,0,0,0,0,0,0],"split_type":[0,0,0,0,0,0,0,0,0,0,0,0,0,0,0,0,0,0,0,0,0,0,0,0,0,0,0,0,0,0,0,0,0,0,0,0,0,0,0,0,0,0,0,0,0,0,0,0,0,0,0,0,0,0,0,0,0,0,0,0,0,0,0,0,0,0,0,0,0,0,0],"sum_hessian":[1.959E3,1.95E3,9E0,1.301E3,6.49E2,1E0,8E0,1.285E3,1.6E1,9E1,5.59E2,5E0,3E0,7.63E2,5.22E2,1E1,6E0,6.8E1,2.2E1,1.26E2,4.33E2,2E0,3E0,2E0,1E0,6.74E2,8.9E1,2.7E1,4.95E2,5E0,5E0,4E0,2E0,1.2E1,5.6E1,1.7E1,5E0,9.7E1,2.9E1,4.31E2,2E0,2E0,1E0,6.73E2,1E0,4.7E1,4.2E1,2.2E1,5E0,3.5E2,1.45E2,1E0,4E0,3E0,2E0,1.1E1,1E0,2.6E1,3E1,1.6E1,1E0,4E0,1E0,8.5E1,1.2E1,3E0,2.6E1,4.11E2,2E1,1E0,1E0],"tree_param":{"num_deleted":"0","num_feature":"7","num_nodes":"71","size_leaf_vector":"1"}},{"base_weights":[2.2791842E-2,1.0215779E-2,2.4741025E0,-2.9729468E-1,6.235193E-2,2.61415E0,8.125956E-1,-2.4862245E-1,-1.089008E0,1.916037E-1,-1.4159508E-1,3.4410763E-1,1.3121786E0,-2.891689E-1,1.6595753E0,-4.323975E-1,2.8463805E-1,1.0204019E-1,-2.3551898E-1,3.3774093E-2,4.3172622E-1,1.2167092E-1,6.048008E-1,-5.868063E-1,1.3412167E-1,-1.2823932E0,4.7655785E-1,7.212191E-1,-6.8392195E-2,-6.321122E-2,1.6019952E0,-2.7813205E-1,1.0699378E0,1.5240918E-1,3.0421974E-2,-7.5047486E-2,-3.3267304E-1,6.410671E-2,-6.441559E-1,-1.8932514E-2,-5.134475E-1,4.0147012E-1,-1.5350245E-1,4.041079E-1,6.1069153E-2,1.4138786E-1,-5.5559944E-2,-6.0177627E-3,-4.2943004E-1,1.0500883E0,-3.625246E-1,-4.5849614E-2,-2.5090998E-1,4.119701E-1,-4.7643057E-1],"categories":[],"categories_nodes":[],"categories_segments":[],"categories_sizes":[],"default_left":[0,0,0,0,0,0,0,0,0,0,0,0,0,0,0,0,0,0,0,0,0,0,0,0,0,0,0,0,0,0,0,0,0,0,0,0,0,0,0,0,0,0,0,0,0,0,0,0,0,0,0,0,0,0,0],"id":13,"left_children":[1,3,5,7,9,-1,11,13,-1,15,17,19,21,23,-1,25,27,29,31,-1,33,-1,-1,35,37,39,41,43,45,47,49,51,53,-1,-1,-1,-1,-1,-1,-1,-1,-1,-1,-1,-1,-1,-1,-1,-1,-1,-1,-1,-1,-1,-1],"loss_changes":[6.0397285E1,3.1297771E1,9.659274E1,4.500334E1,4.4022823E1,0E0,1.6549067E0,6.722616E1,0E0,5.9453793E1,1.4852329E1,7.3112726E-2,1.7347431E0,3.5229107E1,0E0,1.0336802E2,1.3722174E2,4.4965675E1,2.6332201E1,0E0,4.9301624E-2,0E0,0E0,2.8548092E1,2.1514874E1,3.5992317E1,5.60346E1,1.2865883E2,3.1165676E1,9.6541E0,1.0025981E2,3.1628014E1,1.4273418E1,0E0,0E0,0E0,0E0,0E0,0E0,0E0,0E0,0E0,0E0,0E0,0E0,0E0,0E0,0E0,0E0,0E0,0E0,0E0,0E0,0E0,0E0],"parents":[2147483647,0,0,1,1,2,2,3,3,4,4,6,6,7,7,9,9,10,10,11,11,12,12,13,13,15,15,16,16,17,17,18,18,20,20,23,23,24,24,25,25,26,26,27,27,28,28,29,29,30,30,31,31,32,32],"right_children":[2,4,6,8,10,-1,12,14,-1,16,18,20,22,24,-1,26,28,30,32,-1,34,-1,-1,36,38,40,42,44,46,48,50,52,54,-1,-1,-1,-1,-1,-1,-1,-1,-1,-1,-1,-1,-1,-1,-1,-1,-1,-1,-1,-1,-1,-1],"split_conditions":[4.022E1,9.835682E1,4.5E0,2.899E1,1.1825166E1,2.61415E0,5.3335E0,2.755E1,-1.089008E0,1.484318E1,1.6299694E1,1E-1,1.839E1,1E-1,1.6595753E0,2.2812714E2,2.2096214E2,7.72E0,2.152725E1,3.3774093E-2,7.0000005E-1,1.2167092E-1,6.048008E-1,2.88E0,2.145E1,2.06E0,3.0903552E2,2.3469128E1,1.894024E1,6.22E0,1E-1,4.5E0,9.41E0,1.5240918E-1,3.0421974E-2,-7.5047486E-2,-3.3267304E-1,6.410671E-2,-6.441559E-1,-1.8932514E-2,-5.134475E-1,4.0147012E-1,-1.5350245E-1,4.041079E-1,6.1069153E-2,1.4138786E-1,-5.5559944E-2,-6.0177627E-3,-4.2943004E-1,1.0500883E0,-3.625246E-1,-4.5849614E-2,-2.5090998E-1,4.119701E-1,-4.7643057E-1],"split_indices":[0,6,1,0,3,0,3,0,0,5,5,4,2,4,0,6,6,0,3,0,4,0,0,0,1,2,6,5,5,0,4,0,0,0,0,0,0,0,0,0,0,0,0,0,0,0,0,0,0,0,0,0,0,0,0],"split_type":[0,0,0,0,0,0,0,0,0,0,0,0,0,0,0,0,0,0,0,0,0,0,0,0,0,0,0,0,0,0,0,0,0,0,0,0,0,0,0,0,0,0,0,0,0,0,0,0,0,0,0,0,0,0,0],"sum_hessian":[1.959E3,1.95E3,9E0,2.82E2,1.668E3,1E0,8E0,2.79E2,3E0,1.021E3,6.47E2,5E0,3E0,2.78E2,1E0,1.32E2,8.89E2,1.8E2,4.67E2,2E0,3E0,2E0,1E0,1.63E2,1.15E2,6.8E1,6.4E1,3.97E2,4.92E2,1.63E2,1.7E1,4.53E2,1.4E1,2E0,1E0,1E2,6.3E1,1.12E2,3E0,1.8E1,5E1,3.4E1,3E1,1.79E2,2.18E2,8.7E1,4.05E2,1.59E2,4E0,1E1,7E0,3.71E2,8.2E1,1.3E1,1E0],"tree_param":{"num_deleted":"0","num_feature":"7","num_nodes":"55","size_leaf_vector":"1"}},{"base_weights":[1.763666E-2,7.017893E-3,2.0875947E0,-1.7175373E-1,7.821417E-2,2.2220273E0,6.7360353E-1,-5.357646E-1,2.1581243E-1,1.7579821E0,1.9675424E-2,1.0222849E0,1.9020148E-1,-2.815474E-1,-1.0981629E0,5.0919294E-1,-6.461974E-1,1.1621099E0,7.873082E0,-1.4908669E0,5.5135377E-2,4.2105508E-1,5.1408064E-1,6.6140205E-2,1.0370708E-2,1.0570451E0,-4.04359E-1,-3.5376506E0,-2.4433635E-1,-1.4748201E-1,1.19389E0,-1.2040893E0,-3.6482517E-2,1.9183292E0,-1.0143359E0,2.8683755E0,4.2128608E-1,-7.108849E-1,-3.3185024E0,1.4385544E0,2.9493747E-2,1.5118295E-1,2.5858643E-2,1.4801172E0,6.33719E-2,-9.965728E-2,-5.288096E-1,-6.2265825E-1,-1.674435E0,-1.8426001E-1,1.0854933E0,7.557637E-2,-8.1992066E-1,-1.456882E-2,7.879402E-1,-4.1471073E-1,3.6533308E-1,8.054488E-2,-4.5132053E-1,3.7884137E-1,1.3973169E0,-4.9875402E-1,4.4531026E-1,4.017943E-1,-3.2561418E-1,-1.2933531E0,6.934339E-1,-2.50622E-1,1.0280813E0,7.852013E-2,-2.6524134E-2],"categories":[],"categories_nodes":[],"categories_segments":[],"categories_sizes":[],"default_left":[0,0,0,0,0,0,0,0,0,0,0,0,0,0,0,0,0,0,0,0,0,0,0,0,0,0,0,0,0,0,0,0,0,0,0,0,0,0,0,0,0,0,0,0,0,0,0,0,0,0,0,0,0,0,0,0,0,0,0,0,0,0,0,0,0,0,0,0,0,0,0],"id":14,"left_children":[1,3,5,7,9,-1,11,13,15,17,19,21,23,25,27,29,31,33,35,37,39,41,-1,-1,-1,43,45,47,49,51,53,55,57,59,61,-1,-1,63,65,67,69,-1,-1,-1,-1,-1,-1,-1,-1,-1,-1,-1,-1,-1,-1,-1,-1,-1,-1,-1,-1,-1,-1,-1,-1,-1,-1,-1,-1,-1,-1],"loss_changes":[4.306694E1,2.4845516E1,7.0223274E1,7.855515E1,1.3723622E2,0E0,1.3225393E0,4.0723587E1,6.861119E1,1.621101E2,7.239328E1,1.3566818E0,1.5930414E-2,3.3141968E1,1.8451364E2,9.100001E1,2.342677E1,7.4364136E1,3.0254929E1,4.183213E1,4.678209E1,6.7585826E-2,0E0,0E0,0E0,5.469938E1,1.7353708E1,5.714615E1,9.794211E1,1.08088455E2,1.7633861E2,1.7227123E1,1.5624503E1,5.3377625E1,2.1903023E1,0E0,0E0,1.911285E1,6.0263397E1,1.1137901E2,3.5538692E1,0E0,0E0,0E0,0E0,0E0,0E0,0E0,0E0,0E0,0E0,0E0,0E0,0E0,0E0,0E0,0E0,0E0,0E0,0E0,0E0,0E0,0E0,0E0,0E0,0E0,0E0,0E0,0E0,0E0,0E0],"parents":[2147483647,0,0,1,1,2,2,3,3,4,4,6,6,7,7,8,8,9,9,10,10,11,11,12,12,13,13,14,14,15,15,16,16,17,17,18,18,19,19,20,20,21,21,25,25,26,26,27,27,28,28,29,29,30,30,31,31,32,32,33,33,34,34,37,37,38,38,39,39,40,40],"right_children":[2,4,6,8,10,-1,12,14,16,18,20,22,24,26,28,30,32,34,36,38,40,42,-1,-1,-1,44,46,48,50,52,54,56,58,60,62,-1,-1,64,66,68,70,-1,-1,-1,-1,-1,-1,-1,-1,-1,-1,-1,-1,-1,-1,-1,-1,-1,-1,-1,-1,-1,-1,-1,-1,-1,-1,-1,-1,-1,-1],"split_conditions":[4.022E1,1.5249069E2,4.5E0,1E-1,1.5929958E2,2.2220273E0,2.3469128E1,1.1619878E2,4.4E0,1.475E1,1.6405453E2,2.26E1,4.95E0,1.0966713E1,5.55225E0,2.0366266E1,1.1185581E1,1.4E0,1.702E1,9.23E0,1.6724554E2,1.9000001E0,5.1408064E-1,6.6140205E-2,1.0370708E-2,9.301042E0,1.577E1,7.72E0,7.55E0,1.197E1,1.146203E2,1.352E1,1.4911792E2,2.4766848E1,6.299999E0,2.8683755E0,4.2128608E-1,1.2387348E1,1.702E1,3.4E0,1.9083395E1,1.5118295E-1,2.5858643E-2,1.4801172E0,6.33719E-2,-9.965728E-2,-5.288096E-1,-6.2265825E-1,-1.674435E0,-1.8426001E-1,1.0854933E0,7.557637E-2,-8.1992066E-1,-1.456882E-2,7.879402E-1,-4.1471073E-1,3.6533308E-1,8.054488E-2,-4.5132053E-1,3.7884137E-1,1.3973169E0,-4.9875402E-1,4.4531026E-1,4.017943E-1,-3.2561418E-1,-1.2933531E0,6.934339E-1,-2.50622E-1,1.0280813E0,7.852013E-2,-2.6524134E-2],"split_indices":[0,6,1,4,6,0,5,6,4,2,6,1,2,5,3,5,3,4,2,0,6,4,0,0,0,6,0,0,2,0,6,2,6,5,4,0,0,5,0,0,5,0,0,0,0,0,0,0,0,0,0,0,0,0,0,0,0,0,0,0,0,0,0,0,0,0,0,0,0,0,0],"split_type":[0,0,0,0,0,0,0,0,0,0,0,0,0,0,0,0,0,0,0,0,0,0,0,0,0,0,0,0,0,0,0,0,0,0,0,0,0,0,0,0,0,0,0,0,0,0,0,0,0,0,0,0,0,0,0,0,0,0,0,0,0,0,0,0,0,0,0,0,0,0,0],"sum_hessian":[1.959E3,1.95E3,9E0,5.55E2,1.395E3,1E0,8E0,2.86E2,2.69E2,4.6E1,1.349E3,4E0,4E0,1.98E2,8.8E1,2.01E2,6.8E1,4.3E1,3E0,3E1,1.319E3,3E0,1E0,3E0,1E0,1.6E1,1.82E2,2.2E1,6.6E1,1.03E2,9.8E1,3.5E1,3.3E1,3.2E1,1.1E1,2E0,1E0,2.2E1,8E0,2.3E1,1.296E3,2E0,1E0,2E0,1.4E1,1.74E2,8E0,1.4E1,8E0,6.1E1,5E0,9E1,1.3E1,5.3E1,4.5E1,3.3E1,2E0,2.8E1,5E0,2.7E1,5E0,9E0,2E0,3E0,1.9E1,7E0,1E0,1.1E1,1.2E1,4.36E2,8.6E2],"tree_param":{"num_deleted":"0","num_feature":"7","num_nodes":"71","size_leaf_vector":"1"}},{"base_weights":[1.6139422E-2,3.2166373E-3,1.4101856E0,3.4046415E-2,-3.7092865E-1,4.984874E0,3.6292303E-1,-3.2767396E-2,2.3103562E-1,-5.816692E-1,3.810966E-1,1.9402684E0,8.052178E-2,9.50701E-1,-2.7022034E-1,-2.0231854E-2,-3.3807251E0,1.0424994E0,4.1800708E-2,-3.402397E-1,-1.1785907E0,1.3204355E0,-6.9947815E-1,1.9224396E-1,1.661097E0,-5.713655E-1,1.7376614E-1,-2.7294083E-2,1.4132953E0,-1.1238304E0,-2.878831E-1,1.5296633E0,-6.4162487E-1,-3.1046519E-2,1.3891914E0,-4.5032158E-1,1.9739783E0,-1.3602241E0,4.7830763E-1,1.4867428E-1,3.1405354E0,1.2784247E-1,-9.002324E-1,2.3406602E-1,-1.4980507E-1,5.971739E-1,1.0089741E-1,1.9272424E-2,-7.463275E-1,6.1166957E-2,1.2509251E-2,-2.0723898E-2,1.4708531E-1,7.198205E-1,-8.2419E-3,-3.4271988E-1,3.2675365E-1,-3.4913206E-1,2.8116697E-2,1.2522447E0,-1.7496388E-1,-5.8830675E-2,-2.0112601E-1,1.0345111E0,9.99173E-2,-4.2950663E-1,1.0683718E-1,-3.7369642E-1,4.40454E-1,-1.7094111E-1,2.2298202E-1,1.1243519E0,-7.549317E-2,-2.3198534E-2,6.6602685E-2,-3.3429387E-1,-1.3942589E-1,-1.189353E-1,1.9368172E-2,-6.9286324E-2,-2.5234014E-1],"categories":[],"categories_nodes":[],"categories_segments":[],"categories_sizes":[],"default_left":[0,0,0,0,0,0,0,0,0,0,0,0,0,0,0,0,0,0,0,0,0,0,0,0,0,0,0,0,0,0,0,0,0,0,0,0,0,0,0,0,0,0,0,0,0,0,0,0,0,0,0,0,0,0,0,0,0,0,0,0,0,0,0,0,0,0,0,0,0,0,0,0,0,0,0,0,0,0,0,0,0],"id":15,"left_children":[1,3,5,7,9,11,13,15,17,19,21,-1,-1,23,25,27,29,31,33,35,37,39,41,43,45,47,49,51,-1,-1,-1,53,55,57,59,61,63,65,67,69,71,73,75,-1,77,-1,-1,-1,79,-1,-1,-1,-1,-1,-1,-1,-1,-1,-1,-1,-1,-1,-1,-1,-1,-1,-1,-1,-1,-1,-1,-1,-1,-1,-1,-1,-1,-1,-1,-1,-1],"loss_changes":[3.530478E1,2.2424776E1,6.557635E1,2.3645805E1,2.3677042E1,2.6236252E1,5.839114E0,5.625328E1,6.982499E1,1.6316277E1,3.4419468E1,0E0,0E0,3.9911036E0,1.1689188E0,4.4835087E1,8.2829285E-1,7.153971E1,3.6359993E1,2.2288214E1,1.058189E1,3.792209E1,2.7724967E0,1.1224642E0,1.0764761E0,6.039804E-1,7.411897E-3,2.8949585E1,0E0,0E0,0E0,9.080408E1,1.8579128E1,4.9856888E1,1.0680261E2,4.4007454E0,8.528934E0,4.189598E0,8.654857E0,5.5499964E0,1.53637085E1,9.444846E-2,6.940794E-1,0E0,2.3708475E-1,0E0,0E0,0E0,1.1787415E-3,0E0,0E0,0E0,0E0,0E0,0E0,0E0,0E0,0E0,0E0,0E0,0E0,0E0,0E0,0E0,0E0,0E0,0E0,0E0,0E0,0E0,0E0,0E0,0E0,0E0,0E0,0E0,0E0,0E0,0E0,0E0,0E0],"parents":[2147483647,0,0,1,1,2,2,3,3,4,4,5,5,6,6,7,7,8,8,9,9,10,10,13,13,14,14,15,15,16,16,17,17,18,18,19,19,20,20,21,21,22,22,23,23,24,24,25,25,26,26,27,27,31,31,32,32,33,33,34,34,35,35,36,36,37,37,38,38,39,39,40,40,41,41,42,42,44,44,48,48],"right_children":[2,4,6,8,10,12,14,16,18,20,22,-1,-1,24,26,28,30,32,34,36,38,40,42,44,46,48,50,52,-1,-1,-1,54,56,58,60,62,64,66,68,70,72,74,76,-1,78,-1,-1,-1,80,-1,-1,-1,-1,-1,-1,-1,-1,-1,-1,-1,-1,-1,-1,-1,-1,-1,-1,-1,-1,-1,-1,-1,-1,-1,-1,-1,-1,-1,-1,-1,-1],"split_conditions":[3.567E1,3.1812393E2,1.7786331E1,5.63E0,8E-1,3.33E0,2.0164796E2,2.899E1,6.88E0,3.13E0,1.8681883E1,1.9402684E0,8.052178E-2,1E-1,4.022E1,2.657E1,2.1862406E1,3.5E0,2.657E1,3.05E0,2.347E1,2.42E0,1.3E0,3.3460004E0,9.000001E-1,1.2E0,1.4094E2,1.063E1,1.4132953E0,-1.1238304E0,-2.878831E-1,1.19001665E1,4.0502796E1,7.55E0,2.1817902E1,3.3541287E2,3.08E0,3.4994836E2,3.76E0,1.7000002E0,1.176E1,2.25E0,3.4E0,2.3406602E-1,4.022E1,5.971739E-1,1.0089741E-1,1.9272424E-2,1E1,6.1166957E-2,1.2509251E-2,-2.0723898E-2,1.4708531E-1,7.198205E-1,-8.2419E-3,-3.4271988E-1,3.2675365E-1,-3.4913206E-1,2.8116697E-2,1.2522447E0,-1.7496388E-1,-5.8830675E-2,-2.0112601E-1,1.0345111E0,9.99173E-2,-4.2950663E-1,1.0683718E-1,-3.7369642E-1,4.40454E-1,-1.7094111E-1,2.2298202E-1,1.1243519E0,-7.549317E-2,-2.3198534E-2,6.6602685E-2,-3.3429387E-1,-1.3942589E-1,-1.189353E-1,1.9368172E-2,-6.9286324E-2,-2.5234014E-1],"split_indices":[0,6,5,2,4,2,6,0,2,0,5,0,0,4,0,1,5,4,0,0,2,2,4,3,4,2,0,0,0,0,0,3,5,2,5,6,0,6,0,4,1,0,4,0,0,0,0,0,1,0,0,0,0,0,0,0,0,0,0,0,0,0,0,0,0,0,0,0,0,0,0,0,0,0,0,0,0,0,0,0,0],"split_type":[0,0,0,0,0,0,0,0,0,0,0,0,0,0,0,0,0,0,0,0,0,0,0,0,0,0,0,0,0,0,0,0,0,0,0,0,0,0,0,0,0,0,0,0,0,0,0,0,0,0,0,0,0,0,0,0,0,0,0,0,0,0,0,0,0,0,0,0,0,0,0,0,0,0,0,0,0,0,0,0,0],"sum_hessian":[1.959E3,1.942E3,1.7E1,1.795E3,1.47E2,3E0,1.4E1,1.341E3,4.54E2,1.15E2,3.2E1,2E0,1E0,7E0,7E0,1.337E3,4E0,8.5E1,3.69E2,8.3E1,3.2E1,1.7E1,1.5E1,4E0,3E0,4E0,3E0,1.336E3,1E0,3E0,1E0,6.6E1,1.9E1,3.51E2,1.8E1,8E1,3E0,2.9E1,3E0,1.1E1,6E0,3E0,1.2E1,1E0,3E0,2E0,1E0,1E0,3E0,2E0,1E0,1.237E3,9.9E1,4.2E1,2.4E1,1.5E1,4E0,3.4E1,3.17E2,7E0,1.1E1,3.8E1,4.2E1,1E0,2E0,2.8E1,1E0,1E0,2E0,5E0,6E0,5E0,1E0,1E0,2E0,7E0,5E0,1E0,2E0,1E0,2E0],"tree_param":{"num_deleted":"0","num_feature":"7","num_nodes":"81","size_leaf_vector":"1"}},{"base_weights":[1.41004855E-2,3.7282181E-3,1.1329458E0,1.0810741E-2,-1.7107084E0,3.9946108E0,2.9430535E-1,5.438716E-3,1.7379057E0,-2.9859176E0,1.0823634E0,1.5522153E0,6.8443686E-2,7.695614E-1,-2.177389E-1,4.5787394E-2,-2.1494533E-1,-1.633803E-3,7.824252E-1,-1.0111992E0,-1.0161582E-1,1.6147022E-1,1.337285E0,-4.6042657E-1,1.4005542E-1,1.2104704E-2,9.1360843E-1,3.8019627E-1,-4.088636E-1,-7.447794E-2,7.3742725E-2,1.9895612E-1,-1.2975574E-1,4.7773895E-1,8.57626E-2,1.6381575E-2,-1.8085076E-1,6.059561E-2,1.5625097E-2,-1.3970346E-2,9.772939E-2,2.4945273E0,1.9549966E-1,-4.130615E-1,3.5987908E-1,2.9531375E-1,-2.0079711E-1,-1.0109511E-1,1.5494443E-2],"categories":[],"categories_nodes":[],"categories_segments":[],"categories_sizes":[],"default_left":[0,0,0,0,0,0,0,0,0,0,0,0,0,0,0,0,0,0,0,0,0,0,0,0,0,0,0,0,0,0,0,0,0,0,0,0,0,0,0,0,0,0,0,0,0,0,0,0,0],"id":16,"left_children":[1,3,5,7,9,11,13,15,17,19,-1,-1,-1,21,23,25,27,29,-1,-1,-1,31,33,35,37,39,41,43,45,-1,-1,-1,47,-1,-1,-1,-1,-1,-1,-1,-1,-1,-1,-1,-1,-1,-1,-1,-1],"loss_changes":[2.27415E1,2.3611444E1,4.2022705E1,1.7952751E1,6.50313E1,1.6588844E1,3.8178458E0,1.718069E1,9.086517E0,5.987789E0,0E0,0E0,0E0,2.5458899E0,7.591434E-1,4.7722424E1,3.4662693E1,2.4410205E-1,0E0,0E0,0E0,8.1661713E-1,6.179409E-1,3.996445E-1,1.1272214E-2,2.8963434E1,1.1284605E2,1.0819264E2,8.267067E1,0E0,0E0,0E0,1.677724E-1,0E0,0E0,0E0,0E0,0E0,0E0,0E0,0E0,0E0,0E0,0E0,0E0,0E0,0E0,0E0,0E0],"parents":[2147483647,0,0,1,1,2,2,3,3,4,4,5,5,6,6,7,7,8,8,9,9,13,13,14,14,15,15,16,16,17,17,21,21,22,22,23,23,24,24,25,25,26,26,27,27,28,28,32,32],"right_children":[2,4,6,8,10,12,14,16,18,20,-1,-1,-1,22,24,26,28,30,-1,-1,-1,32,34,36,38,40,42,44,46,-1,-1,-1,48,-1,-1,-1,-1,-1,-1,-1,-1,-1,-1,-1,-1,-1,-1,-1,-1],"split_conditions":[3.567E1,3.115E1,1.7786331E1,4.022E1,2.214E1,3.33E0,2.0164796E2,8.6E0,4.3189163E0,2.26E1,1.0823634E0,1.5522153E0,6.8443686E-2,1E-1,4.022E1,7.35E0,1.687398E1,6.75E0,7.824252E-1,-1.0111992E0,-1.0161582E-1,3.3460004E0,9.000001E-1,1.2E0,7.0000005E-1,5.63E0,8.2E-1,5.22E0,1.8793334E0,-7.447794E-2,7.3742725E-2,1.9895612E-1,4.022E1,4.7773895E-1,8.57626E-2,1.6381575E-2,-1.8085076E-1,6.059561E-2,1.5625097E-2,-1.3970346E-2,9.772939E-2,2.4945273E0,1.9549966E-1,-4.130615E-1,3.5987908E-1,2.9531375E-1,-2.0079711E-1,-1.0109511E-1,1.5494443E-2],"split_indices":[0,0,5,1,2,2,6,1,3,1,0,0,0,4,0,1,5,0,0,0,0,3,4,2,4,2,2,2,3,0,0,0,0,0,0,0,0,0,0,0,0,0,0,0,0,0,0,0,0],"split_type":[0,0,0,0,0,0,0,0,0,0,0,0,0,0,0,0,0,0,0,0,0,0,0,0,0,0,0,0,0,0,0,0,0,0,0,0,0,0,0,0,0,0,0,0,0,0,0,0,0],"sum_hessian":[1.959E3,1.942E3,1.7E1,1.935E3,7E0,3E0,1.4E1,1.93E3,5E0,6E0,1E0,2E0,1E0,7E0,7E0,1.632E3,2.98E2,2E0,3E0,5E0,1E0,4E0,3E0,4E0,3E0,1.572E3,6E1,7.3E1,2.25E2,1E0,1E0,1E0,3E0,2E0,1E0,1E0,3E0,1E0,2E0,1.325E3,2.47E2,1E0,5.9E1,2.3E1,5E1,3.5E1,1.9E2,1E0,2E0],"tree_param":{"num_deleted":"0","num_feature":"7","num_nodes":"49","size_leaf_vector":"1"}},{"base_weights":[1.2817108E-2,-1.3614058E-1,7.234851E-2,-3.9878672E-1,1.4143534E-1,1.9252213E0,4.002536E-2,-1.14818566E-1,-7.288638E-1,2.334357E-1,-1.4565336E0,1.0505503E0,2.3093204E0,-7.868892E-1,5.8385193E-2,-1.6128811E-1,1.3208195E0,-1.2439152E0,-1.8716133E-1,1.2977624E-1,4.5827804E0,-2.5054976E-1,-2.0344703E0,1.9365203E0,-1.1246024E0,-1.3220837E0,8.501562E-1,1.5927944E-1,-1.1216601E-1,3.7657225E-1,-2.1430075E-1,5.625875E-1,6.530621E-1,-5.450553E-1,-3.3084326E0,-9.7512215E-1,1.6739048E0,3.0408397E-1,-1.2330968E0,2.9067948E-1,2.6333966E0,1.8893324E-1,-1.6577122E-1,-6.997722E-1,-5.61371E-1,6.355751E-1,4.6714845E0,-9.479913E-2,-5.6197655E-1,-5.005397E-1,-3.5663683E0,6.174252E-1,-2.8621715E-1,3.982909E-1,-1.18452124E-1,-1.5488282E-1,4.803736E-1,3.3200383E-1,-1.5348959E-1,-9.416947E-2,1.7603772E-2,1.9846593E-1,3.985362E-2,-1.1034175E-1,-1.4377174E0,-1.3444536E0,-5.3032494E-1,1.5547681E-1,-3.4957343E-1,2.700721E-1,1.3630507E0,4.275487E-2,4.468859E-1,-4.8236766E-1,7.6532775E-1,-2.1438675E-1,4.959878E-1,-3.40873E-2,-2.1852966E-1,5.815928E-1,-1.716409E-1,3.404292E-1,1.5815922E0,6.1550368E-2,-7.895323E-2,-2.505831E-1,1.6104975E-1,-1.3216674E0,-3.7759784E-1,1.15982495E-1,-1.6532268E-1,2.4855976E-1,-3.560185E-2,2.4209553E-1,-6.5935865E-2,-3.0094432E-2,-3.2423407E-1,8.169731E-1,-6.0591627E-2],"categories":[],"categories_nodes":[],"categories_segments":[],"categories_sizes":[],"default_left":[0,0,0,0,0,0,0,0,0,0,0,0,0,0,0,0,0,0,0,0,0,0,0,0,0,0,0,0,0,0,0,0,0,0,0,0,0,0,0,0,0,0,0,0,0,0,0,0,0,0,0,0,0,0,0,0,0,0,0,0,0,0,0,0,0,0,0,0,0,0,0,0,0,0,0,0,0,0,0,0,0,0,0,0,0,0,0,0,0,0,0,0,0,0,0,0,0,0,0],"id":17,"left_children":[1,3,5,7,9,11,13,15,17,19,21,23,-1,25,27,29,31,33,35,37,39,41,43,45,47,49,51,53,55,57,59,61,-1,63,65,67,69,71,73,75,-1,-1,-1,-1,77,79,81,83,-1,85,87,-1,89,91,93,95,97,-1,-1,-1,-1,-1,-1,-1,-1,-1,-1,-1,-1,-1,-1,-1,-1,-1,-1,-1,-1,-1,-1,-1,-1,-1,-1,-1,-1,-1,-1,-1,-1,-1,-1,-1,-1,-1,-1,-1,-1,-1,-1],"loss_changes":[1.7390463E1,4.088278E1,8.382979E1,2.6910946E1,4.047476E1,1.13090355E2,2.0966755E1,1.0620331E1,3.6874794E1,1.16175606E2,9.945E0,4.4574455E1,0E0,2.7408106E1,2.3230965E1,4.414736E0,2.0207567E0,9.630768E1,9.8417786E1,6.071503E1,1.0548596E2,1.94326E0,3.0819206E0,5.3959538E1,5.2191725E0,4.0621796E1,1.1570313E1,5.633828E1,1.2780724E1,9.644992E0,3.797565E0,8.22345E-2,0E0,3.7384926E1,2.2802658E1,1.394836E1,4.031187E1,4.307672E1,4.5232464E1,6.6608305E0,0E0,0E0,0E0,0E0,1.416356E-1,1.9993923E1,4.636368E0,2.560273E-1,0E0,6.6988516E0,6.074539E0,0E0,1.1040679E0,1.01521545E2,3.703225E1,2.3587528E1,5.2584045E1,0E0,0E0,0E0,0E0,0E0,0E0,0E0,0E0,0E0,0E0,0E0,0E0,0E0,0E0,0E0,0E0,0E0,0E0,0E0,0E0,0E0,0E0,0E0,0E0,0E0,0E0,0E0,0E0,0E0,0E0,0E0,0E0,0E0,0E0,0E0,0E0,0E0,0E0,0E0,0E0,0E0,0E0],"parents":[2147483647,0,0,1,1,2,2,3,3,4,4,5,5,6,6,7,7,8,8,9,9,10,10,11,11,13,13,14,14,15,15,16,16,17,17,18,18,19,19,20,20,21,21,22,22,23,23,24,24,25,25,26,26,27,27,28,28,29,29,30,30,31,31,33,33,34,34,35,35,36,36,37,37,38,38,39,39,44,44,45,45,46,46,47,47,49,49,50,50,52,52,53,53,54,54,55,55,56,56],"right_children":[2,4,6,8,10,12,14,16,18,20,22,24,-1,26,28,30,32,34,36,38,40,42,44,46,48,50,52,54,56,58,60,62,-1,64,66,68,70,72,74,76,-1,-1,-1,-1,78,80,82,84,-1,86,88,-1,90,92,94,96,98,-1,-1,-1,-1,-1,-1,-1,-1,-1,-1,-1,-1,-1,-1,-1,-1,-1,-1,-1,-1,-1,-1,-1,-1,-1,-1,-1,-1,-1,-1,-1,-1,-1,-1,-1,-1,-1,-1,-1,-1,-1,-1],"split_conditions":[1.5249069E2,1E-1,1.5609538E2,2.52E0,1.4911792E2,1.927E1,1.000256E1,2.45E0,5.55225E0,1.4750562E2,2.5E0,1.9000001E0,2.3093204E0,2.6107642E2,1.1825166E1,1.1246759E1,1.4954331E1,1.24021E2,5.22E0,1.4021695E2,1.107E1,8E-1,1.4591834E1,2.2870626E1,2.63E0,5.3E0,2.957099E2,2.4993439E1,9.23E0,1.5343919E1,1.48793335E1,2.0163212E1,6.530621E-1,4.821E0,2.378453E1,6.425167E0,2.378453E1,1.3225272E2,2.037E1,2.29E0,2.6333966E0,1.8893324E-1,-1.6577122E-1,-6.997722E-1,2.29E0,1.944E1,2.1E0,1.02E0,-5.6197655E-1,1.92E0,1.507E1,6.174252E-1,8.2E-1,2.5438895E2,1.21E0,8.23E0,1.7653253E2,3.3200383E-1,-1.5348959E-1,-9.416947E-2,1.7603772E-2,1.9846593E-1,3.985362E-2,-1.1034175E-1,-1.4377174E0,-1.3444536E0,-5.3032494E-1,1.5547681E-1,-3.4957343E-1,2.700721E-1,1.3630507E0,4.275487E-2,4.468859E-1,-4.8236766E-1,7.6532775E-1,-2.1438675E-1,4.959878E-1,-3.40873E-2,-2.1852966E-1,5.815928E-1,-1.716409E-1,3.404292E-1,1.5815922E0,6.1550368E-2,-7.895323E-2,-2.505831E-1,1.6104975E-1,-1.3216674E0,-3.7759784E-1,1.15982495E-1,-1.6532268E-1,2.4855976E-1,-3.560185E-2,2.4209553E-1,-6.5935865E-2,-3.0094432E-2,-3.2423407E-1,8.169731E-1,-6.0591627E-2],"split_indices":[6,4,6,0,6,1,5,0,3,6,1,4,0,6,3,5,3,6,2,6,0,1,3,5,0,0,6,5,1,3,3,5,0,3,5,3,5,6,2,0,0,0,0,0,0,5,2,2,0,1,0,0,0,6,0,0,6,0,0,0,0,0,0,0,0,0,0,0,0,0,0,0,0,0,0,0,0,0,0,0,0,0,0,0,0,0,0,0,0,0,0,0,0,0,0,0,0,0,0],"split_type":[0,0,0,0,0,0,0,0,0,0,0,0,0,0,0,0,0,0,0,0,0,0,0,0,0,0,0,0,0,0,0,0,0,0,0,0,0,0,0,0,0,0,0,0,0,0,0,0,0,0,0,0,0,0,0,0,0,0,0,0,0,0,0,0,0,0,0,0,0,0,0,0,0,0,0,0,0,0,0,0,0,0,0,0,0,0,0,0,0,0,0,0,0,0,0,0,0,0,0],"sum_hessian":[1.959E3,5.59E2,1.4E3,2.87E2,2.72E2,2.3E1,1.377E3,1.55E2,1.32E2,2.58E2,1.4E1,2.1E1,2E0,2.9E1,1.348E3,1.51E2,4E0,6.7E1,6.5E1,2.53E2,5E0,5E0,9E0,1.5E1,6E0,2.2E1,7E0,8.47E2,5.01E2,1.3E1,1.38E2,3E0,1E0,5.1E1,1.6E1,4.6E1,1.9E1,2.25E2,2.8E1,3E0,2E0,1E0,4E0,7E0,2E0,1.1E1,4E0,3E0,3E0,1.7E1,5E0,3E0,4E0,4.55E2,3.92E2,4.68E2,3.3E1,7E0,6E0,1.01E2,3.7E1,2E0,1E0,5E1,1E0,8E0,8E0,5E0,4.1E1,1.6E1,3E0,1.99E2,2.6E1,2.6E1,2E0,2E0,1E0,1E0,1E0,5E0,6E0,1E0,3E0,1E0,2E0,1.3E1,4E0,3E0,2E0,1E0,3E0,2.48E2,2.07E2,3.8E1,3.54E2,4.43E2,2.5E1,7E0,2.6E1],"tree_param":{"num_deleted":"0","num_feature":"7","num_nodes":"99","size_leaf_vector":"1"}},{"base_weights":[1.1727201E-2,5.478491E-3,1.2296777E0,1.0596913E-1,-7.5495444E-2,1.3275673E0,3.829254E-1,8.176601E-4,1.1902477E0,-4.991575E-1,-2.1576418E-2,6.4863044E-1,4.06353E-2,-2.6249576E-2,9.996887E-1,2.9728422E0,2.2318299E-1,-8.0656296E-1,2.880093E-1,-2.815243E-1,7.134504E-2,7.7722645E-1,2.0136952E-2,2.8649712E-2,-2.6822949E-2,-4.7196853E-3,-3.340909E0,-1.2561412E0,3.1646378E0,5.342668E0,-4.346626E-1,-1.4049599E-1,2.9741912E0,-2.4701548E-1,-1.0917251E0,2.1334164E0,-3.3779347E-1,-5.0751626E-1,-7.7042505E-2,7.507894E-1,2.0793341E-2,2.6656723E-1,6.6485025E-2,-6.545047E-3,1.3138258E0,-1.1784874E0,-1.4870697E-1,1.1149305E-1,-6.718188E-1,-4.6272972E-1,1.536778E0,-1.0646943E-1,2.3894205E0,-6.469135E-1,3.3095652E-1,-9.020823E-2,6.767726E-1,1.6377085E0,-3.9909646E-1,-1.1122029E-1,2.0423105E-1,-4.1948226E-1,-8.10449E-2,-2.6550248E-1,7.864037E-1,-2.8197542E-1,6.1970208E-2,-1.6602692E-1,7.433088E-1,6.3235414E-1,-5.877803E-2,1.2009883E0,6.115552E-2,4.8775017E-1,-1.1680803E-3],"categories":[],"categories_nodes":[],"categories_segments":[],"categories_sizes":[],"default_left":[0,0,0,0,0,0,0,0,0,0,0,0,0,0,0,0,0,0,0,0,0,0,0,0,0,0,0,0,0,0,0,0,0,0,0,0,0,0,0,0,0,0,0,0,0,0,0,0,0,0,0,0,0,0,0,0,0,0,0,0,0,0,0,0,0,0,0,0,0,0,0,0,0,0,0],"id":18,"left_children":[1,3,5,7,9,-1,11,13,15,17,19,21,23,25,27,29,31,33,35,37,39,41,-1,-1,-1,43,45,47,49,51,53,55,57,59,61,63,65,67,69,71,73,-1,-1,-1,-1,-1,-1,-1,-1,-1,-1,-1,-1,-1,-1,-1,-1,-1,-1,-1,-1,-1,-1,-1,-1,-1,-1,-1,-1,-1,-1,-1,-1,-1,-1],"loss_changes":[1.4910077E1,1.5883526E1,2.5363836E1,9.930478E1,2.4682995E1,0E0,7.921766E-1,2.1520401E1,1.3207559E2,2.975378E1,2.3208632E1,3.2172775E-1,4.4212364E-2,5.5291534E1,1.0653412E2,2.203525E2,5.1442543E1,1.37717705E1,4.1140785E1,1.1652342E1,2.4302113E1,5.050707E-2,0E0,0E0,0E0,5.7886787E1,6.4089394E0,1.8438051E1,1.0927981E2,2.4185703E2,3.41518E1,1.8337715E1,7.1438324E1,3.810706E0,1.4229744E1,1.5574905E1,9.044027E0,1.7816196E1,3.521934E1,8.635086E1,2.6157867E1,0E0,0E0,0E0,0E0,0E0,0E0,0E0,0E0,0E0,0E0,0E0,0E0,0E0,0E0,0E0,0E0,0E0,0E0,0E0,0E0,0E0,0E0,0E0,0E0,0E0,0E0,0E0,0E0,0E0,0E0,0E0,0E0,0E0,0E0],"parents":[2147483647,0,0,1,1,2,2,3,3,4,4,6,6,7,7,8,8,9,9,10,10,11,11,12,12,13,13,14,14,15,15,16,16,17,17,18,18,19,19,20,20,21,21,25,25,26,26,27,27,28,28,29,29,30,30,31,31,32,32,33,33,34,34,35,35,36,36,37,37,38,38,39,39,40,40],"right_children":[2,4,6,8,10,-1,12,14,16,18,20,22,24,26,28,30,32,34,36,38,40,42,-1,-1,-1,44,46,48,50,52,54,56,58,60,62,64,66,68,70,72,74,-1,-1,-1,-1,-1,-1,-1,-1,-1,-1,-1,-1,-1,-1,-1,-1,-1,-1,-1,-1,-1,-1,-1,-1,-1,-1,-1,-1,-1,-1,-1,-1,-1,-1],"split_conditions":[4.022E1,2.42E0,4.5E0,2.25E0,2.8E0,1.3275673E0,1.420851E2,1.032E1,7.535582E0,3.1000001E0,2.7E0,2.26E1,4.95E0,9.77E0,4.2751665E0,2.4195107E1,5.15E0,2.27E0,3.6E0,6.987667E0,3.1E0,6.129333E0,2.0136952E-2,2.8649712E-2,-2.6822949E-2,9.41E0,3.76E0,1.7595861E1,1.6261465E2,1.2620554E1,2.666188E1,3.047788E2,2.33E0,2.13E0,2.4567198E1,2.5E0,7.075166E0,3.115E1,7.704334E0,1.73E0,2.78E0,2.6656723E-1,6.6485025E-2,-6.545047E-3,1.3138258E0,-1.1784874E0,-1.4870697E-1,1.1149305E-1,-6.718188E-1,-4.6272972E-1,1.536778E0,-1.0646943E-1,2.3894205E0,-6.469135E-1,3.3095652E-1,-9.020823E-2,6.767726E-1,1.6377085E0,-3.9909646E-1,-1.1122029E-1,2.0423105E-1,-4.1948226E-1,-8.10449E-2,-2.6550248E-1,7.864037E-1,-2.8197542E-1,6.1970208E-2,-1.6602692E-1,7.433088E-1,6.3235414E-1,-5.877803E-2,1.2009883E0,6.115552E-2,4.8775017E-1,-1.1680803E-3],"split_indices":[0,1,1,1,1,0,6,0,3,4,0,2,2,0,3,5,0,0,4,3,1,3,0,0,0,0,2,5,6,5,5,6,1,0,5,1,3,1,3,2,0,0,0,0,0,0,0,0,0,0,0,0,0,0,0,0,0,0,0,0,0,0,0,0,0,0,0,0,0,0,0,0,0,0,0],"split_type":[0,0,0,0,0,0,0,0,0,0,0,0,0,0,0,0,0,0,0,0,0,0,0,0,0,0,0,0,0,0,0,0,0,0,0,0,0,0,0,0,0,0,0,0,0,0,0,0,0,0,0,0,0,0,0,0,0,0,0,0,0,0,0,0,0,0,0,0,0,0,0,0,0,0,0],"sum_hessian":[1.959E3,1.95E3,9E0,8.7E2,1.08E3,1E0,8E0,7.94E2,7.6E1,1.21E2,9.59E2,4E0,4E0,7.74E2,2E1,2.6E1,5E1,8.7E1,3.4E1,2.52E2,7.07E2,3E0,1E0,3E0,1E0,7.7E2,4E0,1E1,1E1,1.5E1,1.1E1,4.5E1,5E0,3E1,5.7E1,8E0,2.6E1,1.19E2,1.33E2,4.8E1,6.59E2,2E0,1E0,7.68E2,2E0,3E0,1E0,4E0,6E0,3E0,7E0,5E0,1E1,5E0,6E0,4.3E1,2E0,3E0,2E0,2.7E1,3E0,4.1E1,1.6E1,1E0,7E0,1.2E1,1.4E1,1.18E2,1E0,6E0,1.27E2,6E0,4.2E1,9E0,6.5E2],"tree_param":{"num_deleted":"0","num_feature":"7","num_nodes":"75","size_leaf_vector":"1"}},{"base_weights":[1.2679216E-2,2.6801914E-2,-4.6797112E-1,6.332573E-2,-1.5636258E-1,-6.961301E-1,3.402571E-1,2.3784274E-2,6.991347E-1,-2.4344938E-1,8.705492E-1,-3.5684803E-1,-1.1663793E0,8.302279E-1,-6.097418E-1,4.421207E-2,-1.0118093E0,-1.5031017E-2,2.540063E0,1.657947E0,-2.8897664E-1,4.218965E0,-4.0889612E-1,-2.2133258E-1,-1.0807287E0,-1.385287E0,-5.3880543E-2,4.4185337E-1,2.6344556E-1,-2.30324E-1,3.3416213E-3,9.522128E-2,-1.7661841E-1,-3.204901E-1,-4.2660437E0,6.2956357E-1,-2.149311E0,3.5026982E0,-6.3703656E-2,-2.2533475E-1,1.095757E0,-2.58108E0,-2.1400207E-1,-2.5996715E-1,5.2109785E0,-9.4190985E-1,9.0295196E-1,-2.870347E-1,1.0027813E-1,-1.262644E-1,-4.5904064E-1,-1.5968447E0,-4.0429252E-1,-1.2368271E-1,2.0300972E-1,-1.1450428E-1,4.6880704E-1,1.522667E-2,3.099006E-1,-4.0016544E-1,-3.149946E-2,-7.5745356E-1,1.07052274E-1,-1.4628106E0,-2.7391163E-1,7.963924E-2,1.0312296E0,-1.1276218E0,-2.1012194E-2,1.7951433E-1,1.9989692E0,-5.7554966E-1,6.8121487E-1,-3.617917E-1,-1.0319916E0,1.307398E0,-7.38373E-2,1.8341895E0,1.0440683E-1,-1.5811537E-1,-6.862123E-1,-4.670929E-1,5.118999E-1,-1.2186129E-2,-1.3635136E-1,-1.1898044E-1,-5.0097096E-1,1.6716403E-1,-2.731597E-1,-6.2421267E-3,9.7596504E-2,2.3212041E-1,-1.12635545E-1],"categories":[],"categories_nodes":[],"categories_segments":[],"categories_sizes":[],"default_left":[0,0,0,0,0,0,0,0,0,0,0,0,0,0,0,0,0,0,0,0,0,0,0,0,0,0,0,0,0,0,0,0,0,0,0,0,0,0,0,0,0,0,0,0,0,0,0,0,0,0,0,0,0,0,0,0,0,0,0,0,0,0,0,0,0,0,0,0,0,0,0,0,0,0,0,0,0,0,0,0,0,0,0,0,0,0,0,0,0,0,0,0,0],"id":19,"left_children":[1,3,5,7,9,11,13,15,17,19,21,23,25,27,29,31,33,35,37,39,41,43,45,47,49,51,53,-1,55,-1,-1,57,59,61,63,65,67,69,71,-1,-1,73,75,-1,77,79,81,83,-1,-1,-1,85,87,-1,89,-1,91,-1,-1,-1,-1,-1,-1,-1,-1,-1,-1,-1,-1,-1,-1,-1,-1,-1,-1,-1,-1,-1,-1,-1,-1,-1,-1,-1,-1,-1,-1,-1,-1,-1,-1,-1,-1],"loss_changes":[1.3317178E1,1.2754099E1,1.0563517E1,3.993212E1,2.856139E1,6.603855E0,6.557358E0,3.1713608E1,1.2230786E2,2.584276E1,1.08827995E2,2.4094186E0,4.308983E0,2.8899984E0,4.9906218E-1,1.6564209E1,6.38745E1,9.4903824E1,6.5391556E1,3.6378876E1,4.876844E1,3.982995E1,1.4135928E1,9.720317E-1,5.4215384E-1,2.4674606E0,4.5196885E-1,0E0,9.738393E-1,0E0,0E0,4.973629E1,2.273584E1,3.8227913E1,5.774521E0,5.3271675E1,5.3279716E1,1.7041743E2,3.8995327E1,0E0,0E0,6.481102E0,4.2047333E1,0E0,2.42193E1,6.608922E0,1.45142765E1,8.8941085E-1,0E0,0E0,0E0,3.8996506E-1,2.454371E0,0E0,8.889542E-2,0E0,1.5776894E0,0E0,0E0,0E0,0E0,0E0,0E0,0E0,0E0,0E0,0E0,0E0,0E0,0E0,0E0,0E0,0E0,0E0,0E0,0E0,0E0,0E0,0E0,0E0,0E0,0E0,0E0,0E0,0E0,0E0,0E0,0E0,0E0,0E0,0E0,0E0,0E0],"parents":[2147483647,0,0,1,1,2,2,3,3,4,4,5,5,6,6,7,7,8,8,9,9,10,10,11,11,12,12,13,13,14,14,15,15,16,16,17,17,18,18,19,19,20,20,21,21,22,22,23,23,24,24,25,25,26,26,28,28,31,31,32,32,33,33,34,34,35,35,36,36,37,37,38,38,41,41,42,42,44,44,45,45,46,46,47,47,51,51,52,52,54,54,56,56],"right_children":[2,4,6,8,10,12,14,16,18,20,22,24,26,28,30,32,34,36,38,40,42,44,46,48,50,52,54,-1,56,-1,-1,58,60,62,64,66,68,70,72,-1,-1,74,76,-1,78,80,82,84,-1,-1,-1,86,88,-1,90,-1,92,-1,-1,-1,-1,-1,-1,-1,-1,-1,-1,-1,-1,-1,-1,-1,-1,-1,-1,-1,-1,-1,-1,-1,-1,-1,-1,-1,-1,-1,-1,-1,-1,-1,-1,-1,-1],"split_conditions":[3.4006946E2,8.6E0,8E-1,1.063E1,2.755E1,2.09E0,1.8681883E1,9.41E0,6E0,9.746631E0,2.899E1,1.98E1,1.39314165E1,7.2418327E0,8.47E0,4.2000003E0,2.9999995E0,4.95E0,7.075166E0,3.2564166E0,1.1525623E1,9.77E0,5.3335E0,1.8E0,1.76E0,9.41E0,2.13E0,4.4185337E-1,1.71E0,-2.30324E-1,3.3416213E-3,3.3999996E0,7.3E-1,1.59E0,6.5751667E0,7.2000003E0,5.3E0,4.6251664E0,2.9E0,-2.2533475E-1,1.095757E0,1.087E1,2.6977382E0,-2.5996715E-1,7.758501E0,1.7000003E0,2.63E0,1.3246826E1,1.0027813E-1,-1.262644E-1,-4.5904064E-1,1.2287555E1,1.273E1,-1.2368271E-1,2.52E0,-1.1450428E-1,1.087E1,1.522667E-2,3.099006E-1,-4.0016544E-1,-3.149946E-2,-7.5745356E-1,1.07052274E-1,-1.4628106E0,-2.7391163E-1,7.963924E-2,1.0312296E0,-1.1276218E0,-2.1012194E-2,1.7951433E-1,1.9989692E0,-5.7554966E-1,6.8121487E-1,-3.617917E-1,-1.0319916E0,1.307398E0,-7.38373E-2,1.8341895E0,1.0440683E-1,-1.5811537E-1,-6.862123E-1,-4.670929E-1,5.118999E-1,-1.2186129E-2,-1.3635136E-1,-1.1898044E-1,-5.0097096E-1,1.6716403E-1,-2.731597E-1,-6.2421267E-3,9.7596504E-2,2.3212041E-1,-1.12635545E-1],"split_indices":[6,1,4,0,2,0,5,0,1,5,2,5,3,3,1,4,4,1,3,3,5,1,3,0,2,0,0,0,1,0,0,4,1,2,3,4,1,3,2,0,0,0,6,0,3,4,0,5,0,0,0,5,0,0,0,0,1,0,0,0,0,0,0,0,0,0,0,0,0,0,0,0,0,0,0,0,0,0,0,0,0,0,0,0,0,0,0,0,0,0,0,0,0],"split_type":[0,0,0,0,0,0,0,0,0,0,0,0,0,0,0,0,0,0,0,0,0,0,0,0,0,0,0,0,0,0,0,0,0,0,0,0,0,0,0,0,0,0,0,0,0,0,0,0,0,0,0,0,0,0,0,0,0,0,0,0,0,0,0,0,0,0,0,0,0,0,0,0,0,0,0,0,0,0,0,0,0,0,0,0,0,0,0,0,0,0,0,0,0],"sum_hessian":[1.959E3,1.904E3,5.5E1,1.588E3,3.16E2,4.3E1,1.2E1,1.496E3,9.2E1,2.92E2,2.4E1,2.6E1,1.7E1,8E0,4E0,1.468E3,2.8E1,6.7E1,2.5E1,6E0,2.86E2,6E0,1.8E1,2.3E1,3E0,1.4E1,3E0,3E0,5E0,3E0,1E0,1.193E3,2.75E2,2.4E1,4E0,5.2E1,1.5E1,1.8E1,7E0,3E0,3E0,8E0,2.78E2,1E0,5E0,1.3E1,5E0,2.1E1,2E0,2E0,1E0,1.1E1,3E0,1E0,2E0,1E0,4E0,1.14E3,5.3E1,1.5E1,2.6E2,5E0,1.9E1,3E0,1E0,4.7E1,5E0,8E0,7E0,1E1,8E0,4E0,3E0,4E0,4E0,1E0,2.77E2,4E0,1E0,1.1E1,2E0,1E0,4E0,9E0,1.2E1,1E0,1E1,1E0,2E0,1E0,1E0,3E0,1E0],"tree_param":{"num_deleted":"0","num_feature":"7","num_nodes":"93","size_leaf_vector":"1"}},{"base_weights":[8.962198E-3,-3.1290042E-1,2.6617402E-2,-7.468934E-1,-7.503998E-2,2.5738534E-1,-7.914402E-3,-8.7487274E-1,9.5250344E-1,1.3583757E0,-2.1338661E-1,1.5925784E-1,2.5180175E0,-2.2478779E-1,3.320334E-2,-2.4495934E-1,-1.12713E0,-1.9210629E-1,6.2073284E-1,-3.10317E-1,1.3666135E0,2.2479285E-1,-1.9886998E0,4.251246E-2,2.4840074E0,7.726277E-1,-2.8518304E-1,1.6425171E0,1.5257603E-2,-6.436201E-1,7.479253E-2,-1.3289024E0,-4.4726837E-1,7.275415E-2,-4.3154246E-1,4.832107E-1,9.515211E-2,-1.7759474E-1,4.7611654E-1,-2.5836518E0,2.3715177E-1,6.379202E-1,-7.1237534E-1,6.2089782E-2,1.575801E0,-1.5556887E-1,-6.714753E-1,3.417513E0,6.863811E-1,-4.0266943E-1,4.443405E-2,-2.271916E-2,-2.2999796E-1,9.817402E-2,-5.8907945E-2,4.9029354E-2,-4.278901E-1,-1.4612591E-1,-3.125405E-2,-2.8719151E-2,2.5042936E-1,-1.4109664E-1,9.207794E-2,-1.073562E-1,2.07017E-2,7.064216E-1,7.958261E-2,-8.3736753E-1,-2.3186782E-1,3.0212843E-1,-1.2581667E-1,-2.05616E-2,-2.712424E-1,-2.909584E-1,9.36949E-2,5.515035E-1,8.0645084E-5,-7.255822E-2,8.946153E-1,-4.263606E-1,2.3169697E-3,1.156167E0,2.5080064E-1,-1.944629E-1,5.719725E-1,-1.4502184E-1,6.138013E-1,-4.8326913E-1,1.6490202E-2],"categories":[],"categories_nodes":[],"categories_segments":[],"categories_sizes":[],"default_left":[0,0,0,0,0,0,0,0,0,0,0,0,0,0,0,0,0,0,0,0,0,0,0,0,0,0,0,0,0,0,0,0,0,0,0,0,0,0,0,0,0,0,0,0,0,0,0,0,0,0,0,0,0,0,0,0,0,0,0,0,0,0,0,0,0,0,0,0,0,0,0,0,0,0,0,0,0,0,0,0,0,0,0,0,0,0,0,0,0],"id":20,"left_children":[1,3,5,7,9,11,13,15,17,-1,19,21,23,25,27,29,31,-1,-1,33,35,37,39,41,-1,43,45,47,49,51,53,55,57,59,61,-1,-1,63,65,67,-1,69,71,73,75,77,79,81,83,85,87,-1,-1,-1,-1,-1,-1,-1,-1,-1,-1,-1,-1,-1,-1,-1,-1,-1,-1,-1,-1,-1,-1,-1,-1,-1,-1,-1,-1,-1,-1,-1,-1,-1,-1,-1,-1,-1,-1],"loss_changes":[1.1146127E1,1.047339E1,1.4816097E1,8.662874E0,4.3632053E1,5.3281887E1,1.4435726E1,5.126507E0,6.6607466E0,0E0,1.0531984E1,3.324562E1,1.4228677E2,1.5762044E1,3.9281063E1,1.4503357E0,2.697878E0,0E0,0E0,2.9569898E0,5.1375294E-1,2.3040955E1,1.361685E1,4.050167E0,0E0,8.462436E0,1.2112362E1,2.3111343E1,1.6442707E1,2.9130554E-1,5.43433E-1,2.8494034E0,4.4882894E-2,2.1341054E0,1.5189581E0,0E0,0E0,3.9364698E0,5.4828075E1,9.786987E-2,0E0,2.3740222E0,4.3189526E-1,2.626897E0,2.895031E0,5.0539417E1,3.1072987E1,2.4107018E0,1.9148914E1,1.8386452E1,2.2058018E1,0E0,0E0,0E0,0E0,0E0,0E0,0E0,0E0,0E0,0E0,0E0,0E0,0E0,0E0,0E0,0E0,0E0,0E0,0E0,0E0,0E0,0E0,0E0,0E0,0E0,0E0,0E0,0E0,0E0,0E0,0E0,0E0,0E0,0E0,0E0,0E0,0E0,0E0],"parents":[2147483647,0,0,1,1,2,2,3,3,4,4,5,5,6,6,7,7,8,8,10,10,11,11,12,12,13,13,14,14,15,15,16,16,19,19,20,20,21,21,22,22,23,23,25,25,26,26,27,27,28,28,29,29,30,30,31,31,32,32,33,33,34,34,37,37,38,38,39,39,41,41,42,42,43,43,44,44,45,45,46,46,47,47,48,48,49,49,50,50],"right_children":[2,4,6,8,10,12,14,16,18,-1,20,22,24,26,28,30,32,-1,-1,34,36,38,40,42,-1,44,46,48,50,52,54,56,58,60,62,-1,-1,64,66,68,-1,70,72,74,76,78,80,82,84,86,88,-1,-1,-1,-1,-1,-1,-1,-1,-1,-1,-1,-1,-1,-1,-1,-1,-1,-1,-1,-1,-1,-1,-1,-1,-1,-1,-1,-1,-1,-1,-1,-1,-1,-1,-1,-1,-1,-1],"split_conditions":[6.8E-1,3.8772497E0,1.2E0,2.347E1,4.0585E0,1.17E0,1.71E0,8.768297E1,5E-1,1.3583757E0,3.168818E1,7.17E0,2.4E0,4.0329075E1,1.76E0,6.3E-1,3.1506366E2,-1.9210629E-1,6.2073284E-1,8.1555244E1,2.15E0,1.17E0,1.08E0,2.6124195E1,2.4840074E0,1.3E0,3.9999998E0,1.8556595E1,6.188777E1,5.3E-1,1.933639E1,4.3E-1,2.87E0,5.5018745E1,6.3E-1,4.832107E-1,9.515211E-2,1.8844354E2,1.21E0,2.145E1,2.3715177E-1,1.5023083E1,1.02E0,6.3E-1,1.7831417E1,3.3999996E0,1.2800167E1,1.8E0,1.92E0,3.115E1,5E-1,-2.271916E-2,-2.2999796E-1,9.817402E-2,-5.8907945E-2,4.9029354E-2,-4.278901E-1,-1.4612591E-1,-3.125405E-2,-2.8719151E-2,2.5042936E-1,-1.4109664E-1,9.207794E-2,-1.073562E-1,2.07017E-2,7.064216E-1,7.958261E-2,-8.3736753E-1,-2.3186782E-1,3.0212843E-1,-1.2581667E-1,-2.05616E-2,-2.712424E-1,-2.909584E-1,9.36949E-2,5.515035E-1,8.0645084E-5,-7.255822E-2,8.946153E-1,-4.263606E-1,2.3169697E-3,1.156167E0,2.5080064E-1,-1.944629E-1,5.719725E-1,-1.4502184E-1,6.138013E-1,-4.8326913E-1,1.6490202E-2],"split_indices":[0,3,1,2,3,1,1,6,0,0,5,0,4,6,1,1,6,0,0,6,1,0,1,5,0,1,4,5,6,2,5,1,1,6,0,0,0,6,0,0,0,3,0,2,3,4,3,2,2,1,2,0,0,0,0,0,0,0,0,0,0,0,0,0,0,0,0,0,0,0,0,0,0,0,0,0,0,0,0,0,0,0,0,0,0,0,0,0,0],"split_type":[0,0,0,0,0,0,0,0,0,0,0,0,0,0,0,0,0,0,0,0,0,0,0,0,0,0,0,0,0,0,0,0,0,0,0,0,0,0,0,0,0,0,0,0,0,0,0,0,0,0,0,0,0,0,0,0,0,0,0,0,0,0,0,0,0,0,0,0,0,0,0,0,0,0,0,0,0,0,0,0,0,0,0,0,0,0,0,0,0],"sum_hessian":[1.959E3,1.01E2,1.858E3,3.5E1,6.6E1,2.41E2,1.617E3,3.3E1,2E0,1E0,6.5E1,2.32E2,9E0,2.57E2,1.36E3,1E1,2.3E1,1E0,1E0,6.2E1,3E0,2.26E2,6E0,7E0,2E0,1.4E1,2.43E2,1.4E1,1.346E3,4E0,6E0,1.7E1,6E0,1.5E1,4.7E1,2E0,1E0,8.7E1,1.39E2,5E0,1E0,4E0,3E0,8E0,6E0,1.83E2,6E1,4E0,1E1,8.7E1,1.259E3,1E0,3E0,3E0,3E0,1E0,1.6E1,5E0,1E0,1.3E1,2E0,4.5E1,2E0,5E1,3.7E1,1.3E1,1.26E2,4E0,1E0,3E0,1E0,1E0,2E0,1E0,7E0,5E0,1E0,1.79E2,4E0,2.8E1,3.2E1,3E0,1E0,5E0,5E0,8.5E1,2E0,7E0,1.252E3],"tree_param":{"num_deleted":"0","num_feature":"7","num_nodes":"89","size_leaf_vector":"1"}},{"base_weights":[9.6117975E-3,4.361198E-3,1.0330426E0,5.091187E-4,1.2529919E0,1.1140137E0,3.2262978E-1,1.5303459E-2,-4.6478137E-1,6.3005215E-1,3.0435765E-1,5.5671644E-1,2.4017144E-2,2.4457715E-2,-8.8599175E-1,-1.3752279E0,2.718903E-1,-4.8300363E-2,1.539433E-1,1.8958856E-1,3.8360238E-2,-1.5331936E-2,2.7340509E-2,1.4412706E-2,1.1868947E0,-1.9208959E0,2.3751155E-1,-7.40649E-1,-1.4516685E0,-7.604624E-1,1.8009987E0,2.4328318E-3,3.9170447E-1,-4.2077756E-1,7.474327E-1,-1.5435982E-1,-9.6730584E-1,4.5895758E-1,-2.637089E-1,3.196694E-1,-4.6411932E-1,1.8240091E-1,-4.0451464E-1,7.163442E-1,-8.7413967E-1],"categories":[],"categories_nodes":[],"categories_segments":[],"categories_sizes":[],"default_left":[0,0,0,0,0,0,0,0,0,0,0,0,0,0,0,0,0,0,0,0,0,0,0,0,0,0,0,0,0,0,0,0,0,0,0,0,0,0,0,0,0,0,0,0,0],"id":21,"left_children":[1,3,5,7,9,-1,11,13,15,-1,17,19,21,23,25,27,29,-1,-1,-1,-1,-1,-1,31,33,35,37,39,-1,41,43,-1,-1,-1,-1,-1,-1,-1,-1,-1,-1,-1,-1,-1,-1],"loss_changes":[1.0527801E1,9.383328E0,1.7843405E1,1.3402727E1,4.18279E0,0E0,6.157404E-1,1.5590718E1,4.061592E1,0E0,4.7125977E-1,8.053708E-2,2.9868271E-2,2.180663E1,2.2547882E1,5.576127E1,5.5041283E1,0E0,0E0,0E0,0E0,0E0,0E0,1.5079511E1,5.7544212E1,1.6672302E1,1.5774376E1,3.6605896E1,0E0,1.7715322E1,4.5691612E1,0E0,0E0,0E0,0E0,0E0,0E0,0E0,0E0,0E0,0E0,0E0,0E0,0E0,0E0],"parents":[2147483647,0,0,1,1,2,2,3,3,4,4,6,6,7,7,8,8,10,10,11,11,12,12,13,13,14,14,15,15,16,16,23,23,24,24,25,25,26,26,27,27,29,29,30,30],"right_children":[2,4,6,8,10,-1,12,14,16,-1,18,20,22,24,26,28,30,-1,-1,-1,-1,-1,-1,32,34,36,38,40,-1,42,44,-1,-1,-1,-1,-1,-1,-1,-1,-1,-1,-1,-1,-1,-1],"split_conditions":[4.022E1,4.022E1,4.5E0,2.26E1,1.63E1,1.1140137E0,1.420851E2,2.899E1,2.0991426E1,6.3005215E-1,6.75E0,2.26E1,1.63E1,2.145E1,4.4709997E0,2.0774214E1,1.352E1,-4.8300363E-2,1.539433E-1,1.8958856E-1,3.8360238E-2,-1.5331936E-2,2.7340509E-2,2.657E1,1E-1,3E-1,1.8513911E2,1E-1,-1.4516685E0,5E-1,4.022E1,2.4328318E-3,3.9170447E-1,-4.2077756E-1,7.474327E-1,-1.5435982E-1,-9.6730584E-1,4.5895758E-1,-2.637089E-1,3.196694E-1,-4.6411932E-1,1.8240091E-1,-4.0451464E-1,7.163442E-1,-8.7413967E-1],"split_indices":[0,1,1,0,2,0,6,1,5,0,0,2,1,0,3,5,2,0,0,0,0,0,0,1,4,4,6,4,0,4,2,0,0,0,0,0,0,0,0,0,0,0,0,0,0],"split_type":[0,0,0,0,0,0,0,0,0,0,0,0,0,0,0,0,0,0,0,0,0,0,0,0,0,0,0,0,0,0,0,0,0,0,0,0,0,0,0,0,0,0,0,0,0],"sum_hessian":[1.959E3,1.95E3,9E0,1.945E3,5E0,1E0,8E0,1.886E3,5.9E1,2E0,3E0,4E0,4E0,1.868E3,1.8E1,2.6E1,3.3E1,1E0,2E0,3E0,1E0,2E0,2E0,1.853E3,1.5E1,9E0,9E0,2.3E1,3E0,2E1,1.3E1,1.845E3,8E0,5E0,1E1,5E0,4E0,4E0,5E0,7E0,1.6E1,6E0,1.4E1,1.2E1,1E0],"tree_param":{"num_deleted":"0","num_feature":"7","num_nodes":"45","size_leaf_vector":"1"}},{"base_weights":[6.6812937E-3,2.6549734E-2,-2.6644796E-1,1.5739117E-2,8.7426394E-1,-4.9680907E-1,1.7271078E0,3.6803033E-2,-5.978342E-1,-8.5551955E-2,3.608001E0,5.544967E-1,-7.793053E-1,3.581145E0,-1.3417995E0,-5.5917434E-4,4.0739292E-1,-2.042832E0,2.326217E-1,-7.306331E-1,1.0150194E0,9.088143E-1,1.8012749E0,-7.1113497E-1,1.6901191E0,-1.4305855E0,-1.8936573E-1,1.8141258E0,1.3403271E0,-4.1310972E-1,-8.977873E-1,4.02823E-2,-2.2678167E-1,1.0670329E0,-1.3082589E-1,-4.7910005E-1,-4.2483225E0,1.6481885E0,-4.575631E-1,3.931328E-1,-1.9035406E0,-6.897442E-2,4.095087E-1,-1.1770608E0,1.234305E0,8.843637E-1,3.483417E0,-1.0550226E0,-3.6959078E0,1.024323E0,-5.8907306E-1,6.4958876E-1,-2.0640676E-1,-1.7760263E-1,4.5372963E-2,7.20703E-3,9.4408196E-1,1.5199512E0,-8.751966E-2,3.7501833E-1,-7.07088E-1,1.3974594E0,-8.833827E-2,8.3154395E-2,-3.2428762E-1,-1.7867068E0,-1.8755755E-1,4.5564502E-2,1.2035708E0,-1.9831105E-1,4.171716E-1,-6.573653E-2,5.072048E-1,-2.3327273E-1,-8.5053355E-1,6.870248E-2,-5.198889E-1,5.228311E-1,3.260622E-2,4.3267274E-1,1.0786237E-1,1.3689165E0,3.6675453E-2,-6.155396E-1,-9.15041E-2,-1.5844318E0,-1.0496912E-1,-4.309107E-1,4.8069015E-1,5.01926E-1,-2.6862243E-1,-2.0671572E-1,1.1383267E-1],"categories":[],"categories_nodes":[],"categories_segments":[],"categories_sizes":[],"default_left":[0,0,0,0,0,0,0,0,0,0,0,0,0,0,0,0,0,0,0,0,0,0,0,0,0,0,0,0,0,0,0,0,0,0,0,0,0,0,0,0,0,0,0,0,0,0,0,0,0,0,0,0,0,0,0,0,0,0,0,0,0,0,0,0,0,0,0,0,0,0,0,0,0,0,0,0,0,0,0,0,0,0,0,0,0,0,0,0,0,0,0,0,0],"id":22,"left_children":[1,3,5,7,9,11,13,15,17,19,21,23,25,27,29,31,33,35,37,39,-1,41,-1,43,45,47,49,-1,51,53,-1,55,57,59,61,63,65,67,69,71,73,-1,-1,75,77,79,81,83,85,87,89,-1,91,-1,-1,-1,-1,-1,-1,-1,-1,-1,-1,-1,-1,-1,-1,-1,-1,-1,-1,-1,-1,-1,-1,-1,-1,-1,-1,-1,-1,-1,-1,-1,-1,-1,-1,-1,-1,-1,-1,-1,-1],"loss_changes":[1.0643313E1,1.6738607E1,6.1936657E1,2.3363213E1,6.0658016E1,3.6070915E1,8.446333E1,2.4189287E1,7.247562E1,4.27516E1,3.3350784E1,3.8571175E1,3.6229614E1,4.162645E1,7.9623413E0,1.4681081E1,5.6944504E1,7.383813E1,3.8857254E1,2.183752E1,0E0,2.3918593E0,0E0,1.3236454E1,1.714883E1,3.438543E1,2.5344534E1,0E0,8.102974E0,5.943483E-1,0E0,6.791185E1,8.5021866E1,4.8067795E1,7.1116684E1,6.672065E0,5.1950684E1,4.5369614E1,1.1072483E1,7.520343E0,6.1868153E0,0E0,0E0,8.994866E0,1.5275946E0,2.702115E0,1.3957527E1,2.9277813E1,2.9983269E1,2.0790413E1,2.8524265E1,0E0,1.1097279E0,0E0,0E0,0E0,0E0,0E0,0E0,0E0,0E0,0E0,0E0,0E0,0E0,0E0,0E0,0E0,0E0,0E0,0E0,0E0,0E0,0E0,0E0,0E0,0E0,0E0,0E0,0E0,0E0,0E0,0E0,0E0,0E0,0E0,0E0,0E0,0E0,0E0,0E0,0E0,0E0],"parents":[2147483647,0,0,1,1,2,2,3,3,4,4,5,5,6,6,7,7,8,8,9,9,10,10,11,11,12,12,13,13,14,14,15,15,16,16,17,17,18,18,19,19,21,21,23,23,24,24,25,25,26,26,28,28,29,29,31,31,32,32,33,33,34,34,35,35,36,36,37,37,38,38,39,39,40,40,43,43,44,44,45,45,46,46,47,47,48,48,49,49,50,50,52,52],"right_children":[2,4,6,8,10,12,14,16,18,20,22,24,26,28,30,32,34,36,38,40,-1,42,-1,44,46,48,50,-1,52,54,-1,56,58,60,62,64,66,68,70,72,74,-1,-1,76,78,80,82,84,86,88,90,-1,92,-1,-1,-1,-1,-1,-1,-1,-1,-1,-1,-1,-1,-1,-1,-1,-1,-1,-1,-1,-1,-1,-1,-1,-1,-1,-1,-1,-1,-1,-1,-1,-1,-1,-1,-1,-1,-1,-1,-1,-1],"split_conditions":[1.652E1,1.507E1,5.3999996E0,1.839E1,9.000001E-1,1.2101191E2,2.7691935E1,1.063E1,4E-1,2.102E1,1.063E1,8.92538E1,2.126744E1,6.9E0,2.67E0,5.55E0,2.0858265E1,1.418E1,1.8513911E2,1E-1,1.0150194E0,3.1E0,1.8012749E0,1.273E1,1.0000001E0,2.145E1,3.85E0,1.8141258E0,2.037E1,1.032E1,-8.977873E-1,5.5E0,8.2E-1,1.63E1,1.087E1,3.05E0,5.6605835E0,1.698431E2,3.864093E1,1.9493261E1,5.07E0,-6.897442E-2,4.095087E-1,1.4081477E1,2.037E1,1.475E1,3.567E1,4.4709997E0,2.529E1,2.4442913E1,1.4911792E2,6.4958876E-1,6E0,-1.7760263E-1,4.5372963E-2,7.20703E-3,9.4408196E-1,1.5199512E0,-8.751966E-2,3.7501833E-1,-7.07088E-1,1.3974594E0,-8.833827E-2,8.3154395E-2,-3.2428762E-1,-1.7867068E0,-1.8755755E-1,4.5564502E-2,1.2035708E0,-1.9831105E-1,4.171716E-1,-6.573653E-2,5.072048E-1,-2.3327273E-1,-8.5053355E-1,6.870248E-2,-5.198889E-1,5.228311E-1,3.260622E-2,4.3267274E-1,1.0786237E-1,1.3689165E0,3.6675453E-2,-6.155396E-1,-9.15041E-2,-1.5844318E0,-1.0496912E-1,-4.309107E-1,4.8069015E-1,5.01926E-1,-2.6862243E-1,-2.0671572E-1,1.1383267E-1],"split_indices":[2,2,4,1,4,6,5,0,4,0,1,6,5,4,0,1,5,0,6,4,0,4,0,0,4,0,1,0,1,1,0,1,2,1,0,0,3,6,5,5,0,0,0,5,0,0,0,3,0,5,6,0,0,0,0,0,0,0,0,0,0,0,0,0,0,0,0,0,0,0,0,0,0,0,0,0,0,0,0,0,0,0,0,0,0,0,0,0,0,0,0,0,0],"split_type":[0,0,0,0,0,0,0,0,0,0,0,0,0,0,0,0,0,0,0,0,0,0,0,0,0,0,0,0,0,0,0,0,0,0,0,0,0,0,0,0,0,0,0,0,0,0,0,0,0,0,0,0,0,0,0,0,0,0,0,0,0,0,0,0,0,0,0,0,0,0,0,0,0,0,0,0,0,0,0,0,0,0,0,0,0,0,0,0,0,0,0,0,0],"sum_hessian":[1.959E3,1.827E3,1.32E2,1.805E3,2.2E1,1.19E2,1.3E1,1.746E3,5.9E1,1.7E1,5E0,2.5E1,9.4E1,8E0,5E0,1.587E3,1.59E2,2.1E1,3.8E1,1.5E1,2E0,3E0,2E0,1.2E1,1.3E1,4.4E1,5E1,3E0,5E0,4E0,1E0,1.345E3,2.42E2,7.1E1,8.8E1,1.3E1,8E0,1.2E1,2.6E1,8E0,7E0,1E0,2E0,1E1,2E0,1E1,3E0,3.9E1,5E0,1.2E1,3.8E1,3E0,2E0,3E0,1E0,1.339E3,6E0,2E0,2.4E2,6.8E1,3E0,2E0,8.6E1,6E0,