{"learner":{"attributes":{"scikit_learn":"{\"_estimator_type\": \"regressor\"}"},"feature_names":["pm25_lag_1","pm25_lag_2","pm25_lag_3","temperature_2m_mean","precipitation_sum","wind_speed_10m_max","wind_direction_10m_dominant"],"feature_types":["float","float","float","float","float","float","float"],"gradient_booster":{"model":{"gbtree_model_param":{"num_parallel_tree":"1","num_trees":"100"},"iteration_indptr":[0,1,2,3,4,5,6,7,8,9,10,11,12,13,14,15,16,17,18,19,20,21,22,23,24,25,26,27,28,29,30,31,32,33,34,35,36,37,38,39,40,41,42,43,44,45,46,47,48,49,50,51,52,53,54,55,56,57,58,59,60,61,62,63,64,65,66,67,68,69,70,71,72,73,74,75,76,77,78,79,80,81,82,83,84,85,86,87,88,89,90,91,92,93,94,95,96,97,98,99,100],"tree_info":[0,0,0,0,0,0,0,0,0,0,0,0,0,0,0,0,0,0,0,0,0,0,0,0,0,0,0,0,0,0,0,0,0,0,0,0,0,0,0,0,0,0,0,0,0,0,0,0,0,0,0,0,0,0,0,0,0,0,0,0,0,0,0,0,0,0,0,0,0,0,0,0,0,0,0,0,0,0,0,0,0,0,0,0,0,0,0,0,0,0,0,0,0,0,0,0,0,0,0,0],"trees":[{"base_weights":[-7.311684E-7,-5.909022E0,1.686993E1,-1.0215862E1,-8.900698E-1,1.2602046E1,4.0973885E1,-1.4280431E1,-8.004795E0,-4.3320594E0,1.4583533E0,1.8657595E1,4.2172875E0,2.768921E1,4.80536E1,-1.472675E1,-9.406399E-1,-5.537165E0,-9.429968E0,7.8851023E0,-4.833504E0,3.5595598E0,-1.7629155E0,-1.2711258E-1,2.1437613E1,1.868921E1,1.4799687E0,3.2352737E1,1.3152183E1,5.128386E1,3.737585E0,-1.7742958E1,-1.2826285E1,7.5475173E0,-7.3478174E0,-1.2259349E1,-3.6254513E0,-1.218674E1,-8.129264E0,1.2763984E1,4.5342407E-1,6.529609E-2,-5.962365E0,-8.384103E0,4.6820226E0,1.2665259E0,-4.3366847E0,-3.3339827E0,7.7260265E0,1.8252966E1,3.0134098E1,-8.3664405E-1,2.0595247E1,2.669534E0,-6.173577E0,2.2111866E0,3.5768734E1,1.4414383E1,6.47517E-1,2.073185E1,4.3039555E1,-1.152483E0,2.263356E0,-5.419852E0,-7.3664397E-1,-2.6185942E0,-4.44229E0,-2.820805E0,-2.36644E-1,2.1475172E0,-3.8992727E0,3.5955307E0,-1.4565388E0,-3.785141E0,-7.039728E-1,-2.581774E0,-1.1774676E0,4.6360273E0,-1.0248299E-1,-1.3024831E0,8.2127553E-1,-4.648241E-1,1.559122E0,-4.1247177E0,-1.5066814E0,-3.6513016E0,1.3960273E0,5.637115E0,1.1269754E0,1.1049353E0,-1.9546556E0,-1.5034877E0,9.386006E-1,-1.9113016E0,8.331548E-1,-5.287245E-1,3.8291953E0,5.6464577E0,-4.536644E0,1.0315159E1,4.0371146E0,1.5712756E0,6.7619376E0,1.9233665E0,2.6376858E-1,3.5114136E-1,-3.486333E0,-1.002483E0,1.9975171E0,6.0760274E0,1.16954155E1,4.7791953E0,7.9751706E-1,3.047517E0,1.314693E1],"categories":[],"categories_nodes":[],"categories_segments":[],"categories_sizes":[],"default_left":[0,0,0,0,0,0,0,0,0,0,0,0,0,0,0,0,0,0,0,0,0,0,0,0,0,0,0,0,0,0,0,0,0,0,0,0,0,0,0,0,0,0,0,0,0,0,0,0,0,0,0,0,0,0,0,0,0,0,0,0,0,0,0,0,0,0,0,0,0,0,0,0,0,0,0,0,0,0,0,0,0,0,0,0,0,0,0,0,0,0,0,0,0,0,0,0,0,0,0,0,0,0,0,0,0,0,0,0,0,0,0,0,0,0,0],"id":0,"left_children":[1,3,5,7,9,11,13,15,17,19,21,23,25,27,29,31,33,35,37,39,41,43,45,47,49,51,53,55,57,59,61,63,65,-1,67,69,71,73,75,77,79,81,83,85,87,89,91,93,95,97,99,-1,101,103,105,107,109,111,-1,-1,113,-1,-1,-1,-1,-1,-1,-1,-1,-1,-1,-1,-1,-1,-1,-1,-1,-1,-1,-1,-1,-1,-1,-1,-1,-1,-1,-1,-1,-1,-1,-1,-1,-1,-1,-1,-1,-1,-1,-1,-1,-1,-1,-1,-1,-1,-1,-1,-1,-1,-1,-1,-1,-1,-1],"loss_changes":[1.748471E5,2.806986E4,4.6290812E4,6.167625E3,4.864349E3,1.9621754E4,5.064953E3,1.4448359E3,1.5479297E3,1.5329141E3,2.4294167E3,1.1752633E4,6.469081E3,1.3371309E3,5.963867E3,1.1309531E3,1.6898492E3,2.127355E3,9.3003906E2,3.5679523E2,1.2999546E3,2.9484246E3,1.1126782E3,7.812783E2,4.8782344E3,1.1218213E3,1.281991E3,1.8772129E3,7.989905E1,2.903E3,1.4439711E2,3.9539648E2,1.0804551E3,0E0,1.0040604E2,6.234248E2,2.6112512E3,3.5155762E2,3.630166E2,2.167594E2,6.6648674E1,3.8093726E2,1.3291118E3,9.9470166E2,2.5276377E3,1.2651952E3,4.0365747E2,4.2600793E2,4.5271667E2,3.0550742E3,3.151836E3,0E0,5.986738E2,8.049136E2,7.73734E2,9.6333E1,5.867578E1,8.242676E1,0E0,0E0,3.277422E2,0E0,0E0,0E0,0E0,0E0,0E0,0E0,0E0,0E0,0E0,0E0,0E0,0E0,0E0,0E0,0E0,0E0,0E0,0E0,0E0,0E0,0E0,0E0,0E0,0E0,0E0,0E0,0E0,0E0,0E0,0E0,0E0,0E0,0E0,0E0,0E0,0E0,0E0,0E0,0E0,0E0,0E0,0E0,0E0,0E0,0E0,0E0,0E0,0E0,0E0,0E0,0E0,0E0,0E0],"parents":[2147483647,0,0,1,1,2,2,3,3,4,4,5,5,6,6,7,7,8,8,9,9,10,10,11,11,12,12,13,13,14,14,15,15,16,16,17,17,18,18,19,19,20,20,21,21,22,22,23,23,24,24,25,25,26,26,27,27,28,28,29,29,30,30,31,31,32,32,34,34,35,35,36,36,37,37,38,38,39,39,40,40,41,41,42,42,43,43,44,44,45,45,46,46,47,47,48,48,49,49,50,50,52,52,53,53,54,54,55,55,56,56,57,57,60,60],"right_children":[2,4,6,8,10,12,14,16,18,20,22,24,26,28,30,32,34,36,38,40,42,44,46,48,50,52,54,56,58,60,62,64,66,-1,68,70,72,74,76,78,80,82,84,86,88,90,92,94,96,98,100,-1,102,104,106,108,110,112,-1,-1,114,-1,-1,-1,-1,-1,-1,-1,-1,-1,-1,-1,-1,-1,-1,-1,-1,-1,-1,-1,-1,-1,-1,-1,-1,-1,-1,-1,-1,-1,-1,-1,-1,-1,-1,-1,-1,-1,-1,-1,-1,-1,-1,-1,-1,-1,-1,-1,-1,-1,-1,-1,-1,-1,-1],"split_conditions":[3.9E1,2.3E1,7.1E1,1.5E1,2.8E1,2.0673322E2,8E1,1.7587084E1,8.112083E0,1.1E1,2.4454897E2,7.066511E1,1.431198E1,6.7E1,2.907475E2,1.1696702E2,1.787875E1,1.00935165E2,1.8E1,1.7E0,1.5683776E1,6.2987446E1,2E-1,5.5E1,5.6E1,9.021574E0,3.2782373E2,9.647267E1,3.5999997E0,1.728E1,6.2E1,1.6514168E1,2.0673322E2,7.5475173E0,1.8E1,1.0966713E1,1.3017358E2,6.2E1,1.8162085E1,1.1185E1,4.2000003E0,3.3E1,6.554658E1,1.5262085E1,5.683333E-1,3.1878458E2,1.7370417E1,4.601666E0,1.530741E1,3.324888E1,2.3623243E1,-8.3664405E-1,6.7666674E-1,2E-1,1.803237E1,7.5E1,4.8E1,9.5E1,6.47517E-1,2.073185E1,1.7873556E1,-1.152483E0,2.263356E0,-5.419852E0,-7.3664397E-1,-2.6185942E0,-4.44229E0,-2.820805E0,-2.36644E-1,2.1475172E0,-3.8992727E0,3.5955307E0,-1.4565388E0,-3.785141E0,-7.039728E-1,-2.581774E0,-1.1774676E0,4.6360273E0,-1.0248299E-1,-1.3024831E0,8.2127553E-1,-4.648241E-1,1.559122E0,-4.1247177E0,-1.5066814E0,-3.6513016E0,1.3960273E0,5.637115E0,1.1269754E0,1.1049353E0,-1.9546556E0,-1.5034877E0,9.386006E-1,-1.9113016E0,8.331548E-1,-5.287245E-1,3.8291953E0,5.6464577E0,-4.536644E0,1.0315159E1,4.0371146E0,1.5712756E0,6.7619376E0,1.9233665E0,2.6376858E-1,3.5114136E-1,-3.486333E0,-1.002483E0,1.9975171E0,6.0760274E0,1.16954155E1,4.7791953E0,7.9751706E-1,3.047517E0,1.314693E1],"split_indices":[0,0,0,0,0,6,0,3,3,1,6,6,5,1,6,6,3,6,0,4,5,6,4,0,0,5,6,6,4,5,2,3,6,0,1,5,6,2,3,3,4,1,6,3,3,6,3,3,5,5,5,0,3,4,5,0,1,2,0,0,5,0,0,0,0,0,0,0,0,0,0,0,0,0,0,0,0,0,0,0,0,0,0,0,0,0,0,0,0,0,0,0,0,0,0,0,0,0,0,0,0,0,0,0,0,0,0,0,0,0,0,0,0,0,0],"split_type":[0,0,0,0,0,0,0,0,0,0,0,0,0,0,0,0,0,0,0,0,0,0,0,0,0,0,0,0,0,0,0,0,0,0,0,0,0,0,0,0,0,0,0,0,0,0,0,0,0,0,0,0,0,0,0,0,0,0,0,0,0,0,0,0,0,0,0,0,0,0,0,0,0,0,0,0,0,0,0,0,0,0,0,0,0,0,0,0,0,0,0,0,0,0,0,0,0,0,0,0,0,0,0,0,0,0,0,0,0,0,0,0,0,0,0],"sum_hessian":[1.752E3,1.298E3,4.54E2,6.98E2,6E2,3.87E2,6.7E1,2.44E2,4.54E2,2.43E2,3.57E2,2.24E2,1.63E2,2.5E1,4.2E1,2.36E2,8E0,1.68E2,2.86E2,9E0,2.34E2,2.16E2,1.41E2,2.9E1,1.95E2,2.5E1,1.38E2,1.8E1,7E0,3.9E1,3E0,8.8E1,1.48E2,1E0,7E0,3.6E1,1.32E2,8.9E1,1.97E2,5E0,4E0,4.4E1,1.9E2,1.8E1,1.98E2,6.5E1,7.6E1,2.1E1,8E0,1.45E2,5E1,2E0,2.3E1,1.2E2,1.8E1,2E0,1.6E1,6E0,1E0,1E1,2.9E1,1E0,2E0,8.6E1,2E0,5E1,9.8E1,5E0,2E0,1E0,3.5E1,9E0,1.23E2,8.5E1,4E0,1.76E2,2.1E1,4E0,1E0,1E0,3E0,3.4E1,1E1,1.9E1,1.71E2,1.4E1,4E0,1.1E1,1.87E2,5E1,1.5E1,7E1,6E0,1.4E1,7E0,3E0,5E0,1.43E2,2E0,3.9E1,1.1E1,3E0,2E1,3.8E1,8.2E1,8E0,1E1,1E0,1E0,4E0,1.2E1,5E0,1E0,1E0,2.8E1],"tree_param":{"num_deleted":"0","num_feature":"7","num_nodes":"115","size_leaf_vector":"1"}},{"base_weights":[4.1803084E-2,-4.2687006E0,1.1715615E1,-7.174835E0,-7.770082E-1,8.689905E0,2.96086E1,-1.0031923E1,-5.620634E0,1.6825818E0,-2.3500686E0,1.196986E1,1.4727379E0,2.4730278E1,4.008006E1,-1.0364495E1,-1.5955141E-1,-4.1252956E0,-7.0655284E0,-7.671614E0,3.4764497E0,8.344814E-1,-4.230404E0,1.834483E0,1.3962962E1,-2.9758352E-1,1.3883587E1,3.502807E1,1.9156898E1,5.1305347E1,2.3724237E1,-1.0492884E1,2.9903064E0,6.41539E0,-5.5256534E0,-7.7453084E0,-2.91567E0,-4.6129456E0,-8.087984E0,-1.0014566E1,2.0734076E0,3.9837675E0,-5.2333937E0,3.3314924E0,-8.648292E0,1.0336691E1,-4.4082007E0,3.5455438E-1,5.296524E0,1.7657421E1,7.199489E0,4.2319865E0,-1.768867E0,6.473386E0,7.109174E0,5.0276194E0,4.156451E1,2.040037E1,-4.9243736E-1,1.715347E1,4.975478E0,7.098281E0,2.9835608E1,-4.1953077E0,-2.89276E0,-1.9861206E0,3.206377E-1,-2.565143E0,2.7988496E0,1.7969046E0,-1.3231055E0,-5.9352076E-1,-2.6206276E0,-2.6363502E0,-1.0520413E0,-3.242787E0,2.2231027E-1,2.0325549E0,-2.4063835E0,1.0345598E0,3.5972195E0,-2.164898E0,7.379608E-1,2.5064259E0,5.2781487E-1,-3.3661232E0,-8.689315E-1,5.730403E-1,4.0784707E0,1.2742721E0,-1.4129318E0,-2.1241205E0,1.1102517E0,4.219788E0,8.154688E0,3.0347152E0,9.09058E-1,3.5107124E0,6.2975717E-1,-1.6240828E0,1.1516141E-1,-1.290988E0,2.656611E0,-2.5108874E-1,3.393205E0,7.5452895E0,1.6956547E1,7.321298E0,4.461343E0,7.580138E-1,-9.7961056E-1,2.5223274E0,4.7547743E-1,2.975478E0,1.0745669E1],"categories":[],"categories_nodes":[],"categories_segments":[],"categories_sizes":[],"default_left":[0,0,0,0,0,0,0,0,0,0,0,0,0,0,0,0,0,0,0,0,0,0,0,0,0,0,0,0,0,0,0,0,0,0,0,0,0,0,0,0,0,0,0,0,0,0,0,0,0,0,0,0,0,0,0,0,0,0,0,0,0,0,0,0,0,0,0,0,0,0,0,0,0,0,0,0,0,0,0,0,0,0,0,0,0,0,0,0,0,0,0,0,0,0,0,0,0,0,0,0,0,0,0,0,0,0,0,0,0,0,0,0,0,0,0],"id":1,"left_children":[1,3,5,7,9,11,13,15,17,19,21,23,25,27,29,31,33,35,37,39,41,43,45,47,49,51,53,55,57,59,61,63,-1,-1,65,67,69,71,73,75,77,79,81,83,85,87,89,91,-1,93,95,97,99,-1,101,103,105,107,109,-1,-1,111,113,-1,-1,-1,-1,-1,-1,-1,-1,-1,-1,-1,-1,-1,-1,-1,-1,-1,-1,-1,-1,-1,-1,-1,-1,-1,-1,-1,-1,-1,-1,-1,-1,-1,-1,-1,-1,-1,-1,-1,-1,-1,-1,-1,-1,-1,-1,-1,-1,-1,-1,-1,-1],"loss_changes":[8.826099E4,1.299315E4,2.535045E4,3.0475195E3,2.25963E3,9.593195E3,2.482461E3,8.0274414E2,9.539287E2,3.852554E3,2.1352656E3,5.610422E3,2.8164443E3,2.1412559E3,2.454795E3,7.232637E2,1.1586385E3,9.670398E2,5.394512E2,8.6555273E2,8.6923096E2,3.178064E3,6.2572217E2,1.0941678E3,5.6949336E3,7.605497E2,6.805952E2,2.9285664E3,8.4078125E2,1.2947012E3,8.04292E2,5.6583594E2,0E0,0E0,6.4829926E1,8.496648E2,2.3025396E3,7.429773E2,4.853711E2,2.6444165E2,4.340492E2,7.386294E2,1.8555865E2,8.223949E2,3.8174536E2,5.6398438E1,5.995005E2,1.1209004E3,0E0,4.748883E3,9.906714E2,4.2155328E2,6.768493E2,0E0,2.3739124E2,1.5685678E2,1.7699551E3,3.4552148E2,3.336633E1,0E0,0E0,1.555278E1,4.789375E2,0E0,0E0,0E0,0E0,0E0,0E0,0E0,0E0,0E0,0E0,0E0,0E0,0E0,0E0,0E0,0E0,0E0,0E0,0E0,0E0,0E0,0E0,0E0,0E0,0E0,0E0,0E0,0E0,0E0,0E0,0E0,0E0,0E0,0E0,0E0,0E0,0E0,0E0,0E0,0E0,0E0,0E0,0E0,0E0,0E0,0E0,0E0,0E0,0E0,0E0,0E0,0E0],"parents":[2147483647,0,0,1,1,2,2,3,3,4,4,5,5,6,6,7,7,8,8,9,9,10,10,11,11,12,12,13,13,14,14,15,15,16,16,17,17,18,18,19,19,20,20,21,21,22,22,23,23,24,24,25,25,26,26,27,27,28,28,29,29,30,30,31,31,34,34,35,35,36,36,37,37,38,38,39,39,40,40,41,41,42,42,43,43,44,44,45,45,46,46,47,47,49,49,50,50,51,51,52,52,54,54,55,55,56,56,57,57,58,58,61,61,62,62],"right_children":[2,4,6,8,10,12,14,16,18,20,22,24,26,28,30,32,34,36,38,40,42,44,46,48,50,52,54,56,58,60,62,64,-1,-1,66,68,70,72,74,76,78,80,82,84,86,88,90,92,-1,94,96,98,100,-1,102,104,106,108,110,-1,-1,112,114,-1,-1,-1,-1,-1,-1,-1,-1,-1,-1,-1,-1,-1,-1,-1,-1,-1,-1,-1,-1,-1,-1,-1,-1,-1,-1,-1,-1,-1,-1,-1,-1,-1,-1,-1,-1,-1,-1,-1,-1,-1,-1,-1,-1,-1,-1,-1,-1,-1,-1,-1,-1],"split_conditions":[3.8E1,2.3E1,7.1E1,1.5E1,1.9251488E2,2.4257903E2,9.4E1,1.7587084E1,2.198889E2,6.0356705E1,3E-1,9.520146E1,1.7272501E1,3.4E1,1.6266637E2,4.1947342E1,1.787875E1,8.1785255E1,1E-1,3.2E1,1.08E1,3.1878458E2,8E0,1.7057917E1,1.9000002E0,1.7026896E1,1.4186923E1,1.25752785E2,2.6801828E2,8.8E1,4.7454166E0,8E0,2.9903064E0,6.41539E0,2.7534704E1,1.8162085E1,2.1016667E0,3.0940726E2,3.4651752E1,1.8676664E1,3.6E1,2.1049582E1,3.3E1,2.4031413E2,1.2432916E1,3.3E1,1.224E1,4.3E1,5.296524E0,5.5E1,1.9251488E2,2.8E1,3.5E1,6.473386E0,1.5463244E1,5.8E1,7.8E1,2.4502487E1,8.5E1,1.715347E1,4.975478E0,6.2E1,2.1416678E2,-4.1953077E0,-2.89276E0,-1.9861206E0,3.206377E-1,-2.565143E0,2.7988496E0,1.7969046E0,-1.3231055E0,-5.9352076E-1,-2.6206276E0,-2.6363502E0,-1.0520413E0,-3.242787E0,2.2231027E-1,2.0325549E0,-2.4063835E0,1.0345598E0,3.5972195E0,-2.164898E0,7.379608E-1,2.5064259E0,5.2781487E-1,-3.3661232E0,-8.689315E-1,5.730403E-1,4.0784707E0,1.2742721E0,-1.4129318E0,-2.1241205E0,1.1102517E0,4.219788E0,8.154688E0,3.0347152E0,9.09058E-1,3.5107124E0,6.2975717E-1,-1.6240828E0,1.1516141E-1,-1.290988E0,2.656611E0,-2.5108874E-1,3.393205E0,7.5452895E0,1.6956547E1,7.321298E0,4.461343E0,7.580138E-1,-9.7961056E-1,2.5223274E0,4.7547743E-1,2.975478E0,1.0745669E1],"split_indices":[0,0,0,0,6,6,0,3,6,6,4,6,3,2,6,5,3,6,4,0,4,6,2,3,4,5,5,6,6,2,3,0,0,0,5,3,3,6,5,3,1,3,0,6,3,0,5,0,0,0,6,1,1,0,5,1,0,5,0,0,0,1,6,0,0,0,0,0,0,0,0,0,0,0,0,0,0,0,0,0,0,0,0,0,0,0,0,0,0,0,0,0,0,0,0,0,0,0,0,0,0,0,0,0,0,0,0,0,0,0,0,0,0,0,0],"split_type":[0,0,0,0,0,0,0,0,0,0,0,0,0,0,0,0,0,0,0,0,0,0,0,0,0,0,0,0,0,0,0,0,0,0,0,0,0,0,0,0,0,0,0,0,0,0,0,0,0,0,0,0,0,0,0,0,0,0,0,0,0,0,0,0,0,0,0,0,0,0,0,0,0,0,0,0,0,0,0,0,0,0,0,0,0,0,0,0,0,0,0,0,0,0,0,0,0,0,0,0,0,0,0,0,0,0,0,0,0,0,0,0,0,0,0],"sum_hessian":[1.752E3,1.28E3,4.72E2,6.98E2,5.82E2,4.05E2,6.7E1,2.44E2,4.54E2,2.27E2,3.55E2,2.78E2,1.27E2,4.8E1,1.9E1,2.36E2,8E0,2.25E2,2.29E2,3.6E1,1.91E2,1.32E2,2.23E2,4.6E1,2.32E2,1.12E2,1.5E1,1.5E1,3.3E1,1E1,9E0,2.35E2,1E0,1E0,7E0,5.5E1,1.7E2,6.9E1,1.6E2,2.9E1,7E0,1.81E2,1E1,1.05E2,2.7E1,2E0,2.21E2,4.3E1,3E0,1.49E2,8.3E1,2.7E1,8.5E1,6E0,9E0,3E0,1.2E1,3.1E1,2E0,8E0,2E0,3E0,6E0,4.3E1,1.92E2,6E0,1E0,5.3E1,2E0,2.4E1,1.46E2,4.3E1,2.6E1,1.38E2,2.2E1,2.7E1,2E0,5E0,2E0,1.71E2,1E1,8E0,2E0,2.4E1,8.1E1,1.8E1,9E0,1E0,1E0,7E0,2.14E2,1.3E1,3E1,1.1E2,3.9E1,4.8E1,3.5E1,5E0,2.2E1,3.1E1,5.4E1,1E0,8E0,2E0,1E0,7E0,5E0,1.6E1,1.5E1,1E0,1E0,2E0,1E0,2E0,4E0],"tree_param":{"num_deleted":"0","num_feature":"7","num_nodes":"115","size_leaf_vector":"1"}},{"base_weights":[9.013133E-2,-1.6718891E0,1.5216054E1,-4.3729753E0,2.369532E0,1.1837266E1,2.5941475E1,-6.7491846E0,-3.241156E0,4.8799744E0,2.6817623E-1,1.6200201E1,7.180571E0,3.7131058E1,1.9259228E1,-7.7539005E0,-4.360609E0,-2.9105647E0,-8.261027E0,1.093785E0,8.188834E0,2.5836616E0,-1.2398343E0,2.0248692E1,9.499035E0,1.0046206E1,-4.85828E-1,4.478831E1,2.198158E1,1.6045061E1,1.060095E1,-1.0191699E1,-6.6066313E0,-5.0164957E0,5.8765163E0,-2.9934087E0,4.3885326E0,-8.953724E0,-1.7599407E0,-5.1107965E0,2.7651782E0,1.068094E1,2.3410864E0,7.7704587E0,7.0932156E-1,-1.5688293E0,6.2454796E0,8.430442E0,2.3476694E1,1.9638199E1,5.3802924E0,-6.600064E-1,1.1488368E1,-3.9382925E0,1.0659224E1,1.4895752E1,5.5527267E0,1.4921951E0,7.196155E0,1.7434471E1,-4.185721E-1,-3.206896E0,1.1485729E0,-1.3501681E0,-2.4269629E0,-2.6023173E0,-1.1385355E0,5.453081E0,-6.5686576E-2,-5.1455706E-1,-1.2039409E0,-3.8553522E0,-2.1968865E0,-1.3215623E0,8.0337527E-4,7.5698566E-1,-1.9299543E0,7.9568975E-2,1.6829444E0,1.7838851E0,4.418948E0,1.1260561E0,-1.2118742E0,-3.0632594E0,2.738551E0,5.257426E-1,-2.1520326E0,2.0090279E-1,-7.5784034E-1,-2.1595898E0,2.647747E0,3.7183244E0,-4.815338E-1,7.890131E0,3.303593E0,6.2863865E0,1.5634881E0,3.725993E0,-8.36544E-1,1.0945147E0,-1.4410181E0,3.9555376E0,1.1814521E-1,-2.0231106E0,5.584022E-1,4.466949E0,-9.394799E-1,5.5137243E0,-6.437239E-1,6.4431155E-1,-8.32669E-1],"categories":[],"categories_nodes":[],"categories_segments":[],"categories_sizes":[],"default_left":[0,0,0,0,0,0,0,0,0,0,0,0,0,0,0,0,0,0,0,0,0,0,0,0,0,0,0,0,0,0,0,0,0,0,0,0,0,0,0,0,0,0,0,0,0,0,0,0,0,0,0,0,0,0,0,0,0,0,0,0,0,0,0,0,0,0,0,0,0,0,0,0,0,0,0,0,0,0,0,0,0,0,0,0,0,0,0,0,0,0,0,0,0,0,0,0,0,0,0,0,0,0,0,0,0,0,0,0,0,0,0],"id":2,"left_children":[1,3,5,7,9,11,13,15,17,19,21,23,25,27,29,31,33,35,37,39,41,43,45,47,49,51,53,55,57,59,-1,61,63,65,67,69,-1,71,73,75,77,79,81,83,85,87,89,91,93,95,97,99,101,103,105,-1,-1,-1,-1,107,109,-1,-1,-1,-1,-1,-1,-1,-1,-1,-1,-1,-1,-1,-1,-1,-1,-1,-1,-1,-1,-1,-1,-1,-1,-1,-1,-1,-1,-1,-1,-1,-1,-1,-1,-1,-1,-1,-1,-1,-1,-1,-1,-1,-1,-1,-1,-1,-1,-1,-1],"loss_changes":[4.674672E4,1.7159756E4,6.3246484E3,2.5115781E3,3.3221504E3,2.7483496E3,2.5000605E3,6.9333887E2,1.0380527E3,3.5865708E3,1.2043744E3,1.7609902E3,1.5427185E3,7.555332E2,9.315996E2,5.255918E2,6.4720386E2,9.184966E2,1.5987012E2,1.4141222E3,2.2046953E3,1.316656E3,5.244879E2,1.4806504E3,1.1053984E3,7.9502686E2,8.1153705E2,2.3142383E2,1.1946118E2,6.0204004E2,0E0,5.0170312E2,4.2279297E2,3.5576685E2,4.5384106E2,7.7517773E2,0E0,1.2834595E2,2.3324783E1,3.089933E2,7.594366E2,1.9636104E3,4.3873932E2,9.723093E2,8.4308746E2,4.3242105E2,3.7574765E2,4.5748157E2,9.07084E2,4.2723633E1,1.2997556E3,1.4248387E2,8.419209E2,2.7287787E2,3.3834668E2,0E0,0E0,0E0,0E0,4.8333203E2,2.4107168E1,0E0,0E0,0E0,0E0,0E0,0E0,0E0,0E0,0E0,0E0,0E0,0E0,0E0,0E0,0E0,0E0,0E0,0E0,0E0,0E0,0E0,0E0,0E0,0E0,0E0,0E0,0E0,0E0,0E0,0E0,0E0,0E0,0E0,0E0,0E0,0E0,0E0,0E0,0E0,0E0,0E0,0E0,0E0,0E0,0E0,0E0,0E0,0E0,0E0,0E0],"parents":[2147483647,0,0,1,1,2,2,3,3,4,4,5,5,6,6,7,7,8,8,9,9,10,10,11,11,12,12,13,13,14,14,15,15,16,16,17,17,18,18,19,19,20,20,21,21,22,22,23,23,24,24,25,25,26,26,27,27,28,28,29,29,31,31,32,32,33,33,34,34,35,35,37,37,38,38,39,39,40,40,41,41,42,42,43,43,44,44,45,45,46,46,47,47,48,48,49,49,50,50,51,51,52,52,53,53,54,54,59,59,60,60],"right_children":[2,4,6,8,10,12,14,16,18,20,22,24,26,28,30,32,34,36,38,40,42,44,46,48,50,52,54,56,58,60,-1,62,64,66,68,70,-1,72,74,76,78,80,82,84,86,88,90,92,94,96,98,100,102,104,106,-1,-1,-1,-1,108,110,-1,-1,-1,-1,-1,-1,-1,-1,-1,-1,-1,-1,-1,-1,-1,-1,-1,-1,-1,-1,-1,-1,-1,-1,-1,-1,-1,-1,-1,-1,-1,-1,-1,-1,-1,-1,-1,-1,-1,-1,-1,-1,-1,-1,-1,-1,-1,-1,-1,-1],"split_conditions":[5.4E1,2.8E1,8E1,1.6E1,1.9251488E2,4.1E1,1.8486622E1,2.4216522E1,3.2185535E2,1.3225272E2,2E-1,8E-1,2.4188803E2,8.8E1,4.6E0,1E1,1.7587084E1,1.01E2,2.6E1,5.2922615E1,2.4E0,2.562082E2,1.8676664E1,1.0604003E2,1.623596E1,1.1792404E1,1.7272501E1,2.198889E2,9.4E1,2.9431927E2,1.060095E1,1.6566248E1,1.0226667E1,9.780008E1,1.2E1,1.0097501E1,4.3885326E0,8.0375E-1,1.8E1,-6.087499E-1,1E-1,3.9E1,1.6020416E1,2E1,3.350033E2,2.5E1,3E1,5.6E1,1.803708E1,2.6027496E2,1.8976056E2,1.1939262E2,8.5E1,2.8387545E1,6.2E1,1.4895752E1,5.5527267E0,1.4921951E0,7.196155E0,4.2E0,8.5E1,-3.206896E0,1.1485729E0,-1.3501681E0,-2.4269629E0,-2.6023173E0,-1.1385355E0,5.453081E0,-6.5686576E-2,-5.1455706E-1,-1.2039409E0,-3.8553522E0,-2.1968865E0,-1.3215623E0,8.0337527E-4,7.5698566E-1,-1.9299543E0,7.9568975E-2,1.6829444E0,1.7838851E0,4.418948E0,1.1260561E0,-1.2118742E0,-3.0632594E0,2.738551E0,5.257426E-1,-2.1520326E0,2.0090279E-1,-7.5784034E-1,-2.1595898E0,2.647747E0,3.7183244E0,-4.815338E-1,7.890131E0,3.303593E0,6.2863865E0,1.5634881E0,3.725993E0,-8.36544E-1,1.0945147E0,-1.4410181E0,3.9555376E0,1.1814521E-1,-2.0231106E0,5.584022E-1,4.466949E0,-9.394799E-1,5.5137243E0,-6.437239E-1,6.4431155E-1,-8.32669E-1],"split_indices":[0,0,0,0,6,2,5,5,6,6,4,4,6,1,4,0,3,2,0,6,4,6,3,6,5,5,3,6,1,6,0,3,3,6,0,3,0,3,1,3,4,0,3,1,6,1,0,1,3,6,6,6,1,5,0,0,0,0,0,4,0,0,0,0,0,0,0,0,0,0,0,0,0,0,0,0,0,0,0,0,0,0,0,0,0,0,0,0,0,0,0,0,0,0,0,0,0,0,0,0,0,0,0,0,0,0,0,0,0,0,0],"split_type":[0,0,0,0,0,0,0,0,0,0,0,0,0,0,0,0,0,0,0,0,0,0,0,0,0,0,0,0,0,0,0,0,0,0,0,0,0,0,0,0,0,0,0,0,0,0,0,0,0,0,0,0,0,0,0,0,0,0,0,0,0,0,0,0,0,0,0,0,0,0,0,0,0,0,0,0,0,0,0,0,0,0,0,0,0,0,0,0,0,0,0,0,0,0,0,0,0,0,0,0,0,0,0,0,0,0,0,0,0,0,0],"sum_hessian":[1.752E3,1.57E3,1.82E2,9.41E2,6.29E2,1.4E2,4.2E1,3.02E2,6.39E2,2.86E2,3.43E2,7.1E1,6.9E1,1.4E1,2.8E1,2.11E2,9.1E1,6.01E2,3.8E1,1.34E2,1.52E2,1.35E2,2.08E2,4.3E1,2.8E1,5E1,1.9E1,8E0,6E0,2.5E1,3E0,6.5E1,1.46E2,8.6E1,5E0,5.99E2,2E0,3.4E1,4E0,2.8E1,1.06E2,1.06E2,4.6E1,3.5E1,1E2,2E2,8E0,1E1,3.3E1,7E0,2.1E1,6E0,4.4E1,1.5E1,4E0,6E0,2E0,1E0,5E0,2.3E1,2E0,6.3E1,2E0,6.2E1,8.4E1,2E1,6.6E1,1E0,4E0,2.67E2,3.32E2,8E0,2.6E1,1E0,3E0,4E0,2.4E1,5.7E1,4.9E1,5E1,5.6E1,3.8E1,8E0,2E0,3.3E1,8.9E1,1.1E1,6E1,1.4E2,1E0,7E0,7E0,3E0,2.6E1,7E0,6E0,1E0,1.1E1,1E1,3E0,3E0,3.8E1,6E0,1E1,5E0,3E0,1E0,2.2E1,1E0,1E0,1E0],"tree_param":{"num_deleted":"0","num_feature":"7","num_nodes":"111","size_leaf_vector":"1"}},{"base_weights":[1.0369325E-1,-1.6414449E0,8.200577E0,-3.180156E0,9.072339E-1,6.413091E0,1.9192041E1,-4.1495776E0,-1.8607289E0,5.6123894E-1,9.944241E0,9.051855E0,3.1107037E0,2.7934195E1,1.4008444E1,-6.339683E0,-3.4069984E0,-1.2439197E-1,-2.9658136E0,-9.311196E-1,1.7831342E0,-4.2722192E-1,1.1120359E1,-2.9711373E0,1.0222958E1,5.545926E-1,6.4918013E0,3.362387E1,1.66283E1,2.891169E1,1.117685E1,-9.2929745E-1,-6.7344284E0,-1.48827E0,-4.9854393E0,9.462719E-1,-5.0369077E0,-2.6042726E0,-2.4212084E0,-7.6370225E0,-5.70934E-1,4.9661937E0,4.9822086E-1,4.3644562E-1,-6.286955E-1,1.2847805E0,1.2202405E1,2.719112E-1,-2.2021563E0,3.5760393E0,1.1544225E1,9.088743E0,-1.3677962E0,1.0594809E1,1.9813011E0,2.9566362E0,1.0608898E1,2.36411E0,6.365748E0,9.831193E0,2.6002243E0,1.2462961E1,9.875035E-1,-1.0439135E0,1.8544717E0,-2.1712983E0,-4.680777E-1,4.539521E-1,-1.1937861E0,-1.694743E0,-3.1644806E-1,3.618722E-2,3.4448442E0,-1.0181916E0,-2.55439E0,-4.471011E-1,-1.2870166E0,-1.0773615E0,-3.0041592E0,-2.5740522E-1,2.5599747E0,9.4667375E-1,4.341876E0,1.1563537E0,-1.1384056E-1,5.0064464E0,2.7162356E0,-2.1216035E0,1.5367624E0,-1.0143785E0,3.2445338E0,3.6194592E0,-1.6978167E0,3.4900925E0,-9.8163956E-1,6.73839E-1,-1.3763595E0,5.04921E0,1.7809788E0,1.6603869E0,-1.2772428E0,7.1237326E-1,4.157247E0,-7.0776874E-1,8.668473E-1],"categories":[],"categories_nodes":[],"categories_segments":[],"categories_sizes":[],"default_left":[0,0,0,0,0,0,0,0,0,0,0,0,0,0,0,0,0,0,0,0,0,0,0,0,0,0,0,0,0,0,0,0,0,0,0,0,0,0,0,0,0,0,0,0,0,0,0,0,0,0,0,0,0,0,0,0,0,0,0,0,0,0,0,0,0,0,0,0,0,0,0,0,0,0,0,0,0,0,0,0,0,0,0,0,0,0,0,0,0,0,0,0,0,0,0,0,0,0,0,0,0,0,0,0,0],"id":3,"left_children":[1,3,5,7,9,11,13,15,17,19,21,23,25,27,29,31,33,35,37,39,41,43,45,47,49,51,53,55,57,59,61,63,65,67,69,71,73,75,-1,77,79,81,83,-1,-1,-1,85,87,-1,89,91,93,95,97,99,-1,-1,-1,-1,-1,-1,101,103,-1,-1,-1,-1,-1,-1,-1,-1,-1,-1,-1,-1,-1,-1,-1,-1,-1,-1,-1,-1,-1,-1,-1,-1,-1,-1,-1,-1,-1,-1,-1,-1,-1,-1,-1,-1,-1,-1,-1,-1,-1,-1],"loss_changes":[2.4783666E4,5.661869E3,5.987162E3,1.1434521E3,1.6953757E3,2.3159678E3,1.5572646E3,8.208379E2,7.345314E2,9.5900085E2,2.4871228E2,2.1283184E3,1.0421373E3,4.057959E2,9.0065625E2,2.7138525E2,1.1707056E3,7.937143E2,4.1085742E2,5.680824E2,1.1795227E3,1.246895E1,8.091992E1,2.003777E2,1.1531162E3,1.1608484E3,9.413528E2,2.3506836E1,1.1390881E2,2.8450195E1,3.284131E2,2.0286668E2,3.0376904E2,1.329388E3,5.49708E2,1.0773496E3,1.2537091E2,4.0673413E2,0E0,7.943335E1,5.980088E2,1.38301E3,6.112394E2,0E0,0E0,0E0,6.073999E1,3.5683047E2,0E0,1.2453145E3,1.0804053E3,4.470099E2,6.852561E2,6.8438135E2,5.9994147E2,0E0,0E0,0E0,0E0,0E0,0E0,2.9067065E2,3.227874E1,0E0,0E0,0E0,0E0,0E0,0E0,0E0,0E0,0E0,0E0,0E0,0E0,0E0,0E0,0E0,0E0,0E0,0E0,0E0,0E0,0E0,0E0,0E0,0E0,0E0,0E0,0E0,0E0,0E0,0E0,0E0,0E0,0E0,0E0,0E0,0E0,0E0,0E0,0E0,0E0,0E0,0E0],"parents":[2147483647,0,0,1,1,2,2,3,3,4,4,5,5,6,6,7,7,8,8,9,9,10,10,11,11,12,12,13,13,14,14,15,15,16,16,17,17,18,18,19,19,20,20,21,21,22,22,23,23,24,24,25,25,26,26,27,27,28,28,29,29,30,30,31,31,32,32,33,33,34,34,35,35,36,36,37,37,39,39,40,40,41,41,42,42,46,46,47,47,49,49,50,50,51,51,52,52,53,53,54,54,61,61,62,62],"right_children":[2,4,6,8,10,12,14,16,18,20,22,24,26,28,30,32,34,36,38,40,42,44,46,48,50,52,54,56,58,60,62,64,66,68,70,72,74,76,-1,78,80,82,84,-1,-1,-1,86,88,-1,90,92,94,96,98,100,-1,-1,-1,-1,-1,-1,102,104,-1,-1,-1,-1,-1,-1,-1,-1,-1,-1,-1,-1,-1,-1,-1,-1,-1,-1,-1,-1,-1,-1,-1,-1,-1,-1,-1,-1,-1,-1,-1,-1,-1,-1,-1,-1,-1,-1,-1,-1,-1,-1],"split_conditions":[4.6E1,2.7E1,8E1,2E1,2.1282915E1,1.9251488E2,1.8486622E1,1.0948456E2,3E-1,3.3E1,2.1E1,5.2922615E1,5.6E1,8.8E1,8.2E1,1.1966953E1,1.1376667E1,3.1153006E2,1.29E1,6.0356705E1,4.8058333E0,3E1,3E1,5.4E1,4.9E1,4.7E1,4.7E1,8.3E1,5.101667E0,6.3E1,2.907475E2,1.6E1,1.5697499E1,2.230884E2,1.7487082E1,2E-1,3.390431E2,2.4491495E2,-2.4212084E0,2.7891665E0,5.9E1,4.21E0,2.5E1,4.3644562E-1,-6.286955E-1,1.2847805E0,2.1E1,2.5E1,-2.2021563E0,1.588752E2,3.324888E1,4.7E1,6.8495827E0,3E-1,2.8270856E2,2.9566362E0,1.0608898E1,2.36411E0,6.365748E0,9.831193E0,2.6002243E0,3.1E1,6.2E1,-1.0439135E0,1.8544717E0,-2.1712983E0,-4.680777E-1,4.539521E-1,-1.1937861E0,-1.694743E0,-3.1644806E-1,3.618722E-2,3.4448442E0,-1.0181916E0,-2.55439E0,-4.471011E-1,-1.2870166E0,-1.0773615E0,-3.0041592E0,-2.5740522E-1,2.5599747E0,9.4667375E-1,4.341876E0,1.1563537E0,-1.1384056E-1,5.0064464E0,2.7162356E0,-2.1216035E0,1.5367624E0,-1.0143785E0,3.2445338E0,3.6194592E0,-1.6978167E0,3.4900925E0,-9.8163956E-1,6.73839E-1,-1.3763595E0,5.04921E0,1.7809788E0,1.6603869E0,-1.2772428E0,7.1237326E-1,4.157247E0,-7.0776874E-1,8.668473E-1],"split_indices":[0,0,0,0,3,6,5,6,4,0,1,6,0,1,0,5,3,6,4,6,3,0,0,1,0,0,2,0,3,1,6,0,3,6,3,4,6,6,0,3,2,3,1,0,0,0,2,2,0,6,5,1,3,4,6,0,0,0,0,0,0,2,2,0,0,0,0,0,0,0,0,0,0,0,0,0,0,0,0,0,0,0,0,0,0,0,0,0,0,0,0,0,0,0,0,0,0,0,0,0,0,0,0,0,0],"split_type":[0,0,0,0,0,0,0,0,0,0,0,0,0,0,0,0,0,0,0,0,0,0,0,0,0,0,0,0,0,0,0,0,0,0,0,0,0,0,0,0,0,0,0,0,0,0,0,0,0,0,0,0,0,0,0,0,0,0,0,0,0,0,0,0,0,0,0,0,0,0,0,0,0,0,0,0,0,0,0,0,0,0,0,0,0,0,0,0,0,0,0,0,0,0,0,0,0,0,0,0,0,0,0,0,0],"sum_hessian":[1.752E3,1.442E3,3.1E2,8.99E2,5.43E2,2.68E2,4.2E1,5.17E2,3.82E2,5.24E2,1.9E1,1.48E2,1.2E2,1.4E1,2.8E1,1.29E2,3.88E2,1.49E2,2.33E2,2.36E2,2.88E2,2E0,1.7E1,1.3E1,1.35E2,6.9E1,5.1E1,8E0,6E0,3E0,2.5E1,9E0,1.2E2,1.76E2,2.12E2,1.23E2,2.6E1,2.19E2,1.4E1,1.1E1,2.25E2,8.2E1,2.06E2,1E0,1E0,3E0,1.4E1,8E0,5E0,2.3E1,1.12E2,1.2E1,5.7E1,2.6E1,2.5E1,1E0,7E0,3E0,3E0,2E0,1E0,2.2E1,3E0,7E0,2E0,1.09E2,1.1E1,8E1,9.6E1,1.81E2,3.1E1,1.15E2,8E0,1.9E1,7E0,1.33E2,8.6E1,5E0,6E0,2.19E2,6E0,7E1,1.2E1,4.2E1,1.64E2,4E0,1E1,3E0,5E0,1.2E1,1.1E1,1.09E2,3E0,1E1,2E0,2.7E1,3E1,1E1,1.6E1,1.6E1,9E0,3E0,1.9E1,1E0,2E0],"tree_param":{"num_deleted":"0","num_feature":"7","num_nodes":"105","size_leaf_vector":"1"}},{"base_weights":[1.0377737E-1,-8.252165E-1,8.078343E0,-1.8421627E0,1.9124494E0,6.10568E0,1.4358975E1,-2.9135458E0,-9.569186E-1,3.2463305E0,-6.9490904E-1,6.790772E0,-4.696863E0,2.1040295E1,1.0407984E1,-4.764478E0,-2.4200804E0,-1.2766023E0,1.9354236E0,4.539149E0,-1.7812941E-2,-1.1449622E0,8.341135E0,7.543628E0,-3.2237253E0,-1.9781848E0,-2.8424478E0,1.4550723E1,8.50486E0,8.273496E0,7.844714E0,1.9965199E0,-4.9334E0,-1.0217279E0,-3.4945776E0,-4.8986897E0,-8.93588E-1,5.5284534E0,7.960181E-1,2.0276227E0,7.291171E0,1.5473937E0,-3.388342E0,-2.435986E0,2.000314E0,3.1458886E0,1.2332073E0,1.0385288E1,4.130959E0,-2.946628E-1,-6.0938554E0,-1.1743984E0,5.726013E-1,5.301528E0,2.3686013E0,1.2470978E1,4.084112E0,-1.6989751E0,-6.5200984E-1,-4.04744E-1,5.623707E0,-1.3369174E0,-5.947528E-1,-5.095474E-1,-2.8428962E0,7.942421E-1,-4.4012803E-1,-4.3225482E-1,2.4581194E0,-3.2834986E-1,7.531486E-1,9.7331785E-2,2.470152E0,3.5949893E0,1.2828523E0,-1.892398E0,7.8486E-1,-3.1106176E0,-2.3273726E-1,-9.5379347E-1,1.6051573E0,1.5522747E0,-7.028181E-1,3.9564025E-1,3.6427968E0,2.4834242E0,5.19126E-1,-8.691042E-1,5.192299E-1,-2.199505E0,-1.7138158E-1,4.2481933E0,-1.1707524E0,1.462249E0,-1.0464902E0],"categories":[],"categories_nodes":[],"categories_segments":[],"categories_sizes":[],"default_left":[0,0,0,0,0,0,0,0,0,0,0,0,0,0,0,0,0,0,0,0,0,0,0,0,0,0,0,0,0,0,0,0,0,0,0,0,0,0,0,0,0,0,0,0,0,0,0,0,0,0,0,0,0,0,0,0,0,0,0,0,0,0,0,0,0,0,0,0,0,0,0,0,0,0,0,0,0,0,0,0,0,0,0,0,0,0,0,0,0,0,0,0,0,0,0],"id":4,"left_children":[1,3,5,7,9,11,13,15,17,19,21,23,25,27,29,31,33,35,37,39,41,43,45,47,49,51,-1,53,-1,55,-1,-1,57,59,61,63,65,67,69,71,73,75,77,79,81,-1,-1,83,85,87,89,-1,-1,-1,-1,91,93,-1,-1,-1,-1,-1,-1,-1,-1,-1,-1,-1,-1,-1,-1,-1,-1,-1,-1,-1,-1,-1,-1,-1,-1,-1,-1,-1,-1,-1,-1,-1,-1,-1,-1,-1,-1,-1,-1],"loss_changes":[1.2993457E4,4.37728E3,2.179621E3,1.0841196E3,1.4838438E3,1.0753989E3,9.1611914E2,4.615957E2,5.8406586E2,1.1901057E3,5.9922186E2,1.0270688E3,9.8164734E1,2.9900146E2,7.5803E2,2.411648E2,6.139675E2,7.822282E2,2.5351607E2,1.381395E3,4.3256464E2,5.6929987E2,2.0418945E1,1.1596074E3,8.227227E1,6.0159443E1,0E0,6.819238E1,0E0,4.2385828E2,0E0,0E0,2.0323364E2,1.1902905E3,3.2856934E2,7.749679E2,1.0477244E3,2.9043283E2,1.6156891E2,1.1283534E3,1.3068452E3,4.8667258E2,4.6610788E2,5.900141E2,5.772875E2,0E0,0E0,1.0515073E3,5.6308435E2,3.663932E1,2.9991653E1,0E0,0E0,0E0,0E0,4.1491638E2,1.0674141E2,0E0,0E0,0E0,0E0,0E0,0E0,0E0,0E0,0E0,0E0,0E0,0E0,0E0,0E0,0E0,0E0,0E0,0E0,0E0,0E0,0E0,0E0,0E0,0E0,0E0,0E0,0E0,0E0,0E0,0E0,0E0,0E0,0E0,0E0,0E0,0E0,0E0,0E0],"parents":[2147483647,0,0,1,1,2,2,3,3,4,4,5,5,6,6,7,7,8,8,9,9,10,10,11,11,12,12,13,13,14,14,15,15,16,16,17,17,18,18,19,19,20,20,21,21,22,22,23,23,24,24,25,25,27,27,29,29,32,32,33,33,34,34,35,35,36,36,37,37,38,38,39,39,40,40,41,41,42,42,43,43,44,44,47,47,48,48,49,49,50,50,55,55,56,56],"right_children":[2,4,6,8,10,12,14,16,18,20,22,24,26,28,30,32,34,36,38,40,42,44,46,48,50,52,-1,54,-1,56,-1,-1,58,60,62,64,66,68,70,72,74,76,78,80,82,-1,-1,84,86,88,90,-1,-1,-1,-1,92,94,-1,-1,-1,-1,-1,-1,-1,-1,-1,-1,-1,-1,-1,-1,-1,-1,-1,-1,-1,-1,-1,-1,-1,-1,-1,-1,-1,-1,-1,-1,-1,-1,-1,-1,-1,-1,-1,-1],"split_conditions":[5.4E1,3.3E1,8E1,2E1,2.4257903E2,8.5E1,1.8486622E1,1.1E1,1.8162085E1,2.3999999E0,4.315986E1,3.1154043E1,1.02E2,1.01E2,4.7999997E0,5E0,1.0226667E1,8.1785255E1,1.1253527E2,1.5301505E2,2.7859905E1,4.2E1,2E-1,8.724584E0,6.3E1,1.5123894E2,-2.8424478E0,7.9E1,8.50486E0,1.6266637E2,7.844714E0,1.9965199E0,2.5992397E1,1.0097501E1,1.5920417E1,1.9083395E1,1.4622801E2,5.7036972E1,1.6831684E1,4.8E1,1.8024564E2,1.8E1,1.6266637E2,1.7370417E1,4.8E1,3.1458886E0,1.2332073E0,9.647267E1,1E-1,5.7E1,6.8E1,-1.1743984E0,5.726013E-1,5.301528E0,2.3686013E0,4.1000004E0,1.17E2,-1.6989751E0,-6.5200984E-1,-4.04744E-1,5.623707E0,-1.3369174E0,-5.947528E-1,-5.095474E-1,-2.8428962E0,7.942421E-1,-4.4012803E-1,-4.3225482E-1,2.4581194E0,-3.2834986E-1,7.531486E-1,9.7331785E-2,2.470152E0,3.5949893E0,1.2828523E0,-1.892398E0,7.8486E-1,-3.1106176E0,-2.3273726E-1,-9.5379347E-1,1.6051573E0,1.5522747E0,-7.028181E-1,3.9564025E-1,3.6427968E0,2.4834242E0,5.19126E-1,-8.691042E-1,5.192299E-1,-2.199505E0,-1.7138158E-1,4.2481933E0,-1.1707524E0,1.462249E0,-1.0464902E0],"split_indices":[0,0,0,0,6,1,5,0,3,4,5,5,1,0,4,1,3,6,6,6,5,2,4,3,0,6,0,1,0,6,0,0,5,3,3,5,6,6,5,2,6,2,6,3,1,0,0,6,4,0,0,0,0,0,0,4,1,0,0,0,0,0,0,0,0,0,0,0,0,0,0,0,0,0,0,0,0,0,0,0,0,0,0,0,0,0,0,0,0,0,0,0,0,0,0],"split_type":[0,0,0,0,0,0,0,0,0,0,0,0,0,0,0,0,0,0,0,0,0,0,0,0,0,0,0,0,0,0,0,0,0,0,0,0,0,0,0,0,0,0,0,0,0,0,0,0,0,0,0,0,0,0,0,0,0,0,0,0,0,0,0,0,0,0,0,0,0,0,0,0,0,0,0,0,0,0,0,0,0,0,0,0,0,0,0,0,0,0,0,0,0,0,0],"sum_hessian":[1.752E3,1.57E3,1.82E2,1.145E3,4.25E2,1.4E2,4.2E1,5.17E2,6.28E2,2.81E2,1.44E2,1.32E2,8E0,1.4E1,2.8E1,1.07E2,4.1E2,5.66E2,6.2E1,2.01E2,8E1,1.38E2,6E0,1.23E2,9E0,6E0,2E0,9E0,5E0,2.6E1,2E0,1E0,1.06E2,1.79E2,2.31E2,5.3E1,5.13E2,1.4E1,4.8E1,1.06E2,9.5E1,5.5E1,2.5E1,9.8E1,4E1,3E0,3E0,6.6E1,5.7E1,5E0,4E0,4E0,2E0,5E0,4E0,1.2E1,1.4E1,8.3E1,2.3E1,1.77E2,2E0,1.4E2,9.1E1,3.2E1,2.1E1,7.1E1,4.42E2,4E0,1E1,2.3E1,2.5E1,8.4E1,2.2E1,3.6E1,5.9E1,6E0,4.9E1,6E0,1.9E1,9E1,8E0,2.3E1,1.7E1,1.1E1,5.5E1,2E1,3.7E1,2E0,3E0,3E0,1E0,1.1E1,1E0,1.3E1,1E0],"tree_param":{"num_deleted":"0","num_feature":"7","num_nodes":"95","size_leaf_vector":"1"}},{"base_weights":[9.5261596E-2,-5.290772E-1,6.230151E0,-1.2874326E0,1.4163464E0,4.57972E0,1.0691118E1,-2.9236426E0,-9.0209216E-1,1.687742E0,-5.547645E0,7.3229284E0,1.8064048E0,7.4358397E0,9.399016E0,-3.6153646E0,1.8993033E0,1.5021361E0,-1.419472E0,2.471821E0,-4.6274668E-1,-1.1497116E-1,-7.210393E0,1.2015893E1,3.380782E0,-5.7330613E0,3.0526085E0,6.763233E0,1.5972676E1,-3.192129E0,-9.164888E0,-1.104818E0,3.6296384E0,-9.8441684E-1,4.031018E0,-2.531077E0,-6.769272E-1,2.234384E0,1.2633769E1,-1.1730637E-1,-1.0105749E1,1.4349049E0,-2.535222E0,-4.0004425E0,-9.390287E0,1.3454824E1,2.993628E0,5.105202E0,-5.5173798E0,-3.9076853E-1,-8.33908E0,7.264587E0,4.8519135E-1,8.389529E0,-1.1142186E-2,2.4139519E0,1.871751E1,-7.9125965E-1,-2.171764E0,-5.109755E-1,-3.6875765E0,1.1811192E0,-1.0462971E0,-8.267563E-1,1.5271384E0,3.0884495E0,-4.5877907E-1,5.6926193E0,8.442511E-1,4.7551242E-1,-8.708762E-1,-2.404626E-1,2.2505805E0,-6.272935E-1,7.571945E-1,8.080831E-2,6.551921E0,-2.0663476E-1,3.0566447E0,-6.811495E-1,-3.5882E0,-9.605877E-1,-8.0251694E-2,-1.3904969E0,-4.828152E-1,-3.410606E0,-1.5192953E0,1.4578534E0,4.8607836E0,-9.855709E-2,1.1718891E0,-1.7650619E0,1.9798273E0,-3.322715E0,1.1198586E0,-5.192213E-1,5.443709E-1,-3.3349059E0,-5.569069E-1,3.2281039E0,-8.0567235E-1,-4.575788E-1,1.8717779E0,2.8092208E0,-5.635369E-1,1.1488751E0,-6.940048E-1,1.1603749E0,-7.409649E-2,1.2145821E0,6.0135145E0],"categories":[],"categories_nodes":[],"categories_segments":[],"categories_sizes":[],"default_left":[0,0,0,0,0,0,0,0,0,0,0,0,0,0,0,0,0,0,0,0,0,0,0,0,0,0,0,0,0,0,0,0,0,0,0,0,0,0,0,0,0,0,0,0,0,0,0,0,0,0,0,0,0,0,0,0,0,0,0,0,0,0,0,0,0,0,0,0,0,0,0,0,0,0,0,0,0,0,0,0,0,0,0,0,0,0,0,0,0,0,0,0,0,0,0,0,0,0,0,0,0,0,0,0,0,0,0,0,0,0,0],"id":5,"left_children":[1,3,5,7,9,11,13,15,17,19,21,23,25,-1,27,29,31,33,35,37,39,41,43,45,47,49,51,53,55,57,59,61,63,65,67,69,71,73,75,77,79,-1,81,83,85,87,89,91,93,95,97,99,101,103,105,107,109,-1,-1,-1,-1,-1,-1,-1,-1,-1,-1,-1,-1,-1,-1,-1,-1,-1,-1,-1,-1,-1,-1,-1,-1,-1,-1,-1,-1,-1,-1,-1,-1,-1,-1,-1,-1,-1,-1,-1,-1,-1,-1,-1,-1,-1,-1,-1,-1,-1,-1,-1,-1,-1,-1],"loss_changes":[6.717723E3,2.3505369E3,1.1437651E3,7.199133E2,8.5419165E2,8.9970557E2,5.501587E2,7.3414453E2,1.1577146E3,7.278756E2,1.5273492E2,1.069398E3,5.9063904E2,0E0,6.023696E2,4.193567E2,1.4955792E2,1.0415211E3,6.2973035E2,7.3422314E2,3.8522003E2,7.1397804E1,5.340027E1,3.1024707E2,5.4986914E2,1.22040375E2,5.696123E2,3.4162476E2,3.641975E2,3.8267188E2,2.8239E2,1.4588503E2,1.819338E2,5.3196216E2,1.4377732E3,4.7294983E2,4.7484827E2,3.93588E2,7.9090137E2,6.7255426E2,3.0978302E1,0E0,5.1913376E0,3.1611938E0,2.3347168E0,4.6447852E2,1.6443428E1,5.149968E2,3.4983984E2,1.4960884E1,8.73898E1,7.245648E2,4.028383E2,2.6775415E2,7.075418E1,1.2562067E1,9.410718E1,0E0,0E0,0E0,0E0,0E0,0E0,0E0,0E0,0E0,0E0,0E0,0E0,0E0,0E0,0E0,0E0,0E0,0E0,0E0,0E0,0E0,0E0,0E0,0E0,0E0,0E0,0E0,0E0,0E0,0E0,0E0,0E0,0E0,0E0,0E0,0E0,0E0,0E0,0E0,0E0,0E0,0E0,0E0,0E0,0E0,0E0,0E0,0E0,0E0,0E0,0E0,0E0,0E0,0E0],"parents":[2147483647,0,0,1,1,2,2,3,3,4,4,5,5,6,6,7,7,8,8,9,9,10,10,11,11,12,12,14,14,15,15,16,16,17,17,18,18,19,19,20,20,21,21,22,22,23,23,24,24,25,25,26,26,27,27,28,28,29,29,30,30,31,31,32,32,33,33,34,34,35,35,36,36,37,37,38,38,39,39,40,40,42,42,43,43,44,44,45,45,46,46,47,47,48,48,49,49,50,50,51,51,52,52,53,53,54,54,55,55,56,56],"right_children":[2,4,6,8,10,12,14,16,18,20,22,24,26,-1,28,30,32,34,36,38,40,42,44,46,48,50,52,54,56,58,60,62,64,66,68,70,72,74,76,78,80,-1,82,84,86,88,90,92,94,96,98,100,102,104,106,108,110,-1,-1,-1,-1,-1,-1,-1,-1,-1,-1,-1,-1,-1,-1,-1,-1,-1,-1,-1,-1,-1,-1,-1,-1,-1,-1,-1,-1,-1,-1,-1,-1,-1,-1,-1,-1,-1,-1,-1,-1,-1,-1,-1,-1,-1,-1,-1,-1,-1,-1,-1,-1,-1,-1],"split_conditions":[5.6E1,3.3E1,8E1,1.0948456E2,3.350033E2,4.1E1,3.1E1,1.6189165E1,1.6601411E2,2.3999999E0,2.8E1,3E-1,3.3100002E0,7.4358397E0,1.06E2,5.1E1,2.2E1,2E-1,2.1E1,8.6E1,5.5E1,2.1E1,1.6055355E1,3.0598813E2,1.2776666E1,1.2035866E2,6.5037503E0,2.2071074E2,3.1E1,5.9E0,6.554658E1,4.573447E1,1.5E1,-1.34E0,1.1183332E0,1.243434E1,4.315986E1,5.2922615E1,2.0421871E1,5.4E1,2.9E1,1.4349049E0,5.1E1,5E-1,1E-1,9.647267E1,3.4E1,5.7E1,4.8E1,6.1E1,6.6E1,2.1999998E0,1.7272501E1,1.1185E1,1.9914217E1,1.36E2,3.5808334E0,-7.9125965E-1,-2.171764E0,-5.109755E-1,-3.6875765E0,1.1811192E0,-1.0462971E0,-8.267563E-1,1.5271384E0,3.0884495E0,-4.5877907E-1,5.6926193E0,8.442511E-1,4.7551242E-1,-8.708762E-1,-2.404626E-1,2.2505805E0,-6.272935E-1,7.571945E-1,8.080831E-2,6.551921E0,-2.0663476E-1,3.0566447E0,-6.811495E-1,-3.5882E0,-9.605877E-1,-8.0251694E-2,-1.3904969E0,-4.828152E-1,-3.410606E0,-1.5192953E0,1.4578534E0,4.8607836E0,-9.855709E-2,1.1718891E0,-1.7650619E0,1.9798273E0,-3.322715E0,1.1198586E0,-5.192213E-1,5.443709E-1,-3.3349059E0,-5.569069E-1,3.2281039E0,-8.0567235E-1,-4.575788E-1,1.8717779E0,2.8092208E0,-5.635369E-1,1.1488751E0,-6.940048E-1,1.1603749E0,-7.409649E-2,1.2145821E0,6.0135145E0],"split_indices":[0,0,0,6,6,2,1,3,6,4,1,4,3,0,0,1,2,4,2,2,0,2,5,6,3,6,3,6,2,4,6,6,0,3,3,5,5,6,5,0,1,0,0,4,4,6,1,0,1,0,0,4,3,3,5,0,3,0,0,0,0,0,0,0,0,0,0,0,0,0,0,0,0,0,0,0,0,0,0,0,0,0,0,0,0,0,0,0,0,0,0,0,0,0,0,0,0,0,0,0,0,0,0,0,0,0,0,0,0,0,0],"split_type":[0,0,0,0,0,0,0,0,0,0,0,0,0,0,0,0,0,0,0,0,0,0,0,0,0,0,0,0,0,0,0,0,0,0,0,0,0,0,0,0,0,0,0,0,0,0,0,0,0,0,0,0,0,0,0,0,0,0,0,0,0,0,0,0,0,0,0,0,0,0,0,0,0,0,0,0,0,0,0,0,0,0,0,0,0,0,0,0,0,0,0,0,0,0,0,0,0,0,0,0,0,0,0,0,0,0,0,0,0,0,0],"sum_hessian":[1.752E3,1.591E3,1.61E2,1.145E3,4.46E2,1.19E2,4.2E1,2.17E2,9.28E2,4.3E2,1.6E1,5.9E1,6E1,2E0,4E1,1.9E2,2.7E1,1.64E2,7.64E2,3.15E2,1.15E2,4E0,1.2E1,2.6E1,3.3E1,8E0,5.2E1,3E1,1E1,1.78E2,1.2E1,1E1,1.7E1,8.3E1,8.1E1,3.05E2,4.59E2,3.09E2,6E0,1.12E2,3E0,1E0,3E0,6E0,6E0,2.2E1,4E0,2.8E1,5E0,3E0,5E0,1.9E1,3.3E1,2.4E1,6E0,2E0,8E0,1.58E2,2E1,4E0,8E0,3E0,7E0,3E0,1.4E1,3E0,8E1,5E0,7.6E1,2.5E1,2.8E2,4.53E2,6E0,1.9E1,2.9E2,3E0,3E0,1.07E2,5E0,1E0,2E0,2E0,1E0,4E0,2E0,3E0,3E0,6E0,1.6E1,1E0,3E0,3E0,2.5E1,3E0,2E0,2E0,1E0,3E0,2E0,1.4E1,5E0,2.5E1,8E0,2.2E1,2E0,2E0,4E0,1E0,1E0,1E0,7E0],"tree_param":{"num_deleted":"0","num_feature":"7","num_nodes":"111","size_leaf_vector":"1"}},{"base_weights":[8.220737E-2,-3.6822504E-1,4.5081716E0,-1.130581E0,7.354731E-1,1.1889616E1,3.7843568E0,-8.5892665E-1,-3.572112E0,1.8647561E0,-2.1724382E-1,1.5082237E1,1.3750458E-1,3.1119795E0,1.1936728E1,-7.038607E-1,-4.671956E0,-6.225235E0,-2.6249702E0,-3.8734844E-1,3.6336966E0,3.4978054E0,-6.8830645E-1,1.6941948E1,1.3427079E0,-1.1152039E0,7.9847115E-1,4.277219E0,-9.1795206E-1,1.4901539E1,3.0229225E0,-1.0111752E0,1.219684E0,-5.2212386E0,-5.5172503E-1,-7.0761476E0,-2.0163631E-1,-3.533074E0,4.6742254E-1,-2.2290466E0,2.0008361E0,7.610594E0,2.1491916E0,5.7458935E0,4.309259E-1,-1.0013872E0,5.640069E0,5.7019596E0,1.9431816E0,-6.1045194E0,5.1688027E0,1.805642E0,-2.8764975E0,1.0323944E0,4.81413E0,1.251157E0,-6.298199E-2,-1.7142773E-2,-5.021446E-1,-5.6837714E-1,7.4202144E-1,-1.3246924E-1,-1.726727E0,1.6081983E-1,-2.873068E-1,-4.974654E-1,-2.366104E0,6.551317E-1,-1.1036794E0,3.2296115E-1,-1.268321E0,-4.244924E-1,2.9170802E0,-9.843982E-1,7.7708143E-1,-2.778857E-1,2.0498328E0,6.320175E0,1.6205493E0,8.951376E-1,-4.253577E-1,2.65233E0,4.6967044E-1,-5.929971E-1,2.125792E0,-3.7285438E-1,1.2111994E0,2.8627017E0,-5.411172E-1,-2.495354E0,-3.7752E-1,-4.6353763E-1,1.9398123E0,1.0260155E0,-8.920392E-2,-1.3223665E0,1.1904565E0],"categories":[],"categories_nodes":[],"categories_segments":[],"categories_sizes":[],"default_left":[0,0,0,0,0,0,0,0,0,0,0,0,0,0,0,0,0,0,0,0,0,0,0,0,0,0,0,0,0,0,0,0,0,0,0,0,0,0,0,0,0,0,0,0,0,0,0,0,0,0,0,0,0,0,0,0,0,0,0,0,0,0,0,0,0,0,0,0,0,0,0,0,0,0,0,0,0,0,0,0,0,0,0,0,0,0,0,0,0,0,0,0,0,0,0,0,0],"id":6,"left_children":[1,3,5,7,9,11,13,15,17,19,21,23,25,27,29,31,33,35,37,39,41,43,45,47,-1,-1,-1,49,51,53,55,57,59,61,63,65,67,69,71,73,75,77,79,81,83,85,87,-1,-1,89,91,93,95,-1,-1,-1,-1,-1,-1,-1,-1,-1,-1,-1,-1,-1,-1,-1,-1,-1,-1,-1,-1,-1,-1,-1,-1,-1,-1,-1,-1,-1,-1,-1,-1,-1,-1,-1,-1,-1,-1,-1,-1,-1,-1,-1,-1],"loss_changes":[3.4964368E3,1.3403575E3,8.2053906E2,6.217156E2,7.008076E2,5.2320667E2,7.795918E2,4.9870068E2,2.1987012E2,1.1885913E3,6.219149E2,1.4114917E2,4.881356E1,6.5664734E2,2.4565918E2,4.8418912E2,7.1803955E1,1.2158649E2,2.0103455E2,5.8503754E2,9.695654E2,2.733086E2,6.297552E2,7.1336426E1,0E0,0E0,0E0,1.0312222E3,1.7589098E2,4.980371E1,1.5715702E1,4.4559137E2,4.4588666E2,7.154828E1,2.7214062E0,7.917908E1,4.1213028E1,1.8066827E2,3.099633E2,3.888451E2,8.266623E2,1.2237136E3,3.7040912E2,2.8375494E2,3.0241287E2,3.712301E2,4.5292694E2,0E0,0E0,8.606726E1,8.809468E2,4.8548122E1,2.1664717E2,0E0,0E0,0E0,0E0,0E0,0E0,0E0,0E0,0E0,0E0,0E0,0E0,0E0,0E0,0E0,0E0,0E0,0E0,0E0,0E0,0E0,0E0,0E0,0E0,0E0,0E0,0E0,0E0,0E0,0E0,0E0,0E0,0E0,0E0,0E0,0E0,0E0,0E0,0E0,0E0,0E0,0E0,0E0,0E0],"parents":[2147483647,0,0,1,1,2,2,3,3,4,4,5,5,6,6,7,7,8,8,9,9,10,10,11,11,12,12,13,13,14,14,15,15,16,16,17,17,18,18,19,19,20,20,21,21,22,22,23,23,27,27,28,28,29,29,30,30,31,31,32,32,33,33,34,34,35,35,36,36,37,37,38,38,39,39,40,40,41,41,42,42,43,43,44,44,45,45,46,46,49,49,50,50,51,51,52,52],"right_children":[2,4,6,8,10,12,14,16,18,20,22,24,26,28,30,32,34,36,38,40,42,44,46,48,-1,-1,-1,50,52,54,56,58,60,62,64,66,68,70,72,74,76,78,80,82,84,86,88,-1,-1,90,92,94,96,-1,-1,-1,-1,-1,-1,-1,-1,-1,-1,-1,-1,-1,-1,-1,-1,-1,-1,-1,-1,-1,-1,-1,-1,-1,-1,-1,-1,-1,-1,-1,-1,-1,-1,-1,-1,-1,-1,-1,-1,-1,-1,-1,-1],"split_conditions":[5.6E1,2.8E1,2.2204168E0,3.0940726E2,1.9251488E2,6.3E1,1.06E2,1.29E1,1.5766667E0,1.3017358E2,1.4186923E1,1E0,6.6E1,2.5925E1,1.27E2,4.1E1,2.4974217E2,2.6E1,2.6E1,1E-1,4.8058333E0,3.0854605E2,4.138747E1,3.4E1,1.3427079E0,-1.1152039E0,7.9847115E-1,3.1245835E0,1.0000001E0,3.5808334E0,1.39E2,1.8E1,1.5629971E1,3.8455254E1,1.6E1,1.3004921E1,2.7E1,3.1245835E0,1.2E0,5.1E1,1.4507916E1,1.7E1,2.5651104E1,1.00225E1,1.3441071E1,9.799999E0,5.889166E0,5.7019596E0,1.9431816E0,8.5E1,1.1696702E2,7.5E1,8.1E0,1.0323944E0,4.81413E0,1.251157E0,-6.298199E-2,-1.7142773E-2,-5.021446E-1,-5.6837714E-1,7.4202144E-1,-1.3246924E-1,-1.726727E0,1.6081983E-1,-2.873068E-1,-4.974654E-1,-2.366104E0,6.551317E-1,-1.1036794E0,3.2296115E-1,-1.268321E0,-4.244924E-1,2.9170802E0,-9.843982E-1,7.7708143E-1,-2.778857E-1,2.0498328E0,6.320175E0,1.6205493E0,8.951376E-1,-4.253577E-1,2.65233E0,4.6967044E-1,-5.929971E-1,2.125792E0,-3.7285438E-1,1.2111994E0,2.8627017E0,-5.411172E-1,-2.495354E0,-3.7752E-1,-4.6353763E-1,1.9398123E0,1.0260155E0,-8.920392E-2,-1.3223665E0,1.1904565E0],"split_indices":[0,0,3,6,6,1,0,4,3,6,5,4,0,5,0,2,6,0,1,4,3,6,5,2,0,0,0,3,4,3,0,1,5,6,2,5,0,3,4,2,3,2,5,3,5,4,3,0,0,1,6,0,4,0,0,0,0,0,0,0,0,0,0,0,0,0,0,0,0,0,0,0,0,0,0,0,0,0,0,0,0,0,0,0,0,0,0,0,0,0,0,0,0,0,0,0,0],"split_type":[0,0,0,0,0,0,0,0,0,0,0,0,0,0,0,0,0,0,0,0,0,0,0,0,0,0,0,0,0,0,0,0,0,0,0,0,0,0,0,0,0,0,0,0,0,0,0,0,0,0,0,0,0,0,0,0,0,0,0,0,0,0,0,0,0,0,0,0,0,0,0,0,0,0,0,0,0,0,0,0,0,0,0,0,0,0,0,0,0,0,0,0,0,0,0,0,0],"sum_hessian":[1.752E3,1.591E3,1.61E2,9.41E2,6.5E2,1.3E1,1.48E2,8.48E2,9.3E1,2.97E2,3.53E2,1E1,3E0,1.38E2,1E1,8.16E2,3.2E1,2.3E1,7E1,1.31E2,1.66E2,3.9E1,3.14E2,8E0,2E0,1E0,2E0,1.07E2,3.1E1,7E0,3E0,7.04E2,1.12E2,2.8E1,4E0,2E1,3E0,5.4E1,1.6E1,7.4E1,5.7E1,4.4E1,1.22E2,2.2E1,1.7E1,3E2,1.4E1,6E0,2E0,8E0,9.9E1,1.3E1,1.8E1,1E0,6E0,2E0,1E0,2.89E2,4.15E2,3.2E1,8E1,3E0,2.5E1,1E0,3E0,3E0,1.7E1,2E0,1E0,7E0,4.7E1,1.4E1,2E0,6.1E1,1.3E1,3.6E1,2.1E1,5E0,3.9E1,9.9E1,2.3E1,1.2E1,1E1,1.3E1,4E0,2.87E2,1.3E1,9E0,5E0,5E0,3E0,1.6E1,8.3E1,7E0,6E0,1.5E1,3E0],"tree_param":{"num_deleted":"0","num_feature":"7","num_nodes":"97","size_leaf_vector":"1"}},{"base_weights":[7.397856E-2,-4.381332E-1,2.1728263E0,-1.7839283E0,-1.3087781E-1,3.2817793E0,-6.7815045E-3,4.990692E0,-2.1576662E0,6.498284E-1,-9.7053486E-1,4.0890417E0,-2.879289E0,1.0949896E1,-5.936858E-1,1.0145663E1,-1.4374423E-1,-2.53024E0,1.6132877E0,4.2429543E0,1.8672368E-1,1.9330719E0,-1.4152259E0,7.0605695E-1,5.110295E0,-3.8272383E0,2.057137E0,-5.178626E-1,4.149108E0,-4.8250957E0,1.2349423E0,-1.7934723E-1,1.2035882E1,-1.418543E0,1.0658371E0,-2.1951516E0,-5.406889E0,9.228202E0,9.640503E-3,2.5222528E0,1.293002E1,4.996729E-1,-3.1101053E0,4.118059E0,-6.1928695E-1,-5.1817527E0,-1.0050144E0,-6.714399E-1,8.8701725E0,8.467521E0,2.5255268E0,-4.394576E0,-3.3740044E-2,4.1700883E0,-9.592003E-1,-9.694867E0,-1.7281806E0,8.842563E0,2.5320253E-1,8.4114677E-1,3.996459E0,-7.162724E-1,3.467159E0,-2.4203324E0,-9.3601507E-1,6.690468E-1,3.2452495E0,-5.784416E-1,1.1651466E0,-3.675336E-1,2.2553337E0,5.2917576E-1,5.7175984E0,4.580256E-2,1.0525678E0,-1.0983902E0,6.4258677E-1,2.417365E0,-1.9817486E-1,-1.0524929E0,3.7419936E-1,-3.1549805E-1,-1.6624471E0,-4.580951E-1,3.5827488E-1,-5.124848E-1,1.7502989E0,3.3580844E0,-7.6057094E-1,-2.3993077E0,2.8092875E0,2.0738018E0,2.3979264E-1,-8.7694585E-1,-1.8708954E0,-2.2401696E-1,3.157814E-1,2.142057E0,-7.1103233E-1,-4.004973E0,-1.3964536E0,-1.6647527E-1,-2.6921623E0,6.724912E-1,4.9599934E0,1.749766E0,-2.600663E-1],"categories":[],"categories_nodes":[],"categories_segments":[],"categories_sizes":[],"default_left":[0,0,0,0,0,0,0,0,0,0,0,0,0,0,0,0,0,0,0,0,0,0,0,0,0,0,0,0,0,0,0,0,0,0,0,0,0,0,0,0,0,0,0,0,0,0,0,0,0,0,0,0,0,0,0,0,0,0,0,0,0,0,0,0,0,0,0,0,0,0,0,0,0,0,0,0,0,0,0,0,0,0,0,0,0,0,0,0,0,0,0,0,0,0,0,0,0,0,0,0,0,0,0,0,0,0,0],"id":7,"left_children":[1,3,5,7,9,11,13,15,17,19,21,23,25,27,29,31,33,35,37,39,41,43,45,47,49,51,53,-1,-1,55,57,-1,59,-1,-1,61,63,65,67,69,71,73,75,77,79,81,83,85,87,89,91,93,95,97,-1,99,101,103,105,-1,-1,-1,-1,-1,-1,-1,-1,-1,-1,-1,-1,-1,-1,-1,-1,-1,-1,-1,-1,-1,-1,-1,-1,-1,-1,-1,-1,-1,-1,-1,-1,-1,-1,-1,-1,-1,-1,-1,-1,-1,-1,-1,-1,-1,-1,-1,-1],"loss_changes":[1.8851544E3,5.828054E2,8.314988E2,6.7413464E2,7.538295E2,1.1457542E3,7.5887177E2,3.7200858E2,3.5391687E2,9.909478E2,7.1806476E2,6.942783E2,1.342192E2,2.4295233E2,8.725783E2,1.4934814E2,1.5238026E2,2.0694373E2,2.8077866E2,9.8384106E2,5.473445E2,4.1523877E2,7.379721E2,5.457659E2,1.3236514E3,4.9352203E1,6.884538E1,0E0,0E0,4.9600867E2,5.8778864E2,0E0,3.386383E1,0E0,0E0,5.7007886E2,1.1478345E2,2.036319E1,1.576347E2,1.0949735E3,7.191455E2,5.0479736E2,1.410083E2,7.584033E2,1.9312057E2,6.400232E1,5.01181E2,2.932759E2,2.1387701E2,1.0641826E3,6.684867E2,3.596991E1,3.884186E0,9.4623184E1,0E0,1.7733765E2,1.8204456E2,4.1983282E2,4.4876184E2,0E0,0E0,0E0,0E0,0E0,0E0,0E0,0E0,0E0,0E0,0E0,0E0,0E0,0E0,0E0,0E0,0E0,0E0,0E0,0E0,0E0,0E0,0E0,0E0,0E0,0E0,0E0,0E0,0E0,0E0,0E0,0E0,0E0,0E0,0E0,0E0,0E0,0E0,0E0,0E0,0E0,0E0,0E0,0E0,0E0,0E0,0E0,0E0],"parents":[2147483647,0,0,1,1,2,2,3,3,4,4,5,5,6,6,7,7,8,8,9,9,10,10,11,11,12,12,13,13,14,14,15,15,16,16,17,17,18,18,19,19,20,20,21,21,22,22,23,23,24,24,25,25,26,26,29,29,30,30,32,32,35,35,36,36,37,37,38,38,39,39,40,40,41,41,42,42,43,43,44,44,45,45,46,46,47,47,48,48,49,49,50,50,51,51,52,52,53,53,55,55,56,56,57,57,58,58],"right_children":[2,4,6,8,10,12,14,16,18,20,22,24,26,28,30,32,34,36,38,40,42,44,46,48,50,52,54,-1,-1,56,58,-1,60,-1,-1,62,64,66,68,70,72,74,76,78,80,82,84,86,88,90,92,94,96,98,-1,100,102,104,106,-1,-1,-1,-1,-1,-1,-1,-1,-1,-1,-1,-1,-1,-1,-1,-1,-1,-1,-1,-1,-1,-1,-1,-1,-1,-1,-1,-1,-1,-1,-1,-1,-1,-1,-1,-1,-1,-1,-1,-1,-1,-1,-1,-1,-1,-1,-1,-1],"split_conditions":[4.4E1,1.1045715E2,1.1185E1,1.0966713E1,2.4454897E2,2.907475E2,1.9E1,2.3E1,1.7803751E1,2.3433332E0,1.4186923E1,1.1584941E2,9.093334E0,1E1,1.4057915E1,8.297589E0,2.2E1,5.9E0,1.8570415E1,1.9308335E0,1.04E1,1.3612083E1,2.1016667E0,8.4E1,1.7881601E2,6.2E1,6.3E1,-5.178626E-1,4.149108E0,2.4E1,9.889289E1,-1.7934723E-1,1.1E1,-1.418543E0,1.0658371E0,5.7999997E0,1.6E1,1.8E1,2.1282915E1,4E-1,1.697594E2,5E1,3.6973244E1,3.0940726E2,2.8795624E2,1.5856354E1,3.2169178E1,7.412084E0,2.3469128E1,1.1792404E1,1.9353138E1,5.6E1,5.2E1,5.8E1,-9.592003E-1,3.2E1,6.899999E0,8.77986E1,1.3845967E1,8.4114677E-1,3.996459E0,-7.162724E-1,3.467159E0,-2.4203324E0,-9.3601507E-1,6.690468E-1,3.2452495E0,-5.784416E-1,1.1651466E0,-3.675336E-1,2.2553337E0,5.2917576E-1,5.7175984E0,4.580256E-2,1.0525678E0,-1.0983902E0,6.4258677E-1,2.417365E0,-1.9817486E-1,-1.0524929E0,3.7419936E-1,-3.1549805E-1,-1.6624471E0,-4.580951E-1,3.5827488E-1,-5.124848E-1,1.7502989E0,3.3580844E0,-7.6057094E-1,-2.3993077E0,2.8092875E0,2.0738018E0,2.3979264E-1,-8.7694585E-1,-1.8708954E0,-2.2401696E-1,3.157814E-1,2.142057E0,-7.1103233E-1,-4.004973E0,-1.3964536E0,-1.6647527E-1,-2.6921623E0,6.724912E-1,4.9599934E0,1.749766E0,-2.600663E-1],"split_indices":[0,6,3,5,6,6,1,2,3,3,5,6,3,1,3,5,0,4,3,3,4,3,3,0,6,2,1,0,0,2,6,0,0,0,0,4,1,1,3,4,6,2,5,6,6,5,5,3,5,5,5,0,1,0,0,1,4,6,5,0,0,0,0,0,0,0,0,0,0,0,0,0,0,0,0,0,0,0,0,0,0,0,0,0,0,0,0,0,0,0,0,0,0,0,0,0,0,0,0,0,0,0,0,0,0,0,0],"split_type":[0,0,0,0,0,0,0,0,0,0,0,0,0,0,0,0,0,0,0,0,0,0,0,0,0,0,0,0,0,0,0,0,0,0,0,0,0,0,0,0,0,0,0,0,0,0,0,0,0,0,0,0,0,0,0,0,0,0,0,0,0,0,0,0,0,0,0,0,0,0,0,0,0,0,0,0,0,0,0,0,0,0,0,0,0,0,0,0,0,0,0,0,0,0,0,0,0,0,0,0,0,0,0,0,0,0,0],"sum_hessian":[1.752E3,1.409E3,3.43E2,2.61E2,1.148E3,2.27E2,1.16E2,1.3E1,2.48E2,5.95E2,5.53E2,2.01E2,2.6E1,5E0,1.11E2,6E0,7E0,2.26E2,2.2E1,6.7E1,5.28E2,7.3E1,4.8E2,4.7E1,1.54E2,2.2E1,4E0,1E0,4E0,3.3E1,7.8E1,1E0,5E0,3E0,4E0,2.04E2,2.2E1,3E0,1.9E1,5.7E1,1E1,4.83E2,4.5E1,3.9E1,3.4E1,4.6E1,4.34E2,4.1E1,6E0,6.6E1,8.8E1,1.9E1,3E0,3E0,1E0,1.2E1,2.1E1,8E0,7E1,1E0,4E0,2.02E2,2E0,9E0,1.3E1,1E0,2E0,1.3E1,6E0,3.3E1,2.4E1,4E0,6E0,4.34E2,4.9E1,4.1E1,4E0,2.1E1,1.8E1,1.3E1,2.1E1,4E0,4.2E1,3.51E2,8.3E1,3.6E1,5E0,5E0,1E0,3E0,6.3E1,2.4E1,6.4E1,1.2E1,7E0,2E0,1E0,2E0,1E0,6E0,6E0,1.9E1,2E0,5E0,3E0,1.1E1,5.9E1],"tree_param":{"num_deleted":"0","num_feature":"7","num_nodes":"107","size_leaf_vector":"1"}},{"base_weights":[6.5081865E-2,-5.374819E-2,4.791899E0,-7.6704973E-1,5.1709956E-1,4.4886556E0,3.9308565E0,-1.3575344E0,-2.4739547E-1,8.742909E-1,-1.0072742E0,8.0392885E0,2.5241323E0,-1.9082738E0,-4.7019264E-3,-4.938129E-1,2.973059E0,1.3628719E0,-1.060582E0,2.3469582E0,-1.6892207E0,9.738152E0,8.2922363E-1,5.507393E-1,5.3659573E0,-1.5061628E0,-4.847094E0,-6.3761586E-1,4.4747434E0,1.296335E-1,-1.5667144E0,6.371481E0,1.9937976E-1,2.192219E0,5.4427337E-2,-2.9849842E0,6.244409E-1,1.1881216E0,8.135284E0,-6.3575077E0,-1.2404656E0,3.2698083E0,1.2509049E0,6.9448704E-1,-3.213364E-1,-2.9500287E0,2.2617848E0,6.169682E0,-6.418116E-1,1.1699331E-2,-7.094568E-1,-2.6739285E0,-9.6662694E-1,5.7793003E-1,-5.19696E-1,2.8972943E0,8.466626E-3,-6.179039E-1,2.2834449E-1,-5.65823E-1,3.5972533E-1,3.024312E0,-4.7400594E-1,-7.540161E-1,2.1638093E0,-2.8667152E-1,8.931358E-1,-1.5468897E-1,1.1327739E0,1.1046503E-1,-1.3604462E0,4.120088E-1,-1.1950607E0,1.0048505E0,-5.378185E-1,4.523289E-1,2.8245673E0,-2.1660795E0,5.9933627E-1,-6.4559615E-1,3.7166816E-1,-1.8446931E0,-1.321962E-1,2.0213184E0,1.2856564E-1,1.1005394E0,2.6813083E0],"categories":[],"categories_nodes":[],"categories_segments":[],"categories_sizes":[],"default_left":[0,0,0,0,0,0,0,0,0,0,0,0,0,0,0,0,0,0,0,0,0,0,0,0,0,0,0,0,0,0,0,0,0,0,0,0,0,0,0,0,0,0,0,0,0,0,0,0,0,0,0,0,0,0,0,0,0,0,0,0,0,0,0,0,0,0,0,0,0,0,0,0,0,0,0,0,0,0,0,0,0,0,0,0,0,0,0],"id":8,"left_children":[1,3,5,7,9,-1,11,13,15,17,19,21,23,25,27,29,31,33,35,37,39,41,43,45,47,49,51,53,55,57,59,61,63,65,67,69,71,73,75,77,79,-1,-1,-1,-1,81,83,85,-1,-1,-1,-1,-1,-1,-1,-1,-1,-1,-1,-1,-1,-1,-1,-1,-1,-1,-1,-1,-1,-1,-1,-1,-1,-1,-1,-1,-1,-1,-1,-1,-1,-1,-1,-1,-1,-1,-1],"loss_changes":[9.848966E2,6.9709283E2,3.1773883E2,2.3317542E2,5.186936E2,0E0,2.1666443E2,2.6523175E2,3.2366003E2,7.3030414E2,4.1798517E2,1.14414E2,1.7650194E2,2.9167773E2,2.9770395E2,2.5304602E2,2.7208752E2,6.6833594E2,5.0771915E2,1.9827373E2,3.084463E2,6.2823486E0,1.0949815E1,1.2647178E2,9.1618164E1,2.9729965E2,1.694992E2,2.615697E2,2.99324E2,3.3338776E2,1.2503903E2,3.9938342E2,3.415617E2,9.3429944E2,5.1109732E2,3.8104456E2,2.9535596E2,1.7995895E2,2.8218231E1,1.0813623E2,3.168046E2,0E0,0E0,0E0,0E0,5.348194E1,1.1198878E2,5.029315E1,0E0,0E0,0E0,0E0,0E0,0E0,0E0,0E0,0E0,0E0,0E0,0E0,0E0,0E0,0E0,0E0,0E0,0E0,0E0,0E0,0E0,0E0,0E0,0E0,0E0,0E0,0E0,0E0,0E0,0E0,0E0,0E0,0E0,0E0,0E0,0E0,0E0,0E0,0E0],"parents":[2147483647,0,0,1,1,2,2,3,3,4,4,6,6,7,7,8,8,9,9,10,10,11,11,12,12,13,13,14,14,15,15,16,16,17,17,18,18,19,19,20,20,21,21,22,22,23,23,24,24,25,25,26,26,27,27,28,28,29,29,30,30,31,31,32,32,33,33,34,34,35,35,36,36,37,37,38,38,39,39,40,40,45,45,46,46,47,47],"right_children":[2,4,6,8,10,-1,12,14,16,18,20,22,24,26,28,30,32,34,36,38,40,42,44,46,48,50,52,54,56,58,60,62,64,66,68,70,72,74,76,78,80,-1,-1,-1,-1,82,84,86,-1,-1,-1,-1,-1,-1,-1,-1,-1,-1,-1,-1,-1,-1,-1,-1,-1,-1,-1,-1,-1,-1,-1,-1,-1,-1,-1,-1,-1,-1,-1,-1,-1,-1,-1,-1,-1,-1,-1],"split_conditions":[8E1,2.4E1,3.1E1,2.1E1,3.9999998E0,4.4886556E0,1.6981165E1,1.5399582E1,3.4417206E1,2.8901883E2,1.933639E1,4E-1,5E-1,2.2E1,7.1E0,1.3526666E1,2.2E1,1.1185E1,9.20375E0,3.137812E2,1.25752785E2,2.198889E2,8.3E1,1.290762E2,7.412084E0,1.2E1,1.3E1,1.4E1,9.799999E0,1.0948456E2,2.3E1,2.6661832E2,3.4E1,9.780008E1,2.1049582E1,1.623596E1,5E1,2.2816118E2,2.5E1,1.7057917E1,4.4E1,3.2698083E0,1.2509049E0,6.9448704E-1,-3.213364E-1,6.3E1,1.6266637E2,5.570417E0,-6.418116E-1,1.1699331E-2,-7.094568E-1,-2.6739285E0,-9.6662694E-1,5.7793003E-1,-5.19696E-1,2.8972943E0,8.466626E-3,-6.179039E-1,2.2834449E-1,-5.65823E-1,3.5972533E-1,3.024312E0,-4.7400594E-1,-7.540161E-1,2.1638093E0,-2.8667152E-1,8.931358E-1,-1.5468897E-1,1.1327739E0,1.1046503E-1,-1.3604462E0,4.120088E-1,-1.1950607E0,1.0048505E0,-5.378185E-1,4.523289E-1,2.8245673E0,-2.1660795E0,5.9933627E-1,-6.4559615E-1,3.7166816E-1,-1.8446931E0,-1.321962E-1,2.0213184E0,1.2856564E-1,1.1005394E0,2.6813083E0],"split_indices":[0,0,1,2,4,0,5,3,5,6,5,4,4,0,4,3,1,3,3,6,6,6,0,6,3,2,2,1,4,6,0,6,1,6,3,5,2,6,0,3,0,0,0,0,0,2,6,3,0,0,0,0,0,0,0,0,0,0,0,0,0,0,0,0,0,0,0,0,0,0,0,0,0,0,0,0,0,0,0,0,0,0,0,0,0,0,0],"split_type":[0,0,0,0,0,0,0,0,0,0,0,0,0,0,0,0,0,0,0,0,0,0,0,0,0,0,0,0,0,0,0,0,0,0,0,0,0,0,0,0,0,0,0,0,0,0,0,0,0,0,0,0,0,0,0,0,0,0,0,0,0,0,0,0,0,0,0,0,0,0,0,0,0,0,0,0,0,0,0,0,0,0,0,0,0,0,0],"sum_hessian":[1.752E3,1.71E3,4.2E1,7.6E2,9.5E2,2E0,4E1,3.55E2,4.05E2,7.7E2,1.8E2,9E0,3.1E1,2.52E2,1.03E2,3.77E2,2.8E1,6.15E2,1.55E2,3E1,1.5E2,7E0,2E0,1.9E1,1.2E1,2.23E2,2.9E1,9.1E1,1.2E1,2.39E2,1.38E2,1.2E1,1.6E1,3.76E2,2.39E2,7.2E1,8.3E1,2.6E1,4E0,1.2E1,1.38E2,5E0,2E0,1E0,1E0,6E0,1.3E1,1.1E1,1E0,8E1,1.43E2,7E0,2.2E1,2.7E1,6.4E1,5E0,7E0,5.3E1,1.86E2,1.24E2,1.4E1,8E0,4E0,1.2E1,4E0,7.5E1,3.01E2,2.08E2,3.1E1,2.3E1,4.9E1,7.2E1,1.1E1,1.5E1,1.1E1,1E0,3E0,1.1E1,1E0,1.01E2,3.7E1,2E0,4E0,3E0,1E1,7E0,4E0],"tree_param":{"num_deleted":"0","num_feature":"7","num_nodes":"87","size_leaf_vector":"1"}},{"base_weights":[5.476477E-2,-3.561022E-2,3.6495752E0,-9.258692E-1,2.3495257E-1,3.590924E0,2.951768E0,-7.4833447E-1,-3.5518553E0,8.75664E-1,-2.8110766E-1,6.1168885E0,1.8704252E0,-1.2613147E0,7.348596E-1,-4.1102686E0,1.9132646E0,1.0537156E0,-2.5804892E0,8.0329543E-1,-1.0009254E0,7.381796E0,7.0483905E-1,2.0677352E0,1.1132346E0,-9.3406856E-1,-3.3121636E0,-2.4589972E0,1.7607746E0,1.5106273E-1,-4.3428755E0,-4.4142583E-1,1.3023949E0,-1.9829449E-1,1.7215405E0,-3.9985309E0,1.0149953E0,6.316525E-1,7.6768594E0,-1.1981994E0,5.540586E0,7.9069986E0,5.558064E-1,5.9031373E-1,-2.7313614E-1,-4.304645E-1,4.5915065E0,9.1352776E-2,-4.0321922E-1,1.2291435E-1,-1.5791787E0,-1.4526162E0,-2.1029731E-2,2.3264782E0,1.4266098E-1,-1.5132056E0,-4.8974732E-1,1.0024514E0,-2.0032723E-1,-3.329876E-1,6.0784125E-1,4.0474528E-1,-1.6008513E0,-5.724039E-1,8.383505E-1,1.8306125E0,1.3549016E-1,-1.6552944E-1,3.3235986E0,-3.332504E-1,-2.4996467E0,1.8602856E0,-3.5757095E-1,2.7205057E0,1.0007232E0,-1.9150469E0,5.590837E-2,-6.776009E-2,1.8000497E0],"categories":[],"categories_nodes":[],"categories_segments":[],"categories_sizes":[],"default_left":[0,0,0,0,0,0,0,0,0,0,0,0,0,0,0,0,0,0,0,0,0,0,0,0,0,0,0,0,0,0,0,0,0,0,0,0,0,0,0,0,0,0,0,0,0,0,0,0,0,0,0,0,0,0,0,0,0,0,0,0,0,0,0,0,0,0,0,0,0,0,0,0,0,0,0,0,0,0,0],"id":9,"left_children":[1,3,5,7,9,-1,11,13,15,17,19,21,23,25,27,29,31,33,35,37,39,41,43,-1,45,47,49,51,53,-1,55,-1,-1,57,59,61,63,65,67,69,71,73,-1,-1,-1,75,77,-1,-1,-1,-1,-1,-1,-1,-1,-1,-1,-1,-1,-1,-1,-1,-1,-1,-1,-1,-1,-1,-1,-1,-1,-1,-1,-1,-1,-1,-1,-1,-1],"loss_changes":[5.6964624E2,4.123477E2,2.1432068E2,1.8335736E2,4.343839E2,0E0,1.2888461E2,2.8624536E2,8.4158905E1,3.6332806E2,5.690609E2,6.3254425E1,1.14011246E2,1.8415216E2,3.2216245E2,2.6870544E1,3.1042461E1,4.6689807E2,1.5191632E2,3.384723E2,5.718646E2,8.582001E0,7.911242E0,0E0,1.5768922E2,1.2329959E2,2.7819754E2,1.3628969E2,5.664018E2,0E0,3.357376E1,0E0,0E0,3.2628314E2,3.1618677E2,1.5741803E2,5.2145554E1,2.7790405E2,2.0205789E2,2.5625195E2,6.5187775E1,6.9121704E0,0E0,0E0,0E0,7.830119E1,6.242958E1,0E0,0E0,0E0,0E0,0E0,0E0,0E0,0E0,0E0,0E0,0E0,0E0,0E0,0E0,0E0,0E0,0E0,0E0,0E0,0E0,0E0,0E0,0E0,0E0,0E0,0E0,0E0,0E0,0E0,0E0,0E0,0E0],"parents":[2147483647,0,0,1,1,2,2,3,3,4,4,6,6,7,7,8,8,9,9,10,10,11,11,12,12,13,13,14,14,15,15,16,16,17,17,18,18,19,19,20,20,21,21,22,22,24,24,25,25,26,26,27,27,28,28,30,30,33,33,34,34,35,35,36,36,37,37,38,38,39,39,40,40,41,41,45,45,46,46],"right_children":[2,4,6,8,10,-1,12,14,16,18,20,22,24,26,28,30,32,34,36,38,40,42,44,-1,46,48,50,52,54,-1,56,-1,-1,58,60,62,64,66,68,70,72,74,-1,-1,-1,76,78,-1,-1,-1,-1,-1,-1,-1,-1,-1,-1,-1,-1,-1,-1,-1,-1,-1,-1,-1,-1,-1,-1,-1,-1,-1,-1,-1,-1,-1,-1,-1,-1],"split_conditions":[8E1,1.8E1,3.1E1,3.3E1,3E-1,3.590924E0,1.6981165E1,2.7E1,2.87162E2,3.3440808E2,1.9711934E2,4E-1,8.3E1,2.9968555E2,1.1E1,7E0,1.3E1,1.4303363E2,1.4910001E1,1.9669933E2,1.8676664E1,9.9E1,8.3E1,2.0677352E0,1.06E2,1.2E1,1.5124284E1,1.4412538E2,1.2E1,1.5106273E-1,2.5992397E1,-4.4142583E-1,1.3023949E0,1.7E1,1.6683334E0,1.3004921E1,1.288981E1,1.0583323E-1,2.1E1,7.8E1,2.6727423E1,2.198889E2,5.558064E-1,5.9031373E-1,-2.7313614E-1,1.7E1,5.570417E0,9.1352776E-2,-4.0321922E-1,1.2291435E-1,-1.5791787E0,-1.4526162E0,-2.1029731E-2,2.3264782E0,1.4266098E-1,-1.5132056E0,-4.8974732E-1,1.0024514E0,-2.0032723E-1,-3.329876E-1,6.0784125E-1,4.0474528E-1,-1.6008513E0,-5.724039E-1,8.383505E-1,1.8306125E0,1.3549016E-1,-1.6552944E-1,3.3235986E0,-3.332504E-1,-2.4996467E0,1.8602856E0,-3.5757095E-1,2.7205057E0,1.0007232E0,-1.9150469E0,5.590837E-2,-6.776009E-2,1.8000497E0],"split_indices":[0,0,1,1,4,0,5,2,6,6,6,4,0,6,0,0,0,6,3,6,3,1,0,0,0,2,5,6,0,0,5,0,0,1,3,5,5,3,1,1,5,6,0,0,0,2,3,0,0,0,0,0,0,0,0,0,0,0,0,0,0,0,0,0,0,0,0,0,0,0,0,0,0,0,0,0,0,0,0],"split_type":[0,0,0,0,0,0,0,0,0,0,0,0,0,0,0,0,0,0,0,0,0,0,0,0,0,0,0,0,0,0,0,0,0,0,0,0,0,0,0,0,0,0,0,0,0,0,0,0,0,0,0,0,0,0,0,0,0,0,0,0,0,0,0,0,0,0,0,0,0,0,0,0,0,0,0,0,0,0,0],"sum_hessian":[1.752E3,1.71E3,4.2E1,3.98E2,1.312E3,2E0,4E1,3.74E2,2.4E1,5.85E2,7.27E2,9E0,3.1E1,2.78E2,9.6E1,2.2E1,2E0,5.57E2,2.8E1,2.9E2,4.37E2,7E0,2E0,3E0,2.8E1,2.41E2,3.7E1,2.3E1,7.3E1,1E0,2.1E1,1E0,1E0,1.94E2,3.63E2,2E1,8E0,2.84E2,6E0,4.25E2,1.2E1,6E0,1E0,1E0,1E0,2E1,8E0,6E1,1.81E2,1.3E1,2.4E1,1.1E1,1.2E1,1.2E1,6.1E1,1.6E1,5E0,2.2E1,1.72E2,3.5E1,3.28E2,4E0,1.6E1,3E0,5E0,8E0,2.76E2,2E0,4E0,4.21E2,4E0,1.1E1,1E0,4E0,2E0,1E0,1.9E1,2E0,6E0],"tree_param":{"num_deleted":"0","num_feature":"7","num_nodes":"79","size_leaf_vector":"1"}},{"base_weights":[4.5353718E-2,-1.1728076E-1,1.441274E0,-1.5507732E-1,1.1751617E1,6.3086762E0,1.0933083E0,1.945807E-2,-1.6900195E0,1.5927597E1,-7.428455E-1,1.3121052E0,7.8284106E0,2.4580848E0,-3.0005056E-1,-2.3373729E-1,1.9282796E0,-2.4529538E0,3.4766862E0,5.465197E0,1.3587627E0,-1.9810828E0,6.15188E0,9.938614E-1,2.5935893E0,3.8149852E-1,3.600811E0,5.0962925E0,-6.960753E-1,-2.778083E-1,5.2324095E0,1.6754265E0,3.506029E0,-2.2280245E0,-2.4241328E0,5.244938E0,1.0821596E0,4.7622645E-1,2.2921195E0,-2.8024456E-1,5.083761E0,7.8530135E0,8.2511795E-1,2.8710666E0,-2.5677109E0,3.3296018E0,-1.4444482E0,5.423564E-1,-1.1969882E-1,6.102569E-1,3.6050582E0,-7.833239E-1,6.2956476E-1,-7.037065E-1,2.0484889E0,1.7558192E0,-1.1389881E0,1.1253705E0,-2.6690808E-1,2.0676033E0,-5.1148225E-2,4.0890684E0,-6.0189617E-1,-2.0712228E0,4.508305E-1,-1.374527E-1,-1.0180173E0,-9.669643E-1,1.6853305E0,2.742183E0,-5.2035946E-1],"categories":[],"categories_nodes":[],"categories_segments":[],"categories_sizes":[],"default_left":[0,0,0,0,0,0,0,0,0,0,0,0,0,0,0,0,0,0,0,0,0,0,0,0,0,0,0,0,0,0,0,0,0,0,0,0,0,0,0,0,0,0,0,0,0,0,0,0,0,0,0,0,0,0,0,0,0,0,0,0,0,0,0,0,0,0,0,0,0,0,0],"id":10,"left_children":[1,3,5,7,9,11,13,15,17,19,-1,21,23,25,27,29,31,33,35,-1,-1,-1,37,-1,-1,39,41,43,45,47,49,51,-1,53,-1,-1,55,-1,-1,57,59,61,63,-1,65,67,69,-1,-1,-1,-1,-1,-1,-1,-1,-1,-1,-1,-1,-1,-1,-1,-1,-1,-1,-1,-1,-1,-1,-1,-1],"loss_changes":[3.9814343E2,7.0657855E2,3.0304782E2,4.198349E2,3.3651355E2,8.084979E1,3.2781677E2,6.8094385E2,6.3922534E2,2.1886719E1,0E0,1.9386569E2,4.557434E0,2.0507458E2,1.8733676E2,3.0113168E2,3.8755115E2,1.5920685E2,6.853951E2,0E0,0E0,0E0,8.254311E0,0E0,0E0,1.00998764E2,6.5447766E2,2.3030284E2,2.4883878E2,3.1287585E2,1.9253708E2,2.9930185E2,0E0,1.6093878E2,0E0,0E0,4.644379E2,0E0,0E0,7.4589905E1,3.9179077E1,1.280455E3,1.9369441E2,0E0,3.6706333E0,2.130284E2,2.2772256E2,0E0,0E0,0E0,0E0,0E0,0E0,0E0,0E0,0E0,0E0,0E0,0E0,0E0,0E0,0E0,0E0,0E0,0E0,0E0,0E0,0E0,0E0,0E0,0E0],"parents":[2147483647,0,0,1,1,2,2,3,3,4,4,5,5,6,6,7,7,8,8,9,9,11,11,12,12,13,13,14,14,15,15,16,16,17,17,18,18,22,22,25,25,26,26,27,27,28,28,29,29,30,30,31,31,33,33,36,36,39,39,40,40,41,41,42,42,44,44,45,45,46,46],"right_children":[2,4,6,8,10,12,14,16,18,20,-1,22,24,26,28,30,32,34,36,-1,-1,-1,38,-1,-1,40,42,44,46,48,50,52,-1,54,-1,-1,56,-1,-1,58,60,62,64,-1,66,68,70,-1,-1,-1,-1,-1,-1,-1,-1,-1,-1,-1,-1,-1,-1,-1,-1,-1,-1,-1,-1,-1,-1,-1,-1],"split_conditions":[5.4E1,8.9E1,2.8E1,4.7E1,1.03E2,1.21822334E2,1.815161E2,4.3E1,3.049818E1,9.4E1,-7.428455E-1,6E1,3.37875E0,1.1584941E2,1.9308335E0,2.246625E1,8.4E1,7.7E1,9.647267E1,5.465197E0,1.3587627E0,-1.9810828E0,6.3E1,9.938614E-1,2.5935893E0,1.02E2,5.7537503E0,2E-1,1.4618837E1,1.1792404E1,2.1288757E1,1.4E1,3.506029E0,7.5E1,-2.4241328E0,5.244938E0,6.96625E0,4.7622645E-1,2.2921195E0,2.4E1,1.27E2,7.5E1,1.1079873E1,2.8710666E0,5.6E1,4.1E1,2.9E1,5.423564E-1,-1.1969882E-1,6.102569E-1,3.6050582E0,-7.833239E-1,6.2956476E-1,-7.037065E-1,2.0484889E0,1.7558192E0,-1.1389881E0,1.1253705E0,-2.6690808E-1,2.0676033E0,-5.1148225E-2,4.0890684E0,-6.0189617E-1,-2.0712228E0,4.508305E-1,-1.374527E-1,-1.0180173E0,-9.669643E-1,1.6853305E0,2.742183E0,-5.2035946E-1],"split_indices":[0,1,1,1,1,6,6,2,5,1,0,0,3,6,3,3,2,1,6,0,0,0,0,0,0,0,3,4,5,5,5,0,0,1,0,0,3,0,0,2,0,1,5,0,0,1,1,0,0,0,0,0,0,0,0,0,0,0,0,0,0,0,0,0,0,0,0,0,0,0,0],"split_type":[0,0,0,0,0,0,0,0,0,0,0,0,0,0,0,0,0,0,0,0,0,0,0,0,0,0,0,0,0,0,0,0,0,0,0,0,0,0,0,0,0,0,0,0,0,0,0,0,0,0,0,0,0,0,0,0,0,0,0,0,0,0,0,0,0,0,0,0,0,0,0],"sum_hessian":[1.752E3,1.57E3,1.82E2,1.566E3,4E0,1.1E1,1.71E2,1.407E3,1.59E2,3E0,1E0,3E0,8E0,8.6E1,8.5E1,1.243E3,1.64E2,1.39E2,2E1,2E0,1E0,1E0,2E0,2E0,6E0,3.1E1,5.5E1,5E0,8E1,1.234E3,9E0,1.61E2,3E0,1.35E2,4E0,2E0,1.8E1,1E0,1E0,2.8E1,3E0,2.1E1,3.4E1,3E0,2E0,1.2E1,6.8E1,6.7E1,1.167E3,7E0,2E0,1.4E1,1.47E2,1.34E2,1E0,9E0,9E0,3E0,2.5E1,2E0,1E0,1.3E1,8E0,2E0,3.2E1,1E0,1E0,3E0,9E0,1E0,6.7E1],"tree_param":{"num_deleted":"0","num_feature":"7","num_nodes":"71","size_leaf_vector":"1"}},{"base_weights":[5.0359197E-2,4.113498E-1,-3.5806438E-1,7.4289143E-1,-1.3336734E0,-2.4562666E-1,-4.8601584E0,-7.3409647E-1,1.2206596E0,-4.3132412E-1,-2.8245153E0,-5.451168E-1,7.956343E-1,-2.7483978E0,-2.305275E0,-1.3970314E0,2.177428E0,1.8279979E0,-5.3391224E-1,-1.3434811E0,8.3367467E-1,-8.17768E-1,-4.8020563E0,-4.941857E-1,-4.4114056E0,1.07633295E1,6.231696E-1,-4.1502423E0,3.3078308E0,-6.5602475E-1,-3.9612253E0,7.545571E-1,9.166023E0,5.45424E0,1.5302186E0,-3.138847E0,1.2695682E-1,-5.406255E0,-2.0491819E-1,-1.9688846E0,2.5939655E0,-2.5571582E0,2.7427895E0,-5.692162E0,1.9616175E0,-2.808752E0,-4.1207853E-1,-5.73935E0,-2.8504816E-1,8.7146276E-1,3.9720356E0,-4.9417225E-1,1.6045753E0,5.170059E-1,-5.965086E0,8.6535074E-2,1.4019889E0,2.5684708E-1,-5.006712E-1,-1.4113514E0,8.925949E-1,-2.801421E-1,1.4956276E0,4.4253006E0,-4.007867E-1,2.6520524E0,2.4053198E-1,4.2381153E-1,3.913773E0,-2.2635884E0,-3.834341E-1,-9.617577E-2,8.809126E-1,-3.0455797E0,-5.2932733E-1,-4.30929E-1,1.0860605E0,7.3761785E-1,-8.331072E-1,-4.5808163E-1,1.284411E0,-1.0769277E0,1.3472493E0,-1.101503E0,1.1590416E0,-1.1439395E0,-2.582694E0,8.6253685E-1,-1.1683474E-1,-2.5885096E0,-2.795642E-1,1.4770362E-1,-2.2139038E-1,-2.3139617E0,-8.472362E-1,1.5013562E-1,-2.784073E-1,-7.990016E-1,1.410322E-1,2.2617776E0,3.3593208E-1,4.3353924E-1,-3.4010527E-1,-2.3196194E0,-1.3283005E-1],"categories":[],"categories_nodes":[],"categories_segments":[],"categories_sizes":[],"default_left":[0,0,0,0,0,0,0,0,0,0,0,0,0,0,0,0,0,0,0,0,0,0,0,0,0,0,0,0,0,0,0,0,0,0,0,0,0,0,0,0,0,0,0,0,0,0,0,0,0,0,0,0,0,0,0,0,0,0,0,0,0,0,0,0,0,0,0,0,0,0,0,0,0,0,0,0,0,0,0,0,0,0,0,0,0,0,0,0,0,0,0,0,0,0,0,0,0,0,0,0,0,0,0,0,0],"id":11,"left_children":[1,3,5,7,9,11,13,15,17,19,21,23,25,27,-1,29,31,33,35,37,39,41,43,45,47,49,51,53,55,57,59,61,63,65,67,69,71,73,75,77,79,81,83,85,87,89,91,93,95,-1,-1,97,99,101,103,-1,-1,-1,-1,-1,-1,-1,-1,-1,-1,-1,-1,-1,-1,-1,-1,-1,-1,-1,-1,-1,-1,-1,-1,-1,-1,-1,-1,-1,-1,-1,-1,-1,-1,-1,-1,-1,-1,-1,-1,-1,-1,-1,-1,-1,-1,-1,-1,-1,-1],"loss_changes":[2.586045E2,5.3961884E2,4.1541315E2,5.5342615E2,1.9922546E2,2.5115903E2,9.815674E1,3.7363095E2,6.3182214E2,1.095845E2,2.1830487E2,1.2089142E2,3.0272623E2,1.2409688E2,0E0,2.957146E2,3.5106293E2,4.6677466E2,2.637912E2,2.5330695E2,2.0244002E2,1.8661652E2,1.7973663E2,1.1628883E2,4.2200592E1,1.9930298E1,1.9598163E2,9.625758E1,1.1020565E1,1.898227E2,1.9445001E2,2.2609607E2,3.716266E2,5.127596E2,5.3369586E2,2.4453223E2,1.5559352E2,1.894831E2,2.1247006E2,6.407794E1,1.8037816E2,1.6167615E2,8.607121E1,1.04192566E2,9.710559E0,2.2133536E2,1.7661914E2,1.2742432E1,1.9796053E0,0E0,0E0,1.7695338E2,2.6488647E2,7.766507E0,7.463907E1,0E0,0E0,0E0,0E0,0E0,0E0,0E0,0E0,0E0,0E0,0E0,0E0,0E0,0E0,0E0,0E0,0E0,0E0,0E0,0E0,0E0,0E0,0E0,0E0,0E0,0E0,0E0,0E0,0E0,0E0,0E0,0E0,0E0,0E0,0E0,0E0,0E0,0E0,0E0,0E0,0E0,0E0,0E0,0E0,0E0,0E0,0E0,0E0,0E0,0E0],"parents":[2147483647,0,0,1,1,2,2,3,3,4,4,5,5,6,6,7,7,8,8,9,9,10,10,11,11,12,12,13,13,15,15,16,16,17,17,18,18,19,19,20,20,21,21,22,22,23,23,24,24,25,25,26,26,27,27,28,28,29,29,30,30,31,31,32,32,33,33,34,34,35,35,36,36,37,37,38,38,39,39,40,40,41,41,42,42,43,43,44,44,45,45,46,46,47,47,48,48,51,51,52,52,53,53,54,54],"right_children":[2,4,6,8,10,12,14,16,18,20,22,24,26,28,-1,30,32,34,36,38,40,42,44,46,48,50,52,54,56,58,60,62,64,66,68,70,72,74,76,78,80,82,84,86,88,90,92,94,96,-1,-1,98,100,102,104,-1,-1,-1,-1,-1,-1,-1,-1,-1,-1,-1,-1,-1,-1,-1,-1,-1,-1,-1,-1,-1,-1,-1,-1,-1,-1,-1,-1,-1,-1,-1,-1,-1,-1,-1,-1,-1,-1,-1,-1,-1,-1,-1,-1,-1,-1,-1,-1,-1,-1],"split_conditions":[1.0424584E1,2.8901883E2,6.7E1,9.780008E1,2.3219301E1,1.7722498E1,5.9E1,6.8495827E0,3.8E0,3E1,3E-1,1.768083E1,1.2E1,7.5E1,-2.305275E0,2.3469128E1,2.8000002E0,1.2035866E2,1.8E1,3.0694098E2,3.46E0,4.3E1,3.9606544E1,1.07475E1,1E-1,6E0,2E-1,2E1,2.2E1,1.208328E-2,6.5E1,4E1,5.9E0,4.7E1,3.5999997E0,5.3999996E0,5.1E1,1.9914217E1,6.16625E0,2.9186435E2,2.9E1,6.8495827E0,1.8245832E0,3.2E1,5.1E1,1.7377226E1,1.2868335E1,1.7E1,1.6E1,8.7146276E-1,3.9720356E0,1.3225272E2,3E-1,3.5E1,3.6E1,8.6535074E-2,1.4019889E0,2.5684708E-1,-5.006712E-1,-1.4113514E0,8.925949E-1,-2.801421E-1,1.4956276E0,4.4253006E0,-4.007867E-1,2.6520524E0,2.4053198E-1,4.2381153E-1,3.913773E0,-2.2635884E0,-3.834341E-1,-9.617577E-2,8.809126E-1,-3.0455797E0,-5.2932733E-1,-4.30929E-1,1.0860605E0,7.3761785E-1,-8.331072E-1,-4.5808163E-1,1.284411E0,-1.0769277E0,1.3472493E0,-1.101503E0,1.1590416E0,-1.1439395E0,-2.582694E0,8.6253685E-1,-1.1683474E-1,-2.5885096E0,-2.795642E-1,1.4770362E-1,-2.2139038E-1,-2.3139617E0,-8.472362E-1,1.5013562E-1,-2.784073E-1,-7.990016E-1,1.410322E-1,2.2617776E0,3.3593208E-1,4.3353924E-1,-3.4010527E-1,-2.3196194E0,-1.3283005E-1],"split_indices":[3,6,2,6,5,3,1,3,4,1,4,3,0,2,0,5,4,6,1,6,3,2,5,3,4,0,4,0,0,3,2,0,4,1,4,4,1,5,3,6,2,3,3,1,0,5,3,2,0,0,0,6,4,1,0,0,0,0,0,0,0,0,0,0,0,0,0,0,0,0,0,0,0,0,0,0,0,0,0,0,0,0,0,0,0,0,0,0,0,0,0,0,0,0,0,0,0,0,0,0,0,0,0,0,0],"split_type":[0,0,0,0,0,0,0,0,0,0,0,0,0,0,0,0,0,0,0,0,0,0,0,0,0,0,0,0,0,0,0,0,0,0,0,0,0,0,0,0,0,0,0,0,0,0,0,0,0,0,0,0,0,0,0,0,0,0,0,0,0,0,0,0,0,0,0,0,0,0,0,0,0,0,0,0,0,0,0,0,0,0,0,0,0,0,0,0,0,0,0,0,0,0,0,0,0,0,0,0,0,0,0,0,0],"sum_hessian":[1.752E3,9.3E2,8.22E2,7.82E2,1.48E2,8.03E2,1.9E1,1.91E2,5.91E2,9.3E1,5.5E1,6.24E2,1.79E2,1.2E1,7E0,1.56E2,3.5E1,4.39E2,1.52E2,5.4E1,3.9E1,2.8E1,2.7E1,6.17E2,7E0,2E0,1.77E2,1E1,2E0,1.22E2,3.4E1,3E1,5E0,3.2E1,4.07E2,3E1,1.22E2,1.1E1,4.3E1,1.5E1,2.4E1,1.9E1,9E0,2.4E1,3E0,2E1,5.97E2,5E0,2E0,1E0,1E0,8.3E1,9.4E1,3E0,7E0,1E0,1E0,4.9E1,7.3E1,3.1E1,3E0,2.2E1,8E0,3E0,2E0,1.8E1,1.4E1,4.04E2,3E0,8E0,2.2E1,1.06E2,1.6E1,4E0,7E0,3.3E1,1E1,2E0,1.3E1,7E0,1.7E1,1.7E1,2E0,1E0,8E0,1.6E1,8E0,2E0,1E0,4E0,1.6E1,1.58E2,4.39E2,2E0,3E0,1E0,1E0,2.5E1,5.8E1,6E0,8.8E1,2E0,1E0,5E0,2E0],"tree_param":{"num_deleted":"0","num_feature":"7","num_nodes":"105","size_leaf_vector":"1"}},{"base_weights":[3.6608547E-2,-7.843469E-2,8.470205E-1,-1.13813594E-1,3.2896743E0,2.2715838E0,6.85811E-2,-2.6842073E-1,6.695309E-1,1.4450505E0,2.538685E0,5.397303E0,1.0030587E0,2.0533807E0,-1.2477231E0,2.0500009E-1,-5.6669587E-1,1.9368037E0,-7.752495E-1,-4.398185E-1,4.5488043E0,-6.277027E-1,7.2062874E0,-2.4128397E0,3.4569526E0,4.0590243E0,-1.8600113E0,2.0503979E0,-1.9733882E0,8.02875E-3,4.0456066E0,-1.7512624E0,-1.9282274E-1,-1.0004232E0,4.2607613E0,6.827995E-1,-2.842355E0,1.3215637E0,-1.5960989E0,6.113625E-1,1.6630399E0,-1.0018284E0,1.5630169E0,7.9982862E0,-8.198545E-1,-4.2923274E0,3.9410121E0,9.84755E0,1.9640762E0,-3.8470992E-1,8.077621E0,-4.4116807E0,2.0874183E-1,-1.1884296E0,6.384381E0,-3.2617738E0,6.856075E-1,4.3059033E-1,-1.3790631E-1,2.2592044E0,3.055087E-1,-3.6113027E-1,-1.6808405E0,4.3479785E-1,-1.5606049E-1,8.217874E-2,-1.3566039E0,3.4421888E-1,1.6116097E0,4.3574E-2,3.7919192E0,-1.2608434E0,-1.4191978E-1,-8.521393E-1,1.0751467E-1,6.5292287E-1,-4.15741E-2,1.5383035E-1,2.7093062E0,-3.0152287E0,-4.553496E-1,-2.5598297E-1,1.9654428E0,6.6256946E-1,3.2800906E0,-5.6364757E-1,1.2610202E0,2.846965E-1,-8.419859E-1,3.9474761E0,1.0782034E0,-2.0044858E0,-3.7782192E-1,5.7323873E-1,-7.6688784E-1,-8.21219E-1,5.458111E-1,2.9887311E0,8.882013E-1,-1.8178138E0,-5.4195523E-1,1.7378193E0,-2.8897586E-1],"categories":[],"categories_nodes":[],"categories_segments":[],"categories_sizes":[],"default_left":[0,0,0,0,0,0,0,0,0,0,0,0,0,0,0,0,0,0,0,0,0,0,0,0,0,0,0,0,0,0,0,0,0,0,0,0,0,0,0,0,0,0,0,0,0,0,0,0,0,0,0,0,0,0,0,0,0,0,0,0,0,0,0,0,0,0,0,0,0,0,0,0,0,0,0,0,0,0,0,0,0,0,0,0,0,0,0,0,0,0,0,0,0,0,0,0,0,0,0,0,0,0,0],"id":12,"left_children":[1,3,5,7,9,11,13,15,17,19,-1,21,23,25,27,29,31,33,35,37,39,41,43,45,47,49,51,53,55,57,59,61,63,65,67,69,71,-1,73,-1,-1,-1,75,77,-1,79,81,83,85,87,89,91,93,95,97,99,101,-1,-1,-1,-1,-1,-1,-1,-1,-1,-1,-1,-1,-1,-1,-1,-1,-1,-1,-1,-1,-1,-1,-1,-1,-1,-1,-1,-1,-1,-1,-1,-1,-1,-1,-1,-1,-1,-1,-1,-1,-1,-1,-1,-1,-1,-1],"loss_changes":[1.6350287E2,1.8340416E2,2.4159232E2,1.84389E2,1.4043585E2,2.998953E2,3.735513E2,1.7959367E2,4.610652E2,7.805284E1,0E0,2.443045E2,4.7774716E2,4.5493542E2,2.0987271E2,3.721603E2,3.4510687E2,9.189453E2,3.5758585E2,5.7451084E1,1.1907349E0,4.086336E1,1.5567847E2,3.035238E2,2.95491E2,6.816954E2,1.0649638E2,2.3217975E2,2.454689E2,3.1374484E2,2.4553516E2,3.875821E2,3.2009125E2,2.7050348E2,2.5332043E2,4.4808786E2,1.559542E2,0E0,2.0474678E1,0E0,0E0,0E0,4.476596E0,1.1905786E2,0E0,2.8830298E2,8.068213E1,2.5631836E1,2.4885153E2,6.403528E1,4.0830066E2,5.598436E1,6.135941E1,5.1570168E1,5.6256073E1,1.8447284E2,2.0768224E2,0E0,0E0,0E0,0E0,0E0,0E0,0E0,0E0,0E0,0E0,0E0,0E0,0E0,0E0,0E0,0E0,0E0,0E0,0E0,0E0,0E0,0E0,0E0,0E0,0E0,0E0,0E0,0E0,0E0,0E0,0E0,0E0,0E0,0E0,0E0,0E0,0E0,0E0,0E0,0E0,0E0,0E0,0E0,0E0,0E0,0E0],"parents":[2147483647,0,0,1,1,2,2,3,3,4,4,5,5,6,6,7,7,8,8,9,9,11,11,12,12,13,13,14,14,15,15,16,16,17,17,18,18,19,19,20,20,21,21,22,22,23,23,24,24,25,25,26,26,27,27,28,28,29,29,30,30,31,31,32,32,33,33,34,34,35,35,36,36,38,38,42,42,43,43,45,45,46,46,47,47,48,48,49,49,50,50,51,51,52,52,53,53,54,54,55,55,56,56],"right_children":[2,4,6,8,10,12,14,16,18,20,-1,22,24,26,28,30,32,34,36,38,40,42,44,46,48,50,52,54,56,58,60,62,64,66,68,70,72,-1,74,-1,-1,-1,76,78,-1,80,82,84,86,88,90,92,94,96,98,100,102,-1,-1,-1,-1,-1,-1,-1,-1,-1,-1,-1,-1,-1,-1,-1,-1,-1,-1,-1,-1,-1,-1,-1,-1,-1,-1,-1,-1,-1,-1,-1,-1,-1,-1,-1,-1,-1,-1,-1,-1,-1,-1,-1,-1,-1,-1],"split_conditions":[5.1E1,2.186E1,3.4E1,4.3E1,2.0172853E1,3.37875E0,1.6266637E2,1.9008545E1,8.649583E0,2.9E1,2.538685E0,1.530741E1,2.4E1,7.412084E0,1.675064E1,1.858451E1,4.1225004E0,3.1245835E0,5.4E1,1.2324414E1,2.9E1,1.3104198E1,2.0885556E2,1.4057915E1,3.1E1,4.6724997E0,1.3526666E1,9.818334E0,7E1,4.02875E0,1.0424584E1,4E1,6.272501E0,2.1016667E0,3.1E1,4.9E1,2.3598233E2,1.3215637E0,1.4523018E2,6.113625E-1,1.6630399E0,-1.0018284E0,6.2E1,5.683333E-1,-8.198545E-1,1.4089119E2,1.99954E1,2.4E1,1.4622801E2,2.138897E1,5.6870837E0,5.8E1,5E-1,1.3246826E1,2.2816118E2,2.1007626E1,7.3E1,4.3059033E-1,-1.3790631E-1,2.2592044E0,3.055087E-1,-3.6113027E-1,-1.6808405E0,4.3479785E-1,-1.5606049E-1,8.217874E-2,-1.3566039E0,3.4421888E-1,1.6116097E0,4.3574E-2,3.7919192E0,-1.2608434E0,-1.4191978E-1,-8.521393E-1,1.0751467E-1,6.5292287E-1,-4.15741E-2,1.5383035E-1,2.7093062E0,-3.0152287E0,-4.553496E-1,-2.5598297E-1,1.9654428E0,6.6256946E-1,3.2800906E0,-5.6364757E-1,1.2610202E0,2.846965E-1,-8.419859E-1,3.9474761E0,1.0782034E0,-2.0044858E0,-3.7782192E-1,5.7323873E-1,-7.6688784E-1,-8.21219E-1,5.458111E-1,2.9887311E0,8.882013E-1,-1.8178138E0,-5.4195523E-1,1.7378193E0,-2.8897586E-1],"split_indices":[0,3,2,2,5,3,6,5,3,2,0,5,2,3,5,5,3,3,2,5,1,5,6,3,1,3,3,3,0,3,3,0,3,3,1,0,6,0,6,0,0,0,0,3,0,6,5,1,6,5,3,0,4,5,6,5,0,0,0,0,0,0,0,0,0,0,0,0,0,0,0,0,0,0,0,0,0,0,0,0,0,0,0,0,0,0,0,0,0,0,0,0,0,0,0,0,0,0,0,0,0,0,0],"split_type":[0,0,0,0,0,0,0,0,0,0,0,0,0,0,0,0,0,0,0,0,0,0,0,0,0,0,0,0,0,0,0,0,0,0,0,0,0,0,0,0,0,0,0,0,0,0,0,0,0,0,0,0,0,0,0,0,0,0,0,0,0,0,0,0,0,0,0,0,0,0,0,0,0,0,0,0,0,0,0,0,0,0,0,0,0,0,0,0,0,0,0,0,0,0,0,0,0,0,0,0,0,0,0],"sum_hessian":[1.752E3,1.535E3,2.17E2,1.52E3,1.5E1,7.6E1,1.41E2,1.27E3,2.5E2,1.2E1,3E0,2.1E1,5.5E1,5.6E1,8.5E1,4.91E2,7.79E2,1.33E2,1.17E2,8E0,4E0,5E0,1.6E1,2.3E1,3.2E1,3.7E1,1.9E1,1.5E1,7E1,4.68E2,2.3E1,1.86E2,5.93E2,5.9E1,7.4E1,6.9E1,4.8E1,1E0,7E0,2E0,2E0,2E0,3E0,1.5E1,1E0,1.8E1,5E0,5E0,2.7E1,1.8E1,1.9E1,8E0,1.1E1,9E0,6E0,4.7E1,2.3E1,1.15E2,3.53E2,1E1,1.3E1,1.64E2,2.2E1,9.8E1,4.95E2,4.4E1,1.5E1,2E1,5.4E1,6.7E1,2E0,3E1,1.8E1,4E0,3E0,2E0,1E0,2E0,1.3E1,5E0,1.3E1,2E0,3E0,1E0,4E0,1E1,1.7E1,1.2E1,6E0,8E0,1.1E1,4E0,4E0,7E0,4E0,6E0,3E0,2E0,4E0,1.5E1,3.2E1,5E0,1.8E1],"tree_param":{"num_deleted":"0","num_feature":"7","num_nodes":"103","size_leaf_vector":"1"}},{"base_weights":[3.6300942E-2,4.384684E-3,2.4367678E0,-1.602076E0,4.7233734E-2,-1.9759208E0,4.1104183E0,-3.1285462E0,2.0014327E0,8.4260546E-2,-1.7554008E0,5.523022E-1,-3.8708935E0,-2.0499484E-1,5.9255896E0,-4.0206923E0,-1.0598407E0,-4.4701895E-1,3.8936486E0,8.849946E-1,-3.2167424E-2,-2.1707075E0,9.7790146E-1,-1.3138175E0,-2.755351E-1,-4.4287295E0,3.0140548E0,2.3434668E0,3.4625344E0,-4.444235E0,1.431551E-1,-2.8736365E0,9.305951E-1,-8.069235E-1,3.7505952E-1,1.9387525E0,2.6034532E0,1.6496793E0,-4.572488E-1,-1.3059494E0,7.999561E-2,-2.8729656E0,7.477805E-1,-2.4786673E-1,-1.7450615E0,1.2661281E0,3.6153662E-1,1.243522E0,3.512375E-1,-1.3823724E0,-2.001672E-1,2.756284E-1,-2.112086E-1,-1.0817957E-2,-1.030182E0,-2.809949E-1,6.29514E-1,7.336058E-1,-3.8142756E-1,3.3053458E-1,8.951296E-1,-1.3468899E-1,7.642485E-1,3.737002E-1,-5.28824E-1,4.1884613E-1,-6.5152097E-1,7.420739E-1,5.6455313E-4,-6.134071E-1,-1.7828354E0,5.163671E-1,4.2475895E-3],"categories":[],"categories_nodes":[],"categories_segments":[],"categories_sizes":[],"default_left":[0,0,0,0,0,0,0,0,0,0,0,0,0,0,0,0,0,0,0,0,0,0,0,0,0,0,0,0,0,0,0,0,0,0,0,0,0,0,0,0,0,0,0,0,0,0,0,0,0,0,0,0,0,0,0,0,0,0,0,0,0,0,0,0,0,0,0,0,0,0,0,0,0],"id":13,"left_children":[1,3,5,7,9,11,13,15,17,19,21,-1,23,25,27,29,31,33,35,37,39,41,-1,-1,-1,43,45,-1,47,49,51,53,55,-1,57,-1,59,61,63,65,67,69,71,-1,-1,-1,-1,-1,-1,-1,-1,-1,-1,-1,-1,-1,-1,-1,-1,-1,-1,-1,-1,-1,-1,-1,-1,-1,-1,-1,-1,-1,-1],"loss_changes":[1.3429352E2,1.19229614E2,1.7798369E2,2.5379077E2,1.12748085E2,5.7757164E1,1.3437936E2,5.4797516E1,6.660252E1,1.5422731E2,7.789076E1,0E0,3.4843063E0,9.4926895E1,2.8695099E1,3.9434692E1,4.238688E1,1.3914692E1,9.689804E0,2.1629683E2,2.0655344E2,6.773337E1,0E0,0E0,0E0,1.0196346E1,3.6428528E0,0E0,6.096405E0,9.289368E0,2.618077E0,9.415592E0,1.5048685E1,0E0,2.3561317E1,0E0,7.102699E-1,2.5362576E2,1.7337859E2,2.7674722E2,2.4848093E2,5.395787E1,4.9746037E0,0E0,0E0,0E0,0E0,0E0,0E0,0E0,0E0,0E0,0E0,0E0,0E0,0E0,0E0,0E0,0E0,0E0,0E0,0E0,0E0,0E0,0E0,0E0,0E0,0E0,0E0,0E0,0E0,0E0,0E0],"parents":[2147483647,0,0,1,1,2,2,3,3,4,4,5,5,6,6,7,7,8,8,9,9,10,10,12,12,13,13,14,14,15,15,16,16,17,17,18,18,19,19,20,20,21,21,25,25,26,26,28,28,29,29,30,30,31,31,32,32,34,34,36,36,37,37,38,38,39,39,40,40,41,41,42,42],"right_children":[2,4,6,8,10,12,14,16,18,20,22,-1,24,26,28,30,32,34,36,38,40,42,-1,-1,-1,44,46,-1,48,50,52,54,56,-1,58,-1,60,62,64,66,68,70,72,-1,-1,-1,-1,-1,-1,-1,-1,-1,-1,-1,-1,-1,-1,-1,-1,-1,-1,-1,-1,-1,-1,-1,-1,-1,-1,-1,-1,-1,-1],"split_conditions":[4.315986E1,8E0,2.4188803E2,8.000001E-1,1.4399998E1,3.72875E0,1.7E1,1.2245418E1,7.487729E1,1.5E1,1.787875E1,5.523022E-1,3.1E1,4.1225004E0,2.6924142E2,3.7E1,9E0,8E0,5E0,2.256333E2,1.5E1,3.612398E1,9.7790146E-1,-1.3138175E0,-2.755351E-1,2.2E1,1.8E1,2.3434668E0,4.9412494E0,6E-1,7E0,7E0,5.5750957E1,-8.069235E-1,2.0674156E1,1.9387525E0,1.4E1,1E1,2.0605871E1,1.6055355E1,1.6E1,2.8E1,1.7E1,-2.4786673E-1,-1.7450615E0,1.2661281E0,3.6153662E-1,1.243522E0,3.512375E-1,-1.3823724E0,-2.001672E-1,2.756284E-1,-2.112086E-1,-1.0817957E-2,-1.030182E0,-2.809949E-1,6.29514E-1,7.336058E-1,-3.8142756E-1,3.3053458E-1,8.951296E-1,-1.3468899E-1,7.642485E-1,3.737002E-1,-5.28824E-1,4.1884613E-1,-6.5152097E-1,7.420739E-1,5.6455313E-4,-6.134071E-1,-1.7828354E0,5.163671E-1,4.2475895E-3],"split_indices":[5,0,6,4,4,3,1,3,6,1,3,0,1,3,6,1,1,2,1,6,2,5,0,0,0,0,0,0,3,4,0,1,6,0,5,0,1,1,5,5,2,0,2,0,0,0,0,0,0,0,0,0,0,0,0,0,0,0,0,0,0,0,0,0,0,0,0,0,0,0,0,0,0],"split_type":[0,0,0,0,0,0,0,0,0,0,0,0,0,0,0,0,0,0,0,0,0,0,0,0,0,0,0,0,0,0,0,0,0,0,0,0,0,0,0,0,0,0,0,0,0,0,0,0,0,0,0,0,0,0,0,0,0,0,0,0,0,0,0,0,0,0,0,0,0,0,0,0,0],"sum_hessian":[1.752E3,1.73E3,2.2E1,4.4E1,1.686E3,6E0,1.6E1,3.1E1,1.3E1,1.653E3,3.3E1,2E0,4E0,5E0,1.1E1,2.1E1,1E1,6E0,7E0,2.09E2,1.444E3,3.1E1,2E0,3E0,1E0,2E0,3E0,5E0,6E0,1.9E1,2E0,5E0,5E0,1E0,5E0,1E0,6E0,1.33E2,7.6E1,1.16E2,1.328E3,2.5E1,6E0,1E0,1E0,1E0,2E0,4E0,2E0,1.8E1,1E0,1E0,1E0,1E0,4E0,2E0,3E0,2E0,3E0,2E0,4E0,4E1,9.3E1,3.3E1,4.3E1,2.8E1,8.8E1,4.1E1,1.287E3,2.1E1,4E0,2E0,4E0],"tree_param":{"num_deleted":"0","num_feature":"7","num_nodes":"73","size_leaf_vector":"1"}},{"base_weights":[2.7191427E-2,-1.4633478E0,7.633336E-2,3.0144384E0,-2.5023108E0,5.5679195E-2,3.2388694E0,7.3894715E-1,6.8118114E0,-3.7103107E0,2.4157625E-1,-2.630868E0,8.621136E-2,4.425587E0,-4.2027208E-1,6.931349E-1,-1.4101677E0,4.0427E-1,2.4552112E0,-1.55299E0,-6.0517416E0,2.2867167E0,-8.30081E-1,-3.0777779E0,8.1202704E-1,2.7347884E-1,-3.0296713E-1,3.1603432E-1,1.4146271E0,-4.9667645E-2,-5.309554E-1,-2.5583026E0,2.3438454E-2,-8.152795E0,-2.4858522E0,-1.8120012E0,1.2997757E0,-3.621698E0,2.5471622E-1,1.4922878E0,7.923975E-2,-2.2478657E0,-1.3964303E-1,-3.7883855E-2,-9.2541635E-1,2.3410393E-1,-1.7603269E-1,-3.2612717E-1,-2.6700366E0,-1.4320803E0,1.2700768E-1,-1.1736199E0,-2.3939303E-1,5.9853935E-1,5.1348496E-2,-1.9785717E0,-7.28451E-1,6.6530263E-1,-1.2455769E0,-1.1348786E0,4.6774633E-2,5.9184246E-2,-9.3655866E-1,-8.4260976E-1,-6.919991E-3],"categories":[],"categories_nodes":[],"categories_segments":[],"categories_sizes":[],"default_left":[0,0,0,0,0,0,0,0,0,0,0,0,0,0,0,0,0,0,0,0,0,0,0,0,0,0,0,0,0,0,0,0,0,0,0,0,0,0,0,0,0,0,0,0,0,0,0,0,0,0,0,0,0,0,0,0,0,0,0,0,0,0,0,0,0],"id":14,"left_children":[1,3,5,7,9,11,13,15,17,19,21,23,25,27,-1,-1,29,-1,-1,31,33,-1,35,37,-1,39,41,-1,-1,-1,-1,43,45,47,49,51,53,55,-1,57,59,61,63,-1,-1,-1,-1,-1,-1,-1,-1,-1,-1,-1,-1,-1,-1,-1,-1,-1,-1,-1,-1,-1,-1],"loss_changes":[1.2851541E2,2.680693E2,1.1073224E2,9.001622E1,1.5336862E2,1.3868687E2,6.6767E1,3.0276836E1,1.8964172E1,1.5224066E2,1.2497272E2,5.36541E1,1.2179324E2,3.8288574E0,0E0,0E0,1.4976459E0,0E0,0E0,2.8586418E1,9.2115234E1,0E0,3.1634089E1,4.152089E1,0E0,2.6692487E2,1.7216942E2,0E0,0E0,0E0,0E0,1.3693344E1,4.152895E0,3.7848267E1,4.8609745E1,1.8173435E1,3.58245E0,4.07697E1,0E0,6.4381494E2,2.8902472E2,9.037195E1,1.5613199E2,0E0,0E0,0E0,0E0,0E0,0E0,0E0,0E0,0E0,0E0,0E0,0E0,0E0,0E0,0E0,0E0,0E0,0E0,0E0,0E0,0E0,0E0],"parents":[2147483647,0,0,1,1,2,2,3,3,4,4,5,5,6,6,7,7,8,8,9,9,10,10,11,11,12,12,13,13,16,16,19,19,20,20,22,22,23,23,25,25,26,26,31,31,32,32,33,33,34,34,35,35,36,36,37,37,39,39,40,40,41,41,42,42],"right_children":[2,4,6,8,10,12,14,16,18,20,22,24,26,28,-1,-1,30,-1,-1,32,34,-1,36,38,-1,40,42,-1,-1,-1,-1,44,46,48,50,52,54,56,-1,58,60,62,64,-1,-1,-1,-1,-1,-1,-1,-1,-1,-1,-1,-1,-1,-1,-1,-1,-1,-1,-1,-1,-1,-1],"split_conditions":[-1.5420834E0,1.4E1,1.06E2,6.188777E1,2.8E1,7.736915E0,1.36E2,3.8455254E1,1E1,6.2987446E1,1.8E1,7.1E1,2.565811E2,3.5808334E0,-4.2027208E-1,6.931349E-1,1.7137852E1,4.0427E-1,2.4552112E0,1.6E1,2.333941E2,2.2867167E0,1.7533146E1,1.3949584E1,8.1202704E-1,2.3433332E0,2.6318106E2,3.1603432E-1,1.4146271E0,-4.9667645E-2,-5.309554E-1,1.243434E1,1.6E1,9E0,-2.6441667E0,1.9E1,-2.6441667E0,2.6241088E0,2.5471622E-1,5.3E1,2.7891665E0,1.7077248E1,1E1,-3.7883855E-2,-9.2541635E-1,2.3410393E-1,-1.7603269E-1,-3.2612717E-1,-2.6700366E0,-1.4320803E0,1.2700768E-1,-1.1736199E0,-2.3939303E-1,5.9853935E-1,5.1348496E-2,-1.9785717E0,-7.28451E-1,6.6530263E-1,-1.2455769E0,-1.1348786E0,4.6774633E-2,5.9184246E-2,-9.3655866E-1,-8.4260976E-1,-6.919991E-3],"split_indices":[3,2,0,6,1,6,0,6,0,6,0,0,6,3,0,0,5,0,0,0,6,0,5,3,0,3,6,0,0,0,0,5,1,0,3,2,3,6,0,1,3,5,0,0,0,0,0,0,0,0,0,0,0,0,0,0,0,0,0,0,0,0,0,0,0],"split_type":[0,0,0,0,0,0,0,0,0,0,0,0,0,0,0,0,0,0,0,0,0,0,0,0,0,0,0,0,0,0,0,0,0,0,0,0,0,0,0,0,0,0,0,0,0,0,0,0,0,0,0,0,0,0,0,0,0,0,0,0,0,0,0,0,0],"sum_hessian":[1.752E3,5.5E1,1.697E3,1E1,4.5E1,1.687E3,1E1,7E0,3E0,3.1E1,1.4E1,1.8E1,1.669E3,8E0,2E0,4E0,3E0,1E0,2E0,1.7E1,1.4E1,1E0,1.3E1,1.7E1,1E0,1.127E3,5.42E2,1E0,7E0,1E0,2E0,1E1,7E0,8E0,6E0,9E0,4E0,1.5E1,2E0,1.54E2,9.73E2,4.1E1,5.01E2,2E0,8E0,3E0,4E0,1E0,7E0,3E0,3E0,2E0,7E0,2E0,2E0,3E0,1.2E1,1.37E2,1.7E1,1.8E1,9.55E2,1.1E1,3E1,2E1,4.81E2],"tree_param":{"num_deleted":"0","num_feature":"7","num_nodes":"65","size_leaf_vector":"1"}},{"base_weights":[1.6503332E-2,-2.5586672E-2,1.4506006E0,-7.692265E-2,1.1562241E0,-7.416817E-1,4.274491E0,-1.5130588E-1,6.822113E-1,1.715587E-1,2.4962149E0,1.0039477E0,-4.732408E0,7.3335676E0,-1.2975827E-1,-3.138904E-2,-1.2798141E0,4.5771923E0,3.9292648E-1,1.5100169E0,-2.3383338E0,-1.3259901E0,3.5070157E0,3.0958862E0,-5.215441E-1,1.2058772E0,-6.3288565E0,4.794407E0,4.259791E0,-2.1388175E0,2.511324E0,-2.5243875E-1,6.29237E-1,-3.0144396E0,4.248191E-1,1.6022727E0,3.2953742E0,1.9368036E0,2.0900656E-1,-1.6713083E0,2.6500447E0,-9.051855E0,9.436766E-2,1.5840359E0,-2.8068078E0,4.1981206E0,4.119263E-2,-7.318484E-1,4.2940745E0,1.3937736E0,-2.9883769E0,-7.091845E0,-1.4819069E-1,1.2019287E0,6.6755476E0,2.0069966E0,3.437678E-3,-4.7621336E-2,-7.9351014E-1,6.7517483E-1,-4.5696925E-2,-1.7531221E0,-6.0465497E-1,5.915713E-1,-5.2045244E-1,1.1571671E0,-1.032516E0,2.4586894E-1,-2.81583E-1,-3.9453078E-2,-7.706656E-1,1.2357538E0,1.8662372E-1,-3.0018485E-1,-3.4206188E0,8.328915E-1,-9.150862E-1,-2.2611238E-2,7.354274E-1,-1.04043394E-1,-1.0005312E0,2.1375202E-1,1.6923188E0,-8.8982433E-1,9.1042066E-1,-4.4568044E-1,1.16348654E-1,2.0678903E-1,1.4339964E0,-3.7034056E-1,9.652838E-1,-1.5579623E0,2.8425676E-1,-2.5352275E0,-7.3891246E-1,-7.4234017E-4,6.017067E-1,2.2512481E0,2.5558063E-1,3.5610902E-1,-8.8717866E-1],"categories":[],"categories_nodes":[],"categories_segments":[],"categories_sizes":[],"default_left":[0,0,0,0,0,0,0,0,0,0,0,0,0,0,0,0,0,0,0,0,0,0,0,0,0,0,0,0,0,0,0,0,0,0,0,0,0,0,0,0,0,0,0,0,0,0,0,0,0,0,0,0,0,0,0,0,0,0,0,0,0,0,0,0,0,0,0,0,0,0,0,0,0,0,0,0,0,0,0,0,0,0,0,0,0,0,0,0,0,0,0,0,0,0,0,0,0,0,0,0,0],"id":15,"left_children":[1,3,5,7,9,11,13,15,17,19,21,23,25,27,29,31,33,35,37,39,41,43,45,47,49,-1,51,53,-1,-1,55,57,59,61,63,65,-1,-1,67,69,71,73,75,77,79,81,83,85,87,89,91,93,-1,95,97,-1,99,-1,-1,-1,-1,-1,-1,-1,-1,-1,-1,-1,-1,-1,-1,-1,-1,-1,-1,-1,-1,-1,-1,-1,-1,-1,-1,-1,-1,-1,-1,-1,-1,-1,-1,-1,-1,-1,-1,-1,-1,-1,-1,-1,-1],"loss_changes":[1.05850235E2,1.0346961E2,3.1270856E2,9.2370026E1,9.3252174E1,2.0677466E2,2.9735623E2,2.0146193E2,1.6270828E2,1.4462515E2,1.2055492E2,6.8630585E1,1.5118843E2,1.5855438E2,2.0277028E2,1.9686287E2,4.2411725E2,1.7301436E2,1.5142238E2,1.0597942E2,2.458341E2,3.4610603E1,5.731299E1,4.441974E1,6.558711E1,0E0,3.2112457E1,6.631404E1,0E0,0E0,8.3813934E1,2.2601047E2,4.2864935E2,1.8888586E2,2.4732697E2,1.0426712E2,0E0,0E0,9.466101E1,1.0718863E1,6.0003983E1,6.427927E1,1.0967374E2,4.5028167E0,5.341385E0,9.657144E1,5.401328E1,3.1080394E0,8.966431E0,4.231996E1,5.6988625E1,2.3216461E1,0E0,4.8452196E0,2.738556E1,0E0,2.4535929E1,0E0,0E0,0E0,0E0,0E0,0E0,0E0,0E0,0E0,0E0,0E0,0E0,0E0,0E0,0E0,0E0,0E0,0E0,0E0,0E0,0E0,0E0,0E0,0E0,0E0,0E0,0E0,0E0,0E0,0E0,0E0,0E0,0E0,0E0,0E0,0E0,0E0,0E0,0E0,0E0,0E0,0E0,0E0,0E0],"parents":[2147483647,0,0,1,1,2,2,3,3,4,4,5,5,6,6,7,7,8,8,9,9,10,10,11,11,12,12,13,13,14,14,15,15,16,16,17,17,18,18,19,19,20,20,21,21,22,22,23,23,24,24,26,26,27,27,30,30,31,31,32,32,33,33,34,34,35,35,38,38,39,39,40,40,41,41,42,42,43,43,44,44,45,45,46,46,47,47,48,48,49,49,50,50,51,51,53,53,54,54,56,56],"right_children":[2,4,6,8,10,12,14,16,18,20,22,24,26,28,30,32,34,36,38,40,42,44,46,48,50,-1,52,54,-1,-1,56,58,60,62,64,66,-1,-1,68,70,72,74,76,78,80,82,84,86,88,90,92,94,-1,96,98,-1,100,-1,-1,-1,-1,-1,-1,-1,-1,-1,-1,-1,-1,-1,-1,-1,-1,-1,-1,-1,-1,-1,-1,-1,-1,-1,-1,-1,-1,-1,-1,-1,-1,-1,-1,-1,-1,-1,-1,-1,-1,-1,-1,-1,-1],"split_conditions":[7.6E1,1.9674585E1,2.3847115E1,5.4E1,1.5301505E2,6.3308334E0,2.4031413E2,4.7E1,5.5E1,3.4E1,1.27546215E1,8.6E1,3.6E1,2.7859905E1,8.2E1,3.1E1,2.1758419E1,2.4884306E1,1.7E1,1.9E1,3.9E1,1.9E1,5.3E1,3.6E1,8.4E1,1.2058772E0,6.3E1,5.993334E0,4.259791E0,-2.1388175E0,4.8E1,3E1,1.7974781E1,2.8370836E0,8.112083E0,5.5E1,3.2953742E0,1.9368036E0,1E0,2.046625E1,2.186E1,2.5E1,1.25752785E2,1.8E1,1.9793333E1,2.4E1,4.2E1,2.2E1,1.1253527E2,2.01625E0,1.09E2,1.3724583E1,-1.4819069E-1,7.2E1,9.20375E0,2.0069966E0,1.17E2,-4.7621336E-2,-7.9351014E-1,6.7517483E-1,-4.5696925E-2,-1.7531221E0,-6.0465497E-1,5.915713E-1,-5.2045244E-1,1.1571671E0,-1.032516E0,2.4586894E-1,-2.81583E-1,-3.9453078E-2,-7.706656E-1,1.2357538E0,1.8662372E-1,-3.0018485E-1,-3.4206188E0,8.328915E-1,-9.150862E-1,-2.2611238E-2,7.354274E-1,-1.04043394E-1,-1.0005312E0,2.1375202E-1,1.6923188E0,-8.8982433E-1,9.1042066E-1,-4.4568044E-1,1.16348654E-1,2.0678903E-1,1.4339964E0,-3.7034056E-1,9.652838E-1,-1.5579623E0,2.8425676E-1,-2.5352275E0,-7.3891246E-1,-7.4234017E-4,6.017067E-1,2.2512481E0,2.5558063E-1,3.5610902E-1,-8.8717866E-1],"split_indices":[2,3,5,0,6,3,6,1,0,1,5,2,1,5,2,1,5,5,1,1,1,0,0,0,1,0,0,3,0,0,0,1,5,3,3,1,0,0,4,3,3,2,6,0,3,1,1,0,6,3,2,3,0,0,3,0,1,0,0,0,0,0,0,0,0,0,0,0,0,0,0,0,0,0,0,0,0,0,0,0,0,0,0,0,0,0,0,0,0,0,0,0,0,0,0,0,0,0,0,0,0],"split_type":[0,0,0,0,0,0,0,0,0,0,0,0,0,0,0,0,0,0,0,0,0,0,0,0,0,0,0,0,0,0,0,0,0,0,0,0,0,0,0,0,0,0,0,0,0,0,0,0,0,0,0,0,0,0,0,0,0,0,0,0,0,0,0,0,0,0,0,0,0,0,0,0,0,0,0,0,0,0,0,0,0,0,0,0,0,0,0,0,0,0,0,0,0,0,0,0,0,0,0,0,0],"sum_hessian":[1.752E3,1.703E3,4.9E1,1.633E3,7E1,2.8E1,2.1E1,1.488E3,1.45E2,4.1E1,2.9E1,2E1,8E0,1.2E1,9E0,1.346E3,1.42E2,9E0,1.36E2,2.7E1,1.4E1,6E0,2.3E1,8E0,1.2E1,1E0,7E0,1E1,2E0,2E0,7E0,1.009E3,3.37E2,7E1,7.2E1,7E0,2E0,3E0,1.33E2,7E0,2E1,3E0,1.1E1,2E0,4E0,1.9E1,4E0,2E0,6E0,7E0,5E0,6E0,1E0,4E0,6E0,2E0,5E0,9.72E2,3.7E1,1.09E2,2.28E2,1.7E1,5.3E1,4.2E1,3E1,5E0,2E0,8.7E1,4.6E1,3E0,4E0,1.1E1,9E0,1E0,2E0,6E0,5E0,1E0,1E0,1E0,3E0,6E0,1.3E1,2E0,2E0,1E0,1E0,1E0,5E0,3E0,4E0,3E0,2E0,4E0,2E0,2E0,2E0,5E0,1E0,4E0,1E0],"tree_param":{"num_deleted":"0","num_feature":"7","num_nodes":"101","size_leaf_vector":"1"}},{"base_weights":[1.51390685E-2,-1.042179E-2,1.9382132E0,-3.8950518E-1,1.0268586E-1,-1.4245633E0,3.2088735E0,-8.3345824E-1,4.913685E-1,1.8650751E-1,-8.1353337E-1,4.4181824E-1,-2.878025E0,-2.1880785E-2,4.556844E0,1.6480666E0,-8.7823313E-1,1.3598914E0,-1.3782936E0,1.2937503E-1,2.62022E0,-1.2269188E0,4.7138424E0,-9.6207625E-1,-2.3436643E-1,-3.7459571E0,2.7766466E0,1.75268E0,2.8040767E0,-1.344255E0,-3.078048E-1,-2.383634E0,2.006087E0,1.5503367E0,-2.4334583E0,1.7645396E-1,-2.6476893E0,5.183262E-1,8.851854E0,-4.2703443E0,-2.7244288E-1,3.1257865E0,1.0754789E0,-2.1055956E-1,-1.4751211E0,9.515992E-1,2.385893E-1,2.0780183E-1,9.121596E-1,-2.210467E-1,-9.488877E-1,-2.520332E-1,8.265804E-1,-1.0491124E0,1.8135991E0,3.902516E0,4.2018688E-1,9.597893E-2,1.1793505E0,-1.016355E0,1.4964867E-3,6.8933374E-1,3.454837E-2,-1.5523012E0,-3.585735E-1,6.438231E-1,-1.2540066E0,7.7266675E-1,3.8745568E0,2.218399E0,-1.5193492E0,1.0208268E0,-2.695755E-1,4.362558E-1,6.361294E-2],"categories":[],"categories_nodes":[],"categories_segments":[],"categories_sizes":[],"default_left":[0,0,0,0,0,0,0,0,0,0,0,0,0,0,0,0,0,0,0,0,0,0,0,0,0,0,0,0,0,0,0,0,0,0,0,0,0,0,0,0,0,0,0,0,0,0,0,0,0,0,0,0,0,0,0,0,0,0,0,0,0,0,0,0,0,0,0,0,0,0,0,0,0,0,0],"id":16,"left_children":[1,3,5,7,9,11,13,15,17,19,21,-1,23,25,27,-1,29,31,33,35,37,39,41,-1,-1,43,45,-1,47,49,51,53,55,57,59,61,63,65,67,69,71,-1,73,-1,-1,-1,-1,-1,-1,-1,-1,-1,-1,-1,-1,-1,-1,-1,-1,-1,-1,-1,-1,-1,-1,-1,-1,-1,-1,-1,-1,-1,-1,-1,-1],"loss_changes":[8.618967E1,7.426048E1,1.0284898E2,1.5605405E2,1.0260159E2,3.3716255E1,7.4134094E1,7.9896805E1,2.1946948E2,1.6971187E2,2.6169638E2,0E0,9.4283676E-1,7.293278E1,1.0654388E1,0E0,6.9765884E1,2.2733438E2,1.3665073E2,1.5683371E2,3.6216235E2,3.0384857E2,1.5486217E2,0E0,0E0,7.2438087E0,6.1063004E-1,0E0,1.3886681E0,1.5785684E2,1.979737E2,1.5252896E2,5.080385E2,3.3894997E1,7.448837E1,1.5277109E2,6.7211716E1,1.772209E2,1.4525513E2,2.690452E2,1.8945459E2,0E0,1.6535859E0,0E0,0E0,0E0,0E0,0E0,0E0,0E0,0E0,0E0,0E0,0E0,0E0,0E0,0E0,0E0,0E0,0E0,0E0,0E0,0E0,0E0,0E0,0E0,0E0,0E0,0E0,0E0,0E0,0E0,0E0,0E0,0E0],"parents":[2147483647,0,0,1,1,2,2,3,3,4,4,5,5,6,6,7,7,8,8,9,9,10,10,12,12,13,13,14,14,16,16,17,17,18,18,19,19,20,20,21,21,22,22,25,25,26,26,28,28,29,29,30,30,31,31,32,32,33,33,34,34,35,35,36,36,37,37,38,38,39,39,40,40,42,42],"right_children":[2,4,6,8,10,12,14,16,18,20,22,-1,24,26,28,-1,30,32,34,36,38,40,42,-1,-1,44,46,-1,48,50,52,54,56,58,60,62,64,66,68,70,72,-1,74,-1,-1,-1,-1,-1,-1,-1,-1,-1,-1,-1,-1,-1,-1,-1,-1,-1,-1,-1,-1,-1,-1,-1,-1,-1,-1,-1,-1,-1,-1,-1,-1],"split_conditions":[4.315986E1,1.8E1,2.4188803E2,2.3623243E1,3.2559605E1,3.72875E0,1.7E1,5E0,2.5110577E2,3.1688177E1,1.5020416E1,4.4181824E-1,3.1E1,4.1225004E0,2.6924142E2,1.6480666E0,2.1E1,6.7666674E-1,2E1,3.106239E1,3.5E1,2.1022533E2,2.1E1,-9.6207625E-1,-2.3436643E-1,2.2E1,2.1E1,1.75268E0,2E1,2.1999998E0,1.7E0,4.1947342E1,1.4829167E0,1.6120417E1,3.2050613E1,1.2E1,1.9E1,3.1E1,5E-1,8.433084E1,1.8E1,3.1257865E0,2.4E1,-2.1055956E-1,-1.4751211E0,9.515992E-1,2.385893E-1,2.0780183E-1,9.121596E-1,-2.210467E-1,-9.488877E-1,-2.520332E-1,8.265804E-1,-1.0491124E0,1.8135991E0,3.902516E0,4.2018688E-1,9.597893E-2,1.1793505E0,-1.016355E0,1.4964867E-3,6.8933374E-1,3.454837E-2,-1.5523012E0,-3.585735E-1,6.438231E-1,-1.2540066E0,7.7266675E-1,3.8745568E0,2.218399E0,-1.5193492E0,1.0208268E0,-2.695755E-1,4.362558E-1,6.361294E-2],"split_indices":[5,0,6,5,5,3,1,1,6,5,3,0,1,3,6,0,2,3,2,5,0,6,1,0,0,0,0,0,0,4,4,5,3,3,5,1,1,1,4,6,2,0,0,0,0,0,0,0,0,0,0,0,0,0,0,0,0,0,0,0,0,0,0,0,0,0,0,0,0,0,0,0,0,0,0],"split_type":[0,0,0,0,0,0,0,0,0,0,0,0,0,0,0,0,0,0,0,0,0,0,0,0,0,0,0,0,0,0,0,0,0,0,0,0,0,0,0,0,0,0,0,0,0,0,0,0,0,0,0,0,0,0,0,0,0,0,0,0,0,0,0,0,0,0,0,0,0,0,0,0,0,0,0],"sum_hessian":[1.752E3,1.73E3,2.2E1,3.97E2,1.333E3,6E0,1.6E1,2.64E2,1.33E2,1.222E3,1.11E2,2E0,4E0,5E0,1.1E1,1E0,2.63E2,9.1E1,4.2E1,1.195E3,2.7E1,1.04E2,7E0,3E0,1E0,2E0,3E0,5E0,6E0,1.44E2,1.19E2,1.3E1,7.8E1,1.1E1,3.1E1,1.176E3,1.9E1,2.1E1,6E0,2.4E1,8E1,2E0,5E0,1E0,1E0,2E0,1E0,1E0,5E0,1.09E2,3.5E1,1.02E2,1.7E1,1.2E1,1E0,3E0,7.5E1,8E0,3E0,2.2E1,9E0,3.2E1,1.144E3,6E0,1.3E1,1.6E1,5E0,3E0,3E0,1E0,2.3E1,1.1E1,6.9E1,3E0,2E0],"tree_param":{"num_deleted":"0","num_feature":"7","num_nodes":"75","size_leaf_vector":"1"}},{"base_weights":[1.9695317E-2,1.7242719E-1,-2.7633563E-1,3.0629545E-1,-9.65769E-1,-4.427525E0,-1.7634764E-1,-2.0946133E0,3.7997523E-1,-1.6639725E0,1.8098196E0,-6.153454E0,-1.1007109E0,-3.6059514E-1,1.3262975E0,-3.9281564E0,2.1486423E0,2.8046837E-1,2.5491827E0,-3.5604506E0,-4.5528167E-1,2.803265E0,-5.4099053E-1,-4.057217E-1,-2.1995945E0,-8.801356E-1,5.4927254E-1,1.2698275E0,-5.83593E-1,-5.921661E-1,3.8140426E0,-5.2127333E0,1.481952E0,6.837953E0,-8.379127E-1,-5.612919E-1,4.9218398E-1,3.63255E0,-3.6961234E0,-4.1165204E0,2.5521202E0,4.4921136E0,-1.0766723E0,2.2516594E0,-2.2179296E0,5.2059865E-1,-4.513344E-1,-7.355067E0,1.9792283E0,-2.916496E0,-4.136546E-1,-2.099847E0,6.565359E-1,6.340843E0,2.3896632E0,-1.637218E-1,-2.2502258E0,2.5231214E0,-7.0582867E-1,6.075288E-1,2.330162E0,-7.544123E-1,6.7081493E-1,-1.318666E-1,-2.4496002E0,1.1907746E0,1.0814647E-1,4.163169E-1,1.6151128E0,-1.4953475E0,6.051127E-1,1.5059701E0,-1.4346082E0,1.5135441E-2,3.1192539E0,-1.3971745E-2,-8.226706E-1,-1.7351227E-1,9.8741996E-1,-9.3837017E-1,5.573818E-1,-9.4699913E-1,-2.7305343E0,3.812278E-1,1.9010621E0,4.525077E-1,-1.0333374E0,1.0654438E-1,-2.549572E-1,3.1402066E-1,-8.5466456E-1,1.6293781E0,4.387101E-2,9.271374E-2,1.7687426E0],"categories":[],"categories_nodes":[],"categories_segments":[],"categories_sizes":[],"default_left":[0,0,0,0,0,0,0,0,0,0,0,0,0,0,0,0,0,0,0,0,0,0,0,0,0,0,0,0,0,0,0,0,0,0,0,0,0,0,0,0,0,0,0,0,0,0,0,0,0,0,0,0,0,0,0,0,0,0,0,0,0,0,0,0,0,0,0,0,0,0,0,0,0,0,0,0,0,0,0,0,0,0,0,0,0,0,0,0,0,0,0,0,0,0,0],"id":17,"left_children":[1,3,5,7,9,11,13,15,17,19,21,23,25,27,29,31,33,35,37,39,41,-1,43,-1,-1,-1,45,47,49,51,53,55,57,59,61,63,65,67,69,71,-1,73,75,77,79,-1,-1,81,83,85,87,89,91,-1,93,-1,-1,-1,-1,-1,-1,-1,-1,-1,-1,-1,-1,-1,-1,-1,-1,-1,-1,-1,-1,-1,-1,-1,-1,-1,-1,-1,-1,-1,-1,-1,-1,-1,-1,-1,-1,-1,-1,-1,-1],"loss_changes":[7.930667E1,1.7658597E2,2.470155E2,1.8406271E2,2.3943842E2,7.361264E1,1.6216368E2,2.4962611E2,2.1643118E2,2.2302002E2,4.4785352E2,4.100769E1,1.9758701E1,1.9016669E2,3.0770807E2,1.6061841E2,1.4577846E2,1.7189612E2,3.1112866E2,2.9001404E2,1.923667E2,0E0,9.8656105E1,0E0,0E0,0E0,1.2354022E1,4.0002325E2,1.8076407E2,7.103646E1,6.4034247E2,1.8811359E2,1.5263084E2,2.1601257E0,4.1703842E1,1.7599472E2,3.5116354E2,1.4190872E2,6.1578545E1,2.4897833E2,0E0,1.8308394E2,9.4235565E1,2.5443657E1,5.4027428E1,0E0,0E0,7.935791E0,1.7409555E2,7.761627E1,1.4416858E2,4.3049316E1,5.037305E1,0E0,1.9514148E2,0E0,0E0,0E0,0E0,0E0,0E0,0E0,0E0,0E0,0E0,0E0,0E0,0E0,0E0,0E0,0E0,0E0,0E0,0E0,0E0,0E0,0E0,0E0,0E0,0E0,0E0,0E0,0E0,0E0,0E0,0E0,0E0,0E0,0E0,0E0,0E0,0E0,0E0,0E0,0E0],"parents":[2147483647,0,0,1,1,2,2,3,3,4,4,5,5,6,6,7,7,8,8,9,9,10,10,11,11,12,12,13,13,14,14,15,15,16,16,17,17,18,18,19,19,20,20,22,22,26,26,27,27,28,28,29,29,30,30,31,31,32,32,33,33,34,34,35,35,36,36,37,37,38,38,39,39,41,41,42,42,43,43,44,44,47,47,48,48,49,49,50,50,51,51,52,52,54,54],"right_children":[2,4,6,8,10,12,14,16,18,20,22,24,26,28,30,32,34,36,38,40,42,-1,44,-1,-1,-1,46,48,50,52,54,56,58,60,62,64,66,68,70,72,-1,74,76,78,80,-1,-1,82,84,86,88,90,92,-1,94,-1,-1,-1,-1,-1,-1,-1,-1,-1,-1,-1,-1,-1,-1,-1,-1,-1,-1,-1,-1,-1,-1,-1,-1,-1,-1,-1,-1,-1,-1,-1,-1,-1,-1,-1,-1,-1,-1,-1,-1],"split_conditions":[1.3612083E1,6.4999995E0,1.3785E1,8E0,4.3E1,2.3099207E2,7.2999997E0,8.960001E0,5.199999E0,8.3E0,3.2E1,1.5E1,1.6E1,1.00935165E2,1.644125E1,3.4E1,1.0226667E1,1.0604003E2,3.7191677E1,6.3E1,9.199999E0,2.803265E0,5E1,-4.057217E-1,-2.1995945E0,-8.801356E-1,4.6E1,1.4507916E1,1.1696702E2,2E1,1.6514168E1,9.1493454E1,3.5E1,8E0,1.6E1,1.0361639E2,1.2035866E2,6.060001E0,4.138747E1,8.433334E-1,2.5521202E0,1.6E1,2.1553775E2,4.6E1,3.3892143E1,5.2059865E-1,-4.513344E-1,2E1,4.3E1,1.5215058E1,1E-1,1.2E1,2.1E1,6.340843E0,2.333941E2,-1.637218E-1,-2.2502258E0,2.5231214E0,-7.0582867E-1,6.075288E-1,2.330162E0,-7.544123E-1,6.7081493E-1,-1.318666E-1,-2.4496002E0,1.1907746E0,1.0814647E-1,4.163169E-1,1.6151128E0,-1.4953475E0,6.051127E-1,1.5059701E0,-1.4346082E0,1.5135441E-2,3.1192539E0,-1.3971745E-2,-8.226706E-1,-1.7351227E-1,9.8741996E-1,-9.3837017E-1,5.573818E-1,-9.4699913E-1,-2.7305343E0,3.812278E-1,1.9010621E0,4.525077E-1,-1.0333374E0,1.0654438E-1,-2.549572E-1,3.1402066E-1,-8.5466456E-1,1.6293781E0,4.387101E-2,9.271374E-2,1.7687426E0],"split_indices":[3,4,3,2,0,6,4,3,4,4,1,0,0,6,3,0,3,6,5,2,4,0,0,0,0,0,0,3,6,1,3,6,0,1,0,6,6,3,5,3,0,2,6,0,5,0,0,1,0,5,4,2,1,0,6,0,0,0,0,0,0,0,0,0,0,0,0,0,0,0,0,0,0,0,0,0,0,0,0,0,0,0,0,0,0,0,0,0,0,0,0,0,0,0,0],"split_type":[0,0,0,0,0,0,0,0,0,0,0,0,0,0,0,0,0,0,0,0,0,0,0,0,0,0,0,0,0,0,0,0,0,0,0,0,0,0,0,0,0,0,0,0,0,0,0,0,0,0,0,0,0,0,0,0,0,0,0,0,0,0,0,0,0,0,0,0,0,0,0,0,0,0,0,0,0,0,0,0,0,0,0,0,0,0,0,0,0,0,0,0,0,0,0],"sum_hessian":[1.752E3,1.156E3,5.96E2,1.035E3,1.21E2,1.3E1,5.83E2,3E1,1.005E3,9.7E1,2.4E1,8E0,5E0,5.2E2,6.3E1,2.1E1,9E0,9.62E2,4.3E1,3.7E1,6E1,5E0,1.9E1,2E0,6E0,2E0,3E0,6.2E1,4.58E2,3.6E1,2.7E1,1.7E1,4E0,3E0,6E0,1.93E2,7.69E2,3.7E1,6E0,3.6E1,1E0,6E0,5.4E1,7E0,1.2E1,2E0,1E0,4E0,5.8E1,3E1,4.28E2,1.6E1,2E1,1E0,2.6E1,6E0,1.1E1,1E0,3E0,1E0,2E0,4E0,2E0,1.91E2,2E0,2.7E1,7.42E2,1.7E1,2E1,5E0,1E0,2E0,3.4E1,4E0,2E0,3.4E1,2E1,2E0,5E0,1E1,2E0,2E0,2E0,5.1E1,7E0,3E0,2.7E1,1.55E2,2.73E2,3E0,1.3E1,1E0,1.9E1,1.7E1,9E0],"tree_param":{"num_deleted":"0","num_feature":"7","num_nodes":"95","size_leaf_vector":"1"}},{"base_weights":[2.1811578E-2,7.565785E-2,-6.800875E-1,4.9126914E-1,-4.687388E-2,-1.5226896E0,2.2933083E0,-5.493441E-1,9.319465E-1,-2.4547756E0,1.9070235E-3,-2.0545142E0,4.0790957E-1,-1.2645967E0,4.3401775E0,-1.7090744E-1,-4.3544636E0,3.0440884E0,2.1596031E-1,-5.118006E0,-3.380877E-1,-1.939383E0,4.854787E-2,-1.3862889E0,-3.8896418E0,-7.743909E-1,3.0520377E0,1.6958056E-1,-1.5041101E0,1.3964903E0,6.5554786E0,2.3638037E-1,-3.2452643E0,-3.823185E-3,-1.4506384E0,2.2768438E0,1.0337059E1,5.410382E-1,-2.8408728E0,-6.860304E-2,-7.0029573E0,1.9030538E0,-3.171257E0,8.1994E-1,-2.4136724E0,3.217509E-2,4.9646187E0,3.5605675E-1,-2.2442536E0,-4.304008E0,5.974972E-1,7.356329E-1,-2.3763688E0,-3.878572E-1,1.718677E0,-1.8275782E0,-1.4015834E-1,3.401004E0,-1.9594028E0,7.6382356E0,-4.7840026E-1,-1.2849815E-1,4.4259605E-1,-1.3468312E0,-3.7585565E-1,1.7867538E0,2.1601532E-1,-3.395664E-1,4.906351E0,-2.1179354E0,2.002571E-1,-3.0862728E-1,-1.7401173E0,-4.5759946E-1,2.7762508E-1,-8.5999227E-1,-2.371187E0,9.574733E-1,7.0175745E-2,-1.427275E0,-2.37635E-1,-1.2934113E-1,5.393112E-1,5.102215E-2,-7.937222E-1,-1.2440539E-2,3.4239268E-1,2.5568655E0,-8.565268E-1,7.00713E-1,-4.42799E-1,-8.748947E-1,9.5996544E-2,1.7688332E-1,-1.3825896E0,-3.6017948E-1,5.711545E-1,-2.605133E-1,-1.1001797E0,4.623705E-1,-4.633899E-1,-6.407094E-1,4.9388982E-2,3.1488992E-2,-9.456024E-2,1.1277514E0,2.4152528E-1,-2.4503232E-3,-7.821276E-1,-2.760358E-1,2.6469135E0],"categories":[],"categories_nodes":[],"categories_segments":[],"categories_sizes":[],"default_left":[0,0,0,0,0,0,0,0,0,0,0,0,0,0,0,0,0,0,0,0,0,0,0,0,0,0,0,0,0,0,0,0,0,0,0,0,0,0,0,0,0,0,0,0,0,0,0,0,0,0,0,0,0,0,0,0,0,0,0,0,0,0,0,0,0,0,0,0,0,0,0,0,0,0,0,0,0,0,0,0,0,0,0,0,0,0,0,0,0,0,0,0,0,0,0,0,0,0,0,0,0,0,0,0,0,0,0,0,0,0,0],"id":18,"left_children":[1,3,5,7,9,11,13,15,17,19,21,23,25,27,29,31,33,35,37,39,41,43,45,47,49,51,53,-1,55,57,59,61,63,-1,-1,65,67,69,71,73,75,77,79,81,83,85,87,89,91,93,-1,95,97,99,-1,101,103,105,107,109,-1,-1,-1,-1,-1,-1,-1,-1,-1,-1,-1,-1,-1,-1,-1,-1,-1,-1,-1,-1,-1,-1,-1,-1,-1,-1,-1,-1,-1,-1,-1,-1,-1,-1,-1,-1,-1,-1,-1,-1,-1,-1,-1,-1,-1,-1,-1,-1,-1,-1,-1],"loss_changes":[6.630547E1,8.2980774E1,3.1666565E2,1.7064319E2,1.4788634E2,1.0145857E2,2.0940042E2,1.5909544E2,3.940436E2,1.3920038E2,1.11915276E2,8.903128E1,7.113886E1,5.671276E0,1.08226105E2,1.2848622E2,2.0821915E1,3.457666E2,1.9630399E2,1.0421622E2,1.0127807E2,3.993187E1,9.69914E1,8.7501595E1,5.7312347E1,4.045253E1,6.667944E1,0E0,4.1558E0,6.7206345E1,1.004267E2,7.557338E1,2.4122261E1,0E0,0E0,3.450855E2,4.3259406E2,1.7584055E2,9.5929565E1,7.203636E0,7.156708E0,1.8609905E1,2.2650093E1,6.8913455E0,1.5440094E1,9.839072E1,1.35632E2,7.598409E1,6.814305E1,3.1040833E1,0E0,2.2643171E1,1.2388714E1,1.130675E1,0E0,5.262308E0,1.618046E-1,2.552185E0,5.033881E0,9.937848E1,0E0,0E0,0E0,0E0,0E0,0E0,0E0,0E0,0E0,0E0,0E0,0E0,0E0,0E0,0E0,0E0,0E0,0E0,0E0,0E0,0E0,0E0,0E0,0E0,0E0,0E0,0E0,0E0,0E0,0E0,0E0,0E0,0E0,0E0,0E0,0E0,0E0,0E0,0E0,0E0,0E0,0E0,0E0,0E0,0E0,0E0,0E0,0E0,0E0,0E0,0E0],"parents":[2147483647,0,0,1,1,2,2,3,3,4,4,5,5,6,6,7,7,8,8,9,9,10,10,11,11,12,12,13,13,14,14,15,15,16,16,17,17,18,18,19,19,20,20,21,21,22,22,23,23,24,24,25,25,26,26,28,28,29,29,30,30,31,31,32,32,35,35,36,36,37,37,38,38,39,39,40,40,41,41,42,42,43,43,44,44,45,45,46,46,47,47,48,48,49,49,51,51,52,52,53,53,55,55,56,56,57,57,58,58,59,59],"right_children":[2,4,6,8,10,12,14,16,18,20,22,24,26,28,30,32,34,36,38,40,42,44,46,48,50,52,54,-1,56,58,60,62,64,-1,-1,66,68,70,72,74,76,78,80,82,84,86,88,90,92,94,-1,96,98,100,-1,102,104,106,108,110,-1,-1,-1,-1,-1,-1,-1,-1,-1,-1,-1,-1,-1,-1,-1,-1,-1,-1,-1,-1,-1,-1,-1,-1,-1,-1,-1,-1,-1,-1,-1,-1,-1,-1,-1,-1,-1,-1,-1,-1,-1,-1,-1,-1,-1,-1,-1,-1,-1,-1,-1],"split_conditions":[3.1878458E2,1.8E1,8E-1,1.1401032E2,1.1E1,1.6020416E1,2.9975002E0,3.015524E1,1.7159048E2,8.570417E0,1.1E1,8.649583E0,1.6909464E1,-3.2941666E0,2.5E1,1.0768037E2,6E0,1.6463501E2,3.1E1,1.3855675E2,1E1,7E0,3.175174E2,1.9E1,6.3E1,2.3E1,2.1E1,1.6958056E-1,4.2E1,1.7077248E1,6.3E1,6.2987446E1,1.1045715E2,-3.823185E-3,-1.4506384E0,4.3370833E0,1.8E1,-1.5420834E0,2.4E1,7E0,1.9E1,2.0103758E2,1.5074581E1,7.1079173E0,2E1,3.5309376E1,3.3E1,3.390431E2,4E1,3.1993094E2,5.974972E-1,1.0966713E1,1.375558E1,2E1,1.718677E0,3.9606544E1,1.9E1,8.6E0,2.1E1,1.0661107E1,-4.7840026E-1,-1.2849815E-1,4.4259605E-1,-1.3468312E0,-3.7585565E-1,1.7867538E0,2.1601532E-1,-3.395664E-1,4.906351E0,-2.1179354E0,2.002571E-1,-3.0862728E-1,-1.7401173E0,-4.5759946E-1,2.7762508E-1,-8.5999227E-1,-2.371187E0,9.574733E-1,7.0175745E-2,-1.427275E0,-2.37635E-1,-1.2934113E-1,5.393112E-1,5.102215E-2,-7.937222E-1,-1.2440539E-2,3.4239268E-1,2.5568655E0,-8.565268E-1,7.00713E-1,-4.42799E-1,-8.748947E-1,9.5996544E-2,1.7688332E-1,-1.3825896E0,-3.6017948E-1,5.711545E-1,-2.605133E-1,-1.1001797E0,4.623705E-1,-4.633899E-1,-6.407094E-1,4.9388982E-2,3.1488992E-2,-9.456024E-2,1.1277514E0,2.4152528E-1,-2.4503232E-3,-7.821276E-1,-2.760358E-1,2.6469135E0],"split_indices":[6,1,4,6,2,3,3,5,6,3,0,3,5,3,2,6,2,6,2,6,2,0,6,2,0,1,0,0,1,5,1,6,6,0,0,3,2,3,0,2,1,6,3,3,1,5,0,6,0,6,0,5,5,1,0,5,0,4,0,5,0,0,0,0,0,0,0,0,0,0,0,0,0,0,0,0,0,0,0,0,0,0,0,0,0,0,0,0,0,0,0,0,0,0,0,0,0,0,0,0,0,0,0,0,0,0,0,0,0,0,0],"split_type":[0,0,0,0,0,0,0,0,0,0,0,0,0,0,0,0,0,0,0,0,0,0,0,0,0,0,0,0,0,